id,dim0,dim1,dim2,dim3,dim4,dim5,dim6,dim7,dim8,dim9
A0A8C5HDE5_9TELE/219-327,1.498262,0.029826637,-0.105614826,-0.48865694,2.3390076,1.8044771,-0.0051713143,0.030064367,-0.012969135,-0.03027936
A0A674JB29_TERCA/360-489,2.5976603,-0.023226192,-0.06971434,0.596408,1.8135554,-1.035604,-0.0765691,-0.00014189258,0.014339255,-0.008385476
A0A6P8S9T6_GEOSA/362-491,2.3966994,-0.019591918,-0.053503115,0.12986273,1.7234669,-0.88445014,-0.07040272,0.0052946843,0.0077742804,-0.00322536
A0A7N0RJ48_KALFE/412-550,2.004711,0.022223167,-0.022388926,0.9633742,0.8011891,1.0458409,-0.05679982,-0.019466545,0.029810462,-0.0017608106
A0A8H7T8U9_9HELO/591-697,-3.1580708,-0.008349126,-0.054737106,1.0880233,0.39532048,-1.0585818,-0.098752,0.036767386,-0.00078934245,-0.050233822
G7E1J5_MIXOS/214-330,0.19783384,0.031657662,0.05693115,0.7955686,-0.02175379,1.4149333,-0.03755004,-0.027561055,-0.037361562,0.062007
A0A8B9MDI9_9AVES/198-306,0.7443978,0.023629285,-0.06844116,0.017878888,2.8027487,1.0498765,-0.040837415,0.014767669,-0.005420873,-0.02412346
S9WGZ8_9TRYP/305-410,-0.56923527,0.036469974,0.037915815,1.1926647,0.4933065,-2.2219934,-0.053088136,-0.041049704,0.0030058492,0.015794557
A0A8H5AF94_FUSOX/196-307,-2.3036478,0.0117777735,-0.030016672,0.5296777,1.9637661,3.1411567,0.028121607,0.040524997,0.0034368355,-0.038741197
G4U868_NEUT9/30-140,-0.5368865,0.018086504,0.022842955,0.8762117,-1.9546602,1.3021244,0.013039639,-0.029315868,-0.014655524,0.010180522
A0A151WT61_9HYME/506-616,-2.6305397,-0.02872419,0.043509264,2.3439963,2.7606556,-1.0177755,-0.08056096,0.0821766,-0.021035342,-0.015504759
A0A8H8CVY9_9EURO/344-455,2.9056246,-0.032537863,-0.0039493367,1.5598556,-0.84377486,-2.1308322,-0.13920614,-0.07391754,0.09472282,-0.015366748
A0A8B9PUR3_APTOW/177-285,0.7380724,0.02234292,-0.06695741,-0.071986586,2.774132,1.0577458,-0.040190093,0.016635004,-0.0077345734,-0.022200204
A0A674N6F2_TAKRU/369-497,2.3431454,-0.041538656,-0.044721525,-0.5653514,1.9938108,-1.1480196,-0.071996756,0.012150537,0.0001190044,-0.013878118
I4Y5L0_WALMC/104-217,-1.5592277,0.0036347844,-0.0014697425,0.51215124,-1.1536639,-0.33063987,-0.024544789,-0.012210969,-0.054160483,0.046455946
A0A673M7D8_9TELE/258-366,1.4527634,0.03046241,-0.098554626,-0.5132116,2.3878758,1.6963278,-0.009513786,0.028268568,-0.011357999,-0.024383709
W2SWW7_NECAM/219-325,0.18750823,0.043083206,-0.007182695,0.6903745,1.8496461,2.06433,-0.035473928,0.0075934306,-0.011381426,-0.008436456
A0A1W0WW52_HYPDU/46-163,0.9825654,-0.017242633,0.028955255,-0.51796895,-1.8678892,1.2327963,-0.032245796,-0.0072873943,-0.012925842,0.026903601
A0A0D1E559_USTMA/440-553,1.9841977,0.039343853,0.09318659,-0.13328475,0.20435125,-0.15176986,-0.12116209,-0.038316738,-0.007423885,0.07707721
A0A1J7GRX2_LUPAN/39-148,1.1476237,-0.051834326,0.0020884722,0.94925314,-2.6712794,-1.3490167,-0.098567605,-0.029178865,0.0384967,-0.0011735577
A0A453H424_AEGTS/39-148,1.4893218,-0.054680124,0.02800579,-0.47397825,-3.698749,-0.060964942,-0.114222474,0.031799525,0.08453485,-0.03452932
A0A4W5RDC1_9TELE/538-643,0.19619493,0.018438056,-0.0025426187,1.0439341,3.4798195,-1.6108268,-0.08627683,0.030111715,0.023150485,-0.04639967
A0A5N5X723_9EURO/346-457,3.7168918,-0.0505184,-0.09689695,0.09725128,-0.11921476,-1.8557231,-0.12525259,-0.03206658,0.05788675,-0.021902617
A0A6I9Y635_9SAUR/51-169,2.3467114,-0.00088982284,0.04583827,0.07644706,-1.8684522,0.64175326,-0.13108069,-0.015614027,0.014730962,0.021299344
A0A2T9YME8_9FUNG/527-631,-1.4168571,0.03758516,0.017344363,-0.42432556,0.7384582,-0.46198782,-0.07312986,-0.0049174316,-0.06337529,0.055680774
A0A8C3ZK64_9TELE/357-486,2.1328347,-0.035154425,-0.035137523,-0.62832695,1.8502275,-0.98630553,-0.06395863,0.009049736,-0.0022464069,-0.0056444407
A0A2I3SY77_PANTR/220-328,0.8523776,0.032539044,-0.109373435,0.3093022,3.2523627,1.5035907,-0.027479751,0.007016044,0.0048056897,-0.049598414
A0A0A1U6T7_ENTIV/54-163,0.25382593,0.076712936,0.0756367,-2.8382852,-1.1804827,0.6119527,0.037353747,0.0040698387,-0.050857138,0.09366077
A0A5N5G076_9ROSA/414-562,2.479005,0.01742769,-0.048292637,1.301114,0.783595,1.2906384,-0.058831595,-0.018678173,0.039429404,-0.028687112
A0A7J8D8E6_ROUAE/552-660,-1.1765416,-0.034033574,-0.016461762,-0.0065556746,3.2524796,0.043142132,-0.04999204,0.05441633,-0.007057029,-0.015314855
A0A8H4Y9D9_9HYPO/196-307,-2.0645556,0.013188686,-0.012330558,0.50855327,1.5089493,2.8931055,0.020098569,0.0360671,-0.0021149572,-0.02616813
A0A1W2TDJ0_ROSNE/129-240,-2.9425182,-0.019826265,-0.0070194155,0.32342222,-0.53936374,0.47540414,-0.032927442,0.04553368,0.004449699,-0.005544573
A0A6I9TFS3_SESIN/39-149,0.99263823,-0.04443851,0.0038613789,1.0657104,-2.4042583,-1.2358141,-0.084238805,-0.034193255,0.03651164,-0.00048545375
A0A7N5ZV65_ANATE/542-650,0.0046413057,0.027580246,-0.036755674,0.1828277,3.1962013,-0.48457325,-0.057121143,0.027937911,0.0025768448,-0.022634983
A0A383ZQR7_BALAS/502-610,-1.1702057,-0.038381945,-0.016970377,-0.08681923,3.1973932,0.0175476,-0.04957714,0.057261847,-0.00640988,-0.011420786
A0A814KQY5_9BILA/393-524,1.6947258,-0.052075367,-0.01937542,-2.6186118,1.0055292,-2.0515568,-0.06580084,0.010665882,0.02309959,-0.022383668
B7QIP4_IXOSC/528-636,-0.69733495,0.01810566,0.0353066,0.044811547,1.5795436,-0.5495218,-0.07669339,0.014783543,-0.054684073,0.049202375
Q4WUQ0_ASPFU/609-715,-3.3648345,-0.05762738,-0.034436792,-0.7581209,0.860203,-1.1608303,-0.053176418,0.03624647,0.024958845,-0.06977421
K9FWM0_PEND2/166-284,-2.514484,-0.08205625,0.05815595,-1.0471262,-2.0141754,1.8823935,0.053101182,0.022701677,0.058752693,-0.072524935
A0A0L0H9B4_SPIPD/533-642,-1.5547259,0.026732296,0.004440382,-0.2598973,0.7750533,-0.949781,-0.07246624,-0.014887329,-0.053807262,0.022923227
A0A8D2K5D5_THEGE/220-328,0.8523776,0.032539044,-0.109373435,0.3093022,3.2523627,1.5035907,-0.027479751,0.007016044,0.0048056897,-0.049598414
A0A671Z425_SPAAU/338-466,2.507722,-0.028364113,-0.07123495,-0.20884643,1.996471,-0.9819873,-0.067809954,0.0039273724,-0.00038462505,-0.016735494
A0A4Q4X859_9PEZI/125-236,-2.8252137,-0.011369514,-0.0047253147,0.6132219,-0.5873718,0.5835776,-0.03861157,0.03694564,-0.011540145,0.009079751
E2LW92_MONPE/110-226,-1.3668076,-0.018378768,-0.056307912,-0.18846321,-1.8097054,-1.3557242,0.003895552,-0.033967935,-0.013548775,-0.028760906
T0LA15_9MICR/78-188,-1.1065911,0.0815287,0.053426575,1.0949594,-0.46073654,-0.20008004,-0.050325796,-0.044024915,-0.07743053,0.095041454
A0A319ECW1_9EURO/511-617,-3.6626587,-0.06945025,-0.039791714,-1.0511563,0.8444143,-1.4320546,-0.035412923,0.034858346,0.04373423,-0.093147054
A0A7J8XQE0_GOSAI/42-151,1.0256152,-0.07162386,-0.0039350316,0.32813814,-2.8782637,-1.1385021,-0.09743227,-0.027188424,0.052022718,-0.016973902
C1MYJ7_MICPC/14-123,0.51626897,0.018702034,0.019173767,0.8765893,-1.6183817,-0.44226927,-0.06635939,-0.03246584,-0.024444018,0.034253865
A0A2I2FBG4_ASPCN/510-616,-3.1514184,-0.048783615,-0.024012895,-0.63591367,0.84737426,-1.2366056,-0.056880556,0.027574755,0.015043773,-0.058621135
A0A673I3I6_9TELE/368-500,2.333404,-0.031765703,-0.04564573,-0.21660808,1.7988148,-0.9879749,-0.06832135,0.006167546,0.0019621924,-0.0076900683
A0A0D2CD17_9EURO/505-611,-2.6689813,0.001024928,0.00529442,0.080620304,1.2138945,-0.70602965,-0.07721644,0.019191321,-0.029186819,-0.0107693
A0A667ZRC4_9TELE/220-328,1.4527634,0.03046241,-0.098554626,-0.5132116,2.3878758,1.6963278,-0.009513786,0.028268568,-0.011357999,-0.024383709
A0A439DGK1_9PEZI/343-454,1.0885857,-0.020531956,-0.023237748,-0.40375358,-0.41977504,-2.5962775,-0.08580075,-0.040027525,0.03986608,-0.030165702
A0A2I1CHS7_ASPN1/346-457,3.5701523,-0.0515963,-0.102397084,-0.33632126,-0.18361491,-2.1887386,-0.130125,-0.030713681,0.060423337,-0.033303563
A0A4W5RDC1_9TELE/205-313,1.5674341,0.027260527,-0.107872486,-0.61222005,2.2825634,1.9213365,0.0020393962,0.027792491,-0.017930696,-0.03304066
A0A2C5YEF1_9HYPO/196-307,-1.9448948,0.019202601,-0.01018198,0.5046424,1.4343822,2.712288,0.012936918,0.03258857,-0.008783728,-0.021698948
A0A2K5MDL9_CERAT/367-496,2.6688297,-0.023190215,-0.074174926,0.39035052,1.90214,-1.0251867,-0.07559399,-0.00064074993,0.008799732,-0.012484755
A0A158P6P6_ANGCA/364-486,1.9959275,-0.01780012,0.007986698,-1.4137528,0.9138263,-1.5349008,-0.10554708,0.0021410808,0.0051097013,0.01933977
A0A166BDH6_9AGAM/108-226,-1.6700886,0.0068858434,-0.037290215,0.24232133,-1.3672872,-1.5150094,-0.0071978583,-0.028438348,-0.013885984,-0.013426285
S8BE29_DACHA/202-308,-0.7373451,0.031294584,0.06439017,-0.14718404,0.38267764,1.8189721,-0.04669687,0.009018499,-0.07621954,0.0648957
A0A1S4CUC6_TOBAC/39-147,0.7751492,-0.034344405,-0.01063857,0.21242209,-2.5399423,-0.33932167,-0.07580259,-0.012061499,0.011919582,0.0008487273
E3MXF1_CAERE/364-488,1.4339087,-0.012345558,-0.006068006,-1.3454473,1.0375626,-1.1762017,-0.062021956,-0.0028397553,-0.00013398565,0.021979041
A0A0B0MWV4_GOSAR/42-151,0.72133094,-0.10129398,0.005023133,-0.23194388,-3.162813,-1.5157402,-0.09307251,-0.04180136,0.067226976,-0.034067772
Q7SE42_NEUCR/509-615,-2.997626,0.011832774,-0.0038965791,0.8116747,0.81086236,0.16469574,-0.08287697,0.045092605,-0.037101377,-0.0029978417
G2R450_THETT/507-613,-3.1929476,-0.0008700248,-0.0075431243,0.98999494,0.8438175,-0.045689933,-0.090956405,0.05080594,-0.035483398,-0.010715019
A0A8J4BU14_9CHLO/585-709,-0.9353798,0.05392479,0.07373591,4.5895877,2.0674634,0.15343705,-0.14181337,-0.011201588,0.0026791692,0.074708536
H2PNE7_PONAB/210-318,0.8523776,0.032539044,-0.109373435,0.3093022,3.2523627,1.5035907,-0.027479751,0.007016044,0.0048056897,-0.049598414
A0A6P4CR81_ARADU/374-516,2.4250174,0.01518118,-0.04594373,1.2634624,0.9846499,1.3054953,-0.053589754,-0.018308727,0.040395733,-0.028598763
A0A550CX27_9AGAR/200-323,0.8709814,-0.016101442,0.013733305,1.4461815,0.36179304,2.9326262,-0.026402187,0.026166,0.04743907,-0.06336777
A0A7K7BGW7_9AVES/356-485,2.46583,-0.017696984,-0.056371324,0.46794772,1.6804173,-0.9367344,-0.07433456,0.0009741895,0.012446111,-0.002079675
B0D8F6_LACBS/54-163,-0.7048732,-0.049671985,0.0067383237,-0.7303879,-3.2211928,-0.31831193,-0.0315504,-0.015964637,0.042001043,-0.020313397
A0A096PAL0_OSTTA/37-147,0.32217252,0.032217707,0.002307631,0.4669038,-1.5749242,-0.55865777,-0.05322314,-0.035285626,-0.02994519,0.028213292
M2TGY6_COCH5/513-619,-2.9674847,-0.022442907,-0.018187927,0.12570883,1.277103,-0.52449244,-0.06435207,0.035399616,-0.020671288,-0.031776264
A0A0W0FH61_9AGAR/386-493,-2.0698183,-0.037154056,-0.013537476,-0.19593622,0.53497154,-2.4134142,-0.060715616,-0.012631882,0.036643375,-0.048863318
A0A8C5UKL8_MICMU/552-660,-1.0699857,-0.029431177,-0.017000534,0.027215736,3.1317284,0.07431867,-0.0490895,0.051261395,-0.010572169,-0.013110463
LCL3_ARTOC/142-256,-1.829923,0.0064214785,0.025130372,-0.27849358,-0.8145663,1.3370099,-0.011142943,0.008050665,-0.02430778,0.014171658
A0A2S4V9Z7_9BASI/403-514,1.970878,0.044082228,0.06724474,-0.0031594038,0.27048036,-0.9055906,-0.12549981,-0.03256573,-0.0018797973,0.08218561
A0A1L9VGL4_ASPGL/512-618,-3.5004423,-0.07366058,-0.03011965,-1.0306244,0.90626717,-1.0470873,-0.041091856,0.040808834,0.027289536,-0.07315247
A0A1L9WU97_ASPA1/513-619,-3.5837295,-0.071433745,-0.03440622,-0.7938308,0.8559185,-1.1833214,-0.04417941,0.038503014,0.034251705,-0.08066031
A0A671LBU8_9TELE/460-568,-0.48208493,-0.0016975468,0.0103029385,0.4951185,3.1778831,-1.7253333,-0.08054267,0.04836177,0.01410367,-0.039718542
A0A507CM16_9FUNG/373-486,1.3839393,0.030181352,0.045061078,-0.80128855,0.5621192,-0.24099877,-0.072161265,-0.019982055,-0.015357306,0.06282492
A0A074X3R6_AURPU/130-242,-1.8815423,0.0133402925,0.02714226,0.372564,-0.88497925,0.79699194,-0.029340837,0.0022042654,-0.05598155,0.053141102
A0A852E016_VIDMA/271-400,2.170861,-0.0020584138,-0.021911105,0.5861614,1.5811574,-0.75392985,-0.0690189,-0.0017994754,0.011040788,0.013697256
L8X1G0_THACA/34-143,-0.27093005,-0.05826824,0.04601934,-2.8430622,-3.2222388,-0.7668319,-0.03530914,-0.029570892,0.061529525,-0.031494588
G2R450_THETT/29-139,-0.43124282,0.019620545,0.029977892,0.82469505,-1.8801202,1.3137333,0.009519128,-0.031074652,-0.018269626,0.017395403
A0A833VXR2_PHYIN/32-148,0.23882726,-0.10867685,-0.044139236,0.52022254,-2.7406516,-3.4721816,-0.07245205,-0.055763714,0.103305526,-0.044614088
A0A165JNP6_EXIGL/35-144,-0.18631922,-0.017806042,0.04298001,-1.6195639,-2.6814084,-0.11557104,-0.029495893,-0.026857937,-0.009943049,0.005978968
A0A2C6L458_9APIC/570-710,-1.1749161,0.033375785,0.04898401,-0.32592666,1.1528616,0.15766191,-0.08903457,0.01920145,-0.089204,0.08084333
A0A7J7CEF1_TRIWF/236-379,2.2243404,0.015977588,-0.033964142,1.3582554,0.90445316,1.2229394,-0.05985166,-0.01768491,0.043501828,-0.028793257
F4S6U6_MELLP/564-671,-1.281114,0.031763308,0.008847944,-0.8175269,0.83677864,-1.1053234,-0.04658895,-0.020471754,-0.04384223,0.013987806
A0A8C3UZP1_CATUS/332-461,2.3166735,-0.008126478,-0.035337586,0.46905923,1.552662,-0.78578967,-0.07090614,-0.0003755577,0.010721847,0.007646069
A0A3M2S3A4_9HYPO/529-635,-3.6919827,-0.021510392,-0.030971348,0.74416965,1.3797429,0.80050355,-0.056946956,0.07758358,-0.009805042,-0.061116796
A0A232EZL7_9HYME/37-140,-0.046522688,0.049742863,0.032005344,0.5305342,1.5380563,1.152176,-0.060682677,0.016365703,-0.04456293,0.060157157
B8MD45_TALSN/29-141,-0.40735397,0.027842067,0.02945337,1.9287518,-1.7537954,1.7440933,0.0013022823,-0.036462218,0.0027447417,-0.004068682
A0A6P6CB86_PTEVA/552-660,-1.1765416,-0.034033574,-0.016461762,-0.0065556746,3.2524796,0.043142132,-0.04999204,0.05441633,-0.007057029,-0.015314855
A0A8D0KXP9_STROC/362-491,2.5387359,-0.017843932,-0.06651588,0.57585347,1.7402457,-0.9527798,-0.07574557,0.00016885996,0.013209181,-0.004430875
A0A8W8JHY1_CRAGI/37-157,1.3600258,0.011875683,0.051451255,0.20962535,-1.2324812,1.3208042,-0.063124254,-0.042552806,-0.02655735,0.04537615
A0A2K1QVH8_9PEZI/344-455,2.1016517,0.0013050847,0.028629053,-0.208591,-0.5406222,-1.5709555,-0.12750062,-0.05346591,0.042274173,0.014807565
A0A367KT78_RHIST/199-308,-0.20071939,0.019692648,-0.018462028,-0.8242313,1.7042658,3.1921415,0.010724155,0.021634959,-0.023226202,0.018731847
A0A2K5WL07_MACFA/367-496,2.6688297,-0.023190215,-0.074174926,0.39035052,1.90214,-1.0251867,-0.07559399,-0.00064074993,0.008799732,-0.012484755
A0A5D2X2E8_GOSMU/42-152,0.86212605,-0.08650181,0.008683965,0.51497626,-3.1491687,-1.1830214,-0.09369864,-0.034376815,0.0721167,-0.025294896
A0A8H8U9J8_9HELO/579-685,-2.8903756,-0.004914494,-0.04984517,1.1899076,0.42564344,-0.96012306,-0.09334174,0.02627723,-0.01385338,-0.038537133
A0A7N8YJX3_9TELE/219-327,1.4947281,0.034461606,-0.11227673,-0.39898494,2.5011244,1.7114905,-0.007776062,0.023594856,-0.009603922,-0.031818293
Q24GI5_TETTS/461-563,-0.8776734,0.11540334,0.13757871,-1.3418611,0.13668247,0.3594709,-0.023118204,-0.019625714,-0.13744421,0.17500092
A0A8H6I9B4_9AGAR/195-321,1.0715795,-0.01824997,-0.0034027174,0.73250395,0.46175456,2.7003493,-0.010610106,0.015914008,0.031048957,-0.05557308
A0A8E2FDT4_9PEZI/16-142,0.16660345,0.06316201,0.052722592,1.2500963,-1.3185503,1.9021839,-0.0034577157,-0.046193168,-0.031659473,0.02426985
A0A553Q2B9_9TELE/221-329,1.2797637,0.031659946,-0.08942501,-0.37435797,2.2398894,1.5906096,-0.017136987,0.026023902,-0.0090681035,-0.021236658
A0A674CQ60_SALTR/23-142,3.1354344,0.014287613,-0.06887057,-0.45937288,-0.5549535,2.824853,0.010537256,-0.028309904,0.024399988,-0.05795997
K3X0E8_GLOUD/32-148,0.29925665,-0.01797338,-0.03728392,0.108219266,-2.0199113,-2.3475285,-0.053915538,-0.050792497,0.010957496,-0.022510841
A0A674A775_SALTR/603-711,0.14354914,0.023530487,-0.021895906,0.41740444,3.5504022,-1.3015984,-0.076103255,0.028927185,0.011602061,-0.046429243
A0A3M7AZ67_HORWE/159-270,2.160143,0.01921767,0.03101902,-0.23461461,-0.66223943,-1.6315616,-0.13806063,-0.059218697,0.040198155,0.019526893
B6QEB4_TALMQ/510-616,-2.496469,-0.013281099,0.0026243962,-0.038658097,1.0137924,-0.6414827,-0.074662,0.022371247,-0.032332007,0.0040723756
S7NET9_MYOBR/367-496,2.6688297,-0.023190215,-0.074174926,0.39035052,1.90214,-1.0251867,-0.07559399,-0.00064074993,0.008799732,-0.012484755
A0A5N6V9U4_9EURO/345-456,3.6940823,-0.05592083,-0.10709107,-0.246799,-0.15460831,-2.0325785,-0.12705187,-0.030116528,0.06135238,-0.03040994
SND1_BOVIN/367-496,2.6688297,-0.023190215,-0.074174926,0.39035052,1.90214,-1.0251867,-0.07559399,-0.00064074993,0.008799732,-0.012484755
A0A671Z464_SPAAU/550-658,0.035752203,0.025923345,-0.03363768,0.12821437,2.9287152,-0.41765493,-0.051966555,0.025620848,0.0029654317,-0.014949013
A0A8H7NK29_BIOOC/31-142,-0.8144735,-0.053983588,0.0027226694,0.23496862,-2.6460004,1.8806534,0.05857615,-0.007923879,0.051192634,-0.0654691
A0A7J7WM51_PIPKU/220-328,0.82102853,0.033245515,-0.111118644,0.38933587,3.2452443,1.5640982,-0.027175065,0.0111922175,0.0076301284,-0.04843041
D0N0D1_PHYIT/71-189,-1.6154244,-0.08339713,0.024830308,-3.461282,2.2532256,2.521565,0.029929252,0.068750165,-0.028375994,-0.013847664
A0A812B4B9_SEPPH/206-313,0.37246642,0.029759679,0.004055582,-0.27288398,1.7020465,1.8608718,-0.02821477,0.024109915,-0.020677015,0.027786482
A0A3R7F650_9EURO/146-264,-2.6206875,-0.07107094,0.054000985,-1.0115564,-1.3828137,1.9850056,0.039182752,0.03622794,0.046818353,-0.06425966
A0A671SYY1_9TELE/523-631,-0.44541728,0.00019091554,0.0053707436,0.437054,3.2035923,-1.6022198,-0.07806348,0.04926777,0.012840336,-0.038157973
S8A019_PENO1/198-309,-0.88826895,-0.015307143,-0.0017175674,0.20121406,-0.2893954,2.7168188,0.015470492,0.043864854,0.017076153,-0.022070933
F6VCH9_CIOIN/220-331,0.39860457,0.019250087,0.02904101,-0.46728942,1.378208,1.2941263,-0.04023845,0.02412761,-0.04379747,0.051430758
A0A1Y2CSK1_9FUNG/486-621,-1.7432758,0.028375294,0.0076111928,0.00920826,0.70846796,-0.5991285,-0.08774008,0.0056839287,-0.064853236,0.05474542
A0A3M7N069_9EURO/339-450,2.419196,0.0031573996,0.010439552,0.3543756,-0.2808689,-1.4267707,-0.12165223,-0.049950797,0.03493383,0.024108771
A0A8C3ZLU5_9TELE/502-610,-0.3415456,0.00054935366,-0.0025194213,-0.3081121,2.4981158,-1.2110143,-0.063920155,0.03607513,-0.00440081,-0.00981123
A0A7N8YAA8_9TELE/494-602,0.032316368,0.027304761,-0.033716425,0.205466,3.185206,-0.6267647,-0.061778367,0.029295824,0.002625158,-0.022575047
A0A5F9CPZ9_RABIT/48-166,2.9374418,-0.006504151,0.055992622,-0.26414737,-1.42584,0.3011007,-0.14416847,-0.02829276,0.035364624,0.025116764
K0R2A1_THAOC/231-343,-0.118542075,0.07553746,0.058542777,0.96621263,0.5088779,1.088992,-0.0659777,-0.0154786855,-0.09240729,0.096939415
A0A2G7FF05_9EURO/360-471,3.8104134,-0.056655772,-0.11379163,-0.1831274,-0.12706403,-2.0066488,-0.12384599,-0.029281331,0.06316433,-0.029971603
A0A8H2ZLI6_9HELO/573-679,-3.3236825,-0.004238085,-0.050203025,1.197453,0.30444473,-1.2688714,-0.100666374,0.03360583,0.008968875,-0.062236395
A0A8C3ZJZ4_9TELE/353-482,2.1328347,-0.035154425,-0.035137523,-0.62832695,1.8502275,-0.98630553,-0.06395863,0.009049736,-0.0022464069,-0.0056444407
A0A5C3MJE4_9AGAR/33-142,-0.6058067,-0.056847107,0.025752243,-0.63916737,-3.5998125,-0.16834071,-0.036560968,-0.008240238,0.049893796,-0.016096033
G2R450_THETT/194-305,-1.7035424,0.020092085,0.014783226,0.23718466,0.9738084,2.379821,-0.0048778607,0.037838593,-0.024600808,0.0027370974
A0A0C4DRF0_MAGP6/31-142,-0.7008675,0.02111679,0.00018267334,0.86175466,-1.7488519,1.496566,0.023055715,-0.03270496,-0.014447172,0.005341729
A0A383ZQR7_BALAS/170-278,0.8523776,0.032539044,-0.109373435,0.3093022,3.2523627,1.5035907,-0.027479751,0.007016044,0.0048056897,-0.049598414
A0A1S8VPP0_9FUNG/44-159,0.23932704,0.057223372,0.049327362,0.21426977,-1.5427536,0.44828737,-0.034972675,-0.03844484,-0.066750616,0.06841496
A0A3E2HGV9_SCYLI/343-454,1.6892457,-0.021769807,0.00980936,-0.26540962,-0.81941843,-2.4682043,-0.1238123,-0.051528342,0.058004342,-0.0117203705
A0A370TH27_9HELO/127-238,-3.0135167,-0.05287086,0.022005413,-0.17560327,-1.439528,0.3830934,-0.019464768,0.042747676,0.0425383,-0.020623285
A0A674CSG1_SALTR/321-451,2.4262795,-0.029245742,-0.076502234,-0.42042014,2.05683,-0.9477135,-0.0578956,0.003328357,-0.0032536471,-0.020735726
A0A1S3N1G0_SALSA/601-709,0.14354914,0.023530487,-0.021895906,0.41740444,3.5504022,-1.3015984,-0.076103255,0.028927185,0.011602061,-0.046429243
A0A175VX81_9PEZI/509-615,-3.2084856,0.009662297,-0.009120893,1.1214573,0.69132745,-0.085036755,-0.08980194,0.04651773,-0.024057005,-0.017847955
A0A818TKD6_9BILA/216-326,0.6166455,0.040347714,0.033427868,-1.5530856,1.2177604,1.8636738,-0.02588475,0.014492635,-0.07913347,0.04820674
A0A0D2PYW5_GOSRA/42-151,1.0903492,-0.07251179,-0.002034314,0.3159427,-2.9085927,-1.1101384,-0.10010547,-0.026633698,0.05277483,-0.017630395
A0A1Y1UP65_9TREE/34-168,-0.16420984,0.049542047,0.041571286,-0.0049611777,-1.6307431,0.53288746,-0.013677086,-0.03997912,-0.08308246,0.06932754
A0A0A1T8W8_9HYPO/129-240,-3.180602,-0.038805693,-0.009550044,0.14375973,-0.7679038,-0.3983607,-0.019490052,0.03752342,0.033814006,-0.03791881
A0A3L6PTA9_PANMI/36-143,1.5218196,-0.011022251,-0.0050890893,-0.60161,-1.6795607,-1.0793399,-0.112582594,-0.05085785,-0.017394217,0.018688483
A0A452FU65_CAPHI/515-623,-1.1183177,-0.031151727,-0.019032255,-0.033691116,3.2081494,0.084094785,-0.047847144,0.051081635,-0.009562127,-0.01567432
A0A0D7BUB8_9AGAR/106-224,-1.6912947,-0.036024578,-0.034352235,-0.231055,-1.4858896,-1.3475014,0.004404908,-0.013458716,-0.012606242,-0.020100478
A0A5J4NHH8_9TREM/54-173,1.4884496,0.05265995,0.060016718,0.8787773,-0.83683294,0.49282318,-0.108846754,-0.0603306,-0.03054126,0.08142398
A0A094BGB5_9PEZI/599-705,-3.009039,-0.009854063,-0.040623847,1.6829683,0.5710513,-1.0785502,-0.10256932,0.03109686,-0.007015691,-0.038252477
A0A8B8A2N1_ACAPL/552-658,-0.67729074,-0.0016708681,0.038909514,0.5621342,1.6909596,-0.70078284,-0.071773775,0.02997785,-0.041912127,0.042581834
A0A6A6MGI4_HEVBR/638-747,0.7821189,-0.015349283,0.00993805,0.4272054,-2.221436,-0.8530028,-0.0824197,-0.02669999,-0.005730686,0.013730583
A0A6J2JXN6_BOMMA/209-307,-0.0036090836,0.0487065,0.038368035,1.4063832,1.63909,0.8614989,-0.08181123,0.013652243,-0.03333547,0.07437822
A0A4Z2DMY4_SCHJA/565-708,-0.21372,0.00974446,0.052054647,3.3664882,2.1725485,-2.0206833,-0.1269654,0.010847405,0.019731797,0.002125077
A0A4Q2DE39_9AGAR/566-687,1.3208771,-0.023504978,-0.011647692,1.238525,0.51376766,2.681407,-0.024633177,0.0219547,0.047359042,-0.08607189
A0A670ZV31_PSETE/363-492,2.3332434,-0.022622474,-0.05073725,0.14155728,1.578051,-0.9453155,-0.07576284,0.0055888556,0.011665657,-0.0027645323
A0A5N6ZNY8_9EURO/345-456,3.6385362,-0.058776986,-0.10139503,-0.30432203,-0.16655956,-2.0598457,-0.12273688,-0.03101701,0.06318296,-0.031861745
G7MMA3_MACMU/48-166,3.5606318,-0.016027827,0.061557617,0.011988541,-1.4533298,0.19746032,-0.15144041,-0.053765386,0.057746224,0.003926674
A0A016SUH5_9BILA/546-661,-0.77023023,-0.029241774,-0.0017067567,-1.6249303,1.6442288,-2.0386043,-0.046543933,-0.013246579,0.0066422336,-0.02485969
A0A7J7WMN5_PIPKU/48-166,3.3674715,-0.011238123,0.05998678,0.1680278,-1.4677885,0.18736959,-0.15310094,-0.049518447,0.05453267,0.009233136
A0A5N5LJ44_PANHP/368-500,2.1279557,-0.03406617,-0.03698714,-0.6165645,1.7926723,-0.94867766,-0.06295904,0.007626012,-0.0031138984,-0.0047643073
A0A0C3DZY6_9AGAM/100-219,-1.5163519,-0.03361568,-0.054240443,0.16458324,-2.199289,-1.5755454,0.002975246,-0.029268816,0.005905656,-0.033331715
A0A2K5Y487_MANLE/25-143,3.5606318,-0.016027827,0.061557617,0.011988541,-1.4533298,0.19746032,-0.15144041,-0.053765386,0.057746224,0.003926674
A0A016SUH5_9BILA/365-487,1.8863668,-0.017598813,0.01432015,-1.244772,0.92821544,-1.5423551,-0.10262194,-0.0016401447,0.0019767545,0.021106781
A0A067SSS3_GALM3/129-246,-1.9705923,-0.06267325,-0.049383536,-0.39044893,-1.8422744,-1.7871954,0.012152573,-0.01353232,0.024056047,-0.042378735
A0A6P7TD12_OCTVU/350-481,1.3276306,0.0031509455,0.03592432,0.46110946,1.0451673,-1.1782118,-0.08794008,-0.017087493,-5.827658e-05,0.043179795
E3MXF1_CAERE/547-664,-0.46785837,-0.030428596,-0.00872194,-2.119033,2.024873,-1.9974648,-0.02796199,-0.0013169646,0.028630663,-0.027590413
A0A8J2PYS0_9HEXA/39-154,1.1074218,0.024895579,0.059787024,0.25364918,-1.4267358,1.130986,-0.061779544,-0.03685805,-0.03823497,0.06044246
A0A4Y8DEV4_9HELO/79-204,0.34590945,-0.07525212,0.006877061,-1.0936631,-2.6857376,3.0831826,0.07365451,0.03524819,0.09542235,-0.06940575
D8U8L3_VOLCA/556-682,-0.9055617,0.039345395,0.07821444,4.761001,2.2095819,0.2026315,-0.1391331,-0.008968402,0.0068809465,0.07040045
A0A821HN06_9BILA/379-510,1.7101411,-0.04444592,-0.03910353,-2.6174052,0.9684112,-1.731493,-0.058678783,0.016454022,0.029090319,-0.011963099
G2YHA9_BOTF4/406-517,1.7646606,-0.009989151,0.002838552,-0.9561689,-1.1101506,-2.5474372,-0.11051367,-0.05710823,0.06817219,-0.014136918
A0A4V1IQX6_9FUNG/203-313,-0.5155956,0.0474324,0.037796605,0.17282689,1.3343705,2.1550107,-0.03418317,0.017248824,-0.06433003,0.0568405
A0A177DAD9_ALTAL/126-237,-2.4451652,0.02750957,-0.0028665364,0.71808577,-0.42717394,0.96023387,-0.046739295,0.015313726,-0.028163452,0.013601564
A0A8B8G830_9HEMI/47-166,0.7906177,-0.009226734,0.031902757,-2.326988,-1.9105811,0.78272605,-0.005635762,0.0030406713,-0.018613622,0.042963102
A0A1Y1S4L0_9MICR/35-142,-0.7921482,0.119298235,0.062407475,0.6530458,-0.26553112,0.113909505,-0.045175172,-0.0645997,-0.08912295,0.10052222
A0A0M8MTW1_9HYPO/128-239,-2.9584699,-0.0344799,-0.0030117482,0.16014124,-0.56228113,-0.21214119,-0.025145309,0.026227847,0.01649487,-0.029111784
A0A674CQJ6_SALTR/367-496,2.2931426,-0.026297608,-0.059944406,-0.3320532,1.8623505,-0.88591075,-0.05773443,0.0034677722,0.0007723961,-0.013044264
A0A0D9W4H2_9ORYZ/366-508,1.1899619,0.034373574,0.065623745,1.0639442,1.3174814,0.19589806,-0.06987912,-0.012822313,-0.0033358922,0.052884344
A0A093ZY65_9PEZI/597-703,-3.0140197,-0.010292618,-0.037820492,1.7368559,0.55151093,-1.0968329,-0.10347479,0.032736935,-0.0057756267,-0.03501978
M7U9J8_BOTF1/176-287,-3.339837,-0.07421906,0.053804684,-0.49465242,-1.9402175,0.4226509,-0.014178252,0.045421988,0.07387334,-0.042164568
A0A3P9N0K3_POERE/367-497,2.4352794,-0.037304204,-0.05576505,-0.43621495,1.9289001,-1.0557998,-0.06982729,0.008726113,0.00052028894,-0.015216
A0A251RVJ8_HELAN/378-517,2.3031614,0.011141695,-0.048681345,0.8682743,0.9872836,1.2170825,-0.046948858,-0.01830394,0.03186812,-0.023489501
A0A2J8U4R0_PONAB/552-660,-1.2442726,-0.033038035,-0.016703174,0.034778185,3.3416553,0.035515934,-0.05074916,0.056172654,-0.002900566,-0.018221628
A0A3D8QKP4_9HELO/590-696,-2.6797369,0.00024982542,-0.030641578,0.94871604,0.45182797,-1.0488503,-0.09132522,0.0039663166,-0.017869083,-0.028369557
A0A420I5W6_9PEZI/125-236,-2.3401566,-0.0010149069,0.040633533,-0.280243,-0.73523957,0.5383772,-0.021692827,0.029592566,-0.028813403,0.0204544
A0A063C9I5_USTVR/31-142,-0.6012086,-0.035297357,0.024085727,0.17128159,-2.546276,1.5750742,0.036538385,-0.015599109,0.015707254,-0.028088346
A0A7K7L3P4_9AVES/216-324,0.7443978,0.023629285,-0.06844116,0.017878888,2.8027487,1.0498765,-0.040837415,0.014767669,-0.005420873,-0.02412346
A0A834MW10_VESVU/352-480,0.94034994,-0.0760693,0.022852685,0.7471097,1.9309629,-3.5604098,-0.12423894,0.022452425,0.039488755,-0.063121304
R9NVX3_PSEHS/440-552,1.874011,0.048006594,0.09732491,-0.104597665,0.19303757,-0.1048373,-0.11942494,-0.039584186,-0.012098625,0.083930574
A0A673BIQ7_9TELE/495-603,0.074410945,0.030569684,-0.037272733,0.13832718,3.2177866,-0.6045166,-0.059781663,0.0263682,0.0024583954,-0.026145965
N1JF27_BLUG1/252-364,-2.097441,0.030361593,0.048116658,0.62130743,0.53965205,2.0786185,-0.05266965,0.053254724,-0.03747902,0.028767236
A0A0V1CWL8_TRIBR/50-168,1.7173954,-0.019392895,0.04009406,1.0634747,-3.3334317,2.8469627,-0.051842824,0.058660164,0.07009772,-0.06387019
A0A369JRW7_HYPMA/242-368,1.1505561,-0.022057768,-0.026055787,1.0445772,0.40888152,3.351272,-0.00092978776,0.038898915,0.05927083,-0.10943556
A0A7J7V4W9_MYOMY/229-358,2.6688297,-0.023190215,-0.074174926,0.39035052,1.90214,-1.0251867,-0.07559399,-0.00064074993,0.008799732,-0.012484755
A0A433DKF3_9FUNG/32-140,0.4242796,0.016836401,0.04178286,0.6666959,-2.3058155,0.7251044,-0.049149826,-0.022602737,-0.025398929,0.04315097
A0A811Q105_9POAL/384-530,1.4070953,0.04540547,0.041923422,2.3504314,0.9537425,0.8321813,-0.08875045,-0.018596781,0.035289105,-0.001990065
A0A260ZRE1_9PELO/217-325,0.21400675,0.036733918,0.0040538423,0.2978061,1.6298145,1.8543772,-0.03185818,0.014402788,-0.018793881,0.020600842
Q0V7J3_PHANO/514-620,-2.9223468,-0.012111153,-0.012540162,0.24112003,1.2589841,-0.40637195,-0.067356676,0.03084632,-0.025115255,-0.02758171
A0A672R2E6_SINGR/77-185,1.3414156,0.030113757,-0.08700721,-0.4880526,2.2941866,1.6465362,-0.012851476,0.025134824,-0.009565137,-0.022605766
A0A8I3S580_CANLF/577-685,-1.2442726,-0.033038035,-0.016703174,0.034778185,3.3416553,0.035515934,-0.05074916,0.056172654,-0.002900566,-0.018221628
A0A1D1VD12_RAMVA/547-657,-1.1488397,0.04838056,0.029395293,0.40855134,1.1902273,-0.65943646,-0.08787785,-0.0031224638,-0.06806365,0.050899327
A0A6G0Z6W0_APHCR/47-168,0.8492865,-0.010311795,0.037144642,-2.373792,-1.9845059,0.81448513,-0.007769474,0.0017325059,-0.0256215,0.046961077
A0A7K4SPU2_9CHAR/193-311,0.7443978,0.023629285,-0.06844116,0.017878888,2.8027487,1.0498765,-0.040837415,0.014767669,-0.005420873,-0.02412346
F4S6U6_MELLP/397-508,1.8478934,0.041058503,0.073338285,0.092971385,0.3483819,-0.8045464,-0.11753277,-0.030129958,-0.0009743888,0.07757728
A0A7R8H8Y9_LEPSM/545-654,-0.82997715,0.0387312,0.034614075,0.4118596,1.1542006,-0.8537043,-0.062417343,-0.009368289,-0.050964985,0.04665643
A0A8D0HRC1_SPHPU/204-312,0.77070475,0.03185775,-0.047651723,-0.165683,2.3832402,1.0061363,-0.046964116,0.019664008,-0.019142695,-0.0040418375
A0A015L721_RHIIW/420-526,-1.6406283,0.030744188,0.017685592,0.42662504,0.85820234,-1.1393533,-0.07876337,-0.0005618669,-0.06568212,0.030538183
A0A669DWL1_ORENI/345-475,2.2839522,-0.039303057,-0.039685987,-0.5810769,1.8646332,-1.0625272,-0.068925895,0.008949965,-0.0009445902,-0.009105146
A0A0F7ZNF0_9HYPO/132-243,-3.0545688,-0.04226569,-0.029768748,0.6851405,-0.8820084,-0.48755917,-0.025602479,0.042502373,0.02235467,-0.025364019
G5AA01_PHYSP/1-110,-2.435747,-0.12589589,0.08420578,-3.7537324,-0.9386654,-0.14200878,0.014629271,0.06365557,0.028262768,-0.045193616
A0A3Q0D4J1_MESAU/220-328,0.8523776,0.032539044,-0.109373435,0.3093022,3.2523627,1.5035907,-0.027479751,0.007016044,0.0048056897,-0.049598414
A0A5M6C482_9TREE/420-533,2.3548236,-0.01111151,0.03529376,-1.0925844,0.5784915,0.2251006,-0.070898965,-0.018164735,0.0040039606,0.03286656
A0A329RWZ7_9STRA/360-488,2.5008626,0.020117339,-0.033784654,4.010966,-0.07054809,0.8246397,-0.11236435,-0.029615436,0.11665731,-0.04921362
B4MN92_DROWI/57-172,2.31384,-0.07179473,0.011313241,-1.2373993,-3.035748,2.2396615,-0.053481594,0.055839404,0.0908654,-0.046544623
A0A674CRS6_SALTR/343-473,2.4262795,-0.029245742,-0.076502234,-0.42042014,2.05683,-0.9477135,-0.0578956,0.003328357,-0.0032536471,-0.020735726
B6QEB4_TALMQ/29-141,-0.3517984,0.047871165,0.043485936,1.7735918,-1.7115487,1.540747,-0.010315599,-0.035533205,-0.022951625,0.022015298
H1UZ30_COLHI/511-617,-3.1783075,-0.021808062,-0.021529773,0.08249563,1.0014994,0.26052788,-0.055204384,0.053197898,-0.01984259,-0.031407762
A0A830HIS5_9CHLO/390-513,1.0700015,0.07503361,0.07646215,1.06443,0.3034822,0.16440403,-0.08463622,-0.036805164,-0.031199615,0.0912576
F9XCF8_ZYMTI/97-206,-1.8825244,0.009587767,0.026264083,0.59579974,-0.9408164,0.52137995,-0.03563977,0.003988564,-0.066356555,0.06876049
A0A2K6UMZ5_SAIBB/32-150,3.5281546,-0.017007612,0.059881795,0.0052611064,-1.4263848,0.20657235,-0.14978535,-0.05532892,0.05587715,0.0029602442
A0A1D5RJ74_MACMU/537-645,-1.1765416,-0.034033574,-0.016461762,-0.0065556746,3.2524796,0.043142132,-0.04999204,0.05441633,-0.007057029,-0.015314855
A0A401NVK0_SCYTO/222-330,0.9486541,0.017306678,-0.016733678,-0.7221153,1.9141728,1.657943,-0.03182859,0.030056596,-0.02605082,0.011674958
A0A4W6CKW4_LATCA/533-641,0.011494502,0.02838406,-0.03916047,0.09713782,3.2144108,-0.5041918,-0.0563431,0.027168125,0.0023379046,-0.025696687
A0A5M6C482_9TREE/589-695,-1.3127649,0.050782837,0.0067086294,-0.10912607,0.42075336,-1.5581717,-0.05093147,-0.048110057,-0.034005642,0.010825447
A0A8C4IVE6_DICLA/213-321,1.5304384,0.031724405,-0.10749471,-0.49589375,2.445247,1.7249665,-0.006160547,0.026911765,-0.012180045,-0.028729469
A0A084QEB9_STAC4/31-142,-0.7315104,-0.040481202,0.011892252,0.13232297,-2.3968506,1.8378923,0.05283176,-0.017699135,0.026846752,-0.053094555
A0A0D1ZX70_EXOME/506-612,-2.6479511,-0.025028445,0.0041309,-0.5039701,1.4623978,-0.5798174,-0.056097493,0.033695847,-0.032755733,-0.0013065916
A0A8W8JHY1_CRAGI/211-319,0.470711,0.02121726,0.04358765,-0.7331333,1.5333978,1.4732192,-0.039718874,0.024682768,-0.048495673,0.058233898
A0A384DB89_URSMA/220-328,0.8523776,0.032539044,-0.109373435,0.3093022,3.2523627,1.5035907,-0.027479751,0.007016044,0.0048056897,-0.049598414
A0A162KI86_CORDF/508-614,-3.5818818,-0.04232613,-0.03477896,-0.23278777,1.4664583,0.6734201,-0.037100766,0.07694329,-0.01407554,-0.058139715
A0A4S4EL77_CAMSI/468-616,2.3924077,0.011892548,-0.04587459,1.0138046,0.90249413,1.3088825,-0.05172515,-0.01820211,0.033293694,-0.025989868
A0A671LBU8_9TELE/278-404,2.2636414,-0.024442,-0.046846665,0.08362756,1.6759096,-0.92413545,-0.06827346,0.0036551543,0.006933056,-0.0032787006
A0A2T3YUY4_9HYPO/509-615,-3.6462698,-0.037984136,-0.039977763,0.029839369,1.3212138,0.73532706,-0.037712295,0.07967907,0.0011715144,-0.063183546
A0A672QS44_SINGR/475-583,-0.37442335,0.0013732631,0.0039244294,0.35518655,3.196422,-1.6868548,-0.076979,0.046817392,0.013681963,-0.040811513
A0A668TBG0_OREAU/346-458,1.5548164,-0.025641913,0.019391097,-0.23688622,3.0572186,-2.136645,-0.06159234,0.01260696,0.041543663,-0.06397016
A0A2C6ADZ8_9HYPO/83-194,-3.069128,-0.034765072,0.00038374588,0.21564133,-0.6042858,-0.23757574,-0.031227918,0.04204402,0.015811484,-0.018416986
A0A0P1A6E8_PLAHL/201-318,-1.3669883,-0.06796795,0.0071700998,-3.2130013,2.2625928,2.400283,0.024925025,0.07259053,-0.02785632,0.0012700111
A0A8J0QJN4_XENTR/216-324,0.88652146,0.02658832,-0.062064275,-0.29036745,2.4380128,1.1875277,-0.033648226,0.0172555,-0.011568707,-0.018955112
A0A8L2QK81_RAT/47-165,3.5713756,-0.017301004,0.056179125,-0.047071002,-1.4325382,0.30338377,-0.1467979,-0.049125656,0.05862531,-0.002864601
A0A8B9CVG2_9AVES/361-490,2.5387359,-0.017843932,-0.06651588,0.57585347,1.7402457,-0.9527798,-0.07574557,0.00016885996,0.013209181,-0.004430875
A0A260ZRE1_9PELO/364-488,1.4339087,-0.012345558,-0.006068006,-1.3454473,1.0375626,-1.1762017,-0.062021956,-0.0028397553,-0.00013398565,0.021979041
A0A2H3JNS0_WOLCO/538-645,-1.9169205,-0.026357923,-0.028599828,0.17946884,0.38981342,-2.2426846,-0.056112714,-0.018794844,0.024162635,-0.033056144
A0A1E4TH12_9ASCO/49-166,-1.1972566,0.053784788,0.056672458,-0.13817321,-0.79113626,-0.11113386,-0.015744252,-0.03436042,-0.07588369,0.06780933
A0A2K5ELC5_AOTNA/183-291,0.8359812,0.033340212,-0.10138507,0.29248145,3.122021,1.5047917,-0.028073918,0.008469138,0.005947193,-0.045804527
A0A8K0MXN0_COCNU/414-562,2.1358275,0.023106296,-0.028743707,1.2680017,0.8095602,1.0786287,-0.06187568,-0.017463788,0.038944386,-0.014185276
A0A2S7QSJ4_9HELO/262-373,-3.083675,-0.03003084,0.025270287,0.046397083,0.44076392,2.7098641,0.012761803,0.0896743,0.05692547,-0.06360754
A0A8H8U9J8_9HELO/265-376,-2.6070597,-0.0054423846,0.03729007,0.19041058,0.42337683,2.4290624,-0.0059129703,0.07316695,0.023745958,-0.031930488
A0A319AAV4_9EURO/199-308,-1.5383106,-0.05148011,-0.010170123,-0.02422014,-0.8125079,3.5511813,0.08516809,0.06805329,0.11316282,-0.119731545
A0A0V1A9Q3_9BILA/222-331,0.036026422,0.004004834,-0.006235689,-1.6282383,2.5908964,2.51166,0.0039899405,0.03575255,-0.029099891,0.025129711
A0A1V6T199_9EURO/176-294,-2.6331623,-0.08986158,0.052308384,-0.93235636,-2.120954,1.8373076,0.05200482,0.022583876,0.074783824,-0.08440621
A1CAD7_ASPCL/238-348,-1.40279,-0.039023437,-0.01611619,0.5162614,-0.63077754,3.47622,0.06952418,0.061374158,0.0902613,-0.09869078
A0A8C2ZTI9_CYCLU/346-474,2.5550418,-0.025877714,-0.081345126,-0.5048096,2.0594478,-0.84532934,-0.05970095,0.0049490966,-0.0033842642,-0.020949375
V4LE39_EUTSA/410-557,2.886534,-0.0036502564,-0.074428245,-0.07971535,1.4142333,1.6313214,-0.025759548,-0.020714171,0.010070812,-0.033311706
A0A232LT71_9EURO/514-620,-2.806409,-0.015438985,-0.018863285,-0.010200633,0.961886,-0.8902148,-0.07042853,0.018117502,-0.003286234,-0.034125924
A0A094E739_9PEZI/118-229,-0.6319158,-0.07607919,0.054990787,-3.3619215,-2.524844,2.4819508,0.09924925,0.046209313,0.07171575,-0.061858844
A0A1V6QJF9_9EURO/512-618,-3.4606996,-0.061995596,-0.023519086,-1.033299,0.9656256,-1.2555028,-0.041785188,0.03449171,0.031301208,-0.06944415
A0A7K6DA81_9PASS/354-483,2.3166735,-0.008126478,-0.035337586,0.46905923,1.552662,-0.78578967,-0.07090614,-0.0003755577,0.010721847,0.007646069
L8IMU8_9CETA/552-660,-1.1183177,-0.031151727,-0.019032255,-0.033691116,3.2081494,0.084094785,-0.047847144,0.051081635,-0.009562127,-0.01567432
A0A3R7G472_9STRA/123-233,-2.429115,-0.123186044,0.054318618,-3.5129523,-1.1841458,-0.21911508,0.025371617,0.054688856,0.032052983,-0.0588147
A0A4Y8CJV3_9HELO/607-718,-3.335064,-0.08080054,0.040428054,-0.23885457,-2.0848591,0.39557827,-0.014526852,0.03613033,0.089684464,-0.052442636
A0A7J8D8D3_ROUAE/367-496,2.6688297,-0.023190215,-0.074174926,0.39035052,1.90214,-1.0251867,-0.07559399,-0.00064074993,0.008799732,-0.012484755
A0A5J5CEN0_9PERO/202-310,1.5737141,0.03053211,-0.11240271,-0.47763988,2.3945847,1.8548312,-0.0031154845,0.029802382,-0.012476679,-0.033660457
A0A2K6GQ96_PROCO/216-324,0.8523776,0.032539044,-0.109373435,0.3093022,3.2523627,1.5035907,-0.027479751,0.007016044,0.0048056897,-0.049598414
A0A397T1A7_9GLOM/518-624,-1.6631145,0.0272924,0.023596946,0.6397077,0.86782634,-1.2738185,-0.075977385,0.0021864697,-0.05322647,0.033067968
A0A383ZQ69_BALAS/367-496,2.6688297,-0.023190215,-0.074174926,0.39035052,1.90214,-1.0251867,-0.07559399,-0.00064074993,0.008799732,-0.012484755
A0A0K6FLB0_9AGAM/32-141,-0.261663,-0.031423457,0.061974,-2.9771633,-3.3058436,-0.6799001,-0.03176161,-0.03155405,0.029959686,-0.021779232
A0A671SYS4_9TELE/518-625,-0.38053504,-7.786602e-05,0.016794901,0.9471574,3.1751704,-1.836351,-0.086865276,0.049177475,0.022076055,-0.038789336
A0A2T7F713_9POAL/409-555,1.3689114,0.036789194,0.043150675,2.6737776,1.1947627,0.75773126,-0.08661304,-0.012219697,0.03986266,-0.0076480173
A0A671LEB7_9TELE/177-285,1.4527634,0.03046241,-0.098554626,-0.5132116,2.3878758,1.6963278,-0.009513786,0.028268568,-0.011357999,-0.024383709
A0A0D0AFH9_9AGAM/198-324,0.935621,-0.026779737,-0.025927272,0.66557324,0.3261337,3.065591,0.0015692348,0.028817438,0.04222669,-0.081005365
A0A875RY93_EENNA/344-455,0.9064428,0.0975961,0.03557751,1.4243431,0.027327355,-1.6343958,-0.09156728,-0.049546983,-0.014622039,0.06040244
L2FQP4_COLFN/123-234,-3.2550597,-0.0013339687,-0.012280457,0.84877986,-0.25514215,0.8132137,-0.05739186,0.04505898,0.01165471,-0.030493185
A0A0L0NL20_TOLOC/129-240,-3.2548833,-0.033513695,-0.004081797,0.25411248,-0.5975696,-0.2041694,-0.027563898,0.040634558,0.024677083,-0.03791981
A0A0H2S904_9AGAM/106-225,-1.4228226,-0.016899107,-0.06042479,0.047181547,-1.6062921,-1.5827123,0.005378736,-0.03413513,-0.004215967,-0.029848054
A0A2G8SK66_9APHY/592-705,3.4620917,-0.025566217,-0.048333265,-0.31141543,0.5255544,0.04923874,-0.083977915,-0.015130354,0.010512112,0.004988799
A0A6A3QLQ4_9STRA/365-493,2.4246383,0.023167431,-0.029123185,4.046665,-0.08231048,0.79182434,-0.11021372,-0.03137573,0.11658869,-0.045706373
A0A4U6XJ69_9PEZI/113-224,-3.0760298,0.013573863,-0.016903365,1.4588348,-0.30822846,0.8417461,-0.07447581,0.044895224,-0.005386497,-0.0021331087
Q7Q6T9_ANOGA/48-164,1.4814541,-0.0045513967,0.040568557,-0.97939724,-1.3191617,1.352923,-0.04517086,-0.033692684,-0.03136637,0.0420534
A0A0D9PCW3_METAN/508-614,-3.750114,-0.024277657,-0.030390441,0.464099,1.272681,0.6462576,-0.05018177,0.076366685,-0.0065183276,-0.06044903
A0A814NH09_ADIRI/36-158,1.6314927,-0.014975585,-0.0054784566,-2.4047573,-0.4929492,1.2762625,-0.009734649,-0.030105576,0.016605034,0.06735392
A0A565CVP2_9BRAS/415-554,2.809684,0.0006152876,-0.08213501,0.4822908,0.9365004,1.5560765,-0.039824486,-0.020769462,0.021029476,-0.03908575
A0A0D9YSZ9_9ORYZ/411-555,1.4988071,0.0312584,0.038841832,3.0613618,1.3135349,0.81328905,-0.095051035,-0.014445428,0.04841145,-0.028954841
A0A8C3UZP1_CATUS/517-625,-0.6502603,0.0063847452,0.010081768,2.106433,3.0145938,-0.44231415,-0.09301687,0.04254634,-0.0066221384,-0.0006424282
LCL3_ASPFU/146-264,-2.3547018,-0.07073337,0.045549538,-0.91432005,-1.6134094,1.7430046,0.043441646,0.02515816,0.038797546,-0.052819837
W5NER8_LEPOC/221-329,1.3730389,0.027944066,-0.08028154,-0.4800316,2.1659994,1.7494769,-0.009450002,0.028505258,-0.01165198,-0.021421306
A0A0F8CY45_CERFI/512-618,-3.4462476,-0.011232707,-0.017452937,0.60448885,0.9671029,0.24401087,-0.07000778,0.060657613,-0.020402424,-0.033755332
A0A4S2JCU7_OPIFE/214-323,0.64761764,0.012214577,0.058698867,2.053687,1.4999341,1.7754761,-0.1073916,0.021474283,-0.011882501,-0.007348966
A0A674NNH8_TAKRU/498-606,-0.009846587,0.015160225,-0.02358384,0.009278791,2.7201576,-0.49657005,-0.052737184,0.03239149,0.0011817664,-0.0041913018
A0A8C3BBB7_CAIMO/548-656,-0.84172666,-0.014251611,0.009025764,1.4830991,2.9798086,-0.21360445,-0.08290981,0.050312974,-0.01505123,0.0013414547
A0A851CSR8_CALVR/195-312,0.7443978,0.023629285,-0.06844116,0.017878888,2.8027487,1.0498765,-0.040837415,0.014767669,-0.005420873,-0.02412346
A0A3B3D5Y1_ORYME/47-166,3.0597956,0.005344704,0.029651877,-0.22792171,-1.1332078,1.2278922,-0.10180394,-0.036926642,0.034821082,-0.0046815574
A0A2P5HEF3_9PEZI/131-245,-2.4072602,0.0035014916,0.013886362,0.2897892,-0.702579,0.89806956,-0.026795,0.014826294,-0.0069057513,0.00026712008
A0A673BCD2_9TELE/551-659,0.074410945,0.030569684,-0.037272733,0.13832718,3.2177866,-0.6045166,-0.059781663,0.0263682,0.0024583954,-0.026145965
M3AIX7_PSEFD/342-453,2.3022456,0.0015517287,0.02907275,-0.2603082,-0.57661545,-1.6468767,-0.13580476,-0.0551539,0.0458591,0.01226188
A0A8H6SAS9_9AGAR/372-485,3.261646,-0.015368034,-0.033391923,0.08716093,0.38078985,-0.057271827,-0.093004234,-0.020513695,0.011426298,0.01736066
A0A2C5YEF1_9HYPO/31-142,-0.6234893,-0.023172166,0.0177763,0.4830684,-2.4641864,1.4772953,0.02862147,-0.018266961,0.012722872,-0.013313968
A0A093YCK2_9PEZI/237-348,-2.509965,0.028496586,0.063099265,2.1490963,0.40037283,2.2522364,-0.081365734,0.07252298,-0.007504044,0.019059146
A0A8L2QK81_RAT/549-657,-0.97402215,-0.032639712,-0.014994005,0.015112398,2.9933424,-0.02956317,-0.05390264,0.051194996,-0.016374687,-0.004813228
A0A5C3DYM2_9BASI/613-720,-1.8629403,0.00052848645,0.0078172535,1.5022051,0.38887966,-1.6407745,-0.077801906,2.3566186e-05,-0.023383293,0.029701648
A0A7K7EGJ9_9SYLV/220-343,0.7443978,0.023629285,-0.06844116,0.017878888,2.8027487,1.0498765,-0.040837415,0.014767669,-0.005420873,-0.02412346
A0A2B4SLK2_STYPI/208-316,0.576867,0.042000815,0.05475909,-0.40049338,1.2740138,1.2818005,-0.039047696,0.0069478676,-0.058008652,0.06720927
A0A8E2FDT4_9PEZI/512-618,-2.540476,-0.008212839,0.0067311972,0.16442984,1.1152959,-0.39700654,-0.07806021,0.031918913,-0.05123108,0.01647263
K1W7P0_TRIAC/492-597,-1.3750604,0.047410935,0.008045215,-0.33305168,0.44985062,-1.2456795,-0.053397067,-0.038201455,-0.036642358,0.020742852
A0A371DC83_9APHY/539-646,-2.2330575,-0.052046686,-0.025977507,0.30060017,0.47850296,-2.6692472,-0.070109196,-0.0089951195,0.04796517,-0.050986562
A0A7N8WKR6_9TELE/303-431,2.349901,-0.031837836,-0.05404083,-0.3489686,1.9208093,-0.9836585,-0.066152655,0.0067994148,-0.0017327033,-0.01185336
A0A8C6N1Z3_MUSSI/48-166,3.6019614,-0.016544625,0.05550016,0.026692094,-1.3829885,0.26464117,-0.14422894,-0.05838935,0.05993686,-0.0026450679
U3BQS3_CALJA/552-660,-1.1475071,-0.03438695,-0.010830672,0.1710117,3.2431061,-0.04680301,-0.0566997,0.053495705,-0.008692026,-0.015399452
A0A165A161_9AGAM/199-323,0.72285813,-0.023426645,-0.01711439,0.6236271,0.40193498,3.0520816,-0.0014101295,0.033293366,0.029583272,-0.060402844
A0A2T7P5H0_POMCA/293-402,-0.63489395,0.030482382,0.044985797,0.9871741,1.5670409,-0.63215876,-0.09234674,0.015542593,-0.050221756,0.057171248
D4AX43_ARTBC/30-144,-0.36189243,0.013831971,0.022221465,1.9706047,-1.844705,2.123012,0.013993185,-0.03736704,0.020681214,-0.027715117
A0A8H3YCH4_9TREE/432-545,2.138194,0.0033192951,0.07708214,-0.8950362,0.49223867,-0.09119955,-0.093448184,-0.026148994,0.0025472213,0.05666832
A0A8B6CGD1_MYTGA/599-708,-1.065267,0.0045428686,0.035843197,0.17636676,1.6765136,-0.93493265,-0.07317167,0.025025502,-0.050702296,0.02873379
A0A6P9F134_JUGRE/412-559,2.294432,0.014172789,-0.033861674,1.0139141,0.98743284,1.3535559,-0.04801514,-0.01878013,0.036981795,-0.027750399
A0A6P8AXD5_MAGGR/510-618,-3.0547311,0.005260404,-0.001615461,0.75456196,0.74958473,0.18375686,-0.0722388,0.044343315,-0.021946274,-0.008309893
A0A420Y974_9PEZI/340-451,1.401357,-0.009636769,-0.0019118972,-0.5242683,-0.12629886,-2.3129969,-0.102434896,-0.04218592,0.023957424,-0.03005851
A0A5C3DV83_9BASI/607-714,-1.9366382,-0.0036978442,-0.0001687035,1.4048812,0.4280184,-1.5935975,-0.07973218,0.004318416,-0.019406823,0.020023728
A0A3B6JCE1_WHEAT/416-564,1.7961488,0.033628378,0.017352063,3.1241696,1.7840213,0.7943008,-0.09668772,-0.012065573,0.050369404,-0.041867133
A0A067PFP2_9AGAM/200-327,1.0469334,-0.016565168,-0.0056422837,0.30654845,0.5196717,2.796257,-0.006426479,0.025573023,0.015454564,-0.035926145
A0A7J7JJX9_BUGNE/178-282,0.4619674,0.037406445,0.031836886,-0.46001562,1.3344418,1.4081007,-0.0455056,0.017888676,-0.049313314,0.055359036
A0A2R9CFT3_PANPA/47-165,3.5606318,-0.016027827,0.061557617,0.011988541,-1.4533298,0.19746032,-0.15144041,-0.053765386,0.057746224,0.003926674
A0A340W9G6_LIPVE/552-660,-1.1702057,-0.038381945,-0.016970377,-0.08681923,3.1973932,0.0175476,-0.04957714,0.057261847,-0.00640988,-0.011420786
A0A1J9R4D6_9PEZI/196-307,-1.2350838,-0.0033561895,0.021980029,0.8831912,-0.22906885,2.328152,-0.008733315,0.036511257,-0.000764532,0.008170586
A0A1B9FSA8_9TREE/34-160,-0.35530153,0.057408646,0.031681087,-0.16874005,-1.5029721,0.50862026,0.0017336421,-0.043512456,-0.08946022,0.067329615
A0A2S7QAA5_9HELO/576-682,-2.9117324,0.0042188317,-0.03438521,1.0084624,0.4200443,-1.0030787,-0.1054218,0.027165018,-0.021782499,-0.022455718
A0A384JCD6_BOTFB/259-370,-3.5352545,-0.038963784,0.010615397,-0.077643044,0.5182404,2.9488096,0.038721353,0.09753711,0.09171226,-0.10568181
A0A671LCQ4_9TELE/138-246,1.4527634,0.03046241,-0.098554626,-0.5132116,2.3878758,1.6963278,-0.009513786,0.028268568,-0.011357999,-0.024383709
A0A094C5A0_9PEZI/126-237,-2.8208833,-0.04648049,0.056018505,-0.8236565,-1.3142846,0.607387,-0.014849421,0.048364855,0.015729435,-0.0035203695
M9M7C5_PSEA3/435-547,1.849946,0.0414891,0.09453179,-0.106002256,0.21415897,-0.087499306,-0.11575851,-0.039368514,-0.008952999,0.080223314
A0A8C8AN04_9STRI/218-326,0.7443978,0.023629285,-0.06844116,0.017878888,2.8027487,1.0498765,-0.040837415,0.014767669,-0.005420873,-0.02412346
A0A4U6TSG2_SETVI/409-545,1.2747711,0.03413248,0.065948874,1.3114388,1.407749,0.34373733,-0.072721876,-0.009528628,0.0040386133,0.039484892
A0A2K5SCC3_CEBIM/330-459,2.6688297,-0.023190215,-0.074174926,0.39035052,1.90214,-1.0251867,-0.07559399,-0.00064074993,0.008799732,-0.012484755
A0A1F7ZSQ9_9EURO/513-619,-3.6771042,-0.07624084,-0.038306274,-0.9836325,0.8420418,-1.3836213,-0.039443783,0.0395519,0.040283166,-0.08769454
A0A1F8A2G9_9EURO/129-248,-2.644587,-0.0687114,0.022771712,1.0839559,-2.1237807,1.8606778,0.020755416,0.018665347,0.09102644,-0.077503085
A0A1E3HZG8_9TREE/52-164,-1.3863033,-0.0130690355,-0.0064206272,1.9792308,-2.6953707,-1.2093296,-0.025720136,-0.019076409,-0.016662946,0.012978225
A0A485NI04_LYNPA/367-496,2.6688297,-0.023190215,-0.074174926,0.39035052,1.90214,-1.0251867,-0.07559399,-0.00064074993,0.008799732,-0.012484755
A0A1R3RJW8_ASPC5/512-618,-3.583299,-0.06656893,-0.043188367,-0.8634274,0.8354766,-1.3402096,-0.042622313,0.036902457,0.039050695,-0.08572827
A0A671FYT4_RHIFE/48-166,3.5281546,-0.017007612,0.059881795,0.0052611064,-1.4263848,0.20657235,-0.14978535,-0.05532892,0.05587715,0.0029602442
J9EYN8_WUCBA/543-657,-1.024775,-0.028747613,0.02643792,-0.25644615,2.3913608,-3.6831596,-0.102366745,0.006509077,0.024585623,-0.09139381
W7MV62_GIBM7/132-243,-4.1510706,-0.12047539,-0.047863614,0.09193272,-1.8987442,-1.3482497,0.010653801,0.04321722,0.14787301,-0.13715845
A0A8C4P0P1_DICLA/675-783,0.13084553,0.031215638,-0.037053835,0.1806336,3.194114,-0.6121033,-0.059240825,0.023770876,0.005498307,-0.02590378
A0A5B0QWL0_PUCGR/408-519,1.9870979,0.03660901,0.06312856,-0.113096766,0.26026398,-0.860726,-0.12348752,-0.029654093,-0.0010184133,0.07900299
A0A395NP42_TRIAR/31-142,-0.7189937,-0.07181722,0.032382492,0.108103976,-3.3356261,1.6653154,0.041184448,-0.0017133318,0.07434873,-0.06630047
A0A8N4I6D0_ELAGV/39-148,1.1634259,-0.055586383,0.0043701604,0.78964883,-2.6223505,-1.0797844,-0.09841231,-0.028694335,0.03893472,-0.001808688
A0A229XA02_9EURO/514-620,-3.5279071,-0.07088776,-0.03149788,-0.88442856,0.9154818,-1.0714878,-0.04805945,0.044575498,0.025407072,-0.072747946
A0A0F9X3J1_TRIHA/31-142,-0.64286214,-0.06621874,0.02863333,0.02372084,-3.199667,1.6674203,0.042027004,-0.0003344342,0.060084745,-0.05689859
A0A5N6SRM5_ASPPS/761-876,0.29393035,0.10634859,0.026463632,-1.6945045,0.26839316,0.82555485,0.032934763,-0.026579851,-0.12367796,0.11727634
A0A2R6NNF7_9APHY/24-134,-0.3478388,-0.009219242,0.03800557,-1.0851203,-2.682433,-0.08513522,-0.029957024,-0.025169665,-0.0073455414,0.014291177
A0A4W2I564_BOBOX/220-328,0.8523776,0.032539044,-0.109373435,0.3093022,3.2523627,1.5035907,-0.027479751,0.007016044,0.0048056897,-0.049598414
W4FNZ3_APHAT/346-478,1.5719334,0.05922676,0.039038274,1.8837986,0.12602341,0.80453604,-0.0978817,-0.036305055,0.016635723,0.04115881
A0A2P6PXP4_ROSCH/38-160,1.0103133,-0.015997032,0.008423168,1.0537984,-2.1196113,-1.1848278,-0.0897436,-0.034442365,0.010370119,0.011766029
A0A074X5Q7_9PEZI/128-240,-1.7753888,0.019017193,0.031605493,0.3170563,-0.84832406,0.7997444,-0.027733278,-0.00051084906,-0.05663605,0.05130999
A0A2J7RK72_9NEOP/544-654,-1.2830348,-0.010057468,0.017574865,-0.4718952,1.7809846,-0.8632877,-0.06315295,0.026840806,-0.05179458,0.016456213
A0A4V5NBW4_9BASI/557-658,-1.2487689,0.05279032,-0.011476884,0.13466795,0.1304205,-1.8152785,-0.04871416,-0.072331466,-0.01830525,0.0035435352
R9AJ04_WALI9/535-641,-1.4702972,0.04260958,0.012800783,0.07688107,0.5202726,-1.1766305,-0.067597464,-0.027883213,-0.049078666,0.032088596
A0A8B8A2N1_ACAPL/360-494,1.4120195,0.00070969947,0.033206362,0.17012903,1.1862806,-0.82456505,-0.07953302,-0.0058395937,-0.005129477,0.04418537
A0A1B8ACV4_FUSPO/132-243,-3.7548053,-0.108637,-0.047606535,-0.08473972,-1.5264919,-1.2142545,0.004433144,0.052122943,0.10352774,-0.10024114
D5G4P7_TUBMM/29-140,-0.27931333,0.061593495,0.04376408,0.98634905,-1.5760384,1.1869019,-0.007346605,-0.038807895,-0.046628013,0.04334751
A0A7K8WKV5_9FURN/23-141,2.839961,-0.010270876,0.06368217,0.23434936,-2.2362382,0.57422733,-0.15844911,-0.0076535977,0.045436867,0.00011321157
A0A8H3ZJI8_9PEZI/511-617,-3.081773,-0.013971588,-0.020012153,-0.038851682,0.8930414,0.3158392,-0.055832267,0.058081754,-0.019246632,-0.017927248
A0A445DT66_ARAHY/409-551,2.4250174,0.01518118,-0.04594373,1.2634624,0.9846499,1.3054953,-0.053589754,-0.018308727,0.040395733,-0.028598763
A0A395S6J5_FUSSP/342-453,1.8442227,-0.057564545,-0.032406934,0.4042262,-0.06790641,-3.7183087,-0.13650556,-0.018131094,0.05711299,-0.07390073
A0A0M3QVT8_DROBS/227-338,-0.16705784,0.036164727,-0.00066398084,2.930202,3.3383195,1.5621008,-0.07881535,-0.0074378178,-0.010613048,0.004644798
A0A2G5DAR9_AQUCA/39-148,0.7502172,-0.08557329,0.0054294653,1.0078954,-3.1027725,-1.3143237,-0.08567098,-0.034331333,0.06911995,-0.018532656
A0A8H4KT22_9HYPO/131-242,-3.8993883,-0.10428037,-0.03699691,0.1376083,-1.6600839,-1.122574,0.005329337,0.03913877,0.11626347,-0.11288349
A0A2B4SLK2_STYPI/36-155,1.4227024,0.012477746,0.059459444,0.47850722,-1.2846545,1.396381,-0.06768579,-0.03783645,-0.016000835,0.046962522
A0A1J6J0Y6_NICAT/35-143,0.9558579,-0.025733303,0.00084176287,0.61256266,-2.4214728,-0.37823725,-0.08818608,-0.019868897,0.016170401,0.007511826
A0A8H7NK29_BIOOC/342-453,1.4918305,-0.04564043,-0.012500336,-0.084619954,0.036364447,-3.1968946,-0.11159288,-0.021059684,0.045159195,-0.059605125
A0A8C0AJZ8_BOSMU/502-610,-1.1183177,-0.031151727,-0.019032255,-0.033691116,3.2081494,0.084094785,-0.047847144,0.051081635,-0.009562127,-0.01567432
A0A1B9I9I1_9TREE/410-523,2.3921177,-0.017967366,0.046510298,-1.5231897,0.6208495,0.1761258,-0.068315305,-0.018868027,0.004412759,0.03417653
A0A6A5BMC1_NAEFO/169-284,-0.3333591,0.045740925,0.030151043,-1.672038,1.0652975,0.5872796,-0.028548317,0.021512061,-0.1269192,0.10534315
A0A1M3TUG7_ASPLC/345-456,3.559219,-0.046418462,-0.061415114,-0.08054441,-0.35942695,-1.7229232,-0.12670703,-0.039481908,0.064536475,-0.011878926
A0A8H3J1P4_9LECA/510-616,-2.110393,-0.003804437,0.007106621,-0.4695513,1.0457401,-0.81329733,-0.070200086,0.020594057,-0.0468292,0.023250079
A0A6P7TD12_OCTVU/537-647,-0.88194466,0.01093792,0.039922234,0.91134363,1.6378037,-1.1065227,-0.08106996,0.019347344,-0.03510862,0.02632487
A0A5Q4BVC9_9PEZI/344-455,1.2297215,-0.037828363,-0.014835665,-0.77387446,-0.3502031,-2.8008244,-0.08979026,-0.028799992,0.05879207,-0.035518903
G1PW66_MYOLU/195-303,0.7915675,0.033346035,-0.10417062,0.3723132,3.192407,1.5254437,-0.029566498,0.009884626,0.006867502,-0.045920704
A0A212EQK0_DANPL/209-313,-0.07314574,0.039500855,0.0365205,1.1596274,1.7133263,0.9483616,-0.07258728,0.015292771,-0.036553092,0.06775662
A0A663DMV1_AQUCH/47-165,2.9026992,-0.009810617,0.06263439,0.24457361,-2.195267,0.59841067,-0.15970704,-0.007990319,0.047065206,-0.0027791727
A0A0M9VQN1_9BASI/588-714,-1.6187216,0.024783112,-0.0228302,1.2456406,-0.57098556,-1.0040302,-0.046874687,-0.036208875,-0.02829122,0.01605358
A0A0V0V2G5_9BILA/369-494,2.4299917,0.0071165934,0.046451475,2.5156853,1.1707516,-2.3501356,-0.15893921,-0.015085995,0.064949036,0.012159494
A0A836K599_9HYME/22-138,2.1645787,-0.06559581,0.034815285,-3.331561,-2.34761,0.9879758,-0.05343554,0.041708194,0.074477755,0.015917363
A0A5C3NK14_9AGAM/542-649,-1.9246602,-0.020499144,-0.02297924,0.13275096,0.5553514,-2.2792106,-0.060615785,-0.012085013,0.015690114,-0.03522238
A0A8B7NIG0_HYAAZ/40-154,1.2283332,0.02240225,0.052605603,0.20716673,-1.2015773,1.0517632,-0.07070639,-0.043815408,-0.03673238,0.061023008
G0P850_CAEBE/217-325,0.12102009,0.04808235,0.007880483,0.58357596,1.5838532,1.8598481,-0.04348041,0.018211756,-0.022243047,0.022768158
A0A2I3HNQ9_NOMLE/527-635,-1.1765416,-0.034033574,-0.016461762,-0.0065556746,3.2524796,0.043142132,-0.04999204,0.05441633,-0.007057029,-0.015314855
A0A8J2W818_9CRUS/367-492,1.4009657,0.0072356425,0.057197396,0.704127,1.08415,-1.587485,-0.095708266,-0.02054429,0.0028686635,0.047288578
A0A094AGB6_9PEZI/612-718,-3.061309,-0.014030322,-0.040194668,1.7052743,0.5312327,-1.1610729,-0.101904325,0.031468727,-0.003403752,-0.038465064
A0A161Y5Y4_9PEZI/31-142,-1.3388244,-0.056460638,0.020532437,1.9698495,-3.541391,1.1955245,0.010756822,-0.012444997,0.08351425,-0.06611681
A0A4U6WAL7_SETVI/409-556,1.4915596,0.032090794,0.042072874,2.862274,1.3072205,0.8137217,-0.090879284,-0.013082176,0.04523773,-0.020083025
A0A5N5DQG8_9PEZI/553-659,-3.0443337,-0.03122428,-0.031197181,0.43038496,1.0569298,-0.61934817,-0.072262265,0.036991008,-0.018027212,-0.03477712
A0A7K5H4X3_9AVES/195-313,0.7443978,0.023629285,-0.06844116,0.017878888,2.8027487,1.0498765,-0.040837415,0.014767669,-0.005420873,-0.02412346
A0A5N7D8E8_9EURO/345-456,3.6777554,-0.05564961,-0.10743627,-0.27535903,-0.13137315,-2.0597746,-0.12428619,-0.02968945,0.059610546,-0.031202607
A0A0L0UWR6_9BASI/408-519,1.970878,0.044082228,0.06724474,-0.0031594038,0.27048036,-0.9055906,-0.12549981,-0.03256573,-0.0018797973,0.08218561
A0A2K5J3W6_COLAP/380-509,2.6688297,-0.023190215,-0.074174926,0.39035052,1.90214,-1.0251867,-0.07559399,-0.00064074993,0.008799732,-0.012484755
LCL3_ASPTN/147-265,-2.498801,-0.07329087,0.032552157,-0.5896068,-1.6118464,1.8020731,0.03531895,0.025921471,0.05024624,-0.061018396
A0A7N8YR04_9TELE/342-470,2.349901,-0.031837836,-0.05404083,-0.3489686,1.9208093,-0.9836585,-0.066152655,0.0067994148,-0.0017327033,-0.01185336
A0A674A8R2_SALTR/48-167,3.1354344,0.014287613,-0.06887057,-0.45937288,-0.5549535,2.824853,0.010537256,-0.028309904,0.024399988,-0.05795997
A0A7J7KDG0_BUGNE/497-608,-0.8132861,0.006663559,0.048631553,0.16104703,1.5238336,-0.63709223,-0.073371306,0.015468415,-0.0565745,0.043850463
A0A1W2TIR8_ROSNE/31-142,-0.8294521,-0.0066514434,-0.0054508224,0.3836828,-2.1201947,1.9740217,0.050870642,-0.03046244,0.0060590003,-0.036773857
A0A2P5DD82_PARAD/175-284,0.9014675,-0.07345237,0.0048819147,0.80245936,-2.9279263,-1.2988254,-0.09236286,-0.032822173,0.056951858,-0.011782128
A0A369H9V4_9HYPO/126-237,-3.1849122,-0.03610428,-0.004189864,0.29932848,-0.6553309,-0.35072026,-0.029307839,0.042406246,0.024644833,-0.02512217
F4S6U6_MELLP/24-146,-0.32979235,0.063812226,0.021872398,0.3034624,-1.6952221,0.08307902,-0.014134271,-0.03899125,-0.07436237,0.051102757
A0A8J6KMA4_MICOH/66-184,3.6019614,-0.016544625,0.05550016,0.026692094,-1.3829885,0.26464117,-0.14422894,-0.05838935,0.05993686,-0.0026450679
A0A0E0G7I6_ORYNI/40-149,1.5719234,-0.046622775,0.033947993,-0.31413373,-3.4372864,0.09250169,-0.11427544,0.027394138,0.0781932,-0.021361608
A0A8C0LBX9_CANLU/48-166,3.5447054,-0.015283839,0.059860725,0.009003116,-1.417901,0.20590377,-0.14935069,-0.054915708,0.05685632,0.0046583787
A0A8C9YKT4_SANLU/567-675,0.074047565,0.025953174,-0.035829805,-0.03406281,3.0854483,-0.63628024,-0.057593964,0.026757516,0.0027068947,-0.023762457
A0A2I2Z9I8_GORGO/351-480,2.6688297,-0.023190215,-0.074174926,0.39035052,1.90214,-1.0251867,-0.07559399,-0.00064074993,0.008799732,-0.012484755
A0A672IZB0_SALFA/347-478,2.297266,-0.02850328,-0.042110793,-0.34813938,1.810904,-0.9339841,-0.06657487,0.0059555285,0.0020425394,-0.006839987
A0A8C6N1Z3_MUSSI/367-496,2.5197022,-0.025029777,-0.06232909,0.29303306,1.7627167,-1.0028247,-0.07477884,0.0014137402,0.0088463705,-0.007902127
A0A8H4KXS1_9HYPO/196-307,-2.131512,0.022303086,-0.012780093,0.65384954,1.6769577,2.9097362,0.016180614,0.035704426,-0.006034673,-0.026261333
G3AIY7_SPAPN/340-462,0.5811595,-0.03689626,0.05064078,2.9535813,0.6314737,-3.9617493,-0.12698087,-0.021617012,0.0545528,-0.047698516
A0A7R8CW50_LEPSM/212-325,0.36728987,0.057510033,0.056642134,0.57070243,1.2450929,0.75664896,-0.061253786,0.011549644,-0.048384637,0.08866739
D8U8L3_VOLCA/35-145,0.9998683,0.014363766,0.048634063,2.2747247,-1.9474974,-0.9805603,-0.07712263,-0.043109957,0.024401926,0.032911375
A0A2K6K989_RHIBE/189-297,0.8523776,0.032539044,-0.109373435,0.3093022,3.2523627,1.5035907,-0.027479751,0.007016044,0.0048056897,-0.049598414
A0A1V6TEV5_9EURO/345-456,3.0595446,-0.018573938,-0.046170726,0.6514353,-0.1725931,-1.4591069,-0.117276914,-0.038488813,0.04751551,0.0068830624
A0A8H4T4X7_9HYPO/196-307,-2.2518098,0.012348257,-0.027049784,0.5666487,1.8083253,3.0672336,0.025422039,0.04146669,0.0062852483,-0.03984968
T0RX61_SAPDV/88-198,-1.8934897,-0.06284826,-0.06840433,-1.8073108,-0.6419682,-1.0243213,0.02084103,0.013905879,-0.0035876725,-0.015232824
A0A7N8XX26_9TELE/341-469,2.349901,-0.031837836,-0.05404083,-0.3489686,1.9208093,-0.9836585,-0.066152655,0.0067994148,-0.0017327033,-0.01185336
B4MGQ8_DROVI/225-336,-0.1857452,0.032861818,-0.001205951,2.852798,3.3476634,1.5625703,-0.07544361,-0.008002203,-0.01024095,0.0033602566
A0A167BG44_9PEZI/129-240,-3.2040007,0.0025392696,-0.024328886,1.3373048,-0.35011688,0.7797333,-0.060124665,0.04555194,0.010668829,-0.021071598
A0A482WL64_LAOST/345-472,1.2153902,-0.005599169,0.051836442,0.8804203,1.2214255,-2.0652928,-0.10654836,-0.012419667,0.0140293185,0.0212846
A0A673UDB5_SURSU/48-166,3.5606318,-0.016027827,0.061557617,0.011988541,-1.4533298,0.19746032,-0.15144041,-0.053765386,0.057746224,0.003926674
A0A6A1UJD2_9ROSI/42-151,0.8308672,-0.06461017,0.002928324,0.8648634,-2.827108,-1.2063309,-0.086985566,-0.030244827,0.049498007,-0.01067353
A0A4T0VSU9_9PEZI/511-617,-3.1783075,-0.021808062,-0.021529773,0.08249563,1.0014994,0.26052788,-0.055204384,0.053197898,-0.01984259,-0.031407762
A0A699ZBX2_HAELA/506-635,1.1638706,0.06997019,0.056411076,1.3356838,0.44362953,-0.19154069,-0.09140385,-0.034685228,-0.014573739,0.08173087
A0A5N6L3T9_9ROSI/159-277,-1.9357002,0.011485752,0.0208667,0.5863235,-0.68899864,0.5173227,-0.04832425,0.01297443,-0.06111795,0.070270106
A0A671LCS9_9TELE/318-448,2.4186614,-0.029515339,-0.05422845,-0.040605873,1.8593743,-1.007513,-0.069937155,0.004545789,0.002976546,-0.009393789
A0A8C9JXG9_PANTA/552-660,-1.2009873,-0.034213357,-0.012267768,0.064950995,3.2186654,-0.030065056,-0.053419985,0.054471575,-0.006717398,-0.013930317
B0WIK3_CULQU/215-326,-0.3258356,0.037531536,0.02920271,0.9134969,2.1078656,1.3075687,-0.056280874,0.017562862,-0.039970513,0.040616818
A0A7H9B8Q6_ZYGMR/156-267,-1.4132206,0.034772974,0.04511973,1.1851104,-1.26902,0.51321816,-0.047762632,-0.010754988,-0.09184518,0.09221877
A0A8H6SAS9_9AGAR/199-325,0.8626482,-0.018483957,-0.006806735,0.6798063,0.36159578,2.953271,-0.0073460266,0.029268041,0.036402486,-0.06808755
A0A086SY74_ACRC1/196-307,-2.0539858,0.019715462,0.004154507,0.37585932,1.480304,2.7491941,0.0052451175,0.034462743,-0.023816844,-0.010354072
A0A5D3BH85_CUCME/413-556,2.346282,0.019644015,-0.033032496,1.2835946,0.9845458,1.329714,-0.05476837,-0.016396172,0.043730907,-0.02641644
W1QF97_OGAPD/327-436,0.8388055,0.07827271,0.029018011,1.1523118,-0.02882123,-1.7591164,-0.08203331,-0.05318093,-0.007851957,0.043069437
A0A0A0LRJ8_CUCSA/413-556,2.3468702,0.019927628,-0.033827145,1.2663012,0.95422345,1.3455628,-0.05367005,-0.016076433,0.042724628,-0.026989032
A0A835MW72_9ROSI/41-150,0.8375792,-0.057725444,-0.003726814,0.95774937,-2.7307158,-1.5582088,-0.08820868,-0.03509036,0.045275632,-0.0063741356
A0A1J1H6S3_PLARL/32-140,0.43609628,0.13619624,0.006178867,-0.8377186,-0.2508289,-0.08889349,-0.014305868,-0.06199742,-0.1228246,0.13077386
C4M0A8_ENTH1/55-159,-0.3099086,0.09568962,0.06497763,-4.776318,-1.0724005,-0.0063365586,0.0785686,0.104685016,-0.00068549346,0.12707578
A0A2S5B651_9BASI/226-357,0.18414749,0.037042078,0.072282955,0.76554143,0.14681002,1.9033592,-0.049804106,-0.019765612,-0.048648354,0.069081835
A0A178A8Y2_9PLEO/516-622,-2.993806,-0.0211283,-0.016168041,0.14298785,1.3373368,-0.35054308,-0.06367227,0.036726333,-0.022277474,-0.030946516
H6BXN7_EXODN/192-302,-1.9970672,-0.027800702,0.041417506,-1.2988312,-0.19891156,2.4273798,0.02070382,0.0805054,0.022344194,-0.0075879283
A0A8C9YFS7_SANLU/305-433,2.587245,-0.02645778,-0.081402004,-0.33797416,2.071113,-0.9148462,-0.06333689,0.00247553,-0.0025400547,-0.021165483
A0A2G5DAU3_AQUCA/39-148,0.7502172,-0.08557329,0.0054294653,1.0078954,-3.1027725,-1.3143237,-0.08567098,-0.034331333,0.06911995,-0.018532656
A0A0A1P3Q5_RHIZD/198-308,-0.34802777,0.020817392,-0.017788535,-0.9665284,1.7591325,3.565729,0.022898817,0.02050548,-0.024759807,0.012078535
A0A4W5RDC1_9TELE/352-482,2.4262795,-0.029245742,-0.076502234,-0.42042014,2.05683,-0.9477135,-0.0578956,0.003328357,-0.0032536471,-0.020735726
A0A1Y3NNH7_PIRSE/355-473,1.1763377,0.05739753,0.06886628,-0.30036414,0.31769985,-0.20357251,-0.07218083,-0.04561138,-0.04066895,0.08324897
A0A6G0WWT5_9STRA/195-307,-0.7779999,-0.052584797,-0.011306936,-2.7384999,1.8121645,1.9043673,0.013316464,0.06525614,-0.023892932,0.024658045
A0A1G4JR47_9SACH/141-252,-1.2789288,0.038559556,0.027600262,0.9549694,-1.284514,0.39371076,-0.032328382,-0.020385643,-0.08955447,0.07665901
A0A6Q2Y7G6_ESOLU/23-142,2.930712,0.012472333,-0.07003549,-0.797959,-0.48005453,2.794408,0.012075052,-0.017717766,0.012504777,-0.04461566
B3M8X7_DROAN/54-169,2.2476828,-0.06541539,0.013624053,-1.1685207,-2.9843433,2.2315645,-0.05469902,0.052925438,0.082405426,-0.04405049
D8SE51_SELML/33-139,0.91731614,0.007355308,0.018909317,0.994055,-1.6916752,-1.0162942,-0.08711736,-0.040085334,-0.008271017,0.027293853
A0A8D2B4Q2_SCIVU/220-328,0.7915675,0.033346035,-0.10417062,0.3723132,3.192407,1.5254437,-0.029566498,0.009884626,0.006867502,-0.045920704
A0A4S3JII9_9EURO/198-308,-1.6043584,-0.032972556,-0.0065588728,0.36804867,-0.7976145,3.1834764,0.067514665,0.06344617,0.09784542,-0.09950107
A0A452FU65_CAPHI/330-459,2.6688297,-0.023190215,-0.074174926,0.39035052,1.90214,-1.0251867,-0.07559399,-0.00064074993,0.008799732,-0.012484755
A7RXU0_NEMVE/541-653,-0.8550367,-0.0010560751,0.042680923,0.5661697,1.7185278,-1.0674137,-0.080216266,0.03173323,-0.035656035,0.03456796
A0A2Y9P2S1_DELLE/48-166,3.5606318,-0.016027827,0.061557617,0.011988541,-1.4533298,0.19746032,-0.15144041,-0.053765386,0.057746224,0.003926674
A0A066XJC0_COLSU/132-243,-3.278409,0.001103418,-0.028289434,1.3761863,-0.38933197,0.8215681,-0.061146885,0.049367934,0.012566518,-0.023888234
A0A0D2XCX8_FUSO4/132-243,-4.1510706,-0.12047539,-0.047863614,0.09193272,-1.8987442,-1.3482497,0.010653801,0.04321722,0.14787301,-0.13715845
M2XBZ2_GALSU/581-690,-1.1643997,0.078048356,0.060569633,0.087994725,0.7213041,0.25056046,-0.09877567,-0.002429232,-0.117229946,0.11070411
A0A1J9R5U1_9EURO/195-306,-0.98910797,-0.03469061,0.0075562596,-0.947482,0.23024777,3.3715081,0.038233653,0.046930984,0.029700283,-0.03208062
A0A3M7MW03_9EURO/506-612,-2.4788194,-0.00686187,-0.0014650188,-0.3878985,1.5071512,-0.43639347,-0.057641655,0.030838221,-0.03655136,0.014485477
A0A672QRX3_SINGR/503-610,-0.2843781,0.0013871994,0.019153342,0.88894653,3.1818728,-2.0480576,-0.08779258,0.045762934,0.02294207,-0.04594345
A0A1V6QT41_9EURO/132-250,-2.5476327,-0.0836556,0.06003123,-1.0678686,-2.0435033,1.8863136,0.052830927,0.021837391,0.063017435,-0.08125876
SND1_BOVIN/220-328,0.8523776,0.032539044,-0.109373435,0.3093022,3.2523627,1.5035907,-0.027479751,0.007016044,0.0048056897,-0.049598414
E4UUM5_ARTGP/29-144,-0.3794079,0.014243543,0.019625586,1.9643863,-1.8205779,2.1043124,0.014501648,-0.036734354,0.019761533,-0.026952185
A0A6J1VSU5_9SAUR/554-662,-0.7130349,-0.013433364,0.01280652,0.8720016,2.4844818,-0.2773754,-0.07192359,0.044188425,-0.02519321,0.019549932
A0A818KSH9_9BILA/214-321,0.5618228,0.029624939,0.03456874,-1.4925367,1.2566515,2.0270212,-0.025795069,0.0146588385,-0.06728496,0.04613974
A0A3Q3W1G4_MOLML/367-497,2.3324544,-0.03353823,-0.052978635,-0.5649164,1.9243178,-0.9812334,-0.06366721,0.008063879,-0.0001755599,-0.013034053
M3D5Y6_SPHMS/343-454,2.1780279,0.016690854,0.05059595,-0.08120208,-0.56500554,-1.4691666,-0.1307792,-0.0637041,0.04016257,0.025761157
A0A0L0DSN5_THETB/493-602,-0.32788244,0.042471446,0.06852864,-0.22001335,1.2471108,0.9696123,-0.050915174,0.013250899,-0.083439045,0.07752934
A0A3B3D5Y1_ORYME/367-497,2.2839522,-0.039303057,-0.039685987,-0.5810769,1.8646332,-1.0625272,-0.068925895,0.008949965,-0.0009445902,-0.009105146
A0A669BNQ2_ORENI/366-496,2.2839522,-0.039303057,-0.039685987,-0.5810769,1.8646332,-1.0625272,-0.068925895,0.008949965,-0.0009445902,-0.009105146
A0A150GEM0_GONPE/35-145,1.0282654,0.023561142,0.04877865,2.259178,-1.929276,-0.8996316,-0.07931336,-0.04566974,0.022681136,0.03541472
A0A4U0WV31_9PEZI/197-308,-1.3414159,0.013273602,0.038972218,1.2376022,0.0340618,2.2271054,-0.032974545,0.033788703,-0.014421795,0.02930315
A0A1W2TIR8_ROSNE/508-614,-3.1872509,-0.0022680182,-0.016248327,0.87740844,0.8563318,0.15361708,-0.08236722,0.05730515,-0.025941525,-0.017170437
A0A2B7X816_9EURO/343-454,2.8234074,-0.011113475,-0.0048486404,1.4182415,-0.6532573,-2.0132904,-0.13504374,-0.069586806,0.081610024,-0.000880206
I1K565_SOYBN/42-151,1.3007873,-0.06340994,0.0107389875,0.9175594,-2.7998936,-1.3903567,-0.10792451,-0.031154806,0.044511285,-0.0015628878
A0A673M7L2_9TELE/318-448,2.3408234,-0.028750949,-0.052618977,-0.074645616,1.835928,-0.9691974,-0.0677291,0.004926577,0.0028835386,-0.008179605
A0A7J9KYU6_GOSSC/42-147,0.6600942,-0.08758979,-0.002926793,-0.48228702,-3.1993546,-1.1883831,-0.08734632,-0.034753464,0.048037104,-0.038156915
A0A2S4Q2C8_9PEZI/526-635,-2.3386548,0.0053541344,0.05164088,-0.36395478,-0.761388,0.67058754,-0.022497874,0.027298383,-0.030762976,0.022739599
A0A0C3PAU2_PHLGI/537-644,-1.8898804,-0.022955528,-0.035652414,0.11050899,0.38378823,-2.1504216,-0.05181411,-0.020209096,0.030794196,-0.036549505
G2YHA9_BOTF4/79-204,0.34590945,-0.07525212,0.006877061,-1.0936631,-2.6857376,3.0831826,0.07365451,0.03524819,0.09542235,-0.06940575
A0A0P5VNB2_9CRUS/217-328,-0.09442243,0.0460703,0.027494181,0.4508735,1.7490231,1.4212027,-0.054567575,0.030060336,-0.033581547,0.05493182
A0A1Y1Z271_9PLEO/344-455,2.1457887,-0.00019102357,0.04038422,-0.8267859,-0.67744905,-1.4116259,-0.1329057,-0.05297342,0.031056818,0.023350384
A0A167DQP5_9ASCO/118-229,-1.6790344,-0.0401968,-0.0015443079,0.034031846,-1.3962585,-0.04860498,-0.018675102,0.006342072,-0.03975103,0.036785755
A0A8C6KR04_NOTFU/331-459,2.2037303,-0.036909655,-0.042004406,-0.69944733,1.8377239,-1.0536462,-0.06914938,0.009581838,-0.0009989757,-0.010211807
A0A090KV75_STRRB/822-931,-1.0329185,0.044768974,0.017568372,-0.15388875,0.95979553,-0.7211366,-0.07145067,-0.019502545,-0.08196253,0.035406392
A0A671LIK9_9TELE/472-580,-0.48208493,-0.0016975468,0.0103029385,0.4951185,3.1778831,-1.7253333,-0.08054267,0.04836177,0.01410367,-0.039718542
A0A665VHS2_ECHNA/202-310,1.5304384,0.031724405,-0.10749471,-0.49589375,2.445247,1.7249665,-0.006160547,0.026911765,-0.012180045,-0.028729469
A0A1C7NH35_9FUNG/32-142,0.124714375,0.027276717,0.032258037,1.6936269,-2.5396204,0.8212842,-0.042169828,-0.019660419,-0.010473471,0.02071016
A0A2T4BRH5_TRILO/509-615,-3.6045907,-0.031076774,-0.026408039,0.12370701,1.2618029,0.6181952,-0.048169143,0.07570701,-0.008405613,-0.04823864
A0A835W5E2_9CHLO/411-537,1.2820683,0.054913603,0.06622951,2.7740295,0.60419,-0.47409317,-0.110538915,-0.0382479,0.041253645,0.054009385
A0A8C3HY58_CHRPI/218-326,0.7881005,0.025873534,-0.07514456,-0.14914846,2.8442333,1.1984106,-0.037795268,0.01891268,-0.009839999,-0.025012657
A0A182Y1B8_ANOST/63-179,1.4453366,0.0024543665,0.045701165,-0.9438306,-1.2371671,1.3010902,-0.046674088,-0.0376516,-0.038818892,0.04549689
A0A811Q2N1_9POAL/39-148,1.6121132,-0.05518688,0.030156698,-0.2005862,-3.443973,-0.062657736,-0.11788178,0.02119489,0.0789604,-0.025398064
S4RUB0_PETMA/530-638,-0.52182066,0.0040005483,0.013796378,0.91571593,2.239358,-0.8678295,-0.07602488,0.035824038,-0.011334088,0.011904093
A0A6Q2YV32_ESOLU/43-162,2.930712,0.012472333,-0.07003549,-0.797959,-0.48005453,2.794408,0.012075052,-0.017717766,0.012504777,-0.04461566
A0A671Z3T9_SPAAU/528-636,0.035752203,0.025923345,-0.03363768,0.12821437,2.9287152,-0.41765493,-0.051966555,0.025620848,0.0029654317,-0.014949013
A0A7K6T8V5_CALNI/380-509,2.479421,-0.017958736,-0.06120033,0.46221766,1.7242405,-0.9354898,-0.07450459,0.0023181736,0.012851333,-0.003588941
I1RWP4_GIBZE/509-615,-3.8252668,-0.036907975,-0.03895738,0.18129265,1.5502667,0.7267642,-0.041464724,0.07813581,-0.0019222088,-0.073201925
A0A8D2GTL0_UROPR/552-660,-1.1323942,-0.031762756,-0.021189827,-0.07877971,3.1635554,0.07067301,-0.047305122,0.05052136,-0.00887825,-0.015054487
A0A0N8H7H5_9HYPO/130-241,-3.0122983,-0.04304655,-0.019111557,0.10316636,-0.7161011,-0.29270765,-0.009270334,0.028601915,0.034203067,-0.043608572
F8PU69_SERL3/541-647,-1.8564874,-0.01668176,-0.012944948,-0.5569778,0.5341074,-2.2073638,-0.048456497,-0.019642448,0.026877936,-0.04157616
A0A1I7V5T4_LOALO/543-657,-0.98924345,-0.023785505,0.031158242,0.18438604,2.4560883,-3.6802137,-0.1064023,0.009548433,0.02406295,-0.089263394
V9F1I7_PHYPR/66-182,0.25134468,-0.10065904,-0.03998444,0.48830062,-2.731248,-3.4588418,-0.07037707,-0.05588309,0.09838407,-0.044305433
A0A4T0GY06_WALIC/198-312,-0.07304692,0.026984707,0.114552796,2.1379998,-0.20491922,1.8061844,-0.070595846,-0.012303285,-0.03257288,0.07741034
A0A372RR41_9GLOM/33-144,0.34548727,0.024549324,0.054113153,0.10536873,-1.7926832,0.702114,-0.036844447,-0.03140147,-0.05350398,0.06236786
A0A1J7JMZ3_9PEZI/196-305,-1.797338,0.011727415,0.0080924,0.3113352,1.0857941,2.3537838,-0.006116316,0.033301666,-0.023206137,-0.0035733804
A0A5N5DQG8_9PEZI/237-349,-1.3619913,-0.011894792,0.010642603,0.6782342,-0.14535074,2.381629,0.0031993147,0.040167302,0.01275734,-0.0032187887
A0A0E0G7I6_ORYNI/411-555,1.4988071,0.0312584,0.038841832,3.0613618,1.3135349,0.81328905,-0.095051035,-0.014445428,0.04841145,-0.028954841
A0A2A3EJS4_APICC/534-644,-2.537475,-0.022720585,0.036985543,2.0020597,2.6568403,-0.64494115,-0.07663445,0.076300405,-0.032045208,-0.006109003
A0A2K3E7W0_CHLRE/87-190,-1.8269979,-0.06901798,-0.07385865,-0.8082946,-1.421605,-4.518822,-0.020893516,-0.049675703,0.14081213,-0.10466951
A0A8C6WTD6_9GOBI/216-324,1.4861312,0.027176883,-0.10618663,-0.45472905,2.3165393,1.7826914,-0.0056120153,0.03143253,-0.009959392,-0.029081814
A0A1C1D2N1_9EURO/192-302,-2.0225074,-0.046310745,0.042490322,-1.9887099,-0.23577255,2.5436265,0.030885616,0.09761862,0.024876092,-0.00196727
A0A1V2L2C8_CYBFA/100-211,-1.5077822,0.007227406,0.025506739,0.09989317,-1.3707136,0.4073088,-0.0217302,-0.010881748,-0.07210815,0.06533191
A0A8C8AV99_9STRI/215-323,0.7443978,0.023629285,-0.06844116,0.017878888,2.8027487,1.0498765,-0.040837415,0.014767669,-0.005420873,-0.02412346
A0A2K6PMY4_RHIRO/57-175,3.5606318,-0.016027827,0.061557617,0.011988541,-1.4533298,0.19746032,-0.15144041,-0.053765386,0.057746224,0.003926674
A0A316Z7J5_9BASI/224-354,0.28830588,0.012200499,0.03304567,1.5856581,0.6173571,2.2038007,-0.07706042,0.03807681,-0.0033207517,0.00875612
A0A8B9DE49_ANSCY/366-495,2.5387359,-0.017843932,-0.06651588,0.57585347,1.7402457,-0.9527798,-0.07574557,0.00016885996,0.013209181,-0.004430875
A0A4S8MI13_DENBC/366-479,2.934989,-0.009096411,-0.029255912,0.33422378,0.43277428,-0.14973217,-0.09258055,-0.018228827,0.006278744,0.024008261
S8DUM3_FOMPI/538-645,-1.9577581,-0.037516076,-0.021412369,-0.008342352,0.47005865,-2.8313432,-0.05270651,-0.02635315,0.04987973,-0.059028793
A0A811K7H6_9BILA/36-153,1.1825415,0.031441312,0.032713745,1.960788,-1.3563006,0.6247216,-0.081941105,-0.0411044,0.001216935,0.05537635
M2QL22_CERS8/198-323,1.1389352,-0.020120535,-0.052531164,0.08338253,0.4742349,3.1055727,0.019067908,0.027441025,0.02638854,-0.079763114
A0A2C5YEN8_9HYPO/509-615,-3.5796094,-0.026821861,-0.023626655,0.45319566,1.3488083,0.7507501,-0.062764384,0.08671752,-0.024963103,-0.0343642
A0A1E3NGE3_9ASCO/184-291,-0.27430254,0.019723807,0.04255909,-1.0724195,0.25957334,1.8707556,-0.033149607,-0.0031019114,-0.081293,0.039671853
S0DTP2_GIBF5/132-243,-4.1510706,-0.12047539,-0.047863614,0.09193272,-1.8987442,-1.3482497,0.010653801,0.04321722,0.14787301,-0.13715845
B4QEY1_DROSI/222-333,-0.16738267,0.031466335,0.0013370514,2.8580263,3.3142118,1.5267268,-0.07570944,-0.009384815,-0.009886393,0.0042867586
W2Z5Z6_PHYPR/546-668,-2.7319698,0.010987282,-0.007257499,-0.8504664,2.9919639,1.3229089,-0.019225564,0.06601379,-0.017781468,-0.018151153
B4KXY0_DROMO/225-336,-0.21125385,0.036226567,-0.0013099685,2.841708,3.2606146,1.5509162,-0.0771862,-0.0078086853,-0.0133661525,0.0041105375
A0A7J0GAV0_9ERIC/428-573,2.3216698,0.0147831775,-0.04245075,1.1371341,0.8670976,1.211156,-0.05462707,-0.020960713,0.037258018,-0.02459281
C5MIM0_CANTT/338-460,0.83198404,0.014205497,0.032791343,2.8359709,0.38558894,-3.3531225,-0.12705244,-0.029617622,0.049085326,-0.015572339
A0A672QRN4_SINGR/508-616,-0.37442335,0.0013732631,0.0039244294,0.35518655,3.196422,-1.6868548,-0.076979,0.046817392,0.013681963,-0.040811513
A0A8C6QU96_NANGA/220-328,0.8523776,0.032539044,-0.109373435,0.3093022,3.2523627,1.5035907,-0.027479751,0.007016044,0.0048056897,-0.049598414
A0A833QQH2_9POAL/40-155,0.7670908,-0.001284441,0.023352195,0.42481446,-1.9827511,-0.19148833,-0.076545544,-0.026858049,-0.008930463,0.02737606
A0A8C3G3D7_CYCLU/203-311,1.6201283,0.02994747,-0.105493575,-0.41905665,2.2868512,1.9287745,-0.00058035366,0.026549898,-0.009325948,-0.036533657
V2XTQ9_MONRO/794-907,3.3061063,-0.011284656,-0.026797675,0.15334915,0.39233902,0.017600246,-0.09411186,-0.022274915,0.010683328,0.021661686
A0A4W6CKV2_LATCA/343-471,2.349901,-0.031837836,-0.05404083,-0.3489686,1.9208093,-0.9836585,-0.066152655,0.0067994148,-0.0017327033,-0.01185336
A0A674J961_TERCA/335-464,2.5976603,-0.023226192,-0.06971434,0.596408,1.8135554,-1.035604,-0.0765691,-0.00014189258,0.014339255,-0.008385476
A0A3D8QKP4_9HELO/276-387,-2.5345411,0.02134144,0.051004987,1.0585327,0.42969894,2.3163521,-0.04226674,0.0599038,-0.0036470313,-0.0027001463
A0A0E9NRE1_SAICN/188-303,-0.5420194,0.03195272,0.061225448,-0.5474143,0.32721248,1.6053627,-0.05609607,-0.0053256974,-0.10794031,0.066321135
A0A7J8HDV3_MOLMO/133-241,-1.2112993,-0.032017197,-0.009977827,0.30580783,3.283488,-0.12543425,-0.05837618,0.054028064,-0.004790647,-0.017212298
A0A0D2XGN1_FUSO4/31-140,-1.1064439,-0.060136404,-0.039080758,-0.17279088,-2.6425712,3.1737835,0.10765815,0.0009431541,0.08711742,-0.16026874
A0A0C3PKE0_PHLGI/117-234,-1.1805786,0.04928504,0.023663286,1.085678,-0.7670612,-0.665953,-0.03539911,-0.0452936,-0.05608989,0.05706769
A0A4R0RGJ5_9APHY/539-646,-1.9604185,-0.017869087,-0.022210715,0.06940142,0.4565128,-2.086181,-0.0616246,-0.016652795,0.013980424,-0.029083453
A0A6Q2YQY5_ESOLU/48-167,2.930712,0.012472333,-0.07003549,-0.797959,-0.48005453,2.794408,0.012075052,-0.017717766,0.012504777,-0.04461566
G3J8M4_CORMM/128-239,-3.2382777,-0.03515734,-0.014026759,0.3374529,-0.64552945,-0.33271813,-0.024899723,0.037230805,0.03633458,-0.043935988
A0A0K9NPY7_ZOSMR/39-148,0.7280912,-0.025030904,0.00096312165,0.7543807,-2.3444245,-1.0097747,-0.07958349,-0.025995929,0.005766431,0.008298367
A0A8C5AGJ1_GADMO/218-326,1.2657229,0.003205927,-0.03227922,-0.6232856,1.6376857,1.9035244,-0.0076554976,0.031221256,-0.02161979,-0.00715797
M2N4R3_BAUPA/510-616,-2.4873183,-0.0013910048,0.0064817443,0.16393317,1.1638677,-0.3759817,-0.07395333,0.023915887,-0.042084303,0.010570819
G1SFS8_RABIT/220-328,0.8523776,0.032539044,-0.109373435,0.3093022,3.2523627,1.5035907,-0.027479751,0.007016044,0.0048056897,-0.049598414
A0A8J2W818_9CRUS/548-659,-1.0727873,-0.00030341,0.035295416,-0.11991472,1.7798246,-0.5342355,-0.07052189,0.030603684,-0.05917157,0.037475932
A0A1X7UNN1_AMPQE/593-703,-0.92866945,0.029187799,0.04983661,0.39772302,1.2019327,-0.43774518,-0.07803362,0.0044934526,-0.07007162,0.05846774
A0A4W6CK85_LATCA/220-328,1.5304384,0.031724405,-0.10749471,-0.49589375,2.445247,1.7249665,-0.006160547,0.026911765,-0.012180045,-0.028729469
A0A8C7J3G0_ONCKI/576-684,0.14354914,0.023530487,-0.021895906,0.41740444,3.5504022,-1.3015984,-0.076103255,0.028927185,0.011602061,-0.046429243
A0A811ZMP5_NYCPR/48-166,3.5447054,-0.015283839,0.059860725,0.009003116,-1.417901,0.20590377,-0.14935069,-0.054915708,0.05685632,0.0046583787
A0A4D9D0T6_9STRA/96-215,-1.2615042,0.019140929,0.024308544,-0.36516652,-0.48003638,-0.47476554,-0.016291026,-0.01649445,-0.053773604,0.04409358
A0A167GS76_METRR/31-142,-0.74867666,-0.038750954,0.014552489,0.21112241,-2.696885,1.6297734,0.045302726,-0.011827594,0.02590949,-0.039528046
E3QVW3_COLGM/344-455,1.3209189,-0.03016768,-0.01728605,-0.883867,-0.34853858,-2.677772,-0.092022486,-0.030108506,0.05863028,-0.034359068
A0A6Q2YGS0_ESOLU/35-154,2.930712,0.012472333,-0.07003549,-0.797959,-0.48005453,2.794408,0.012075052,-0.017717766,0.012504777,-0.04461566
A0A3M2S3A4_9HYPO/362-473,1.7706317,-0.06281634,-0.019789303,0.18191434,-0.21923776,-3.8012218,-0.13510507,-0.02075711,0.06263636,-0.072160155
A0A0E0K0H5_ORYPU/40-149,1.5990987,-0.04883269,0.031166788,-0.28251123,-3.4356804,0.03495629,-0.11747684,0.025421701,0.07593358,-0.02037847
A0A2S4L3C7_9HYPO/196-307,-1.9273361,0.020883858,-0.003327854,0.6222208,1.349739,2.5355933,-0.0010439763,0.028829277,-0.016861247,-0.012206934
A0A6V8R2U6_9HYPO/196-307,-1.9517561,0.016105726,0.011274654,0.17594658,1.4350963,2.6078622,0.00033575296,0.03311242,-0.034825128,0.0019120704
A0A3M6UTC4_POCDA/36-155,1.4349074,0.015241191,0.06203239,0.5204252,-1.2696118,1.4246111,-0.06911418,-0.03895618,-0.015243804,0.047975533
A0A0C3B435_9AGAM/400-513,2.462036,0.010031991,0.04426131,-0.43722495,0.33900228,0.06709582,-0.100768864,-0.03042453,0.007591378,0.047371738
A0A674A7N1_SALTR/568-676,0.14354914,0.023530487,-0.021895906,0.41740444,3.5504022,-1.3015984,-0.076103255,0.028927185,0.011602061,-0.046429243
A0A3R7K553_TRYRA/29-142,1.2275788,0.08252772,0.025589798,-0.6660156,-0.6910147,-0.2179999,-0.084511235,-0.06740472,-0.07634528,0.09695934
A0A0V1HPR3_9BILA/222-331,0.027320404,0.0042426866,-0.005334016,-1.642548,2.5830507,2.4919133,0.0021192636,0.03722982,-0.03194564,0.027773393
A0A6J0Z8U0_ODOVR/367-496,2.6688297,-0.023190215,-0.074174926,0.39035052,1.90214,-1.0251867,-0.07559399,-0.00064074993,0.008799732,-0.012484755
A0A4U8UPB9_STECR/359-483,1.4260571,0.022604547,0.060314935,0.13308354,0.85595506,-1.3609129,-0.10421815,-0.023836786,-0.011640903,0.05052353
A0A0V1LVT7_9BILA/222-331,0.036026422,0.004004834,-0.006235689,-1.6282383,2.5908964,2.51166,0.0039899405,0.03575255,-0.029099891,0.025129711
M7TXZ4_BOTF1/79-204,0.37314045,-0.07646961,0.010073137,-1.0103049,-2.7274685,3.026497,0.06887256,0.03523992,0.09628356,-0.06752688
A0A0F4Z0E6_TALEM/198-308,-1.352467,-0.03843688,-0.014508422,0.29872158,-0.55218226,3.2165017,0.058249764,0.059656672,0.07193653,-0.08037828
A0A2J6JT67_LACSA/39-145,0.98140645,-0.025685176,0.0038505904,-1.5160991,-2.9490654,0.32173207,-0.060079075,0.033091284,0.013130853,0.0054389946
A0A452FUL0_CAPHI/356-485,2.6688297,-0.023190215,-0.074174926,0.39035052,1.90214,-1.0251867,-0.07559399,-0.00064074993,0.008799732,-0.012484755
N1PNK0_DOTSN/142-254,-1.879091,0.02357873,0.023443464,0.3879231,-0.48042688,0.43124086,-0.0455129,0.008513004,-0.056190524,0.06125868
A0A833QQH2_9POAL/633-739,-0.9515689,0.06142226,0.077172786,1.2492687,1.4700328,0.48431224,-0.083914734,0.004884988,-0.059176378,0.08097058
A0A5B7DJE3_PORTR/386-497,-0.76112807,0.01337903,0.02737831,0.2568618,1.6095247,-0.6536793,-0.076939754,0.014202591,-0.052918307,0.037425797
G3Y0L0_ASPNA/345-456,3.485288,-0.04670547,-0.071690254,0.09112639,-0.3022655,-1.7039992,-0.12217958,-0.037987445,0.060116827,-0.012398563
A0A507E901_9FUNG/206-316,-0.3283943,0.045580246,0.025528576,0.1474444,1.3531315,2.0635018,-0.03183054,0.019885242,-0.060622513,0.058981325
A0A484BZ98_PERFV/220-328,1.5737141,0.03053211,-0.11240271,-0.47763988,2.3945847,1.8548312,-0.0031154845,0.029802382,-0.012476679,-0.033660457
M7TXZ4_BOTF1/259-370,-3.5352545,-0.038963784,0.010615397,-0.077643044,0.5182404,2.9488096,0.038721353,0.09753711,0.09171226,-0.10568181
A0A674G8Q1_TAEGU/219-326,0.7443978,0.023629285,-0.06844116,0.017878888,2.8027487,1.0498765,-0.040837415,0.014767669,-0.005420873,-0.02412346
A0A433DHZ2_9FUNG/119-247,-1.8019786,0.022327892,0.009188071,0.8274548,-0.49018627,-0.16910326,-0.051731385,0.005062565,-0.05149327,0.06092354
A0A485L4Y9_9STRA/526-635,-1.9472061,-0.014747696,0.08939439,-1.26846,1.194379,0.75938016,-0.0456865,0.057068795,-0.08409609,0.06789429
A0A7K6T8V5_CALNI/219-341,0.7443978,0.023629285,-0.06844116,0.017878888,2.8027487,1.0498765,-0.040837415,0.014767669,-0.005420873,-0.02412346
A0A653CVK7_CALMS/541-647,-1.1782019,-0.003686998,0.027672011,-0.14421917,1.5814171,-0.87876844,-0.06853714,0.022682965,-0.05194983,0.025390454
A0A8H5Q1I4_9HYPO/196-307,-2.272016,0.007995104,-0.033830173,0.50997925,1.94549,3.1048834,0.0290491,0.038261697,0.0065110307,-0.042973924
A0A6I9W239_9HYME/209-317,-0.6304232,0.073349416,0.03883567,2.8082213,2.0818205,1.7222605,-0.09742732,0.021751828,-0.027989395,0.059759684
A0A183TPU9_SCHSO/361-497,0.85263884,0.0018743537,0.03562363,-0.75799704,0.7524671,-1.376137,-0.06461529,-0.039118182,-0.029833242,0.025807116
A0A7L0MAX0_9PSIT/542-650,-0.92559224,-0.015586218,0.0049433745,1.2100236,2.961726,-0.29177868,-0.08288278,0.048292086,-0.017872216,-0.0065008067
D0N995_PHYIT/76-186,-2.488907,-0.1362367,0.07014461,-3.6819978,-1.1386981,-0.26161087,0.021312086,0.06220135,0.036801554,-0.051501427
A0A2J8U4R0_PONAB/367-496,2.6688297,-0.023190215,-0.074174926,0.39035052,1.90214,-1.0251867,-0.07559399,-0.00064074993,0.008799732,-0.012484755
A0A0D2PKX1_HYPSF/243-369,1.2318056,-0.019953512,-0.027606007,0.8053245,0.47039947,3.225956,-0.0021577785,0.036341876,0.046504103,-0.09653938
A0A2K5EL70_AOTNA/351-480,2.6688297,-0.023190215,-0.074174926,0.39035052,1.90214,-1.0251867,-0.07559399,-0.00064074993,0.008799732,-0.012484755
A0A8H8S2Q8_9HELO/86-211,0.40642905,-0.06302102,-0.0057790354,-1.1779902,-2.124798,3.3363955,0.0854741,0.019793317,0.07729123,-0.05835792
A0A094E0R5_9PEZI/126-237,-2.6349335,-0.033325735,0.053525854,-0.76815814,-1.1923397,0.53271675,-0.015363395,0.043054968,0.0013535898,0.0010759886
A0A165F614_9APHY/198-323,1.6674353,-0.02404929,-0.055486504,-0.78826773,0.84658486,3.0553033,0.014123742,0.028258428,-0.013194598,-0.049599413
A0A166HCR2_9AGAM/539-646,-2.008948,-0.02401229,-0.020554489,-0.34077406,0.4477168,-2.2672641,-0.05456897,-0.024105119,0.030189212,-0.043220904
A0A671Z3A8_SPAAU/367-497,2.4197795,-0.031216592,-0.062481813,-0.39461744,1.9354869,-0.96620905,-0.06560906,0.006245576,-0.00031754002,-0.015025828
A0A7M7KMF2_VARDE/346-471,0.6209868,-0.0008492712,0.0315984,-0.5123254,0.9934703,-1.3806849,-0.043963157,-0.02829284,-0.008190348,0.024700537
A0A8U8CB82_GEOPR/523-629,-0.47542697,0.0022579413,0.016401775,2.1529353,2.7953587,-0.31076878,-0.08201455,0.034816727,0.0014851317,0.012360533
A0A8C8ALD4_9STRI/362-491,2.5387359,-0.017843932,-0.06651588,0.57585347,1.7402457,-0.9527798,-0.07574557,0.00016885996,0.013209181,-0.004430875
C1GJI0_PARBD/476-582,-2.7956908,-0.031516768,-0.020511996,-0.38893643,0.89459544,-0.8788646,-0.058827713,0.019470587,-0.0078112837,-0.03798021
A0A8C2ZQR0_CYCLU/366-494,2.5550418,-0.025877714,-0.081345126,-0.5048096,2.0594478,-0.84532934,-0.05970095,0.0049490966,-0.0033842642,-0.020949375
A0A5N6HMI6_9EURO/129-248,-2.6552022,-0.06315105,0.02518269,1.2651718,-2.1731699,1.857291,0.018863043,0.016505174,0.0916974,-0.07679096
A0A5C3QS13_9AGAR/541-648,-1.6688846,-0.015959946,-0.027779609,0.14512095,0.34602606,-2.013869,-0.043646038,-0.02148375,0.009958394,-0.024014436
A0A5N5G6J9_9ROSA/414-562,2.479005,0.01742769,-0.048292637,1.301114,0.783595,1.2906384,-0.058831595,-0.018678173,0.039429404,-0.028687112
A0A6J3HNH4_SAPAP/220-328,0.8523776,0.032539044,-0.109373435,0.3093022,3.2523627,1.5035907,-0.027479751,0.007016044,0.0048056897,-0.049598414
A0A7E4ZWC5_PANRE/36-152,1.3026018,0.023894694,0.030355629,1.7799301,-1.408118,0.9918564,-0.08197584,-0.035182938,0.0042627063,0.046581622
A6QTE0_AJECN/195-306,-1.1013726,-0.049461227,0.005919855,-1.0986128,0.13845502,3.531817,0.05170525,0.0573475,0.040708795,-0.04758514
A0A177B363_9BILA/30-140,0.5886747,0.041682594,0.054750156,-0.9127716,-1.4583628,0.6730332,-0.024028389,-0.043765895,-0.09427273,0.07087922
A0A8H7FZL0_9AGAM/162-279,-2.0510619,-0.079671845,-0.04549684,-0.59909654,-1.9480582,-1.7360668,0.015138911,-0.009806987,0.03458119,-0.04733948
Q17PM3_AEDAE/366-495,0.9032937,0.020272955,0.04889365,0.24265005,1.1363546,-1.1025443,-0.06471074,-0.017841978,-0.014388916,0.052130297
A0A1A6A7J7_9TREE/410-523,2.2618947,-0.016103197,0.053203885,-1.557367,0.5459067,0.08159936,-0.072937906,-0.019728698,0.004153585,0.03948272
Q19328_CAEEL/551-668,-0.42288214,-0.03320858,-0.011132497,-2.3513875,1.9824232,-2.0338902,-0.01743465,-0.0044243746,0.04064793,-0.027084816
A0A665VG84_ECHNA/364-494,2.2621017,-0.033982545,-0.045701627,-0.54728496,1.8580453,-0.9718197,-0.06420492,0.007561121,-0.001758771,-0.009186927
A0A2H3H0L8_FUSOX/31-140,-1.1064439,-0.060136404,-0.039080758,-0.17279088,-2.6425712,3.1737835,0.10765815,0.0009431541,0.08711742,-0.16026874
A0A8C1AZ77_CYPCA/219-327,1.5304384,0.031724405,-0.10749471,-0.49589375,2.445247,1.7249665,-0.006160547,0.026911765,-0.012180045,-0.028729469
A0A6J3M2V8_9PEZI/28-141,0.3845086,0.03292307,0.03176524,1.275334,-1.2362343,2.624148,0.015052412,-0.044650845,0.007099578,-0.006999016
T5AL89_OPHSC/130-241,-3.3511984,-0.046689056,-0.016747871,0.28200173,-0.79022604,-0.5472819,-0.018361328,0.03748481,0.041277125,-0.05243573
A0A8J2WTN2_9STRA/146-255,-1.8747258,-0.035527807,0.02173891,-1.563949,-0.16292228,0.087492295,-0.017730035,0.022863466,-0.06473224,0.04177947
A0A179IJ22_CORDF/508-614,-3.5919425,-0.038774237,-0.031590015,-0.19045775,1.4799314,0.6510608,-0.038292356,0.07457961,-0.013411582,-0.057779487
A0A8H7D4E4_9AGAR/1196-1305,-0.32707945,-0.031652957,0.04155278,-1.2969109,-3.2437844,-0.17914365,-0.040390674,-0.023653306,0.010759681,-0.0040040296
A0A668AF60_9TELE/303-431,2.3838587,-0.030841678,-0.058489565,-0.38993365,2.0181255,-0.9511594,-0.06313945,0.005290147,-0.0034833374,-0.015733536
A0A164U7Z3_DAUCS/38-150,0.81233674,-0.0047457768,0.0071186908,0.43795002,-2.3547237,-0.610799,-0.08113858,-0.019832354,-0.004996512,0.016329058
A0A4Q1BGL6_TREME/587-692,-1.274766,0.060622104,0.009082034,-0.25491908,0.4241855,-1.3079492,-0.054186977,-0.048973136,-0.03796371,0.017950144
A0A2I4AVW9_9TELE/268-376,1.2767664,0.031130027,-0.09316471,-0.4610392,2.4657624,1.5808975,-0.018256793,0.026596054,-0.010827515,-0.025981061
A0A3S4P841_9MAGN/39-148,0.8428451,-0.05547121,0.0002624169,0.79102093,-2.686211,-1.0407283,-0.084826164,-0.027931206,0.038167298,-0.0053033642
A0A0C3QJ84_9AGAM/346-457,-1.5958505,-0.0046673827,0.0011363812,0.18355893,0.61689836,-1.8440038,-0.058706254,-0.009330848,-0.012922558,-0.008669082
A0A507C1S1_9FUNG/225-334,-0.10369618,0.034044914,0.044901658,0.06567926,1.1519258,1.6928291,-0.036066398,0.014594156,-0.04906993,0.06725913
A0A067EUU1_CITSI/42-150,1.007231,-0.032253645,-0.015849736,-0.54348075,-2.448994,-0.5291457,-0.084544934,-0.019349072,0.001975011,-0.0070143305
A0A811K7H6_9BILA/356-468,0.8661755,0.030463524,0.034650583,-0.36137548,1.0022818,-0.64000106,-0.047780044,-0.018636256,-0.034751397,0.06329623
A0A674CQC3_SALTR/343-474,2.309912,-0.024235714,-0.060216956,-0.3095492,1.8678695,-0.85239464,-0.05857292,0.0042611994,0.0012187622,-0.012514874
A0A0F4GYU2_9PEZI/343-454,2.2720737,0.007900037,0.024716672,-0.24044715,-0.61924124,-1.8483609,-0.14025323,-0.060531747,0.042975664,0.005396748
A0A803LR84_CHEQI/38-149,0.72486144,0.04419637,0.024325844,-0.17130746,-1.8857077,-0.44293296,-0.07217535,-0.04119624,-0.06456525,0.03379401
A0A151WT61_9HYME/9-125,2.1626036,-0.06380126,0.036530603,-3.376082,-2.3104436,0.9328358,-0.05332888,0.040434837,0.07077349,0.018167952
V5BL57_TRYCR/550-655,-0.83257574,-0.022612164,0.028687406,0.7937527,0.92461944,-3.4195611,-0.076362796,-0.026159812,0.029628005,-0.04605649
A0A4R8RS41_COLTR/344-455,1.2920091,-0.006734253,-0.017770575,-1.0422769,-0.32011518,-2.422247,-0.07986237,-0.037637554,0.048284143,-0.026890475
A0A7R8UKT7_HERIL/215-326,-0.36835012,0.034251478,0.011623964,1.7734536,2.861809,1.5686061,-0.06428014,0.009252723,-0.02362495,0.017185666
A0A8C4UFF3_FALTI/219-327,0.7443978,0.023629285,-0.06844116,0.017878888,2.8027487,1.0498765,-0.040837415,0.014767669,-0.005420873,-0.02412346
A0A8J5XSG2_DIALT/198-309,-0.7767756,0.027923778,0.069731385,-0.925002,1.093421,0.9719083,-0.044398576,0.00680656,-0.11056969,0.07697372
A0A0C2XBR7_AMAMK/221-346,0.94702977,-0.02034185,0.00254526,0.89350176,0.40154168,2.7568944,-0.017177455,0.022315603,0.03884825,-0.058012147
A0A2T4A3R9_TRIHA/342-453,1.2897341,-0.025351409,-0.012203675,-0.36065245,-0.014985021,-2.7487628,-0.092899054,-0.03390781,0.033067334,-0.050343428
A0A0C2H7E2_9BILA/219-325,0.11591843,0.04546287,-0.0021328293,0.6659627,1.791747,1.9781129,-0.037365697,0.012144357,-0.011584051,-0.0014307164
H0X8X7_OTOGA/275-383,0.82944846,0.028886467,-0.102117136,0.27897018,3.2088244,1.3486757,-0.030756362,0.0069912374,0.0047138557,-0.047383208
A0A0F4Z0E6_TALEM/346-457,3.021131,-0.022754682,-0.031764816,0.756194,-0.3303057,-1.5456043,-0.124316886,-0.04351889,0.05528239,0.006112544
A0A8C5FJG5_GADMO/354-484,2.52672,-0.020257017,-0.08584182,-0.41669625,2.1592426,-0.80396867,-0.057653785,0.0036780424,-0.0019263169,-0.023306992
A0A8C7D9N5_ONCKI/115-247,2.3403533,-0.032023735,-0.06866056,-0.6087095,1.9945976,-0.9303035,-0.054768354,0.0059408806,-0.0018378487,-0.018783715
A0A8B9PZU6_APTOW/538-646,-0.943166,-0.02050117,0.0050547607,1.166138,3.1400948,-0.22296762,-0.08182828,0.052746616,-0.0159533,-0.010121159
A0A1Y2M0Z5_EPING/514-620,-2.7545936,-0.017308624,-0.02099865,0.024306854,1.2389278,-0.31595436,-0.059252106,0.027207293,-0.021973345,-0.027059745
A0A8H3SF66_9EURO/513-619,-3.5373971,-0.07079142,-0.033030417,-0.8910686,0.88854325,-1.1360651,-0.04612107,0.042437077,0.030031752,-0.07593669
A0A0C3PAU2_PHLGI/195-321,0.8081198,-0.019960739,0.012250319,1.0252358,0.36564726,2.5871496,-0.024671309,0.019972723,0.034628116,-0.043838594
A0A167PMR0_CALVF/537-644,-1.8738369,-0.0057945987,0.0024274066,-0.123221286,0.6360175,-1.9369116,-0.06339754,-0.019990748,-0.012785042,-0.020692538
A0A7N6FM67_ANATE/199-307,1.4527634,0.03046241,-0.098554626,-0.5132116,2.3878758,1.6963278,-0.009513786,0.028268568,-0.011357999,-0.024383709
A0A075A191_9TREM/35-154,1.4675266,0.048227914,0.050463524,0.77884114,-0.8806581,0.40702224,-0.110940166,-0.062066317,-0.033956528,0.07977046
A0A4Q4Y025_9PEZI/507-613,-3.3676317,0.008788111,-0.0058093816,1.221905,0.74722326,0.20932722,-0.09015328,0.06544174,-0.021919511,-0.016153652
E3QVW3_COLGM/195-309,-1.8663871,0.008576311,-0.008455489,0.10434839,1.5609454,2.5460021,0.0053816643,0.026930377,-0.028827813,-0.0050640423
A0A135V0T9_9PEZI/31-142,-1.3462077,-0.04762756,0.011570297,1.7808782,-3.1761694,1.2712896,0.01723553,-0.014131591,0.06924786,-0.05826721
A0A5F9CF82_RABIT/552-660,-1.1917379,-0.034571905,-0.018650617,-0.05000812,3.2078183,0.030715019,-0.049292877,0.05383279,-0.0064654546,-0.014635172
A0A835VP04_CHLIN/35-145,1.0166941,0.023826137,0.044446718,2.0260997,-1.8367578,-0.9844682,-0.08080639,-0.04737834,0.014161522,0.03196832
A0A1V6RK55_9EURO/345-456,3.03569,-0.021623138,-0.038314883,0.50257224,-0.24822089,-1.6331675,-0.12117082,-0.04229445,0.051633224,0.0047280546
A0A2K5SCG0_CEBIM/212-320,0.8523776,0.032539044,-0.109373435,0.3093022,3.2523627,1.5035907,-0.027479751,0.007016044,0.0048056897,-0.049598414
A0A813TM25_9BILA/216-326,0.60861534,0.036811747,0.027856123,-1.6347584,1.2173198,1.9217252,-0.025967095,0.016509458,-0.087528296,0.049197458
A0A067C0V4_SAPPC/194-306,-0.8829819,-0.059410937,-0.00553149,-2.97244,1.9049102,2.0372791,0.0150873065,0.07111273,-0.03136506,0.020292679
A0A2G8KJS7_STIJA/221-328,0.46018207,0.033622812,0.040604535,-0.39482272,1.519644,1.6049682,-0.03967649,0.020082626,-0.044786073,0.04987791
E9GT82_DAPPU/548-659,-1.0621935,0.0071639866,0.04133762,0.06950001,1.7239567,-0.65801406,-0.07096241,0.026761562,-0.060986266,0.038817015
A0A8C0GIA9_CHEAB/131-239,0.7881005,0.025873534,-0.07514456,-0.14914846,2.8442333,1.1984106,-0.037795268,0.01891268,-0.009839999,-0.025012657
K3YPK7_SETIT/39-148,1.6753345,-0.054823656,0.030744549,-0.21147986,-3.4607384,-0.037182376,-0.120867714,0.021416035,0.08080202,-0.023875322
A0A093YCK2_9PEZI/551-657,-3.0201097,-0.012594143,-0.038754314,1.7114744,0.5345389,-1.1481249,-0.10141309,0.030112341,-0.0054806005,-0.036295895
C4JLQ7_UNCRE/510-616,-3.0371292,-0.042342708,-0.0209474,-0.36776108,1.0795033,-0.94240737,-0.060480446,0.034842134,-0.00015304796,-0.0396034
A0A816FZF8_ADIRI/43-164,1.8954428,-0.03461152,-0.009830458,-2.9185543,-0.6082817,2.037089,0.008604987,0.0031650066,0.0590443,0.05166716
A0A383ZQ69_BALAS/220-328,0.8523776,0.032539044,-0.109373435,0.3093022,3.2523627,1.5035907,-0.027479751,0.007016044,0.0048056897,-0.049598414
A0A671FYW6_RHIFE/220-328,0.8033948,0.030422226,-0.10548249,0.3208675,3.208734,1.5049006,-0.027858283,0.007466588,0.0063200016,-0.048217867
A0A4U0WRM3_9PEZI/145-257,-1.9797438,0.01063323,0.024565477,0.3360876,-0.80203474,0.6489663,-0.044808738,0.02030525,-0.060274992,0.07233381
A0A5F9D9Z0_RABIT/484-592,-1.1917379,-0.034571905,-0.018650617,-0.05000812,3.2078183,0.030715019,-0.049292877,0.05383279,-0.0064654546,-0.014635172
A0A8C5QT59_9ANUR/36-154,2.6216621,-0.010242965,0.0586703,-0.3449534,-1.6289827,0.49024105,-0.13925768,-0.016173653,0.025763936,0.023138553
A0A2K6PMW7_RHIRO/220-328,0.8523776,0.032539044,-0.109373435,0.3093022,3.2523627,1.5035907,-0.027479751,0.007016044,0.0048056897,-0.049598414
A0A8H7U1L9_9APHY/139-256,-1.5482892,-0.020194333,-0.07170404,0.03487201,-1.5971719,-1.8864063,0.005820224,-0.029071447,0.0028563123,-0.041590262
A0A1E4T9V1_9ASCO/347-458,0.9714078,0.06917483,0.014043346,0.5228664,-0.37040052,-1.4034132,-0.09595785,-0.065270565,-0.020419039,0.050706998
A0A0F9X3J1_TRIHA/509-615,-3.6172202,-0.037466332,-0.03839674,-0.11109834,1.2642971,0.6835728,-0.03710851,0.08106612,-0.0028703623,-0.05639079
A0A8J4PV67_9MYCE/559-659,-0.72659165,0.10641623,0.042822476,0.98276323,0.5441829,-0.47895947,-0.07498572,-0.03196026,-0.07533741,0.089569226
A0A7M5V8Q7_9CNID/171-281,-0.73082966,0.039227925,0.050289597,0.4128641,1.4497331,-0.5356273,-0.078757316,0.011009611,-0.0651543,0.06611185
A0A8H6D4T9_9HYPO/509-615,-3.749434,-0.028457599,-0.038113974,0.38803533,1.4720327,0.8325187,-0.048699386,0.08253845,-0.009687756,-0.06558098
A0A423X3E9_9PEZI/196-307,-1.5597974,0.018678013,0.013002165,0.47344452,1.0251851,2.0715964,-0.015948834,0.025531769,-0.031244569,0.012842011
A0A6H5GIX9_9HEMI/200-329,0.9271461,0.035498686,0.045660485,0.34596398,0.99140155,-0.88389087,-0.068715125,-0.021185253,-0.022971239,0.06012986
A0A3M7MW03_9EURO/339-450,2.3011842,0.006343605,0.0013292246,0.43164262,-0.3113388,-1.5881101,-0.12110056,-0.05041884,0.03706625,0.0173361
A0A7C8ISA5_9PEZI/537-648,1.1232637,-0.022074087,-0.026283707,-0.4565628,-0.4931354,-2.689178,-0.09016252,-0.039364256,0.044679996,-0.032722455
A0A0E0KQ46_ORYPU/46-154,1.3636479,-0.027962308,0.012040883,-1.9436132,-2.5200915,-1.0708108,-0.09967035,-0.020604447,9.4249845e-06,-0.018390618
A0A4P9YX50_9FUNG/355-466,1.7925482,-0.011964913,0.013413094,-0.21843916,0.42373052,-0.7838226,-0.087273955,-0.023168355,0.0040671583,0.024311934
A0A7E4ZWC5_PANRE/534-649,-0.97071415,-0.005508057,0.009830527,-0.26476136,1.4616407,-1.773984,-0.067928016,-0.0013928898,-0.023408398,-0.010770351
A0A395H5T3_9EURO/135-254,-2.2183952,-0.03896251,0.054181714,-0.72963744,-1.2018462,1.6755687,0.015507173,0.02257334,-0.009014932,-0.0037896894
F2U638_SALR5/351-470,1.2907156,0.04566677,0.044090506,-0.18894364,0.8480957,-0.9039457,-0.08101239,-0.022479635,-0.015304521,0.06394999
A0A8C8RJP3_9SAUR/527-635,-1.0203,-0.010457667,-0.00089320913,1.0375935,3.013729,-0.49640125,-0.07970735,0.047442384,-0.013346452,-0.018219102
U7Q0F3_SPOS1/339-450,1.1240805,-0.00044059195,-0.009345245,-0.17737317,-0.495892,-2.6816757,-0.09160641,-0.049857676,0.03419739,-0.021833934
A0A8C7J3D3_ONCKI/13-132,3.0905511,0.014651515,-0.061423425,-0.35889047,-0.59730476,2.7482612,0.0075223744,-0.033204146,0.02678281,-0.05455522
A0A8R1HJY3_CAEJA/55-171,1.3828002,0.007235728,0.01660902,2.1008666,-1.7770121,0.80449325,-0.08901389,-0.033408344,0.020335916,0.022268405
A0A4Z1JLG9_9HELO/259-370,-3.4974463,-0.035109065,0.01255909,0.008341948,0.5439706,2.9125905,0.03276109,0.0972837,0.08559206,-0.09915058
A0A238C3M1_9BILA/43-159,1.5107028,0.017181065,0.037932817,2.3671749,-2.2247922,0.81357574,-0.100041516,-0.029258953,0.028363623,0.015761767
A0A8C1B050_CYPCA/224-332,1.5304384,0.031724405,-0.10749471,-0.49589375,2.445247,1.7249665,-0.006160547,0.026911765,-0.012180045,-0.028729469
A0A0E9NRE1_SAICN/337-454,0.8215191,0.021542426,0.04439206,0.1646777,-0.32687014,-1.5238944,-0.072113425,-0.06048224,-0.010558793,0.021094084
A0A0V1HPR3_9BILA/369-494,2.4397364,0.0017585084,0.04121128,2.5268517,1.1806432,-2.2866719,-0.1598545,-0.013058893,0.06647885,0.010822783
A0A8B7RN22_HIPAR/48-166,3.6019614,-0.016544625,0.05550016,0.026692094,-1.3829885,0.26464117,-0.14422894,-0.05838935,0.05993686,-0.0026450679
A0A2I3RC25_PANTR/351-480,2.6688297,-0.023190215,-0.074174926,0.39035052,1.90214,-1.0251867,-0.07559399,-0.00064074993,0.008799732,-0.012484755
A0A8I3PQZ2_CANLF/220-328,0.8523776,0.032539044,-0.109373435,0.3093022,3.2523627,1.5035907,-0.027479751,0.007016044,0.0048056897,-0.049598414
A0A6I9I4J9_VICPA/367-496,2.6688297,-0.023190215,-0.074174926,0.39035052,1.90214,-1.0251867,-0.07559399,-0.00064074993,0.008799732,-0.012484755
A0A8C9JZP5_PANTA/220-328,0.8523776,0.032539044,-0.109373435,0.3093022,3.2523627,1.5035907,-0.027479751,0.007016044,0.0048056897,-0.049598414
A0A059A587_EUCGR/42-151,0.7940986,-0.06278382,-0.0066502243,0.8537842,-2.7447672,-1.2344153,-0.08397131,-0.028984532,0.043866154,-0.009642635
