id,dim0,dim1,dim2,dim3,dim4,dim5,dim6,dim7,dim8,dim9
A0A0N0T2C6_9ACTN/1-306,-0.15412587,2.8378315,3.2176287,-0.03115444,-0.10751698,-2.5307052,0.0106985085,-2.048692,0.19533543,1.5871478
A0A0Q8PAB2_9BURK/1-323,-0.016256984,1.8437502,0.6227192,-0.026111117,-0.011369375,-2.311308,-0.017492447,-1.3276268,-0.8631002,-0.062330708
A0A1F4JTW8_9BURK/1-324,0.008719599,2.5187953,0.25877038,-0.0018844008,0.004040612,-2.2431488,0.047533743,-1.6188703,-0.7589852,-0.22113478
F1VUV0_9BURK/1-324,0.016029535,2.5318327,0.17205994,-0.049467318,0.018895919,-2.0838082,0.0483136,-1.3317438,-0.8593552,-0.030500885
A0A0L1HF34_9PLEO/1-336,0.015674766,0.6003663,1.0976814,0.021848919,-0.031581257,-0.66372186,-0.0047158115,-1.6359144,0.20657317,-0.60586447
A0A178DMK4_9PLEO/1-327,-0.01538047,0.15988141,1.6571392,-0.017772192,-0.023527116,-0.5855502,0.05772997,-1.8298142,-0.7091694,-0.28240448
A0A0J0XCF3_9TREE/1-328,0.013721605,1.1817302,0.6400868,-0.092994295,0.024345545,-0.74301976,-0.0030399226,-1.5910343,-0.720877,-0.251795
B9TP52_RICCO/1-275,0.008136176,1.105552,0.11996178,-0.10662723,0.031927504,-1.3419067,-0.02824707,-0.78539145,-1.1795987,-0.3267668
A0A1I5FMY7_9PSEU/1-349,0.028416451,0.3670695,-0.25227278,-0.07340209,-0.008528801,0.049600583,0.037842527,-0.32717824,-0.45462656,0.14661796
A0A2D3V8C6_9PEZI/1-347,0.0019339931,0.6791202,0.46798098,0.028725432,0.009801291,-0.51585114,0.031144964,-2.2385795,-1.978186,-1.6648132
L2FX98_COLGN/1-347,0.0074680154,-0.065857664,1.6502272,0.069357164,-0.050546363,-0.2927561,0.04507453,-1.9478786,-0.6239241,-0.024235196
A0A1W6JTS2_9CAUD/79-411,0.002989546,0.4937515,0.77312875,0.05351772,0.019973313,-0.54507357,0.044708014,-0.38337183,1.1952087,-1.115077
G1DU00_9CAUD/79-411,0.0039091804,0.50019395,0.785369,0.05199604,0.019625744,-0.5688657,0.044756807,-0.37901682,1.2206964,-1.1200868
D3Q1M3_STANL/44-391,-0.003735246,0.48401278,-1.4097747,-0.030471938,0.006861767,-0.4980624,0.029337117,0.6837275,0.74622583,-0.65031874
A0A1I1ZCD0_9GAMM/35-360,0.0065634516,-0.26157454,-0.60052335,-0.10864001,-0.006520735,-0.67294216,0.010182589,0.22581483,-0.07371354,-0.6067593
A0A0G2ZZJ0_9DELT/23-407,-0.07094128,-0.19916773,-1.5177974,-0.09047318,-0.007976447,-2.165158,-0.022259902,-0.724887,-1.0067391,1.3522574
A0A161LD80_9BACT/215-603,-0.0024283598,0.18252197,-0.46067044,-0.079306714,-0.019193897,2.0338323,0.03175363,0.15293574,0.0114463195,-0.26866668
A0A1H1M1G1_9ACTN/59-388,0.022033485,0.15614267,-0.2253412,-0.1060315,0.033692032,-0.5502205,-0.024042498,0.597413,-0.57222193,0.19477972
Q9KEY4_BACHD/34-364,0.081299976,-0.62551713,0.45714536,-0.08275988,0.03713634,0.13051552,-0.02243324,0.37212086,-1.4274645,-0.36812636
A0A1C4WD36_MICEC/42-367,-0.010244146,-0.33233532,-0.53839844,-0.06277715,0.0024333075,-0.5567051,-0.022158738,0.5728579,0.18164241,0.26274988
A0A192WX94_9BACT/30-356,-0.05776608,-1.3276943,-1.1629478,-0.06648406,0.0064943545,-0.77119684,0.041825622,0.38003355,-0.42529553,-1.064107
A0A0T1QDW9_9ACTN/8-336,0.03149829,0.35861158,0.12758759,-0.02893736,0.0412703,0.36304474,-0.022094022,1.2548054,1.6266503,1.8791711
A0A2D1U2I0_9SPHI/147-471,-0.010712561,-0.8147389,1.2322185,-0.19160806,0.03953968,0.68264204,-0.07017949,-0.12209445,0.042937297,-1.0296175
A0A1M4ZYK6_9BACT/52-378,0.041123502,-0.28424165,-0.36656287,-0.07607389,0.04410477,0.12056886,0.014370501,0.07426116,-0.9134946,-0.2687797
W5Y7X4_KOMXY/44-383,-0.07018898,2.0316086,-1.6174366,-0.048220687,0.0702062,0.62025577,-0.0791031,1.1350186,1.2020569,0.9495417
A0A1I7PHU5_9BACT/28-380,0.08445347,-0.29163828,-2.0717065,-0.025497532,-0.028172089,0.06494685,0.037560504,-0.18694237,-1.3157594,-0.28502616
A0A0N1KE85_9ACTN/48-379,-0.011547298,0.9584848,-0.07688438,-0.04600928,-0.015692865,-1.1590859,0.0013772808,0.6746323,0.29255188,-0.03769537
X2KYU1_9CAUD/87-411,-0.0062963255,0.48195577,0.7955728,0.070584245,0.011502119,-0.45505524,0.0151211135,-0.22642015,0.7822733,-1.0294341
A0A1X0HUX8_MYCPF/45-372,0.065910496,0.39732334,1.6449646,-0.053315714,0.026377449,-1.2451574,0.019822756,0.885612,1.7128576,-1.2187859
A0A0N0TT70_9PSEU/48-394,-0.052712798,0.5144141,-0.33517632,0.040283773,-0.05908163,-3.9511685,-0.030118551,0.53176856,-0.20831932,-1.9293156
R4T4U8_AMYOR/38-382,-0.006878406,0.6714464,0.09304924,0.06461478,-0.05782471,-3.37286,-0.023538414,0.7139826,-0.50870186,-1.6241469
A0A1I0LNQ2_9ACTN/13-338,-0.04654482,0.09786664,-0.4468536,0.05888859,-0.07957145,-4.2543044,-0.020488176,0.47828573,-0.22059979,-1.8892041
A0A1V4EJX9_9ACTN/28-368,-0.0043148044,0.51159,-0.4823194,-0.006165741,-0.038555805,-3.4103699,-0.04987706,0.5297437,0.041090846,-1.717746
A0A1E7NGU3_KITAU/19-345,-0.052669432,-0.037200592,-0.06733718,0.076272234,-0.08290032,-4.2254124,-0.023420151,0.6057659,-0.19248502,-1.6892412
A0A1I4REN8_9PSEU/34-366,0.011410545,0.9136631,-0.5486959,0.016644316,-0.07916392,-3.5783365,-0.029600803,0.3565439,-0.27115655,-1.7638292
F8JN08_STREN/15-353,-0.018940354,-0.21002819,-0.22254719,0.024676083,-0.072841614,-3.9963477,-0.0658143,0.66787934,-0.35296762,-1.6781266
A0A285QZJ0_9ACTN/15-357,-0.03688702,0.042200796,-0.22838363,0.085861854,-0.07786977,-4.268011,-0.044341493,0.69945204,-0.096187994,-1.6297597
A0A147FUT9_9GAMM/58-399,-0.030634029,-0.020515213,0.9733909,-0.008125376,0.010240635,0.37388974,-0.05268598,0.1771359,0.6614517,0.103259504
F2LR37_BURGS/55-430,-0.039517734,0.018260226,0.19649497,-0.115747176,0.016619032,-1.4188629,-0.030263048,-1.3550855,-0.9253891,-0.60415494
A0A142Z6G1_9BURK/53-423,-0.036082067,0.03677597,0.06684495,-0.12122717,0.007973729,-1.4167364,-0.043996636,-1.4225147,-1.1647453,-0.7746307
A0A193G9S9_9BORD/53-429,-0.03909268,-0.06970494,0.012319988,-0.12018066,0.009773161,-1.4331021,-0.04773243,-1.4664196,-1.0543127,-0.7927105
A0A069PE58_9BURK/53-430,-0.0483697,-0.06411618,0.10528882,-0.13896923,0.014079543,-1.5188926,-0.034790743,-1.5353066,-1.3718725,-0.83669066
A0A0D7PS64_9BRAD/7-378,-0.034505777,-0.41897306,0.10893722,-0.07609573,0.0100302715,-1.0973325,-0.033321213,-1.2107494,-0.66369736,-0.47240683
T5AJY0_OPHSC/52-395,-0.013145841,-0.39813346,2.6215508,-0.05674486,-0.038158357,1.0084122,-0.016842324,2.1337535,0.24294691,-0.33829683
A0A0S6UIB5_9BRAD/34-409,-0.15825106,-1.581558,0.74364644,-0.02078391,-0.121307,-2.1272023,0.045587797,-1.7379112,-2.3334272,-1.4003813
A0A1H8KD83_9BACI/7-342,0.026196804,1.2928286,0.3423398,0.06757947,-0.055592954,-0.59298056,0.07221231,-0.34277022,-0.82047814,-1.2001468
A0A233RZ74_9ACTN/66-392,0.033156656,0.18972063,2.5244179,-0.087743394,-0.0043345504,-1.2805897,0.04386313,1.1988263,2.1170673,-1.566315
A0A101NL61_9ACTN/66-392,0.032263983,0.5034113,2.6474457,-0.06423215,-0.00854142,-1.1228851,0.05375266,1.2280335,2.0361695,-1.5203975
A0A1B1B1I0_9ACTN/61-387,0.036597636,0.33142656,2.5180914,-0.09417917,0.01920755,-1.1890347,0.027513193,1.2476463,1.9128563,-1.330811
A0A1H2B8N8_9ACTN/9-347,-0.021411384,0.4153425,-0.11736629,0.061393082,-0.083063245,-2.6708386,-0.02526227,0.54373205,-0.10564524,-1.1559459
A0A1T5K5B0_9MICO/23-349,0.010650668,0.7736626,-0.2561134,-0.025747,-0.050819136,-3.167857,-0.03621241,0.53574866,0.11310552,-1.6123915
A0A1A1YGK9_9MYCO/39-395,0.015091555,0.8383328,1.1707302,-0.031552374,-0.013036407,-0.8670474,0.0025553964,0.39364493,0.79927003,-1.0450697
I3WWR1_9CAUD/80-406,0.055964127,0.30062535,1.1049995,0.058690026,0.0026715305,-0.69081444,0.0346551,-0.2640633,1.3331482,-1.0268408
A0A0Q7B632_9ACTN/25-396,0.016560793,-0.2058854,-0.28769934,-0.022126535,0.03345354,-0.44744182,-0.008739047,-0.7329147,0.017120421,-0.2455469
D1C8J4_SPHTD/231-559,-0.0023482845,0.33225644,1.1574475,0.01340464,-0.048476998,-1.13901,-0.010898028,0.17940284,0.38783103,-1.2189281
A0A1I5MMY6_9ACTN/38-380,0.02134684,0.50947887,-1.3991568,-0.044129744,0.002120804,-0.5995893,0.005158618,0.7787023,0.8963413,-0.5816961
A0A0M9DP23_9BACT/36-377,-0.005502783,-0.6072402,-1.9379005,-0.021632342,-0.04599835,1.4596926,0.03186705,-0.97669995,0.52790064,-1.141503
M7SGT0_EUTLA/4-354,0.006740366,-0.19043137,0.14796367,0.00077602454,0.0063044727,-0.83233434,-0.00053747,-1.5657638,0.08221882,0.14269255
A0A1I0SGU9_9SPHI/33-381,0.05897426,-0.35982305,-1.9061071,-0.006535573,-0.040124338,0.59314007,-0.030803215,0.06770022,-1.9224104,-0.8889014
A0A0S3FXC1_9FLAO/1-343,0.048665434,-0.43042928,-1.9154035,-0.030597104,-0.024813922,0.5331328,-0.016078789,0.08071141,-1.6108863,-1.112755
R5Z1S1_9BACE/585-976,0.01834825,0.5101212,-0.13114025,-0.061056964,-0.025108716,1.9735262,0.023861885,0.35154808,0.22197363,0.06596452
A0A1G7UHU4_9FLAO/52-400,0.050458163,-0.23690823,-2.0549746,-0.018292377,-0.041422524,0.74997985,-0.010949142,0.03329575,-1.7328812,-0.6556007
A0A1H1FS75_9FLAO/39-388,0.04388192,-0.50908464,-2.1618643,-0.032392487,-0.032899324,0.6302589,-0.0177101,0.10306111,-1.7491704,-0.978135
A0A0C1FH85_9SPHI/1-343,0.10314703,-0.0068463776,-2.0685601,-0.013919072,-0.05055491,0.5602003,0.013207696,-0.18578172,-1.6336817,-0.6868441
A0A172ZMD5_9BACL/37-361,0.025321571,-0.10647824,0.04755743,0.001091158,0.033210672,0.06374444,-0.009676881,0.8407099,-1.3988307,-0.19943908
G0G7Z2_AMYMS/21-334,0.028401105,0.36544287,-0.112965085,-0.09128951,0.02285731,-0.57347935,0.0073361658,0.28751087,-0.2611593,0.2253665
A0A0D1P6R5_BRAEL/7-383,-0.15467146,-1.261962,0.6188819,-0.06835896,-0.11293977,-2.1691365,0.039551735,-1.733675,-2.6990232,-1.5506417
A0A120FPV3_9BRAD/7-383,-0.14250295,-1.3579038,0.7276807,-0.064660035,-0.100615524,-2.0136476,0.043353666,-1.7450907,-2.5788403,-1.2831694
A0A0D7PCN2_9BRAD/7-383,-0.1366151,-1.2330279,0.7518823,-0.072751,-0.09589953,-1.9532015,0.045958478,-1.7805686,-2.6707432,-1.3425885
A0A255II27_9FIRM/10-325,0.0087341415,-0.33000898,0.03463365,0.0012476388,-0.00032871962,0.36352125,-0.03406438,0.95538574,-1.8323041,-0.40884897
A0A1B9HYH1_9TREE/14-409,0.014033059,-0.20031534,-0.19533974,-0.0012607779,0.0162186,-0.46274853,0.012016248,-1.3377866,-0.6891598,-0.15166128
A0A1B9J2P6_9TREE/15-413,0.00092928676,-0.2645704,-0.3026306,-0.013329012,0.014965525,-0.47470585,-0.0006399788,-1.5037119,-0.772254,-0.15442167
A0A1B9FV97_9TREE/15-414,-0.0021419046,-0.12462234,-0.15496182,-0.025434269,0.012876293,-0.5142862,-0.012755029,-1.345077,-0.6115845,-0.10970931
A0A1A5ZWP2_9TREE/14-410,0.012517113,-0.19536257,-0.32016173,-0.0032434799,0.014963744,-0.47523767,0.005461555,-1.2960728,-0.67620635,-0.10073294
A0A1Y2BB82_9TREE/16-411,0.009721031,-0.12883265,-0.36511588,0.019035237,0.0033645872,-0.56779724,0.0011795461,-1.3386328,-0.3364234,-0.21953832
B7K055_CYAP8/60-426,0.014658366,-0.97307426,-0.66756016,-0.08261279,0.026818315,-0.19203188,0.053494155,0.07464121,-0.23882629,-0.8673516
A0A1H1QUB6_9MICO/11-387,-0.120991126,-1.8486595,-0.4141297,-0.025757974,-0.036478356,-1.6066171,0.013086546,-1.6772289,-0.17487197,-1.2455279
A0LJD9_SYNFM/57-385,-0.043013345,-0.8073755,1.5104954,-0.057593323,0.040455475,0.20892511,-0.08280589,0.016838767,0.06877806,-0.16883598
A0A1G8WS24_9BRAD/7-382,-0.14075726,-1.3703779,0.6106872,-0.036012582,-0.13803965,-2.2069159,0.06022319,-1.8938373,-2.8075774,-1.6473109
Q6NCL2_RHOPA/7-383,-0.15815006,-1.1556038,0.42459053,-0.07900845,-0.12999149,-2.1171398,0.01695776,-1.7479972,-2.5202472,-1.5204846
Q81Q59_BACAN/37-362,0.06786572,-0.44440126,0.13926156,-0.03756444,0.027584663,0.3386014,-0.02540179,0.58092767,-1.7474786,-0.4708233
A0A0C5BC24_9MOLU/6-366,0.036997568,-0.52330315,-1.2160234,-0.063000835,0.030964242,-0.33629873,-0.013292994,-0.65658766,-1.0081866,-0.54117376
A0A1I0EXE2_9CLOT/58-392,0.03608638,0.17458333,-0.5389211,-0.020929215,0.0026953332,0.33459502,0.005357627,0.6242492,-1.1075349,-0.3578625
A0A0H4KJN3_9BACI/39-376,0.067223996,-1.723646,0.045267068,0.05625672,0.023509393,0.82072455,-0.046432186,1.0073134,-2.2380319,-1.1955117
A0A0A2N8E7_9FLAO/1-340,0.042745102,-0.38197458,-1.903879,-0.028094558,-0.011812525,0.6175658,-0.015428547,0.12007359,-1.8261343,-1.0312945
F0X6W5_GROCL/4-408,0.0018591946,-0.78617996,0.04150094,0.0300885,-0.031000588,-0.6888529,-0.01896571,-1.3386972,0.90039086,0.12004782
A0A1A9N780_9BURK/30-367,0.104381725,-0.26474676,0.5537555,0.010383582,-0.02958084,0.3838432,-0.0054804757,1.3137631,-0.091746196,0.74771726
G1D5P1_9CAUD/79-407,0.0134080965,0.44186366,1.0468078,0.08504333,0.012884906,-0.5066157,0.047538597,-0.35025698,1.1051265,-1.2841097
E3FIP8_STIAD/28-354,0.0032745632,-1.5580269,-0.018028973,-0.03616395,-0.042759575,-0.84763825,-0.009881839,1.2037383,-0.41455954,-1.9481901
A0A1C3X2Z3_9RHIZ/44-420,-0.02481449,-0.15202805,-0.30298245,-0.13975587,0.058646098,-1.1623013,-0.045273926,-1.4500846,-1.0645142,-0.46198404
G0A853_COLFT/165-538,-0.026672779,-0.002663216,-0.43806723,-0.029219473,-0.006527488,-1.4057097,-0.012540106,-1.5905796,-1.1819065,-1.199412
A0A2A6FH74_9RHIZ/44-420,-0.044360623,-0.43085453,-0.12325313,-0.17575064,0.047901243,-1.2920284,-0.054065738,-1.5540284,-1.024031,-0.47714773
A0A1P8Y312_9ACTN/82-433,-0.002897908,-0.14508344,1.1640648,-0.028719096,0.032368906,-1.7905272,-0.052197423,1.0223291,-0.264323,-0.61072177
A0A1H9NEV6_9PSEU/13-332,-0.027394542,-0.8746094,1.2606472,-0.012565164,-0.02080234,-0.12046139,-0.023603704,-0.1970399,0.69867337,0.5605989
B8I5I6_CLOCE/46-373,0.078548975,-1.8486965,0.1823597,-0.017159889,0.022352418,0.93498355,-0.05064131,0.6848349,-1.7694515,-1.4339507
A0A1K0FG92_9ACTN/8-337,-0.06946998,0.5313851,1.2348621,0.042429153,-0.015443983,-1.4801764,0.17693515,-0.10727492,1.9520106,1.6926874
G4HMK9_9BACL/15-346,0.0029861145,1.3282785,0.47516614,0.03955037,-0.055669688,-0.6893088,0.074362665,-0.21547796,-0.81425774,-1.1420054
D9VW49_9ACTN/50-384,-0.01660119,-2.3509393,1.4570906,-0.052923225,-0.000283774,-2.080475,-0.017119434,0.46975446,2.6851468,-0.43565962
A0A1M6TGA8_PSETH/52-392,0.07360929,-0.3091501,0.3512734,0.010788337,-0.045584626,0.5422793,0.0148313865,1.9537555,-0.031614706,1.128104
A0A081P2G8_9BACL/42-354,0.03425826,-0.27285445,0.04113788,-0.05217793,0.036310576,-0.14780003,-0.00782958,0.6816901,-1.6481012,-0.047002077
V9GFC3_9BACL/22-326,0.0033838896,1.1912422,0.41898522,0.054946437,-0.05468055,-0.7777984,0.058282908,-0.1631791,-0.8542544,-1.1754197
G2NV22_STRVO/183-506,-0.025158059,-0.06860049,1.1586097,-0.055039696,0.049657524,-1.505221,-0.07163784,0.4509192,0.12809893,-0.64260834
A0A0X3SAN9_9ACTN/71-399,0.04384364,0.30123344,1.9544975,-0.082163125,0.014909575,-1.1633849,0.033072297,1.3467274,2.0944257,-1.3024187
S5UL38_STRC3/66-392,0.02387864,0.22752143,2.5365918,-0.07270761,-0.0010754205,-1.2751322,0.0424155,1.2139938,2.087074,-1.453835
A0A101SPQ1_9ACTN/65-391,0.004666891,-0.09914961,2.0928688,-0.07407562,-0.0033522397,-1.6093146,0.012230221,1.2106606,2.6677845,-1.3615907
A0A1C6RK27_9ACTN/7-339,-0.09331899,0.6066501,1.0690637,0.038342223,-0.006372473,-1.5675273,0.14302815,-0.025375456,1.683977,1.662379
A0A136PYP5_9ACTN/8-319,-0.12047395,1.1006577,1.127382,0.009236024,-0.0029551666,-1.6958754,0.1274485,-0.06066223,2.1641433,2.0430584
A0A239MBZ1_9ACTN/4-332,-0.10578509,1.1272355,1.202719,0.018135019,-0.030988317,-1.3949568,0.11952968,-0.18260865,1.5008937,1.5603924
A0A1C5HWJ9_9ACTN/8-328,-0.1177446,1.2862225,1.4179451,0.048731647,-0.041422997,-1.9229102,0.16006061,-0.09418759,2.4039822,2.2180831
A0A0M8XL20_9ACTN/1-331,-0.113513306,1.1314667,1.2988018,0.025587127,-0.01694617,-1.8167367,0.15648264,-0.14469464,2.4235573,2.0921876
A0A1C4WL72_9ACTN/8-327,-0.12142794,1.318688,1.3103821,0.027139308,-0.026082972,-1.872219,0.15115416,-0.086489744,2.39688,2.1784832
A0A1Q4ZFX8_9ACTN/8-332,-0.10840282,1.1054238,1.3813195,0.027226431,-0.0280899,-1.8385168,0.17123565,-0.17855859,2.3322136,2.193966
A0A1I1QQH1_9ACTN/14-324,-0.11932419,1.35913,1.354057,0.029499337,-0.04032454,-1.8093255,0.16016248,-0.1412507,2.3404603,2.1787875
A0A1N7ECI8_9ACTN/8-340,-0.11117383,1.2839165,1.2823812,0.031021185,-0.042411447,-1.7654881,0.16059487,-0.18416701,2.3509398,2.1406226
A0A1A9B7G7_9ACTN/8-338,-0.11522645,0.98799694,1.3609165,0.04222903,-0.0510742,-1.6489843,0.15719736,-0.22535776,2.1861339,1.9723738
A0A171DMY4_9ACTN/95-427,-0.06444345,-0.8260618,-1.6837735,-0.053800397,-0.020413838,-0.4633101,-0.014282573,1.2229329,-1.2283427,0.73884827
F4F558_VERMA/14-331,-0.10647107,0.9967024,1.2293061,0.030185254,-0.016863622,-1.7036036,0.17164509,-0.12605101,2.1602023,1.9713912
A0A0J6XIR8_9ACTN/4-379,0.029128823,-0.54893965,0.85017574,-0.012573624,-0.022954209,-2.557084,0.043747332,-0.7588153,1.3844898,1.0604887
A0A239CHB7_9ACTN/5-376,0.002172177,-0.018625587,1.4383826,-0.0941162,-0.003854908,-2.7373655,0.0018610433,-1.0719122,1.3679867,1.5238272
A1SVA3_PSYIN/54-394,0.03861653,-0.9269588,0.44553435,-0.033070333,-0.050781466,1.4523461,-0.0014437921,0.64383835,-1.1754497,0.5699026
A0A0N7JZJ6_9PSEU/23-408,-0.067437775,-0.42031628,-1.4281448,-0.10687833,-0.009549805,-2.1202183,-0.035606895,-0.99548614,-1.2771122,1.3716543
L1KSG7_9ACTN/88-418,0.005013072,0.08735461,-0.35687166,-0.08798024,0.0376994,-0.5013942,-0.043061797,0.3995108,-0.17010053,0.38893571
A0A059VZT2_STRA9/47-376,-0.0041089826,-0.091959484,-0.34624502,-0.06252368,0.022040995,-0.4876615,-0.041434605,0.46716768,-0.20209213,0.34846553
A0A177HYP1_9ACTN/60-387,-0.014696931,-0.057671443,-0.35070494,-0.087795004,0.03644567,-0.58933574,-0.044127557,0.5204981,-0.17387174,0.115829304
A0A1P8Y4W6_9ACTN/44-365,0.009613731,0.0076021673,-0.4715294,-0.10934628,0.04163965,-0.6307531,-0.033151012,0.44913524,-0.2729838,0.26154846
A0A1H0BS02_9PSEU/38-360,0.0026165713,-0.0592964,-0.27855414,-0.06551044,0.02254205,-0.62327063,-0.027079616,0.64376485,-0.3406108,0.33369416
A0A086GPA2_STRSC/60-403,0.0484329,0.14202864,1.112005,-0.026138386,-0.07263117,0.6361095,0.037811317,2.025076,0.5776748,1.6852621
A0A1I4TSJ3_9ACTN/74-416,0.05612411,0.13482527,1.1490674,0.008392091,-0.051794194,0.4821523,0.04364392,2.1748383,0.54512787,1.6727849
A0A143HK68_9GAMM/44-381,0.014213682,-1.4627554,0.034778662,-0.04608895,-0.049114726,1.7853928,-0.017304737,0.64509165,-2.1019435,1.3997741
A0A1V9K935_9ACTN/4-373,-0.008856223,-0.513593,1.2194452,-0.12539303,0.034076393,-2.764627,0.014139619,-1.2145685,1.6149712,1.605516
A0A221NSQ8_9ACTN/68-404,0.009309879,0.14374529,1.5082678,-0.008880688,-0.08032243,0.79098994,0.055997536,2.3991911,0.5879856,2.0675097
A0A177HPW1_9ACTN/73-410,-0.015071642,0.12671177,1.4579555,-0.014182845,-0.10205937,1.0861539,0.05675016,2.410998,0.23372346,1.8736461
A0A0N1GRN0_9ACTN/57-397,0.019929333,0.054782525,1.1230899,-0.010142719,-0.048411846,0.7065095,0.026438093,1.9944454,0.604711,1.495796
A0A1I7UCI2_9PELO/86-455,-0.0485075,1.4265044,-1.7085366,-0.121004574,-0.033025462,2.4823577,0.0042653717,-3.0916877,-1.5402293,1.2043374
A8XHU6_CAEBR/108-477,-0.049590483,1.4588954,-1.6323589,-0.12982719,-0.02437294,2.5206542,0.0007436611,-3.0402305,-1.6257253,1.2046223
LACT2_CAEEL/79-447,-0.04821557,1.2749273,-1.6687106,-0.113858916,-0.037907552,2.3696637,0.008595329,-2.9770987,-1.5562042,1.2171079
A0A127VV98_SPOPS/11-374,0.016378492,-0.16090348,-0.23350422,-0.008134773,-0.000547722,0.3205066,0.020744305,0.6916757,-0.8302721,-0.3490384
A0A239PAB4_9ACTN/33-382,0.0065704845,-0.34348166,0.3507054,-0.00810465,-0.016346216,0.049278837,-0.033162493,0.8885096,0.31772226,0.36851615
A0A1G9TQT0_9ACTN/78-421,0.028755322,0.2957967,1.321344,-0.011479082,-0.071661964,0.7215945,0.034576494,2.2648282,0.44092274,1.8261538
F9X1M9_ZYMTI/4-364,0.043366477,-0.8838081,1.4772694,-0.012002634,0.03296352,0.5683525,-0.0036908016,1.4049047,0.60174644,0.040345646
A0A1U7CYI5_9BACT/52-398,0.0719624,0.583597,-0.4791113,-0.05876015,-0.029027104,0.64092195,0.025864102,0.49047637,0.381644,0.36206678
A0A1R3RXV9_ASPC5/9-359,-0.006399606,-3.0783944,1.6949599,-0.050573446,0.006852722,1.7973427,0.038817804,0.55307794,0.33503336,0.046509605
U5Q6Z5_9BACT/34-378,-0.030540973,0.3108473,-0.32690296,-0.07155022,-0.037143257,1.2818358,-0.0034095682,3.6759944,-0.57889843,-0.06133236
A0A285X6D7_9FLAO/31-376,0.017528895,0.5579463,-0.11327599,-0.024098216,-0.04629002,0.7865327,-0.0056194775,3.07518,-0.56106097,0.2789569
A0A1B7URQ6_9GAMM/36-374,-0.013241251,-0.8744421,-0.28824154,-0.020600362,-0.034998965,1.1180159,-0.028375123,0.646246,-1.6660633,1.2621111
A0A089I9B1_9BACL/37-356,0.015942538,-0.12458811,-0.35492977,-0.041315764,0.013196835,-0.14012867,0.0074714012,0.825626,-1.2314746,-0.15156655
A0A269W698_9BACL/41-369,0.031417638,-0.15661404,-0.45198765,-0.07323911,0.023045054,0.24681506,-0.004335791,0.36539698,-1.4719083,-0.21469596
G4HBY5_9BACL/41-333,0.022816623,-0.19935483,-0.13900036,-0.050897777,0.01625613,0.10870674,-0.0009484701,0.46345782,-1.5638028,-0.27538958
A0A0U1NYV6_9BACI/43-371,0.030394457,-0.13020904,-0.2744845,-0.0645923,0.013739036,0.17876999,-0.0022549666,0.41330415,-1.4022775,-0.13387768
L0D8H9_SINAD/56-387,0.0037057155,-1.0448705,-0.585438,-0.0067797005,-0.023408866,0.52604747,0.023668518,0.80801165,1.6410689,0.38913813
A0A1I4RV77_9PSEU/23-408,-0.05679256,-0.28904456,-1.291679,-0.10882554,-0.020395853,-2.2407815,-0.04484282,-0.9549294,-1.2514979,1.3813038
A0A0M4R3P5_9PSEU/28-413,-0.04485218,-0.37272388,-1.2266761,-0.10198807,0.0036345255,-2.108511,-0.0038220622,-0.47254068,-0.9507231,1.2118386
A0A0M4PSN8_9PSEU/26-411,-0.041494343,0.28548402,-1.398307,-0.11366015,-0.0029770173,-2.1686294,-0.016967285,-0.66889757,-0.9707548,1.3927323
A0A1B1ZNM5_9PSEU/23-408,-0.060050547,-0.2535069,-1.6459633,-0.09027542,-0.013159307,-2.1599867,-0.014752787,-0.8659249,-0.7518954,1.3615673
Q7NC81_GLOVI/26-351,-0.010824872,-0.9040648,-0.63212824,-0.08136686,-0.067648806,-1.1742599,-0.029514331,1.5200589,-0.3629101,-1.3540193
A0A0D2ANJ4_9PEZI/46-385,0.0046794876,-0.6400137,-1.2325312,-0.04503654,-0.026438324,-0.03802643,0.0235934,0.3870712,0.18528485,-0.43139476
F9Z7D3_ODOSD/68-419,-0.028397439,-0.99593097,-2.1977282,-0.018577999,-0.05745662,0.22357926,0.057982724,0.39762443,1.1515574,-0.82990533
A0A231QYX7_9BACL/36-346,-0.0007142152,-0.40721628,-0.18132088,-0.0139440615,0.008223491,-0.2009764,0.0054531507,0.8770281,-0.9450913,-0.01026601
A0A1V6NMP3_9EURO/15-365,0.026385382,-1.3147758,1.6146799,-0.019783815,-0.0018072352,0.5284399,-0.012049943,1.3384361,0.40759754,-0.20273286
A0A257KLP9_9BRAD/7-379,-0.09484439,-0.8243161,0.10029571,-0.09272426,-0.041609496,-1.439395,-0.044091653,-1.4134156,-1.3905916,-1.0034937
E3EJA8_PAEPS/41-374,-0.04503119,-0.4329072,-1.0548278,-0.036721803,-0.019372625,0.28313503,-0.015471961,0.65741545,-1.4886935,-0.027227342
A0A1G8C829_CHIFI/39-370,-0.024482625,-1.8064864,1.1417984,-0.175269,-0.0063772667,0.52063537,-0.047015186,-0.23715405,0.6586799,-1.6268703
A0A0M2LVD5_9MICO/50-394,-0.06879206,1.7090323,0.60252196,0.010921185,-0.06425325,-0.9874966,0.029831946,-0.4285742,0.9075951,-0.24459487
A0A1M6CPS5_9FLAO/45-418,-0.025009215,-0.13977176,-2.4461951,0.019161208,-0.04220163,-1.4567226,0.08652769,-0.49587297,-0.3391416,-0.41569164
A0A1G6W824_9FLAO/45-419,-0.0037032505,-0.2896233,-2.0837839,0.04275412,-0.05986844,-1.3733972,0.023865351,-0.4993022,-0.6967942,-0.4404216
A0A1G9SW52_9FLAO/41-418,0.006982405,-0.40072194,-2.4681048,-0.0017165169,-0.04565462,-1.4883327,0.07624156,-0.99399364,0.16158468,-0.48575908
A0A0D3LKX5_9BACT/62-435,0.03211348,-0.32799795,-1.851744,0.034860913,-0.017914198,-1.2181122,0.050939,-0.8734233,-0.13774578,-0.28550494
A0A1Q3T0Y3_9CHLR/19-347,-0.005834613,-0.6432794,-1.1221571,0.010031903,-0.088602275,-0.7651764,0.028698158,1.7299103,-0.5652228,0.8998994
A0A1M6D4S1_9CLOT/46-378,0.047857054,-2.283501,-0.0118098445,0.04463564,0.030348307,0.9251072,-0.049798775,1.0574014,-2.2423267,-1.9936068
A0A1T5N5H3_9BACT/65-393,0.0029527636,-1.5768129,0.9941501,-0.045014046,0.009036001,0.63516283,-0.048621204,-0.29023516,0.11648264,-1.0230691
A0A168EEJ3_9HYPO/9-361,0.0059217187,-2.0580404,1.3341504,-0.017294062,-6.264821e-05,1.0470014,0.018842,0.61234146,-0.027387775,0.39117026
A3ZYW5_9PLAN/27-354,-0.016480837,-1.19137,1.3595121,-0.0763615,-0.005740309,0.33771202,-0.053437095,-0.2291619,0.15427549,-0.18842039
A0A255HMQ3_9BURK/33-380,0.04793161,0.08581323,-1.5711913,-0.049025223,-0.0096494695,-0.058498617,-0.011580244,-0.11736293,-1.2608804,0.0075159445
A0A066XEE0_COLSU/45-383,0.02636118,-1.1814564,1.8550348,-0.05938237,0.013783364,0.940926,0.022379713,1.6976984,0.62869173,-0.26181042
A0A1M6H0R0_9FLAO/37-361,0.06938911,-1.765787,0.022360092,-0.030280774,0.0030321125,0.85245156,-0.014200505,0.6396723,-1.1281955,-1.3383029
A0A1M5UP52_9ACTN/66-393,0.03937771,0.5760236,2.457215,-0.049694598,0.006677676,-1.1683675,0.054471448,1.1705872,1.8710526,-1.3924707
A0A1V6MXY6_9ACTN/66-392,0.02249443,0.2185936,2.5569427,-0.085600264,-0.021342501,-1.4146554,0.031441793,1.1879125,2.246767,-1.592229
A0A117QNH4_9ACTN/68-394,0.012689551,0.3943871,2.6352918,-0.082423635,-0.010244497,-1.2918075,0.04130276,1.3611994,2.1295779,-1.4874306
A0A1Q5L7T1_9ACTN/72-398,0.022667045,0.12646133,2.4477334,-0.08371936,-0.0059228735,-1.2600548,0.040845443,1.1652812,2.060733,-1.6427333
B8I975_CLOCE/45-368,0.043889273,-2.0337524,0.01662214,-0.021416618,-0.01142398,0.7974139,-0.05624873,1.0361763,-1.4241481,-1.4603087
A0A2C6AM65_9HYPO/9-349,0.051760882,-2.02403,1.4411985,-0.055201255,-0.040125106,1.3457978,0.039190274,0.544756,0.11347091,-0.0052230945
A0A2A3HP29_9ACTN/74-409,0.040365174,0.003741894,0.9516749,-0.0047359057,-0.074819915,0.9917831,0.029411705,2.2319326,0.5943272,1.6279193
A0A0M9Y0F9_9ACTN/47-380,-0.02284527,0.7680118,2.3905845,-0.016052028,-0.11351799,1.0823915,0.06632105,3.1718953,1.0240588,2.1043406
A0A1Q5MMD3_9ACTN/54-388,-0.032836128,0.81179667,2.4349546,0.01870988,-0.11443545,0.99213207,0.074812874,3.0312495,0.9942581,2.0895827
A0A1E5PNV5_9ACTN/46-379,-0.015877027,0.8818464,2.3444843,-0.019050067,-0.12883773,0.9801312,0.068940505,3.207233,1.0721927,2.2278948
A0A1Q5JC98_9ACTN/51-384,0.0019527078,0.20166199,1.6477847,0.0029922333,-0.08082601,0.90884006,0.07186111,2.2466853,0.3691724,1.9253083
A0A1Q2M7M9_9GAMM/50-389,0.02078102,-1.3344861,0.098380595,-0.00885904,-0.04919918,1.701805,-0.0069878995,0.63521415,-2.2403774,1.3776653
A0A1M3NGW8_9DELT/212-554,0.037902273,-0.6354568,0.09927471,0.033587456,-0.020303981,0.30846763,-0.0049260333,1.1191286,-0.061692715,0.6904484
Q3ATC5_CHLCH/37-369,0.06038722,1.332224,-0.17237322,-0.062231913,-0.0077637592,1.2059859,0.033906832,0.60562456,0.33255416,0.60254174
A0A101KQ98_RHILI/43-381,0.054293778,-0.23351315,-0.24259976,-0.04632505,-0.15180475,1.4241372,0.04253103,3.062544,-0.20502092,2.346094
A0A1Q3GZA5_9BACT/37-377,-0.047169473,-0.257668,-0.39899364,0.053039655,-0.046974212,1.1388029,-0.010979459,2.137181,-1.8873464,0.1974637
A0A223V1E7_9FLAO/47-379,-0.0138167925,-0.8288659,-0.3771471,0.043940224,-0.036831275,1.6143996,-0.004802551,1.7087786,-1.3022292,-0.9872908
A0A285QAH8_9ACTN/76-415,0.026654324,0.1680297,1.00249,-0.023233661,-0.056328118,0.76888686,0.018156275,2.0982225,0.63207334,1.4824294
T0R3E1_9PROT/6-337,-0.005873984,-0.06397709,-0.34000945,-0.01754958,0.024123212,0.27246362,0.005842708,0.40598178,-0.44230086,-0.2849352
Q3IF02_PSEHT/28-375,0.019655995,0.7522521,0.17943195,-0.07791059,-0.004136931,0.43620086,-0.0020195842,3.6710148,-1.3781372,0.46705598
G7F8L7_9GAMM/28-375,0.007944391,0.7872041,0.19170642,-0.084500656,-0.0007243976,0.33707476,-0.003237106,3.6737294,-1.402884,0.37370864
A0A1Q2GYH8_9GAMM/28-374,0.011071326,0.68478507,0.3471789,-0.087113574,0.0062512793,0.22861825,-3.536418e-05,3.5180397,-1.4407806,0.37155256
A0A1E3VRN9_9RHIZ/71-412,0.07140143,-0.2429888,0.70875883,0.027517669,-0.027622469,0.5476149,0.0076273903,2.0692255,0.6461115,1.2777076
C7PNT5_CHIPD/33-373,-0.012127412,-1.2813183,-0.11546516,0.026801985,-0.021041522,1.8528193,0.013019767,2.14126,-1.3755596,-0.84035754
K2PLP8_9RHIZ/62-394,-0.045277856,-0.83723116,1.1091902,0.0007743072,-0.04785863,1.1769503,0.018950518,1.8255014,-0.5654443,1.8970537
A0A0C1VUR3_9ACTN/6-341,0.005902542,0.09856827,1.8220987,0.024113288,-0.070669286,0.70135546,0.044517823,2.4043689,1.0899253,1.9527138
B5HY62_9ACTN/72-409,0.060787726,0.3153032,1.0218599,-0.03853424,-0.06190297,0.7872618,0.04687978,2.1297781,0.43592387,1.507741
A0A1H9HUA3_9ACTN/75-413,0.0317762,0.37481454,1.2650753,-0.053169586,-0.098564036,1.0823077,0.043687414,2.552498,0.6363206,1.8285937
A0A124HWB6_9ACTN/75-412,0.012216243,0.2653129,1.3354684,-0.027274335,-0.09959567,1.1339065,0.05015575,2.3962924,0.33953536,1.8212861
G5JFG6_9STAP/43-360,0.028955717,-1.0838796,-0.18769172,-0.0296339,0.03502346,0.72491246,-0.021636356,0.9366835,-1.0527074,-1.5758742
A0A1I0CDR4_THASX/25-371,0.043986626,0.4213214,0.28297248,-0.0056778993,0.0025105514,0.42041805,0.028182857,2.2950237,-0.51549476,0.34078667
A0A0S2JYZ3_9GAMM/32-357,0.004728845,0.7285527,-0.75744617,-0.016687395,-0.03893122,-0.4315768,-0.0048398823,0.42497683,-1.3726771,-1.0544033
A0A089IG54_9BACL/71-407,-0.054152396,-0.46279094,-2.8649673,0.04254061,-0.04556465,0.42732254,-0.05336627,1.9777611,-2.8291712,0.45423394
A0A1G7U925_CHIFI/33-373,0.0045717675,-1.4173443,-0.11622261,-0.009264922,-0.016856767,1.8369608,0.0022280328,2.09577,-1.0844073,-0.9027161
A0A0S8GUD7_9BACT/36-372,0.04580952,1.0344306,-1.2221333,-0.047933176,-0.02656327,0.93262994,0.024236899,0.89977413,-0.24700941,0.33690694
A0A1Q3GXD2_9BACT/37-382,0.014023115,-1.3885894,-0.8815449,0.014559131,-0.019433577,0.13793015,0.0054829977,1.3315287,-0.12890969,-1.775673
A0A1H7FZZ8_9FLAO/25-387,0.112422585,0.43879318,-1.5540938,0.053084306,-0.04772052,0.9106145,0.034870204,-0.09386964,-2.7819638,-1.3537346
A0A1G6ELW9_9FLAO/35-355,0.0069231344,0.07263419,-0.5722992,-0.12716256,0.00822123,-0.48810002,-0.0226941,0.56121236,-0.8800993,-0.8247776
T0LMV4_9EURY/10-358,-0.009808454,-0.34209985,-0.5103325,0.020079874,-0.023393802,0.20357068,-0.0018736869,0.8892971,-0.48292857,-0.12943684
A0A0E9N3X2_9BACT/31-364,0.006574739,-0.5918086,-0.0935345,-0.06312037,-0.022701241,1.0417534,-0.009685092,1.3010771,-0.50731564,-0.36035624
A0A1W1VKI6_9BACT/30-384,-0.023554882,-1.0746679,-1.4914286,-0.023214051,-0.057940125,-0.15458302,0.022744926,0.5774653,1.0152663,-0.29775223
R5SCL3_9BACE/52-406,0.058129888,0.602838,-1.0048757,-0.051736005,-0.0149169685,0.8949445,0.049792506,0.7203143,0.13709193,0.5406197
R5NR57_9BACT/69-415,-0.042973638,-1.3220061,-2.3345368,-0.0161392,-0.056850336,0.0022556009,0.028564941,0.5652117,1.2812222,-0.8077033
A0A0M0H4C2_ANEMI/45-353,0.014199106,-0.5107696,-0.16711587,0.004388433,0.0053884946,-0.11076133,-0.0129099,1.0759065,-1.4612122,-0.06834511
G0N506_CAEBE/29-391,0.06235964,-0.11752963,-1.3761907,0.012332605,0.011781083,1.2531147,0.056611672,-1.4560024,-0.39704156,0.27074927
Q20489_CAEEL/21-382,0.042351674,0.064936504,-1.5962207,0.032725867,0.0025124513,1.6962305,0.07934538,-1.5892799,-0.3656909,0.27931225
E3LD25_CAERE/41-403,0.07297377,-0.16400267,-1.2985651,0.015765352,0.012902105,1.3602242,0.061660316,-1.3811966,-0.22290222,0.3524112
A0A1B7UKP5_9GAMM/38-384,0.048542213,0.3997419,0.30960527,-0.018545361,-0.00064204633,0.26237836,0.0012500174,2.9820435,-0.6060301,0.30160496
A0A067T2C3_GALM3/12-397,0.020915478,0.028625757,-0.4967416,-0.060449176,0.008326877,-0.42354697,-0.007142838,-0.8498319,-0.763367,-0.40861708
C0ZPW3_RHOE4/54-376,0.0164403,-0.50977015,1.2583194,0.09787602,-0.10128038,-2.2906528,0.07475364,-1.3107892,0.7761393,-2.332267
A0A0C9WHA8_9AGAR/12-394,0.013823516,-0.08367635,-0.21079892,-0.056716807,0.03827265,-0.3758903,0.009321738,-0.82565415,-0.71751523,-0.3935334
F5LES8_9BACL/55-371,0.02477329,-0.21390076,0.14639066,0.008505731,0.02946377,-0.0019542659,0.002867084,0.84396076,-1.1730287,-0.09432459
H5TXM2_9ACTN/18-402,-0.07424486,-1.0506396,-0.08301929,-0.05796779,-0.0027804673,-1.3493353,-0.02851938,-1.3950804,0.047376476,-0.85603833
U7PPQ0_SPOS1/57-413,0.032331057,-1.7486497,1.8898822,0.011969931,0.01565451,0.41736132,-0.040804718,1.303123,0.48579097,0.0018662773
A0A143B4S4_9DELT/46-386,0.023489105,0.008955137,0.7411943,-0.08736108,-0.0018539242,-0.66302365,-0.037232857,0.41135764,0.122666486,-0.87120414
A0A094IQ17_9GAMM/39-391,-0.014445388,0.35850576,-0.17702827,0.031120662,-0.034519333,-0.081411704,0.0067108013,2.7096286,0.17470455,0.19487625
A0A194XQM2_9HELO/10-354,0.00092329405,-1.3897674,1.7458138,0.006924567,-0.0037944652,0.7468884,-0.012976859,1.1841977,0.12382451,-0.110315174
A0A1I0MFW0_9EURY/66-381,0.0067894943,-0.5916995,-1.4252366,0.013355155,-0.0554201,-0.2067181,0.022836067,-0.15991807,2.05978,-0.6091817
L0AE06_NATGS/13-355,-0.0054913573,-0.40302584,-0.26688853,0.047018275,-0.008486835,0.14370866,0.023531843,0.6542522,-0.34536785,0.16125134
A0A1M3MTY3_9DELT/40-372,0.033819437,1.1898379,-0.72426176,-0.095407635,0.013613509,0.55432516,-0.014926631,1.0450318,0.38792485,0.6778939
I4ELG1_9CHLR/37-362,0.002272529,0.16593684,-0.2831142,-0.032206535,0.03494724,-0.047034364,0.011503831,0.47087973,-0.8403091,0.051638793
E9EYJ1_METRA/43-388,-0.016698832,-0.6369812,2.5371385,0.019081939,-0.053155802,0.750835,-0.021781337,1.783502,0.41329288,-0.23419435
A0A0B4ICF0_9HYPO/43-387,-0.02166171,-0.71173656,2.5394037,0.026005792,-0.040095486,0.7424592,-0.021239195,1.809428,0.50796765,-0.18516001
A0A0B4HDY4_9HYPO/43-387,-0.022627708,-0.7698854,2.54411,0.028618112,-0.041036114,0.7048268,-0.02500568,1.794502,0.48067665,-0.17944893
V6KQX1_STRNV/31-356,-0.004647006,-0.21921848,-0.501141,-0.093102224,0.03247173,-0.6838537,-0.047717024,0.47768366,-0.15055083,0.4430585
C2W992_BACCE/37-366,0.079784825,-0.36053342,0.54559904,-0.03583584,0.051087476,0.30275312,-0.021000002,0.5030174,-2.239298,-0.3990242
L7LPA6_9ACTN/14-372,-3.7965016e-05,0.17447007,-0.8721437,0.021044215,-0.03089746,-0.65532637,0.01836963,-1.799835,-0.14418304,1.411033
D2AWI8_STRRD/93-433,0.0028076454,-0.032958094,1.216772,0.0010170285,-0.09271374,0.9742606,0.037035577,2.3233755,0.6238811,1.9791509
A0A1Z9Y6X5_9RHOB/58-440,0.0063628913,0.61837584,-1.8114831,0.007968439,-0.01771391,-1.5185648,0.05062369,-0.40551227,-0.35223192,-0.26897633
A0A067TEE1_GALM3/12-398,0.026206957,0.2527231,-0.43035448,-0.081361905,0.051068217,-0.3900201,-0.013060588,-0.72124475,-0.81301206,-0.24957532
A0A1Y2BAZ1_9TREE/16-409,0.014327896,-0.0048967428,-0.23564678,0.017219879,0.00404221,-0.39295077,-0.02124862,-1.2103131,-0.30358577,-0.4378422
A0A0C2YCU5_HEBCY/12-398,0.0379286,0.069059536,-0.46071997,-0.041777276,0.028391419,-0.37618884,0.0032188557,-0.7666175,-0.57907856,-0.41968173
A0A1Y2A0M5_9PLEO/4-395,-0.0052877394,-0.8413221,0.089145906,-0.013345053,-0.008378865,-0.50865585,-0.045969795,-2.1623816,-0.4410571,-0.20013379
A0A239EQC1_9ACTN/16-399,-0.08830908,-0.067753695,2.406276,0.11227482,-0.11684368,-3.7619636,0.05025884,-1.9658387,0.24672817,-0.16173425
A0A0X3VWR8_9ACTN/20-401,-0.09108818,-0.012033431,2.6730835,0.10918039,-0.13068213,-4.065079,0.036837224,-2.0825527,0.3324592,-0.178471
A0A1V8TF95_9PEZI/8-362,0.046216056,-1.039194,1.5117669,-0.048463926,0.010687506,0.7013401,-0.021579642,1.0246048,0.8453656,-0.1291395
D9VEQ2_9ACTN/1-319,0.028469665,-0.24536838,-1.2177141,-0.0044637397,-0.07280527,-1.7430112,-0.033478748,1.8328248,0.87195307,1.4861991
A0A1B9SPV2_9RHIZ/20-377,0.03140109,-2.3608704,-1.5431154,0.06816151,-0.16672014,-1.6882077,0.097084284,-0.6724688,0.8758298,0.91262597
A0A1X7HEH0_9BACL/41-371,0.05559293,-2.1045825,0.22342698,0.048853405,0.009588575,0.68454486,-0.04485562,1.082593,-1.9105746,-1.2671974
W4MHA5_9BACT/7-383,-0.09543703,-0.9794614,0.48208693,-0.09230692,-0.052085556,-1.7584882,0.034794103,-1.8707143,-1.5095433,-1.1471958
W4M078_9BACT/7-381,-0.09637534,-1.0550011,0.4002686,-0.090988204,-0.04614982,-1.6848679,0.016974181,-1.8826829,-1.4086411,-1.1971409
W9YAR4_9EURO/37-378,0.041838374,-1.3359168,1.6056026,-0.013689684,-0.017649818,0.99451095,0.02061648,1.3121953,0.772483,-0.25928634
A0A1V8TY05_9PEZI/8-357,0.039264183,-1.0274377,1.4206804,-0.047074623,0.015537376,0.5414384,-0.03710017,0.9651728,0.9483185,-0.11672562
A8P5V4_COPC7/12-407,0.016790668,0.12112978,-0.39612854,-0.05208221,0.027830949,-0.41222823,-0.020251166,-0.8891084,-0.41733003,-0.2996295
A0A1V2RLQ3_9ACTN/60-399,-0.055701625,-0.5245654,-1.2510811,-0.12517342,-0.0064293817,-0.5784437,-0.04514717,0.9340474,-1.2465755,0.6148861
A0A1T4LEY3_9ACTN/22-393,-0.022254763,-0.50717014,0.05746708,0.05590725,-0.060861133,-0.39197278,0.03526769,-0.9960423,0.38450426,1.4945667
D3SYW9_NATMM/83-422,-0.06933426,-1.1217077,-1.3943615,-0.020885305,-0.023515003,-0.3137371,-0.008243442,1.1236521,-1.2085629,0.8649089
M2LKE8_BAUCO/9-350,-0.0043946845,-0.81730276,1.3457779,0.015307105,0.038072012,0.885611,-0.0031385832,1.2163819,1.736527,0.07378587
A0A1L7WDU4_9HELO/20-368,0.03630157,-1.2893578,1.5151002,0.025712578,-0.027671982,0.51803756,-0.00624742,1.2190261,0.14931852,-0.102810055
A0A1I4G7G9_9ACTN/7-371,-0.063498646,-0.8235555,1.0395112,-0.06477654,0.0563775,-1.7189069,-0.02777392,-0.5831796,0.53690326,0.5789949
A0A1H2ZM15_9PSEU/27-356,0.04350152,0.16125284,-0.2873653,-0.11431966,0.040589213,-0.3506344,-0.02715863,0.2938335,-0.44863158,0.28700057
A0A2C5ZDD3_9HYPO/86-451,0.026977884,-2.2193615,1.3877816,-0.031022334,-0.007044224,1.5411005,0.056329623,0.36537266,0.36134237,0.17574154
L1KRK2_9ACTN/60-395,0.018775027,0.119770795,1.2734556,-0.01982976,-0.054692224,0.80137515,0.029118344,2.1223068,0.7279826,1.6401632
A0A285T2U0_9BACI/36-369,0.03691052,-0.039589133,0.53041035,0.029492345,0.04516115,0.09619005,0.039862674,0.6982858,-1.4236294,-0.36391482
W7SEB3_9PSEU/11-350,0.02158268,0.07664952,-1.5897133,0.040743876,-0.08669456,-1.9472802,0.054376483,1.979621,0.87276447,2.0871725
A0A1G8V658_9GAMM/96-434,0.035967644,-1.0548519,0.32329902,-0.020804362,-0.05358705,1.6919224,-0.010055933,0.5356719,-2.523996,1.4761944
U5W730_9ACTN/2-346,0.002533694,0.5074717,-1.0094229,0.044339087,-0.07095378,-0.42207,-0.0055480227,-2.0337265,-0.49901134,1.7741525
A0A1F5BT92_9BACT/150-488,0.0024635065,-1.4007729,-0.044606984,0.0004818514,-0.019094175,1.1074014,-0.02070057,2.0269938,-0.65864944,-0.16807906
A0A1F5AR88_9BACT/18-356,0.003344997,-1.424196,0.007165728,-0.024831446,-0.009901398,1.0883082,-0.02915069,2.0350041,-0.57780576,-0.13884254
A0A1M3H6I4_9SPHI/37-379,0.045462444,-0.27855232,0.46621755,0.035029456,-0.00992955,0.29789189,0.002266623,1.6946574,-0.21826689,0.18391632
L0ADG6_NATGS/75-410,-0.08842408,-1.2353009,-1.5071273,0.00082136877,-0.029082227,-0.30964503,0.0010856129,1.0364338,-1.1328846,1.0357901
M0MBJ2_9EURY/74-409,-0.09685208,-1.2998224,-1.5198613,0.0025379136,-0.047672883,-0.32512748,-0.008514009,1.1204566,-1.2136047,1.1309915
A8FAQ5_BACP2/37-366,0.03401172,-2.1611657,0.10902819,0.04783663,-0.016267484,0.92805564,-0.03000236,0.9712469,-1.0315195,-1.351612
A0A1G6DJB1_9RHIZ/63-404,0.074113816,-0.083242275,0.6371018,0.014789857,-0.069638446,0.62774765,0.020370074,1.8384092,0.55308855,1.2940527
E8RQ21_ASTEC/19-369,0.05990458,-0.18983692,-1.8231437,0.038020425,-0.06903848,0.45447284,-0.0023956709,-1.7119802,0.6027472,1.4883935
Q98JC7_RHILO/43-379,0.052259546,-0.19846405,-0.063944176,-0.0252791,-0.1646864,1.3956655,0.056119632,3.1663914,-0.0365823,2.3951848
A0A0Q1F5W4_9SPHI/34-374,-0.0077347155,-1.2667474,-0.27408007,0.052410595,-0.030573975,2.0984137,0.024218887,2.2945955,-1.5678711,-1.0828185
E4N612_KITSK/58-383,-0.07819236,-1.2594628,-0.97335213,-0.04480221,-0.0063571976,-0.5233104,-0.015438262,0.73297584,-0.621189,0.6305093
A0A1Y0IU33_9BACL/7-341,-0.005070182,-0.47316515,-0.56656253,-0.034192786,0.011702554,-0.07759152,-0.002471555,0.665187,-0.6761175,0.57335764
I5BQ52_9RHIZ/49-378,0.008271321,-0.5840332,1.0524112,0.03712756,-0.042152047,0.7602459,0.02793226,1.5939137,-0.47454453,1.623818
Q1YDP4_AURMS/82-426,0.0734035,-0.13704042,0.4292185,0.036112174,-0.027007723,0.5384467,0.0032287352,1.435454,0.1954733,1.0681928
A0A2A9D1J4_9MICO/86-428,0.037899975,0.06441095,0.99488586,0.012521388,-0.03376925,0.6487028,0.03587488,1.7034781,-0.30583394,1.2020241
A0A1H0VJG3_9ACTN/75-414,0.036104087,0.5889037,1.4438986,-0.051561534,-0.101958655,0.9588496,0.05252598,2.471596,0.86106235,1.7352443
A0A100Y5X2_9ACTN/71-410,0.005224234,-0.018784964,1.4066781,-0.021050872,-0.07275218,1.0305119,0.039988566,2.1445718,0.6789731,1.690438
G4HD98_9BACL/41-353,0.036180496,0.31102833,-0.13364767,-0.111919366,0.03420282,0.09338941,0.017408792,0.28703123,-0.72697437,-0.22333102
A0A1L9WJQ3_ASPAC/6-343,0.04898587,-1.1776105,1.5927113,-0.102084495,0.0112560075,0.6331743,-0.020787787,1.7118243,-0.3499965,-0.17626594
A0A1V6Z9V8_PENNA/9-355,0.03775338,-4.110428,2.3430896,0.008436748,-0.019064112,2.898123,0.07127976,0.7434001,-0.52325964,-0.3877004
A0A0F6A8E3_9GAMM/60-398,-0.018412502,-0.48136827,-1.2660284,-0.011134965,-0.040857874,0.2855714,0.002391845,0.78182536,-1.5875397,0.38403434
A0A135LXG8_PENPA/9-356,0.0361245,-4.443978,2.2428823,0.055495895,-0.026361594,3.0447974,0.09231914,0.93075556,-0.4533249,-0.6740971
W0JP94_9EURY/70-426,-0.0659437,-0.9809033,-1.2784522,-0.02239454,-0.020868469,-0.2075632,-0.021529201,0.87225074,-1.2215495,0.974841
A0A1H1JQK0_9RHIZ/7-377,-0.12710339,-0.75047,0.2766525,-0.104832895,-0.08076519,-1.8649577,-0.01790991,-1.5726749,-2.072251,-1.1322361
BLML2_DICDI/48-382,0.046227388,0.38302213,0.35613668,-0.08685272,0.04677578,0.47524592,0.025479956,0.09391692,-1.4669954,-0.24365795
A0A151ZD98_9MYCE/45-375,0.044467293,0.19745205,0.9033157,-0.05484087,0.047730558,0.28674513,0.004271172,0.16150239,-1.7947923,-0.09595597
Q65NS7_BACLD/11-348,0.03164488,-1.525813,0.18464847,-0.068423904,-0.008249533,0.8836468,-0.017228816,2.160002,-0.50899935,0.002527155
BLML3_DICDI/45-389,0.047230985,0.19454297,0.3431535,-0.093080275,0.04816933,0.3878069,0.006262455,0.13729577,-1.3894665,-0.498058
A0A1G9L270_9FLAO/64-384,0.07774202,2.663935,2.2384014,0.011285328,-0.053333677,1.050749,0.036598794,2.284491,0.6816363,-2.8589132
A0A086AV76_9FLAO/65-386,0.09677469,2.5982118,2.2465184,-0.024068171,-0.03887309,1.3673285,0.016223103,2.6076317,1.1884205,-2.8017602
A0A1Z8P9P7_9BACT/48-387,0.011519591,1.6558332,-0.839002,-0.08336627,0.028431507,0.7935465,0.0005189739,0.4927615,0.49128187,0.40852857
A0A178B6X1_9PLEO/24-365,0.06683196,-1.8520924,1.5767976,-0.007776106,-0.011754749,1.2700038,0.044266593,0.65433264,-0.1444601,-0.19491704
A0A178EJK8_9PLEO/8-349,0.006572814,-2.0854175,1.499858,-0.053289525,0.014364997,0.91731983,-0.0033666454,0.8332953,0.19849646,-0.1686519
A0A0N0A2Z3_9NOCA/11-343,0.05697168,-0.07234595,-1.4422623,0.006168736,-0.092388704,-2.2729566,-0.0037550963,2.322087,0.8451878,2.089686
L0K3B5_9EURY/53-381,-0.049143247,-0.693838,-1.2201625,-0.043375187,0.0065564346,-0.4038843,-0.015246924,0.7736995,-1.0100083,0.8835355
A0A044R556_ONCVO/47-417,-0.07466502,1.7354406,-1.8476298,-0.16860887,-0.008062081,2.6455333,-0.012157954,-3.1915798,-1.8377762,1.4050084
A0A1F8RQH6_9CHLR/12-368,-0.011464669,-0.6184222,-0.28464532,0.007246863,-0.003945252,-0.11659321,0.008358952,0.58554363,0.17860992,0.010239409
A0A1B3W749_9GAMM/43-381,0.027654534,-0.5737535,0.30249554,0.032325726,-0.0035452507,0.3533305,0.012905017,1.9302465,-0.53077847,0.5040505
D3B394_POLPP/52-388,0.023775538,0.5656237,0.43905887,-0.13360612,0.04949709,0.6244583,0.0018389113,0.22082572,-1.4277656,-0.3109539
D3B394_POLPP/524-868,0.004482777,0.39709124,0.6223695,-0.13272741,0.057217263,0.42623422,-0.035501394,-0.015391845,-0.8758034,-0.47237062
A0A1G5IJQ3_9FIRM/7-385,-0.0035812238,-0.24958631,-1.2652836,-0.037255965,0.0075975712,-0.46517265,0.008076429,-0.6903943,-0.3776427,-0.287976
G7M3U0_9CLOT/12-352,0.0018278712,-1.3421575,0.2914784,-0.014117831,-0.012223997,1.1188648,-0.02944861,2.1066008,-0.81199414,-0.3181502
F4Q4H0_CAVFA/50-433,0.070760265,0.2917157,0.40984175,-0.20346844,0.01888484,0.60098743,-0.03662243,0.10764009,-1.0041997,-0.3916412
A0A1G4W7D6_9FIRM/7-385,0.009752668,-0.37947196,-1.226826,-0.058204256,0.0061629657,-0.41467136,0.026659798,-0.627405,-0.48325562,-0.28377387
K1WHA1_MARBU/39-392,-0.009502196,-1.1014764,2.2578568,-0.04078432,-0.024683347,1.1260962,-0.012157373,1.839489,0.47743124,-0.41856557
A0A2A2WEL8_9PLAN/41-368,-0.03310695,-1.4048543,1.6740505,-0.0778709,-0.008433123,0.38895983,-0.058714416,-0.29720998,0.0054962784,-0.48789912
A0A0F2TJL2_STRR3/36-364,-0.008202354,0.23268045,0.89240456,0.020838346,0.0059640966,-1.6650321,-0.049268324,0.666983,-0.39103007,-0.9336935
A0A1J4P3U9_9ACTN/65-391,0.070481285,0.5839967,2.3505507,-0.07882247,0.038155384,-1.0015224,0.0398878,1.1519411,1.8723303,-1.2895554
A0A168CQ28_CORDF/9-356,-0.0015608589,-2.7510712,1.1170763,-0.04846795,0.048780754,1.522113,0.04098364,0.65049976,0.15758826,0.14462057
W0RT26_9BACT/53-392,0.049550958,-0.88026077,0.085588254,-0.0028332248,0.0058060884,0.07536408,0.014807355,1.9712313,-0.38789964,0.42278054
W0RR30_9BACT/27-371,0.022126913,-0.223412,0.109048724,0.028270362,0.012884958,0.10338418,-0.00079360977,1.7844876,-0.5063443,0.63275516
W0RSG3_9BACT/43-390,0.063039325,-0.5971418,0.40785053,0.0369012,-0.0149025675,0.34692943,0.016732156,1.7113235,-0.7672968,0.7774103
A0A271IWN9_9BACT/30-353,0.0013454931,-0.78770256,-0.4918568,-0.13102262,-0.018575907,-0.9191887,-0.029752512,0.6710495,0.26107508,-0.8249352
A0A1H7U3C1_9SPHI/32-370,0.041530605,-1.0633563,0.17252447,0.026080625,-0.058350183,1.4036216,0.020154115,1.628158,-1.0399897,-0.41183525
I6ZQS4_MELRP/28-359,0.024081374,0.02455068,0.19607551,0.006412709,-0.013037386,0.8898351,0.014655542,2.2748492,-0.9251841,0.17734896
A0A1H0GYV7_9BRAD/38-408,-0.07614284,-0.41983715,0.11623438,-0.06441479,-0.014448094,-1.1194713,-0.03713857,-1.0024168,-0.77885425,-0.5129119
W0RRK9_9BACT/33-371,0.019584337,-0.8527195,0.27984375,0.0059423745,0.0012483615,0.42932895,-0.013734598,1.9572347,-0.827267,0.3673733
A4CKX2_ROBBH/71-415,-0.013902416,-1.1167318,-0.45318517,0.05972798,-0.0661848,0.9760408,-2.0630658e-05,1.0273119,-1.4702301,0.9467253
W5LRF1_ASTMX/110-465,-0.0021260136,1.4571964,3.5766158,-0.112125866,-0.030759491,0.081823364,-0.01937883,0.90183187,-0.52033174,0.110979214
H3CGW8_TETNG/71-408,0.011831152,1.400603,3.504029,-0.09913961,0.00076954067,-0.05956948,-0.04252598,0.75516486,-0.80763024,0.43190277
A0A239HCU5_9BACT/31-401,0.011358699,0.0634387,-0.599553,-0.079643406,-0.040603954,2.4371235,0.011182565,-0.105219685,-0.66400445,-0.40559095
A0A1H3ANL2_9FLAO/28-369,0.016401706,0.045273315,-0.34659687,-0.011114391,-0.023065709,1.2535737,0.004320428,2.5504465,-1.3975673,-0.30147582
A0A0C1INF8_9BACT/31-356,-0.06551764,-2.2291682,-1.5208055,-0.02412344,-0.05446057,0.40925893,0.05509685,2.02771,0.85124266,-1.6065388
A0A1G0SV07_9BACT/29-371,0.019781606,-0.40072617,0.22272007,0.00032503903,0.007355565,0.50926244,-0.0039880946,2.087828,-0.3471052,0.45429713
A0A2A2G9Y7_9BACT/33-393,0.010704594,1.3411478,-0.915668,-0.08752028,-0.014032731,1.1886376,0.021926869,0.6791872,0.58419675,0.067500904
F4KST4_HALH1/4-350,0.04687025,-0.021792792,-0.51671946,-0.13044909,0.069305256,-0.0084341895,0.008451369,0.2885421,-0.83267057,-0.66528845
A0A1Q3H253_9BACT/28-355,0.0362756,0.29222965,-0.4396191,-0.0933423,0.011105666,0.34623033,0.021629395,0.6916992,-0.44789243,-0.59941715
A0A0F8CBD5_LARCR/71-415,0.0010183582,1.4971714,3.2957351,-0.098094694,-0.012814329,0.20223507,-0.017326038,0.68968576,-0.40095198,0.07187784
R6AQM1_9BACT/66-413,-0.046799686,-1.3541027,-2.6538188,-0.063622184,-0.061700203,0.2848097,0.070307285,0.623972,1.7218697,-1.1665026
A0A1V6V8B2_9EURO/16-374,0.0035438358,-1.3642573,1.9360383,-0.10413221,-0.037299704,1.1373906,-0.023446951,1.884437,0.33795983,-0.7353495
A0A0D8HS84_9NOCA/50-372,0.037035525,-0.59986717,1.1287985,0.031322856,-0.10400059,-2.3120668,0.09829499,-1.4139303,1.1141949,-2.2404075
A0A2C6AIM2_9HYPO/1-337,0.028435517,-2.6974978,1.6144286,-0.015761996,-0.017569773,1.9637933,0.04342871,0.47792166,0.105569616,-0.21327005
G2PIU6_MURRD/28-359,-0.019155275,-0.11322534,-0.5272984,-0.04548648,-0.04448579,0.7069907,-0.0046622977,0.39510012,-0.7616133,-0.24222505
A0A2I0PWM2_9EURY/40-378,0.027378488,-0.1768809,0.24840702,0.042285744,-0.013615764,0.41877663,0.038391452,1.0107921,-0.61536056,0.27769116
A0A1I6PB99_9BACI/39-367,0.08530045,-1.7564892,0.5131381,-0.028882997,-0.008472558,0.8531615,-0.025460746,0.8398168,-1.3155234,-1.2292548
S9WVJ3_CAMFR/165-490,0.025980897,1.2954621,5.2125278,-0.04400055,-0.052677795,-0.6590916,-0.10606411,0.94812566,-0.51719147,1.1730846
U3K7C9_FICAL/27-363,-0.0065021436,1.5445889,4.9776087,-0.040011242,-0.09812712,-0.22885238,-0.06518762,0.71525806,0.8276936,0.5276762
M3WPD1_FELCA/25-366,0.018010918,1.3687625,5.073204,-0.07931513,-0.029308192,-0.6977864,-0.09918952,0.9150213,-0.4265688,1.3552593
A0A2I2U7Y1_FELCA/54-412,0.019311717,1.3013484,5.052925,-0.073043734,-0.03375699,-0.6991987,-0.10248321,0.87784314,-0.44189805,1.3043463
M3YWX3_MUSPF/25-361,0.02459146,1.4721581,5.2688155,-0.09111447,-0.032386877,-0.6050344,-0.09700109,1.018512,-0.6159446,1.3360019
F1STY0_PIG/25-361,0.021361042,1.4365882,5.092522,-0.10693774,-0.01978682,-0.6924606,-0.09820819,0.94252175,-0.5888736,1.1683217
A0A218UME5_9PASE/93-449,-0.016986959,1.7104193,5.292428,0.01224647,-0.16851346,0.096664965,-0.030709941,0.72053987,1.2884884,0.35413888
H1A3K8_TAEGU/27-364,-0.016455526,1.7193859,5.161169,0.0005291868,-0.1536967,0.10068053,-0.029470708,0.70086545,1.1801653,0.26974535
G1U443_RABIT/87-434,-0.005531016,1.4731115,4.7692957,-0.073158816,-0.05659038,-0.5094858,-0.097331166,0.8634842,-0.20566563,0.92639
I3NE73_ICTTR/83-427,0.0038514675,1.2961831,4.7516503,-0.088799946,-0.04146134,-0.6354537,-0.10222612,0.7826954,-0.3419497,0.91830415
F1PD74_CANLF/25-363,0.024471274,1.2705647,4.9122353,-0.070086576,-0.03225717,-0.7367991,-0.102725506,0.924417,-0.4635635,1.1002532
A0A0D9S8A1_CHLSB/2-339,0.041630775,1.5167682,5.583531,-0.048100583,-0.041054957,-0.63492864,-0.09567356,1.0246433,-0.65292406,1.4408535
BLML_HUMAN/25-361,0.039069254,1.494088,5.689775,-0.055169478,-0.04457484,-0.669597,-0.10613382,0.9932751,-0.5769149,1.4155194
A0A2I3MXX0_PAPAN/25-361,0.038195692,1.5386215,5.8281827,-0.036261655,-0.05567386,-0.71316826,-0.10869987,0.9976377,-0.60129845,1.484687
A0A2K5MG53_CERAT/25-361,0.032862272,1.6147696,5.817409,-0.048168004,-0.054983906,-0.6576715,-0.1082425,0.99062794,-0.62681913,1.4775839
A0A1D5RJK9_MACMU/25-359,0.029942155,1.249237,5.03331,-0.05190994,-0.0351785,-0.66703784,-0.09262666,0.9243697,-0.3683799,1.4375738
A0A2I2Z438_GORGO/54-406,0.030433219,1.6079844,5.7810955,-0.064206526,-0.049561307,-0.6587957,-0.107174575,0.9420957,-0.74095184,1.4503529
A0A096NAR1_PAPAN/54-407,0.032789476,1.5841134,5.7643566,-0.055713266,-0.050183233,-0.6503285,-0.10552688,0.9634331,-0.727032,1.4507555
A0A2K5MG45_CERAT/54-407,0.032504626,1.6030061,5.800673,-0.05929321,-0.05054543,-0.6582703,-0.10598567,0.96027225,-0.72661746,1.4595529
A0A2I3TAX3_PANTR/25-360,0.039427802,1.4941891,5.639157,-0.051959366,-0.049754184,-0.7455609,-0.10232295,1.0270607,-0.70356804,1.3520671
A0A0N9UYA1_SPHMC/38-402,-0.01332144,0.23135363,-1.3972057,0.015769415,-0.02167056,-0.98626286,0.015672121,-0.2449052,-0.38011545,-0.2010026
A0A223V423_9FLAO/44-421,0.06903083,-0.20927618,-1.012495,0.023488708,-0.0018217824,4.0860157,0.031807892,-0.8145384,-2.1846547,-0.91225815
A0A074XPE4_9PEZI/68-415,0.050739303,-0.91048455,1.7099948,0.0038681943,0.0057327263,0.45921445,-0.036564063,1.0705822,0.18122421,-0.044755843
A0A285UML3_9BACI/10-337,0.01584974,1.7109053,0.25931454,0.0403009,-0.033780638,-0.41423383,0.047894515,-0.28338248,-1.2544882,-1.335147
S3BYB5_OPHP1/81-464,0.046320144,-1.0730394,1.9087701,0.012661129,0.03304296,0.37333894,-0.036835168,1.45379,0.56363595,0.18332838
A0A0U1M4M0_TALIS/10-348,0.012381774,-1.4460001,1.821548,-0.04676777,0.009205822,0.69502395,-0.017056804,1.7025756,0.5193261,-0.2527148
A0A1L9UK24_9EURO/14-368,0.016524447,-1.603177,2.2565873,-0.049672857,0.012129558,0.88176763,-0.011496317,1.625905,0.5348445,-0.34776637
A0A0A1TLK5_9HYPO/47-387,-0.003863029,-0.475693,2.3142521,-0.039495245,-0.012172241,0.864742,-0.010820668,1.7930924,0.3771993,-0.25511926
A0A0A1T958_9HYPO/27-372,-0.0049642893,-0.086008556,2.0365167,-0.015859524,-0.029140823,0.8472331,0.014305558,1.5015678,0.5295718,-0.23555873
A0A0N0LUC5_9GAMM/29-375,0.01987025,0.7705452,0.22482306,-0.09344693,-0.011528216,0.38068223,-0.0013050027,3.5753767,-1.3309789,0.3706996
A0A1I5AGE2_9FLAO/12-340,0.0451032,-0.7359101,-0.54909974,0.011846174,-0.034175545,1.2046134,0.06514722,0.1446755,1.1891233,-1.1939417
A0A0G2EXY9_9EURO/42-391,0.033125293,-1.1392089,1.6002802,-0.039330505,-0.0034512766,0.7142916,-0.021518257,1.4750705,-0.015702851,-0.13518584
A3QED6_SHELP/35-370,-0.0007736208,-1.3195081,0.0005058851,-0.03297455,-0.04009518,1.677271,-0.022939403,0.92589957,-2.04458,1.1847545
D3BNT4_POLPP/617-935,0.039050177,0.25638634,0.66975373,-0.11496579,0.039768904,0.33120456,-0.025869202,0.32232785,-1.5101589,-0.067462
M5T7F3_9PLAN/74-399,-0.0033564619,-0.84838057,1.6933864,-0.03649147,-0.02144633,0.10708642,-0.022029754,-0.11598788,0.057703763,-0.17539786
A0A1I6Z0A5_9BACT/40-413,0.023363609,-0.44225052,-2.560779,0.0419598,-0.059298128,-1.4512019,0.06164808,-0.8353616,-0.32601416,-0.5456781
A0A1I0YD30_9BACT/75-450,0.018977607,-0.6227146,-2.819016,0.044058524,-0.06277382,-1.4749156,0.078423925,-0.8298094,-0.33546615,-0.59505296
A0A2D0NB68_9BACT/37-414,-0.004565776,-0.16826425,-2.343963,-0.009474969,-0.0360449,-1.3950527,0.081564546,-0.7711927,-0.10358161,-0.36259782
A0A0M4FKX6_9BACI/41-367,0.06169537,-1.6264403,0.43977293,0.06867634,0.015389657,0.6652226,-0.039483923,1.1760198,-1.8643764,-1.0564371
E1R4B9_SEDSS/39-372,0.014524452,0.18989658,-0.058750883,0.0011440665,-0.024619998,-0.15426236,-0.03724354,1.0683482,-1.8884255,-0.29492545
A0A094H8S3_9PEZI/25-382,-0.021440847,-2.392044,2.8058472,-0.08393527,0.022488544,1.2272761,-0.008941062,1.8030145,0.65718895,-0.43754393
A0A0M2PEK5_9BACI/43-377,0.034114297,-1.4515347,-0.04162722,0.050097473,-0.0024493188,0.7882145,-0.044711936,0.9602085,-1.7499849,-1.2777503
A0A158KZW7_9BURK/53-389,-0.022839881,-0.2507259,1.3830307,0.03582835,-0.05642529,1.0877705,0.06020017,1.9087337,-0.3821866,1.6278026
A0A094BPG8_9PEZI/25-382,0.011269737,-2.011783,2.2851298,-0.029077834,-6.788038e-05,0.8461253,-0.016753402,1.5351919,0.39005196,-0.2789733
A0A093ZNM4_9PEZI/25-382,0.011431355,-2.1870182,2.3404133,-0.035002828,-0.002961712,0.7706991,-0.022329208,1.5687089,0.36705506,-0.3230925
A0A1B8C5G7_9PEZI/16-374,-0.019673957,-2.273616,2.6910515,-0.06355625,0.008533193,1.2564538,-0.0029127598,1.9957606,0.6473697,-0.4355747
A0A1B8CW42_9PEZI/16-374,-0.0096764555,-2.5094204,2.7681103,-0.0480401,-0.0077699404,0.97056675,-0.036717255,1.802582,0.33260828,-0.47138837
A0A094E0Z7_9PEZI/16-374,-0.01935363,-2.613505,2.8808627,-0.04761351,-0.0032155924,1.1257696,-0.028710257,2.0057042,0.38064265,-0.5163207
A0A1B8FW41_9PEZI/16-374,-0.032200076,-2.3394299,2.6038833,-0.05542951,0.015079388,1.0949912,-0.001182694,1.9868976,0.3270747,-0.3413684
A0A094H0M6_9PEZI/16-374,-0.018613681,-2.2473319,2.777605,-0.05206173,0.0041710585,1.1297373,-0.016041372,1.8934866,0.39393735,-0.352974
A0A1B8F460_9PEZI/16-374,-0.023542028,-2.5583212,2.898764,-0.07796663,0.015748633,1.2490122,-0.01638325,1.9778115,0.41705936,-0.46006942
A0A094EXW9_9PEZI/78-435,-0.006880141,-2.229973,2.5184662,-0.07606803,0.009133235,0.8819002,-0.020825338,1.6510315,0.46071547,-0.41119847
A0A093XUY6_9PEZI/16-373,-0.024256056,-2.4642136,2.7152526,-0.0700844,-0.009100864,1.2562299,-0.011815198,1.817028,0.6155222,-0.53359777
A0A094FQA0_9PEZI/16-374,-0.008348484,-2.4345374,2.5320761,-0.061395325,0.021585325,1.0256878,-0.019314583,1.7861593,0.45438808,-0.28188676
A0A094D005_9PEZI/16-373,-0.0034901744,-2.3543363,2.607562,-0.049221337,0.019595103,1.0525316,-0.021335814,1.8262237,0.41068316,-0.2793799
A0A094F0E1_9PEZI/16-374,-0.01724151,-2.5582566,2.9027882,-0.0804776,0.019323612,1.3393884,-0.008601587,1.780398,0.66487515,-0.44385955
A0A139GTC4_9PEZI/16-356,0.033165112,-1.2366649,1.4628534,0.011801598,5.1815063e-05,0.735363,-0.02378511,0.8795609,0.6179561,-0.010073244
A0A1T4T5E3_9BACT/37-366,0.07560022,-1.5626438,0.34339485,-0.01617209,-0.015957978,0.6020828,0.004832156,0.73573464,-0.79071033,-0.9408702
Q82JU1_STRAW/87-413,0.0014901089,0.2520514,2.4566321,-0.067731276,0.008913649,-1.4090033,0.030176993,1.2556055,2.233072,-1.2624569
A0A1H8Z7Y9_9ACTN/72-398,0.034770656,0.6985995,2.4606602,-0.006371826,0.0054545347,-0.985747,0.056226157,1.0803461,2.0496583,-1.2991654
A0A1G6MAF0_9SPHN/43-394,0.008514727,-0.3080122,-0.31492472,0.045334727,-0.0020329636,-0.075491846,-0.010988627,2.4179134,-0.43699712,0.64591634
A0A089JJH1_9BACL/47-358,0.04628532,-0.38860458,0.22108008,0.0035194363,0.004283266,0.24973254,-0.0074050277,0.97939676,-1.3248945,-0.13313852
A0A1X7GHQ5_9BACL/50-371,0.033065803,-0.25905788,0.115701824,0.01736498,0.026206328,0.26754612,0.00020059943,0.7950324,-1.7439237,-0.08752857
A0A0F7ZKL1_9HYPO/53-395,-0.03102655,-0.4759634,2.5070577,-0.020351378,-0.014088809,1.1197655,0.002000302,2.0528247,0.47156775,-0.24692892
A0A0A2VEP4_BEABA/46-395,-0.005259485,0.1318018,2.7862468,-0.05639848,-0.032799166,1.2216549,0.01240113,1.6471957,0.38121843,-0.42765966
J5JQI2_BEAB2/46-395,0.0022607252,-0.010404631,2.8324451,-0.050432846,-0.041435488,1.3234502,0.014052752,1.6940745,0.3541093,-0.37133303
M0QNY0_9ACTN/81-421,0.035488646,-0.21390796,1.1245393,0.058531374,-0.058619037,1.0533799,0.045788363,1.1972009,-0.55159765,1.1762055
S0ELV3_GIBF5/1-339,-0.00771284,-3.5479097,1.8342773,-0.09682766,0.019709682,2.3186715,0.077630624,0.9274202,-0.7158779,0.59607667
A0A1Q5Q8M9_9EURO/9-357,0.020151678,-3.6506388,1.9896836,-0.013236208,-0.016732473,2.4766703,0.055912167,0.83419126,-0.29807258,-0.23753697
A4CNW2_ROBBH/76-451,-0.035962775,0.24209987,-1.0896022,0.034304716,-0.038309127,-1.4585508,0.006925788,-0.34928137,-1.4009084,-0.5919009
A0A171D7B6_9ACTN/86-400,-0.014082845,0.05133838,-0.1803209,-0.10010863,0.034364976,-0.44961596,-0.050868113,0.3938802,-0.3103701,0.35876903
A0A0Q5PJ45_9BURK/54-373,-0.0007725823,0.556018,0.7482271,0.06446315,-0.058686078,-1.1907617,0.02229445,-0.8431351,0.88405234,-1.1791232
H1XVI8_9BACT/145-482,0.03552493,-1.1719164,0.38747498,-0.06996657,-0.0021952111,1.1229833,0.010536101,2.2463467,-0.66409457,-0.17850639
A0A1G9NUS0_9ACTN/58-394,0.065778054,-0.37270284,0.64618826,-0.024679428,-0.05661627,0.92841655,0.0023801886,2.164427,0.5596015,1.5700808
A0A0M1NJB2_9BACL/30-350,0.031099293,-1.8378555,0.07274468,0.04179637,0.0048202053,0.39398026,-0.013757337,0.8188175,-1.1115116,-0.89548975
H3SBA8_9BACL/40-359,0.0033921178,-2.3298333,0.10653347,0.050128426,-0.0054952046,0.29886088,-0.026210967,0.82394195,-1.2037145,-0.9141465
A0A1M4Z590_9RHIZ/45-380,0.03332742,0.19568346,0.7019829,-0.013714539,-0.08899503,1.0037352,0.037329063,2.2948859,0.3202774,1.6424906
A0A0R0CPQ8_9GAMM/38-385,-0.033019986,-0.76344645,-0.071709,-0.073276505,0.037343852,-0.28438917,0.047688298,3.4068277,1.7124571,1.0439527
A0A1M4U150_9BACL/36-358,0.019316694,0.17774029,-0.518368,-0.062324442,0.028347975,0.17529365,0.0024385378,0.42400002,-0.7351163,-0.4367735
A0A1J0AEU2_9CYAN/43-379,0.037090786,-0.13771276,0.9976029,0.027201982,-0.06274283,0.92666394,0.021368135,2.0375962,0.03762044,1.4024162
A0A1I4YY07_9GAMM/66-398,-0.022574436,-1.584897,0.037029617,-0.008886542,-0.027134676,0.61893946,-0.031546984,0.8043858,-1.8058038,1.6487548
A0A1G6WCV3_9GAMM/53-384,-0.019305164,-1.4532459,0.3620556,0.006440292,-0.042520795,0.47065184,-0.028641861,0.79106873,-1.3645554,1.6971405
A0A090XUD6_PAEMA/47-368,0.037558902,-0.12253539,0.14807543,-0.019951968,0.019208958,0.06000467,-0.0028119124,0.90675586,-1.3953109,-0.08910157
A0A1H0VUL3_9MICC/76-413,0.07088613,0.27690366,0.9328434,0.0042338837,-0.06861919,0.86877763,0.051486436,1.6809769,-0.22200803,1.2321538
A0A1L9MRD8_ASPTU/9-357,0.04728437,-4.587957,2.3865912,0.0096766045,-0.034387663,3.0651944,0.09082475,0.7985405,-0.39452547,-0.70095474
A0A268E6C6_9BACI/44-363,0.06835008,-0.1453037,0.31687587,-0.02238834,0.044885874,0.1231395,-0.0053171217,0.75959134,-2.0311158,-0.29387987
A0A100IFH1_ASPNG/395-740,0.020388257,-3.8966568,2.1824396,-0.015191393,-0.017802928,2.6754057,0.062615395,0.80079025,-0.11438842,-0.3767083
W6Q8Q0_PENRF/9-357,0.04365762,-4.505315,2.2579346,-0.006789677,-0.019026602,3.0231156,0.09010665,0.7979993,-0.6042497,-0.4019069
A0A1L9SBF9_9EURO/9-357,0.027960313,-2.4312637,2.020203,-0.05493152,-0.02518873,1.674587,0.05546049,0.56757635,-0.028304301,-0.04466837
A0A1F8TML0_9CHLR/42-369,-0.007850735,-0.3879965,0.049648046,-0.0016646106,0.05528561,-0.2076307,-0.008596472,1.0032287,-1.5708932,0.22431783
A0A1F8TLP7_9CHLR/42-370,0.018987948,-0.19091837,0.120611995,-0.023062104,0.027129645,-0.32538056,-0.007030744,0.96134585,-1.3351088,0.28529307
Q12RG1_SHEDO/36-372,-0.0042795977,-1.168418,0.13156898,0.007893597,-0.013689382,1.0439929,-0.037748467,0.51091915,-1.8087245,1.1518449
A0A0S7BF72_9CHLR/38-361,0.0058417185,-0.011933746,-0.30345234,-0.055064917,-0.00086253136,-0.121443525,-0.008093912,0.65695286,-0.91385525,0.16141702
V2GSL4_9BURK/51-389,-0.036756616,-0.72696155,1.2347853,0.030099034,-0.05096217,1.127684,0.04765833,1.8386557,-0.52258277,1.7147557
A0A0E4CUN1_9BACL/44-361,0.004195212,-0.46323723,0.18966423,0.024115296,0.03667044,0.031400755,-0.007373579,0.86454344,-1.444452,-0.21686083
F0ZZR7_DICPU/45-382,0.041489538,0.5872134,0.82253474,-0.10131473,0.051554315,0.56156635,0.02136332,0.22874184,-1.6302565,-0.04279934
A0A0K9HAH8_9BACI/39-367,-0.029198129,-0.28782448,-1.2242434,-0.05248025,0.0043969788,0.40550822,-0.019744355,0.74143755,-1.8861591,-0.0146360705
A0A1G9QAL6_9ACTN/58-377,0.032734595,0.08745404,1.4895499,-0.046763524,0.0053767823,-1.3601024,0.014880143,0.6948642,1.613713,-1.2867829
A0A1V6MTR2_9ACTN/60-391,-0.056158323,-0.23785014,-1.0720397,-0.07349207,-0.004998097,-0.43890134,-0.050042126,0.666766,-1.049881,0.65531313
A0A0C5FZG2_9ACTN/47-386,-0.013645755,1.3807344,0.1991842,0.0117647955,-0.03435844,-2.0680423,-0.00568261,1.041576,0.18988264,-1.0313958
A0A170XM73_9ACTN/60-385,0.027149057,-0.022432959,2.1092584,-0.07670602,0.019911954,-1.4199742,0.022262359,1.2186298,2.2572608,-1.2061169
A0A1P8YNT0_9NOCA/55-380,0.046586204,0.35972896,1.7407467,-0.07065169,0.017910095,-1.0207804,0.011892542,0.91835743,1.6554288,-1.268901
A0A1U7P5A1_9DEIO/16-371,0.01303265,-0.09491212,-0.7666389,-0.0514438,-0.102022015,-0.8882753,0.022749184,1.7196808,-0.47623974,1.1499044
U5VQR4_9ACTN/31-360,-0.026528012,1.9165616,0.5908715,0.02013891,-0.11217722,-2.2757502,0.02840529,0.9710259,-0.47581166,-1.1924721
A0A1I6K7I2_9MICO/62-407,0.008805,0.8125927,1.136001,-0.013837127,0.005249353,-0.8654027,0.012918491,0.17412505,0.77617925,-0.93856937
L0IZ99_9MYCO/60-386,0.022741172,0.21312848,1.8453263,-0.05384112,-0.0057315584,-1.1410908,0.008060709,1.1030943,1.5924706,-1.4935435
A0A1D8TC07_9NOCA/50-375,0.033215307,0.1064265,1.8071196,-0.058832496,0.008191431,-1.1096333,0.01053163,0.80138946,1.7532085,-1.4171317
A0A1A1YQG8_9MYCO/48-373,0.023178088,0.3608971,1.8021779,-0.05867836,-0.001411248,-1.205423,-0.009233829,1.0056441,1.3745253,-1.4878122
C1B9H1_RHOOB/59-386,0.050261132,0.20702398,2.019218,-0.104224436,0.013961295,-1.1661555,0.0061317757,0.89338887,1.9454377,-1.392738
A0A1A0TT96_9MYCO/49-376,0.01273453,0.11343072,1.7073269,-0.07058885,-0.008328375,-1.4145907,0.00803151,0.65171236,1.6717509,-1.3156683
D4E6L0_SEROD/50-390,-0.041677948,-0.16575705,1.0268301,-0.082418375,0.038825214,0.53961885,-0.052076887,0.1506188,0.4677629,-0.15528083
A0A1G6KIZ9_9PROT/36-419,-0.06828122,-0.2383038,-0.69503826,-0.06081461,-0.009152251,-1.266912,-0.052594047,-0.49343425,-0.42874503,-0.11751281
A0A067T220_GALM3/12-396,0.022031197,0.20795314,-0.3527374,-0.0953963,0.026864422,-0.47105917,-0.016698461,-0.9171338,-0.82106704,-0.37182763
A0A0D2P2X7_9AGAR/12-398,0.048820857,-0.2015641,-0.67385083,-0.021796057,0.030562116,-0.59506834,0.026794162,-0.7489796,-0.5681993,-0.5104024
A0A0J0XTJ3_9TREE/17-397,0.008080786,-0.0048560896,-0.09451535,-0.06373476,0.034097187,-0.4837766,-0.008323677,-1.3031069,-0.7017602,-0.21519811
A0A1X0JNY5_9MYCO/55-381,0.041964605,0.16618209,1.7197208,-0.050325662,0.010619869,-1.2123655,0.0012589842,0.93114287,1.8607675,-1.2989435
A0A1Q4W759_9ACTN/63-389,0.04854029,0.5788299,1.5455583,0.0059453305,0.004297817,-1.1705363,0.029586565,1.0113505,2.0091426,-1.3388096
A0A1U7MQF5_9MICO/9-383,8.9521986e-05,-0.24698128,0.83435327,-0.0367181,0.020498866,-1.2614532,-0.0060386136,-0.40806156,0.19014564,0.45335624
F7VJX4_SORMK/8-447,0.025688695,0.13124959,-0.09077261,-0.011460913,-0.027256055,-0.56012756,-0.013328817,-1.5492854,0.100609176,0.15600002
Q6DB25_PECAS/48-389,-0.011076886,-0.24906115,0.9259771,-0.08120674,0.039979868,0.47069144,-0.03606761,0.39811522,0.48165894,-0.17661175
D0WMF0_9ACTO/83-416,-0.0032617715,1.2443218,0.14558676,-0.052740432,-0.07187178,-1.428581,-0.019439634,0.6767362,-0.0019954368,-1.2380933
A0A076N9A0_AMYME/10-386,-0.06107948,-1.0112524,0.45308784,-0.070429526,0.00024231151,-1.3890748,0.012691032,-1.0319422,-1.0944325,-0.9825277
A0A212U3K8_9ACTN/62-391,0.050457615,0.54967445,2.012392,-0.017433235,0.023570573,-0.9532635,0.039103374,0.6867424,1.6110988,-1.3643446
Q0S949_RHOJR/67-393,0.038528897,0.25667772,1.993876,-0.074850276,0.0031872746,-1.2433311,0.014461216,0.918794,2.0465539,-1.517211
C0ZY42_RHOE4/50-372,0.0491754,0.08638833,2.0014799,-0.07249313,0.01747636,-1.0514283,0.027548233,0.9005587,1.2388804,-1.3001183
A0A1X0HLI3_9MYCO/39-364,0.043385606,0.25690797,1.9395747,-0.061726533,0.017841818,-1.108626,0.008358546,1.0697138,1.7228535,-1.3789197
A0A1G9JMW1_9ACTN/42-373,0.0025382799,0.027161043,0.06710175,-0.03250332,0.018287739,-0.20875353,-0.008258175,0.32247972,-0.26208812,0.5767098
A0A1H7I6J7_9ACTN/6-381,-0.068974525,-0.4646321,0.35209975,-0.06839621,0.014461907,-1.3384738,-0.014749128,-0.9368499,-0.7358296,-0.43801185
F8Q9X1_SERL3/1-331,-0.03099773,1.3239613,1.6780305,-0.12470996,0.021111762,0.5703176,-0.03530631,0.28613085,-1.5583057,0.46447656
A0A0J1AYK5_9TREE/21-402,0.0010932228,0.03613786,-0.058157124,-0.115470044,0.02623914,-0.6792724,-0.040172968,-1.2985393,-0.5042325,-0.16462345
A0A1R1D0K5_9BACL/37-356,0.042223077,-0.16827582,0.027518837,-0.06626363,0.03182725,-0.06459147,-0.022554081,0.7386563,-1.3006845,-0.042762347
A0A1H2H8P0_9ACTN/5-338,-0.004617946,0.52849245,0.12870082,-0.030057179,0.01802631,0.6559804,-0.018752616,1.2042181,1.684468,1.6277857
A0A108C968_9BURK/45-380,0.053050842,0.65235525,-0.64525217,-0.050889842,-0.010333709,0.21835151,-0.010390699,0.67371947,0.6776844,1.0231388
A0A1A9BI02_9ACTN/39-364,0.016043087,-0.13460891,-0.029338406,-0.047976412,0.03675776,-0.40516055,-0.015968379,0.3471809,-0.10678646,0.49078995
A0A0Q5MQM6_9MICO/10-351,0.017280454,-1.0561925,0.96036786,-0.11019402,0.05511851,-0.89849204,-0.04889327,0.51114875,-0.53969514,0.5615822
A0A0Q5LNF1_9MICO/10-346,-0.012609181,-1.1838686,0.6213398,-0.062362574,0.038770624,-0.90325433,-0.036379885,0.5608047,-0.25026166,0.773104
I8T9Y5_9GAMM/7-377,-0.050384644,-0.567394,-0.16717823,-0.061630674,0.04434842,-1.08756,-0.051147778,-1.5341713,-0.6905252,-0.7372877
A0A1I5GSX8_9PSEU/10-383,-0.061110046,-0.5799981,0.46355966,-0.118623964,-0.010376448,-1.1027704,-0.018514294,-1.1166146,-1.1360718,-0.5735524
A0A1M6R5Y4_PSETH/9-384,-0.006654728,-0.3063897,0.23250823,-0.017599637,0.013180165,-1.1604762,0.01438839,-1.0387361,-0.76251113,-0.7475756
K1WNR4_TRIAC/31-408,0.021917477,0.023470588,-0.027551737,-0.120376505,0.051539488,-0.42486188,-0.036984835,-1.0795207,-0.8041798,-0.3750177
A0A0Q9EBL8_9RHIZ/12-351,0.028614063,0.35443804,0.29118428,-0.077474296,0.00037422404,-0.29639938,0.004375793,0.21163128,-1.1123085,0.36083874
A0A1F3Y9L2_9PROT/30-364,0.032911345,-0.9439882,0.2542722,-0.00993686,-0.034747798,0.7302183,-0.015355777,1.7920008,-0.8149455,0.077218965
A0A0W7W9V9_9MICO/10-383,-0.06529164,-0.71664184,0.17939232,-0.08459444,-0.0028083213,-1.1265618,-0.011287522,-0.9370096,-0.9881715,-0.52337104
A1T410_MYCVP/34-401,-0.027004657,-0.22300276,0.92867047,-0.0066456366,-0.030585688,-1.9117106,0.07224347,-1.7353581,-0.90516764,-1.4610795
A0A1H6IFF2_9MYCO/6-374,-0.0350944,-0.12894683,0.8763779,0.026735406,-0.029469628,-1.8797884,0.06266124,-1.8056698,-0.9635003,-1.6141909
A0A139V5B8_MYCPH/6-374,-0.04680765,-0.43953162,0.9005414,0.01631844,-0.024312932,-1.9550061,0.07562311,-1.6394702,-1.1024455,-1.4825937
L0IAF4_HALRX/24-357,-0.019480787,-0.27241036,-0.3359423,-0.039096966,0.012798691,-0.014712764,-0.006337341,0.6781672,-0.32096756,0.042406436
A0A1X0HP22_MYCPF/6-374,-0.027536541,-0.09011321,0.8752573,-0.009973155,-0.025577854,-1.886113,0.047280483,-1.6171123,-0.91182375,-1.3707625
A0A292Z6I2_9PSEU/10-386,-0.058049228,-0.75235236,0.4591837,-0.07410705,-0.009983138,-1.2624043,-0.0059987158,-0.923332,-1.142349,-0.7550189
A0A0Q6FR74_9ACTN/10-386,-0.048909817,-0.6483799,0.3754809,-0.03759685,-0.011719751,-1.2360066,0.014024209,-0.9658425,-0.7473265,-0.7833432
R7XRP8_9ACTN/10-383,-0.018787872,-0.41242662,0.19086705,-0.052999794,0.016342515,-1.0987965,0.0011052415,-1.0005127,-0.86264163,-0.77423364
A0A0T2ICP1_9MICO/10-383,-0.057052087,-0.77704304,0.33212468,-0.040262833,-0.0046855547,-1.253728,0.012317494,-1.0325575,-0.98898953,-0.96055037
A0A0S9RDL5_9ACTN/10-384,-0.035036758,-0.84032255,0.4414316,-0.062172137,0.008218573,-1.2429327,0.011562657,-1.041635,-0.8979855,-0.86557966
A0A1E4I2V9_9PSEU/10-386,-0.036822524,-0.7642613,0.23437972,-0.04682719,-0.00037086383,-1.2326946,0.008734461,-0.92294997,-1.0453378,-0.81715745
A0A1E4PBN7_9PSEU/10-386,-0.061426096,-0.6360555,0.38800606,-0.06830811,-0.008155599,-1.2734534,-0.0077494793,-0.92602795,-1.0134642,-0.73068047
F8DBN4_HALXS/16-349,0.023779506,0.027400963,-0.08537567,-0.05673854,0.04237169,-0.087360606,-0.0012846589,0.3760023,-0.60468835,0.32024604
A0A0F3GVN7_9BACT/43-379,0.0044249096,1.2592723,-1.3755898,-0.016568018,0.008393133,0.69894266,-0.020358358,0.867772,0.045541402,0.8240425
H6C8M7_EXODN/43-397,0.013338933,-0.60831296,0.7520492,-0.026596611,0.005574351,0.72518396,-0.016580235,0.42016238,0.48455948,0.09614517
C8XEN8_NAKMY/25-401,-0.05211631,-0.96253204,0.32311386,-0.0618821,-0.013921816,-1.2099165,0.0055658445,-0.98358804,-0.8138977,-0.73227805
A0A1S1RKQ0_9ACTN/10-386,-0.06634484,-0.64631116,0.2923257,-0.055106066,-0.00033066608,-1.3207842,-0.01696464,-0.9799964,-1.1101934,-0.9193516
H0E9E3_9ACTN/9-384,-0.05715485,-0.51515436,0.28317925,-0.030882554,-0.014713222,-1.5215058,-0.015155632,-1.2249349,-0.6127979,-1.0661299
A0A2A5NV62_9MICO/43-383,0.0059254714,-1.2551237,0.6117613,-0.05706384,0.035102367,-0.83974135,-0.031100173,0.406367,-0.34307384,0.5650992
A0A1M7ZRI2_9RHIZ/67-391,0.0926483,-0.08583843,0.52747357,-0.017402975,-0.013473434,0.21707103,-0.007877037,1.4439684,-0.12212917,0.6890105
A0A1M7Z4K0_9RHIZ/62-399,0.06730443,0.10182271,0.5469196,0.026844153,0.013777902,0.13362224,0.008601442,1.5164125,0.07927909,0.6990762
A0A0D0Q6W2_9RHOB/12-357,0.025240434,0.38775337,0.1835826,-0.09172497,0.007521296,-0.4974859,0.008685421,0.5017745,-1.3232715,0.66411746
U4VE45_9RHIZ/12-358,0.0125012025,0.23063816,0.07142869,-0.08801273,0.04134033,-0.39181662,-0.019446712,0.46922606,-0.9589363,0.45808184
A0A1I2BLT6_9BURK/7-381,-0.042347122,-0.7445549,0.6084748,-0.057644807,0.016748728,-1.3955576,-0.0017755553,-1.4286289,-0.51025665,-0.6959263
A0A0Q5LYL3_9BURK/7-383,-0.047638264,-0.66473466,0.48998126,-0.053776525,0.003033055,-1.4495728,0.0130856335,-1.3451322,-0.6172612,-0.79348505
Q988N4_RHILO/12-355,0.007909189,0.2197586,0.16588835,-0.08153588,-0.00054054894,-0.542057,-0.027274426,0.45728302,-1.0793816,0.58971214
W9DZP6_9RHIZ/12-355,0.010360708,0.21926473,0.1592287,-0.0829228,0.0018824954,-0.52588594,-0.026127186,0.4471088,-1.101475,0.55607706
A0A250I781_9DELT/47-368,-0.052116815,-1.2469722,-0.93970907,-0.038959295,-0.030894142,-0.88279796,0.015899885,0.7049413,0.7616554,-0.31968874
A0A168ELP5_9HYPO/9-384,0.020977003,-2.73563,1.3679969,-0.09761932,0.042663738,1.432918,0.031116644,0.57873356,0.5696341,0.37357876
A0A1J9QNW0_9PEZI/79-446,0.038311522,-1.5545665,1.8012909,0.02177168,-0.011787939,0.2747505,-0.04894257,1.3991663,-0.25685847,-0.04382446
A0A226DUQ3_FOLCA/44-399,-0.053973954,-0.6892142,0.15945953,0.009387101,0.0032794625,1.1369231,-0.024664354,0.6293693,-0.10330555,-0.014353436
D7A4X3_STAND/35-369,0.08719841,-0.11224924,0.1381209,-0.057808347,-0.09661851,1.0063463,0.023056718,2.3439527,-0.24895568,1.7122034
V4HBD0_9EURY/9-349,-0.0025995716,-0.009374752,-0.39910734,-0.015970016,0.022747288,-0.0751871,0.0027197562,0.7677639,-0.31086534,0.3099766
A0A142X1R7_9PLAN/40-379,0.015279923,-0.3302349,-0.28621805,-0.08133151,-0.048971184,-0.28571087,-0.021857802,1.0504746,0.23349214,-0.5085478
A0A017T8H9_9DELT/38-389,0.03663539,-0.59211254,0.43437555,-0.0045094844,0.010129234,0.297265,-0.0023331568,2.1162174,-0.39040053,0.63225216
K2MYZ8_9RHIZ/49-382,0.0036823035,-0.51568955,1.1415997,0.06856742,-0.025590498,0.656867,0.04805299,1.4474297,-0.2487876,1.5162013
A0A098U4B8_9BURK/44-389,0.09406186,0.86908954,-0.6006566,-0.06482283,-0.020845585,0.6228632,0.032288782,0.5049393,0.59787846,0.6384389
A0A162Z4N7_DIDRA/451-789,-0.028644567,-2.7800376,1.6240171,-0.06817475,0.06684066,0.8392173,0.015060358,1.0072386,-0.043714948,0.13501622
A0A1H8A8E5_9FIRM/61-416,0.037457254,0.34474954,-1.2907424,-0.050530642,-0.0074339826,0.7020373,0.03624947,0.1088178,-1.0324897,0.1319763
A0A0K0XSA8_9GAMM/17-360,0.0566335,-1.0574995,0.34933946,0.0042199194,-0.04552824,0.9481882,0.0034953058,0.28049052,-1.3576363,1.3114854
A0A0J1CU17_9BURK/18-388,-0.0060008676,-2.4658508,-0.786991,-0.004412858,-0.08632402,-1.7025257,0.06522772,-0.11203283,0.49436527,1.2167829
A0A0M0BTR7_9ARCH/43-394,0.06838557,0.3845989,-0.72638535,-0.08949782,0.013943179,0.14827381,0.042167563,-0.26858145,-0.93194014,-0.25819975
A0A0B1Y9S1_9BURK/55-393,0.031132564,0.6127922,0.27592814,-0.13474548,-0.026978133,0.16576421,0.013693579,0.21059982,-1.4807101,0.44460046
A0A1Q5QAI8_9EURO/14-365,0.018248362,-1.1729459,1.8352757,-0.012432622,0.019692441,0.81880206,0.009817846,1.7063056,0.82838374,-0.14714652
A0A0C2YKG1_HEBCY/12-397,0.029050779,0.09704162,-0.38042822,-0.045630015,0.014213385,-0.33122182,0.00092846155,-0.8081472,-0.61980194,-0.42448866
T0GCV4_9SPHN/24-389,-0.040293373,1.8820246,-1.0074543,-0.016923493,-0.009271925,-1.9322385,-0.019440722,-0.31256709,-0.16878039,0.788489
A0A286E6U7_9ACTN/60-384,0.0032965443,-0.12540916,-0.3352782,-0.08714864,0.029532695,-0.6639163,-0.0145203285,0.31975365,0.25499654,0.3873314
A6GAC6_9DELT/41-392,-0.068213575,-0.77354646,-0.9668327,-0.032387383,0.014592664,-0.38740137,-0.0015735142,0.49026716,-0.7331358,0.37735435
A9WDD9_CHLAA/76-391,0.005680753,-0.5590191,-0.5838873,-0.07375747,-0.029342405,-0.9066223,-0.0051575266,1.0483075,-0.3610102,-1.1360997
A0A1Q4RD25_9CYAN/285-612,-0.09761786,-2.2075462,-2.35863,-0.002646234,-0.06983731,0.26338503,0.056812193,0.85522944,0.4063434,-0.70694256
M7Y4P0_9BACT/35-339,-0.033486385,-1.2055575,-1.9871126,-0.005364962,-0.052867413,0.2464438,0.059967607,0.46156257,0.8683206,-0.6930994
E6WV80_PSEUU/24-333,-0.006718452,-1.5175718,1.2613318,-0.014525136,0.020014351,-0.019044165,-0.047599304,0.18916382,1.0688397,0.25418857
A0A142Y4L0_9PLAN/47-397,-0.0020753816,0.23368214,-0.7924105,-0.06684746,0.035744093,-0.8368382,-0.02368981,0.054563195,-1.3255548,-0.22305025
S2Y686_9ACTN/23-405,-0.06822798,-0.23847409,-0.8820285,-0.14502697,0.028801402,-1.5916886,-0.05294084,-0.7029593,-1.2056292,1.1082935
A0A1X7GYX5_9BACL/39-370,0.07179378,-1.477017,0.30358514,0.028001815,0.04570835,0.7829591,-0.03759918,0.68303084,-1.8964025,-0.9829485
D5BEL0_ZUNPS/598-969,0.00664716,0.22905102,-0.6877777,-0.04434619,0.005458111,3.4108276,0.04428581,-0.21599966,-0.24389105,-0.5242192
A0A1Y1T2L1_9FLAO/598-970,-0.004638119,0.22868845,-0.78691703,-0.028071893,0.0075392965,3.585959,0.05052347,-0.2887118,-0.4142899,-0.84263
T0RCC9_9PROT/26-353,0.038703594,0.07708996,-0.15729061,-0.025210438,-0.012387691,0.5966431,0.049349442,0.5808719,0.13731255,-0.21226099
A0A285X662_9FLAO/37-342,-0.009150168,-1.0771477,-1.736876,-0.05261971,-0.035502788,0.1269753,0.044466987,0.42937845,0.47736335,-0.7389298
A0A150XS66_9BACT/54-402,-0.04111012,-1.2493742,-2.2811887,-0.09384427,-0.050601408,0.20751615,0.056274623,0.45120418,1.0132204,-1.0152225
A0A1F3E623_9BACT/60-409,-0.060734842,-1.1603062,-2.132849,-0.09746004,-0.03770307,0.34774074,0.061273295,0.5245746,0.47290516,-0.9602846
R4LUG4_MYCTX/1-354,-0.067814454,0.5978984,0.29319018,0.00021624006,-0.14264733,-3.6979675,-0.06917028,-1.7566456,-0.7523322,2.3233125
A0A1M6RA43_9FLAO/61-390,-0.017970333,-0.69515467,-1.0880493,0.003578974,-0.038592122,0.037746504,0.036646232,0.5737699,0.36495876,-0.36063835
A0A1Q8S6U5_9PEZI/4-377,-0.062340163,-1.0455831,0.9254913,-0.0116380695,0.004579503,-1.3504382,-0.01756147,-2.6621234,-1.3014184,0.7979296
W9YZ91_9EURO/44-387,0.039983727,-1.2182093,1.7709062,-0.012634074,-0.0099011585,0.92829615,-0.0007255934,1.2634972,0.3198796,-0.102770135
D9WBY9_9ACTN/14-400,-0.07217621,0.009486548,2.1823068,0.09054705,-0.123829156,-3.6734602,0.021332644,-1.8842993,0.39188683,0.054107722
A0A160NUH2_STRLU/16-400,-0.03842723,0.003204884,1.9228609,0.10088894,-0.09687152,-3.3525891,0.0011815913,-1.7665688,0.42244762,0.046326492
A0A1H0Z1W6_9EURY/81-411,-0.04439179,-0.746207,-1.5219468,-0.031967007,-0.03314992,-0.28089693,-0.01610839,0.9548897,-1.352378,1.0571457
A0A060B377_9GAMM/54-392,0.018943528,-0.5323339,1.0197085,0.06093537,-0.03392623,0.65543085,0.027810447,1.585502,-0.3824662,1.5387932
A0A1Q5TAL2_9EURO/12-353,0.024738705,-1.0922475,1.6391171,-0.04077655,0.011369059,0.94187534,-0.0005730428,1.2654823,0.42011124,-0.15316083
Z5XVG0_9GAMM/31-360,0.03363636,-0.5587039,-0.38107696,-0.051907726,0.014029829,0.41236585,-0.0071121007,-0.1241398,-1.2527518,-0.057929084
A0A2A9P9U8_9HYPO/9-374,0.061403677,-2.1107616,1.5530658,0.04947387,-0.04191839,1.4527395,0.050556436,0.36536258,0.17655334,-0.08352667
A0A075R4G1_BRELA/7-343,-0.020387122,-0.23492408,-0.70022905,-0.0063446704,-0.00079098344,0.013288994,-0.010108445,1.0081943,-0.5091783,0.29855943
A0A1L6HUM7_9BURK/8-351,0.030566903,-0.48394078,0.26463684,0.018457338,-0.045335926,0.76668304,-0.0061283708,1.4388678,-0.75906783,0.0026799962
A0A161TG91_9NOCA/38-359,0.034765095,0.19263457,-0.244981,-0.06544585,0.022567617,-0.34634444,-0.0018262938,0.38528675,-0.5481755,0.2254992
A0A098S7J5_9BACT/32-364,0.092377074,0.25269425,-1.048026,-0.06090243,-0.004426323,0.035032555,0.03342278,-0.14464384,-0.8084625,-0.29419434
A0A081P576_9BACL/41-358,0.027796097,-0.024321754,-0.068016484,-0.067104824,0.029929606,0.14962114,0.01774709,0.40565467,-0.39872146,-0.4662752
A0A074LV60_9BACL/9-332,0.005245474,-0.43134797,-0.3008709,-0.02196663,-0.009678953,0.10256271,0.0062635727,0.5834403,-0.2827508,0.2669712
L9XK67_9EURY/65-453,-0.022100393,0.06136936,-0.27369297,-0.07254247,0.03900159,0.049523253,-0.004125092,-0.5409589,-0.46685565,0.94739234
A0A0C3H411_9PEZI/10-365,0.048484303,-1.2695999,1.8047853,0.00036611594,0.028043924,0.7863385,-0.02354234,1.2023766,0.48927128,0.041555397
A0A094AM07_9PEZI/9-355,-0.00676562,-3.2260175,1.8182286,-0.05683759,0.0018096678,2.1110415,0.055067617,0.5904056,-0.034308568,-0.21257517
U1GKK5_ENDPU/293-634,-0.02478158,-0.95341873,-1.5912629,0.0014621858,-0.04230053,0.19171773,0.03540895,0.49419647,0.75778854,-0.6021983
A0A093X2I4_9PEZI/9-354,0.020120513,-3.2356346,1.9174974,-0.0028336588,-0.023723729,2.286794,0.06972815,0.61696476,-0.014061384,-0.2672034
A0A0M0H4N8_ANEMI/8-357,0.020426784,-0.054235328,-0.53072834,0.04590625,-0.010155096,0.65147156,0.06355274,0.9867421,-1.0200295,-0.553785
A0A061LZN3_9MICO/50-387,-0.031957313,1.41906,0.58298254,-0.038832642,-0.04109531,-0.6925399,0.028656172,-0.6248223,0.9250116,-0.10096167
A0A0M2WL37_9BURK/33-383,0.02081778,-0.11025168,-1.4341975,-0.056743287,-0.0009795744,-0.18955953,-0.016589161,-0.1368932,-1.1885282,0.0945992
A0A0W0WZ92_9GAMM/8-327,-0.014663104,-1.2591245,-0.39388853,-0.012418101,-0.024383182,-0.77172714,-0.022278782,1.7209029,-1.0528682,-1.9780422
C6C6P0_DICP7/11-334,-0.012052043,-0.17648987,1.5164342,-0.055165857,-0.06269218,0.16978298,0.09138353,-0.6954818,3.8680608,-0.09394641
A0A167S4T9_CORDF/24-374,0.046037357,-0.5514264,1.5177214,0.016282229,0.004888704,0.46309552,-0.018637408,1.0587946,0.20313957,-0.045977395
K7SLV2_GLUOY/40-379,-0.033458818,2.432814,-1.3938076,-0.07495174,0.061056435,0.74337953,-0.07631242,1.3281902,0.869178,0.63806665
A0A1F3LEB8_9BACT/138-461,-0.019191204,-0.77755916,-1.0514439,-0.032987945,-0.032997288,0.26928493,0.012731906,0.5553406,0.21090978,-0.42764598
A0A1I1L8I2_9SPHI/46-380,-0.06588813,-1.5458229,-2.0283508,-0.0001500342,-0.06291385,0.15046279,0.06196966,0.64611435,0.6891834,-0.6130902
A0A060B7W8_9GAMM/71-393,0.026814077,0.2950716,1.1910089,-0.05192557,0.018215777,-0.8553848,0.0043691695,0.42362297,0.97634494,-0.78173155
G8RS43_MYCRN/51-377,0.037730098,0.21517107,1.7875096,-0.06021578,0.01945118,-1.1913688,0.0085599385,1.0338606,1.4592383,-1.323641
A0A0D2PBW2_9AGAR/12-390,0.007410807,0.15568267,-0.344345,-0.08558628,0.024057074,-0.33128327,-0.0070796683,-0.9891474,-0.57457745,-0.19635057
K1V8D1_TRIAC/17-408,-0.011315494,-0.2806406,-0.078185536,-0.010957623,-0.0036504138,-0.52093196,0.0015204884,-1.3373041,-0.36774868,-0.0063274214
F4CY21_PSEUX/52-386,0.0027999035,0.4675466,0.80228287,-0.1084801,0.031446904,-0.79388946,0.0021164492,0.5268085,0.33263648,-0.47266182
A0A1H7SXU4_9BURK/49-424,-0.04143237,-0.2761098,-0.33287877,-0.027100747,-0.0020274725,-1.445527,-0.0135325305,-1.4324628,-0.4299373,-1.0162327
A0A145Q3I3_9BACT/16-351,0.04796198,0.95093507,-0.20698874,-0.05646479,-0.00651938,0.63953376,0.034508117,0.6062032,0.49558073,0.9857089
D3FRK7_BACPE/34-361,0.069970466,-0.5187694,0.36638248,-0.05826658,0.025509605,0.29584298,-0.027375232,0.41028005,-1.4009987,-0.2226944
A0A0X8E1F4_9MICO/10-344,0.0029759032,-0.6570393,0.8998374,-0.08177212,0.0067260563,-0.7709779,-0.016177285,0.21446909,-0.5850622,0.4282025
A0A0H4VXG9_9SPHN/50-434,0.039787512,-0.45577934,0.8621909,0.050391123,-0.020288067,-1.8481735,-0.01970436,-0.42634702,-1.720682,0.4906901
A0A0L1IQY1_ASPNO/10-357,0.04058993,-1.2795523,2.0948203,-0.08263771,-0.030333651,0.7912751,-0.030089911,1.467105,0.3840003,-0.5955153
B8NSC8_ASPFN/10-356,0.03999997,-1.2388304,2.063011,-0.10593345,-0.031877946,0.9226776,-0.03284386,1.4784217,0.31372097,-0.7016999
A0A0N1GBP8_9ACTN/23-404,-0.10592046,-0.2964154,-1.5701317,-0.025601214,-0.0885023,-3.354593,0.012123026,0.02388192,-1.272562,2.1238937
A0A0A6UIX7_ACTUT/27-352,0.031182006,0.02777354,-0.42096588,-0.1071017,0.040410332,-0.5316208,-0.033351284,0.54897636,-0.17990099,0.39362445
A8ADF7_CITK8/43-414,0.008928108,1.1803808,-2.9938962,-0.003746109,-0.056789406,2.1185625,0.040879942,1.0998595,1.246682,-0.31058818
A0A1M7XW79_9DELT/66-414,0.06164465,0.6608736,-0.06480415,-0.053251125,-0.0036224443,1.0903422,0.017003253,0.1418049,0.6407511,0.23093365
A0A1F7ZV78_9EURO/9-347,0.008711919,-1.7171527,2.2957637,-0.0616126,-0.0344993,1.1314398,-0.0053517036,1.7188816,0.70113903,-0.663023
A0A0L6JL18_9FIRM/45-374,0.05115581,-1.8463988,0.01959431,0.02815979,-0.0017692484,0.8031226,-0.038047876,0.9853651,-1.6603266,-1.169783
A0A1N7JXJ4_9FLAO/28-346,0.05099248,0.7165792,-2.0710816,0.02885431,-0.03892521,0.31835195,0.018487131,0.2004792,0.048410848,-1.813457
A0A1W1YNJ8_9FLAO/42-419,0.051428862,-0.12617666,-1.1243896,0.012563196,0.0067188255,3.7853007,0.0303792,-0.7328646,-1.8800786,-0.8469892
A0A1I7ZDZ7_9BILA/63-434,-0.0051146727,0.679768,-1.751024,0.026354965,-0.047770888,1.1295975,0.07156228,-1.8921176,-1.1765686,0.60234255
A0A251WJ85_9CYAN/303-615,-0.027555961,-1.149977,-0.65779376,-0.03396394,0.015857367,-0.47153273,0.09660001,-0.026345555,-0.096624374,-0.9898136
C3ZMK9_BRAFL/31-426,7.857161e-05,-0.6837181,0.421967,0.0073278397,-0.019975008,0.4035325,-0.029114533,0.93365747,0.15562649,0.21207197
G4H863_9BACL/5-351,0.00817423,0.7880049,-1.060212,-0.077823155,0.004692778,-0.5516855,0.014312487,0.9134373,-0.3005823,-0.33288446
A0A0R3M910_9BRAD/7-382,-0.10130628,-0.93569154,0.4689871,-0.08146697,-0.11443048,-2.0279305,0.03540606,-1.8227082,-2.658522,-1.3950841
A0A1I7F921_9BRAD/7-380,-0.15031292,-1.3472929,0.7901037,0.008240645,-0.10481245,-1.9443371,0.042158164,-1.6138598,-2.3289044,-1.3076489
A0A1I3NU59_9BRAD/7-382,-0.15899976,-1.3701072,0.7957421,-0.046869837,-0.12760124,-2.1043777,0.06769995,-1.8014499,-2.8238833,-1.6122983
A0A1Q5RV50_9BRAD/7-382,-0.16419671,-1.251926,0.71578854,-0.021163827,-0.13781047,-2.0827415,0.04508278,-1.7489395,-2.5970101,-1.4595897
Q21C55_RHOPB/7-382,-0.13473754,-1.1098747,0.5915333,-0.10038365,-0.05955977,-1.6310517,-0.025214594,-1.4341084,-1.81901,-0.7159423
A0A0R3DWZ6_9BRAD/7-383,-0.16104633,-1.6297799,0.86151373,-0.05816052,-0.10425376,-2.1435788,0.06789449,-1.9529234,-2.4423912,-1.4205703
A0A1X7LWM4_9BACL/40-367,0.08478356,-1.9086487,0.5519964,-0.003175063,0.0065784156,0.488149,-0.036675345,0.85375863,-1.7135118,-1.1209099
A0A1Y1UHX8_9TREE/37-434,0.0058658766,0.28599852,-0.2853409,-0.07020631,0.015622096,-0.47986415,-0.04642831,-1.1661719,-0.4035288,-0.14465472
A0A239F7C5_9ACTN/7-366,-0.026343301,-0.69711727,0.87623906,-0.056034595,0.03545189,-1.9401767,0.015125275,-0.6161208,0.9276044,0.49025214
A0A0C4YJI2_9BURK/15-384,-0.008450292,-2.4371226,-0.7586567,0.020834189,-0.09112072,-1.8010108,0.053781185,-0.053740755,0.5467066,1.4472958
A0A0D7EEK3_RHOPL/7-383,-0.13308077,-1.0950128,0.17059667,-0.046927735,-0.081536315,-1.7642677,-0.01916435,-1.440333,-1.7115738,-1.1992021
H0TJS9_9BRAD/7-383,-0.15068644,-1.1674995,0.35942206,-0.10402269,-0.1041255,-2.0699532,0.007043559,-1.76312,-2.060622,-1.4032327
A0A168MJL6_9BACL/50-376,0.075289056,-1.8735181,0.33914146,-0.010439621,0.0068169218,0.65208036,-0.01511522,0.7824195,-1.364665,-1.1517676
Q07V55_RHOP5/12-388,-0.070279345,-0.94303125,0.08945231,-0.059585437,-0.014588425,-1.1564728,-0.027231794,-1.2698523,-1.1542858,-0.8943979
G9MK95_HYPVG/21-364,0.022652604,-1.4513845,1.9196215,0.013359678,0.023803068,0.8827958,-0.0007628165,1.0137316,0.44325924,0.043825146
A0A1S9DIT4_ASPOZ/14-362,0.026501067,-1.2666972,1.6801273,-0.04979384,0.022088641,0.8071764,0.004715387,1.571763,0.6213699,-0.20376413
A0A1L9WPT1_ASPAC/14-361,-0.0013926213,-2.1052222,2.1076136,-0.08627988,0.011888104,0.9473298,-0.0072022453,1.6084422,0.68387735,-0.5364099
A0A1F7ZLQ1_9EURO/14-362,0.023168476,-1.7538702,1.7678694,-0.052538976,0.0020972155,0.77806944,-0.004817933,1.5857291,0.8272373,-0.4441972
A2QLC6_ASPNC/586-934,0.02732295,-1.8299844,1.9458748,-0.013832217,0.0070436634,0.7574277,-0.016764414,1.4178073,0.53292894,-0.29651904
A0A100IPT5_ASPNG/14-361,0.030401599,-1.6111063,2.0419257,-0.01898891,-0.0068032974,0.8174255,-0.011721697,1.3821379,0.56867546,-0.32450813
G3YGD9_ASPNA/88-437,0.030810595,-1.539073,1.9717383,-0.0072489846,0.001343878,0.6717281,-0.015132289,1.4655386,0.5092002,-0.2142088
A0A1L9UN22_9EURO/877-1224,0.04155552,-1.7737038,1.9015962,-0.036343217,0.008752776,0.65770876,-0.024979424,1.4055424,0.6768442,-0.35098815
G7XMC5_ASPKW/906-1253,0.03696021,-1.5230827,1.9024187,-0.026336348,0.00045597926,0.880533,0.00025227666,1.441561,0.78347117,-0.318588
A0A1R3S0S0_ASPC5/1370-1719,0.022555145,-1.687292,1.730725,0.0029121619,0.024083031,0.54393876,-0.029825103,1.4535606,0.4958201,-0.06405109
A0A1V6RV56_9EURO/14-362,0.02412219,-1.5944216,1.8813376,-0.026699455,-0.025320372,0.8482989,-0.015382152,1.2825575,0.8490728,-0.4108845
W6QMN9_PENRF/14-362,0.03344488,-1.6986588,2.0808058,0.00091129914,-0.040081248,0.75532246,-0.014333811,1.2721268,0.99800444,-0.38966984
B6HPG9_PENRW/14-362,0.009329096,-1.8337646,1.9049138,-0.011368705,-0.016905485,0.75359565,0.003236685,1.4153548,1.1052172,-0.36567783
A0A0G4P537_PENCA/14-361,0.048558433,-1.6261657,1.7595147,0.016081167,-0.023202876,0.5819302,-0.028022867,1.2065762,0.6986226,-0.28252184
A0A1F5L972_9EURO/14-361,0.047126222,-1.7387004,1.6864556,-0.019832721,-0.008482721,0.5852601,-0.020172033,1.281713,0.6899633,-0.3641983
A0A1V6UWX3_9EURO/14-362,0.033130284,-1.6688656,1.9413179,-0.0039815083,-0.034295753,0.81397843,-0.010601811,1.3106967,0.89297223,-0.42321357
A0A0A2JYZ0_PENEN/14-362,0.023398574,-1.357668,1.8403244,-0.013315549,-0.040909506,0.87132674,-0.0019180626,1.2783183,0.8600504,-0.33645058
A0A1V6QFN9_9EURO/14-361,0.022377597,-1.9776093,1.6724088,-0.040521838,-0.016303085,0.64028025,-0.016168099,1.225136,1.1185126,-0.47486287
A0A1V6SUT1_9EURO/14-362,0.0334083,-1.7223217,2.0779622,0.0131001845,-0.021443095,0.71168435,-0.013687205,1.1914529,0.8122104,-0.22071767
A0A067PTJ6_9HOMO/19-442,-0.0063178246,-0.5205371,-0.49241185,0.015594745,-0.033733994,-0.26350197,0.0045387745,-1.2099198,-0.20440264,0.15637708
A0A1V6TTL6_9EURO/16-365,0.0002182094,-1.2512834,1.5286324,0.00010229647,0.028323343,0.67065465,-0.02730671,1.1651037,0.4290803,0.08127518
A0A0J1BE06_RHOIS/579-941,-0.053471077,-1.2670187,-2.2025042,-0.03642361,-0.06300334,-0.028584957,0.03202169,0.61466295,1.1595225,-0.51355267
A0A2G1WC88_9PLAN/566-927,-0.040882938,-1.1253741,-2.1480117,-0.022916408,-0.070504986,-0.029554266,0.029169362,0.59643435,1.2484744,-0.5976941
T0LJ27_COLGC/4-377,-0.07623886,-1.0822599,1.026231,-0.05454377,0.02967607,-1.4672356,-0.008993994,-2.9609067,-1.532858,0.76184416
A0A010QH97_9PEZI/4-377,-0.071448535,-1.2166631,1.1014335,-0.05029095,0.041444704,-1.478254,-0.028179739,-3.132635,-1.5914283,0.8237156
A0A1E7N7K7_KITAU/98-421,0.044835657,0.5714124,1.3596867,0.055545583,-0.004752759,-1.0581913,0.04553874,0.7337875,2.1941524,-1.1789049
A0A285QWB2_9ACTN/83-404,0.06111683,0.6506633,1.4937396,0.0065770205,0.0057844687,-1.1003472,0.049011316,0.9469288,2.2772777,-1.1467059
A0A166KXT9_9HOMO/6-393,-0.008669017,-1.0330054,0.6923406,-0.04988817,0.0012336429,-0.6221516,-0.040340688,-1.8555554,0.2225134,-0.5740338
S7S1E8_GLOTA/96-456,-0.01910956,1.090968,1.2445931,-0.071743555,0.014286468,0.66346586,-0.007915631,0.16845147,-1.2690781,0.3372988
A0A1H1UFT3_9ACTN/15-355,-0.0044909525,-0.73090637,0.5994411,-0.09353305,0.051759318,-0.5529809,-0.042460736,0.49169588,-0.22457449,0.28088734
H6NB30_9BACL/44-379,-0.029339503,-0.42614436,-1.0011027,-0.04427167,-0.0055015413,0.06727062,-0.013186175,0.550074,-1.4975721,0.062829226
A0A175RYK7_9MICO/10-351,0.00021981058,-1.0512339,0.70424515,-0.070833765,0.04416591,-0.7440386,-0.06702812,0.4332342,-0.5675512,0.6205783
A0A022LQ43_9MICO/21-362,0.021765308,-1.1285638,0.56376076,-0.031779192,0.010333033,-0.6747134,-0.012259677,0.2751119,-0.29777688,0.62643105
A0A1E5MIW3_9MICO/11-353,0.017789265,-1.23103,0.7566074,-0.060036197,0.03297761,-0.8440969,-0.025601644,0.35920662,-0.17730094,0.65611535
A0A1V0A982_9ACTN/26-346,0.026334591,-0.050093852,-0.36430568,-0.10608701,0.03383121,-0.48561683,-0.026872713,0.5310632,-0.31061566,0.29893893
A0A1L6I7R2_9BURK/66-400,-0.026606428,-0.28631815,1.3480589,0.039034016,-0.052829303,0.94526136,0.07520868,1.8846388,-0.35644615,1.6228346
D2QRU8_SPILD/273-629,0.009437379,-0.80218446,-0.9085222,-0.021902962,-0.041729543,0.21333547,0.041082837,0.38124382,1.2755046,-0.44487372
R1FW15_9PSEU/28-337,0.0056618727,0.23014098,-0.083826594,-0.113988854,0.046216607,-0.61988616,-0.012971159,0.3533464,-0.17355855,0.20125371
A0A076MKT7_AMYME/23-329,0.012891728,0.37039742,-0.16548401,-0.10545897,0.04038821,-0.50292957,-0.0049231574,0.26884127,-0.50416553,0.2704665
H5Y6F7_9BRAD/7-382,-0.16875868,-1.4242592,0.6410532,-0.036820017,-0.15729375,-2.2879796,0.047990087,-1.8245127,-2.6635203,-1.5850194
A0A1M6RSJ9_9ACTN/72-401,0.008373837,0.00047682412,-0.12873779,-0.073426,0.02957564,-0.4933448,-0.02790993,0.2966016,-0.36026704,0.46026456
B8KVM8_9GAMM/31-375,0.034252137,0.3910622,-0.082529426,-0.014468329,-0.0018137172,-0.09916909,0.023561656,2.2386956,-0.31235045,0.2585426
F1Z731_9SPHN/57-434,0.023910524,-0.614723,1.2169802,0.10158714,-0.050761595,-2.324567,0.021769479,-0.5530386,-2.5320115,0.45459822
D7B1L6_NOCDD/43-372,-0.030011382,-0.16951336,-0.3445836,-0.06986038,0.035664,-0.45314488,-0.03462584,0.43446183,-0.37659222,0.29602706
D7B960_NOCDD/59-387,0.0059857196,0.12587792,-0.14075539,-0.050316997,0.031411603,-0.46906972,-0.030374106,0.5401751,-0.56128013,0.5095467
D2B5Q3_STRRD/40-357,0.030193038,0.18513751,-0.3900752,-0.11431522,0.03992168,-0.5037965,-0.03306106,0.5372841,-0.67645574,0.45616698
A0A0J0XS57_9TREE/22-409,-0.011230807,-0.099836476,-0.11279735,-0.045214094,-0.0081380075,-0.62632114,-0.029053573,-1.4455523,-0.3926773,-0.18193743
Q13EJ6_RHOPS/7-383,-0.14655524,-1.3138685,0.6687949,-0.019272434,-0.11390532,-2.2077305,0.03911407,-1.6533126,-1.9105422,-1.2768694
F4L6C4_HALH1/52-383,-0.0004768445,-1.2498214,-0.23507084,0.022284023,-0.055278227,0.8646298,-0.013274897,0.86618775,-1.3496727,0.9492029
A0A0M8YFQ2_9PSEU/26-353,-0.00014906662,-0.062304657,-0.3610552,-0.07761251,0.03717143,-0.5760014,-0.032146852,0.5506558,-0.28113204,0.3303105
A0A067PCL7_9HOMO/47-393,0.06807767,-0.54343766,0.9418243,0.0061077047,-0.05170453,0.7895416,0.035178676,0.80794287,-0.3612405,0.035564665
A0A221KEJ5_VITFI/46-390,0.0030018399,-0.88065803,-0.15030925,0.045477577,-0.024842825,0.45044908,0.027252195,0.28262264,1.5699968,0.15176763
A0A060SIF8_PYCCI/66-434,-0.0002735245,1.3021369,1.9925134,-0.1015467,0.0063122697,0.8477361,0.007901575,0.1520783,-2.0695803,0.41127232
A0A0N1M526_9MICO/16-353,0.0017772089,-1.1206459,0.8305116,-0.10554599,0.038128443,-0.8349128,-0.050813805,0.49223137,-0.44136685,0.62170124
A0A1S2HGV6_9MICO/15-382,0.009633859,-1.3196496,0.7854495,-0.08143296,0.04370541,-0.98948485,-0.03805026,0.46159273,-0.26300687,0.644093
A0A1S2I7J3_9MICO/11-353,0.008615861,-1.2137495,0.66904205,-0.06923319,0.053745598,-0.7054955,-0.059943598,0.36127365,-0.37210345,0.58181304
A0A1S2HW34_9MICO/12-355,0.011719222,-1.2721046,0.68214756,-0.049062937,0.026090307,-0.7322059,-0.032894935,0.3860246,-0.46388346,0.65877193
A0A1I2KID9_9MICO/12-359,0.018363442,-1.3216063,0.7036497,-0.05068002,0.035296164,-0.89617246,-0.031430233,0.44154388,-0.36378175,0.68752754
A0A124GZU4_9ACTN/49-387,-0.021036686,0.096396245,1.0404762,-0.05625134,0.048153453,-2.7758338,-0.048701283,1.8096539,1.2743113,0.31293297
A0A268IB59_9BACI/39-367,0.08036507,-0.6490389,0.47633284,-0.05432389,0.031067586,0.22177345,-0.03246734,0.50355226,-2.101633,-0.23353367
Q1YQ49_9GAMM/6-356,0.0122858025,-0.19082336,-0.38378134,0.002719922,-0.027722955,0.2622464,0.014910091,1.0726246,-0.6739964,-0.41805467
A0A0Q4QDL2_9SPHN/28-381,-0.014659176,-0.014070269,-0.11693742,0.004684355,0.007191822,-0.4612183,-0.029175226,2.9323518,-0.44766003,0.5794279
A0A0J7IA65_9FLAO/28-366,-0.005315079,-0.81926626,-1.8599375,-0.04615386,-0.031982522,1.442572,0.022821292,-0.7155254,0.34871972,-1.1897022
A0A1I7FH49_9BACT/39-388,-0.010922721,-0.8691383,-1.7596408,-0.0053083077,-0.03130949,1.2701077,0.02105011,-0.70302236,0.1094895,-1.1669838
G0PL48_CAEBE/91-460,-0.047802284,1.4310762,-1.6799227,-0.13196231,-0.027096044,2.5529258,0.002393961,-3.1108835,-1.5065333,1.2190603
A0A261BQW0_9PELO/100-469,-0.049954195,1.4597845,-1.6302636,-0.12902164,-0.030567078,2.4662416,0.009834107,-3.0840545,-1.6641684,1.2209828
G0NAK0_CAEBE/92-461,-0.048946656,1.4377713,-1.6867251,-0.1316538,-0.029053695,2.5521173,0.0033842511,-3.1324565,-1.5444703,1.2260271
E3LH10_CAERE/133-517,-0.050485983,1.4279119,-1.6944702,-0.13216734,-0.028189274,2.563709,0.004471872,-3.1213493,-1.5786836,1.2538522
C5FDJ1_ARTOC/9-359,0.044734962,-2.5325737,1.7750555,-0.005134279,-0.030929565,1.7488657,0.06543338,0.63132495,-0.2158847,0.028100986
A0A1M5HUW9_9BACT/63-426,0.038383305,0.96031576,-0.76086754,-0.060971245,-0.039553583,1.1418911,0.065493345,0.4166026,0.7347908,0.31537828
A0A0S8C6B0_9CHLR/39-380,0.002921701,0.21195987,-0.34209782,-0.10377701,0.0032362863,0.24028414,-0.008320086,-0.09934579,-0.6298565,-0.27020684
A0A1Q3T8C0_9SPHI/49-377,-0.07791297,-1.555602,-2.094028,-0.041736558,-0.05227208,0.24614622,0.053733464,0.5504003,0.7959137,-0.80327356
N1QD45_PSEFD/12-369,0.05435909,-1.1337881,1.4745436,0.019838268,-0.0182913,0.6566836,-0.03191865,0.8662364,0.42671096,-0.045197167
W2RXK5_9EURO/9-347,-0.011299798,-2.9330332,1.4650048,-0.03911347,0.015239028,1.4807878,0.044959538,0.8421354,0.23832524,0.15860161
A0A151EUC3_9EURY/23-364,0.015774583,-0.07334698,-0.31286624,-0.0074850693,-0.007006732,0.23486409,0.011920568,0.8252537,-0.9212864,-0.3825055
A0A0V9JH36_9ENTR/43-412,-0.012172737,1.4546092,-3.0473104,-0.002071591,-0.05077885,2.197088,0.049672436,0.9837778,1.392342,-0.23799062
C4IBX5_CLOBU/62-391,-0.009178511,0.20453206,-0.9888353,-0.081631996,0.006272793,0.41782996,-0.027637709,0.61363,-1.5185602,-0.40080154
A0A0P0CQF9_9BACT/42-416,-0.020830197,-0.17867774,-2.0805433,0.00025254488,-0.022186697,-1.3956008,0.022191651,-0.51068133,-0.8824164,-0.28047997
A0A1M7E5W0_9SPHI/48-407,0.017236678,-0.36324868,0.14245328,-0.073125236,-0.003856305,-0.17935956,-0.012069441,0.43545341,-0.14669132,-1.1940624
G3J3H0_CORMM/123-461,0.037925854,-2.3275983,1.419247,-0.041303903,-0.0036017727,1.3528413,0.045883335,0.6575438,-0.2396845,0.21099272
A0A168KNZ7_CORDF/9-323,0.04563877,-2.16793,1.3657401,-0.0184056,0.014134405,1.2216048,0.03704957,0.4653707,-0.13914385,0.23075823
A0A1F1BTH8_9STAP/40-366,0.029518034,-1.1810541,-0.2650327,-0.017345136,0.018717775,0.76949406,-0.031045299,0.9973045,-1.0002221,-1.5137433
A0A0S6XUG8_9FUNG/1-328,0.053324718,-0.683334,1.3863238,-0.029935231,0.026729787,0.9916212,0.04298447,1.4970967,0.5253019,-0.013310295
D7VPW7_9SPHI/65-408,-0.021547321,-0.74766856,-1.8531364,-0.00871367,-0.057671018,1.5088347,0.026058108,-0.87874043,0.534807,-1.0378783
A0A1W1VAS3_9BACT/44-376,-0.05368796,-1.3220422,-2.0155973,-0.020822817,-0.05822826,1.4828779,0.028091263,-1.0982872,0.9990211,-0.9428829
F3ZRM4_9BACE/41-387,0.07718788,0.8047789,-1.1565303,-0.05634231,-0.05231265,1.0364736,0.015081689,1.0897553,0.072636425,0.32814252
A0A244CPP5_9GAMM/34-362,0.020920418,0.5193754,-0.9337909,-0.036750533,-0.027210992,-0.5324491,-0.0039220005,0.3518644,-1.266718,-1.1726434
A0A1M4XBW2_9GAMM/46-386,0.01304551,-1.3249379,0.058972664,0.007362511,-0.053083308,1.8256978,-0.010382619,0.72266644,-2.5217674,1.4867989
A0A197JXR1_9FUNG/28-375,-0.024892638,-0.8190105,-0.25087586,0.01769798,-0.01214198,0.6045547,-0.01775368,0.8228855,-0.10356687,0.084235
W6U0K3_9SPHI/35-364,0.032086935,-0.33545998,0.07512299,0.014737539,-0.01591828,0.65107423,9.559095e-05,1.9837345,-0.6753306,-0.08279607
D2QRF5_SPILD/30-367,0.034752958,-0.35895953,-0.11075487,0.0044554453,-0.015862793,0.54411465,0.002173707,1.9716188,-0.20774136,0.3212854
A0A1Q3GEY4_9BACT/26-344,0.007708481,0.4096451,-1.4453475,-0.03930869,0.053202055,-0.123115316,-0.0013641752,0.23525773,0.018716652,-1.2808533
A0A0F6A8N2_9GAMM/33-371,0.04006222,0.49695006,0.10866423,-0.05234465,-0.04031154,0.032521736,0.045151066,2.774919,-0.7261655,0.49977773
A0A1M7F2I5_9FIRM/25-375,0.018535215,1.0693818,-1.2170577,-0.026301866,0.035768025,-0.25751662,-7.4505806e-06,-0.41254604,0.031202137,-0.37264475
A0A0U1EEY7_STACP/44-367,0.027907707,-0.974741,-0.18885124,0.016402833,0.058929496,0.49137798,-0.024856094,1.1389571,-1.3076096,-1.452624
A0A1V1YWQ4_9ACTN/44-371,0.014567594,-1.0036328,-0.37518114,-0.032599702,0.04645878,0.719973,-0.01711094,1.0515437,-1.094898,-1.3695004
L7WUP1_STAWS/44-371,0.01474019,-1.147645,-0.4738205,-0.032692604,0.038031913,0.8022269,-0.019440252,1.0561174,-1.1096687,-1.4280485
A0A133Q5J7_STALU/24-353,0.041990872,-0.94432014,0.040026568,-0.046962343,0.04441397,0.5587265,-0.0352196,0.96028286,-1.0963432,-1.4448926
Z5XMD9_9GAMM/34-362,0.013020423,0.50174475,-0.66978246,-0.041929297,0.012485428,-0.7326002,-0.01686326,0.62555766,-1.4752737,-1.0232818
K6YNP7_9ALTE/35-368,-0.009146961,0.4179212,-1.2035484,-0.059034176,-0.02757066,-0.9201075,-0.02467363,0.56048447,-1.3250225,-1.5523843
A0A0F6A611_9GAMM/30-359,0.015317356,0.62661266,-1.1063442,-0.04780948,-0.03247807,-0.64959806,-0.018706735,0.3964982,-1.3597176,-1.282736
A0A1I0YGM0_9BACI/49-408,0.0032450708,1.7636244,-0.9974848,-0.07558082,0.027862517,1.5798992,0.022205103,0.9309935,-0.3198812,0.25680614
A0A1M5VFE4_9BACT/31-369,0.030159162,-1.2742947,0.22019975,-0.051183157,-0.003638139,0.6955418,-0.017156582,2.1179738,-0.8790755,-0.26081413
G8LTU4_CLOCD/19-392,0.013208585,0.0015635444,-1.9093647,0.03048256,-0.025960237,-1.2701769,0.051938213,-0.75824755,-0.20676918,-0.499699
A0A1H1T277_9FLAO/27-372,-0.021990621,1.2574574,0.5420654,-0.12534255,-0.03853198,0.94545996,0.010906342,4.2884383,0.29117095,-0.36972994
A0A0W1L2B3_9GAMM/43-373,0.009651027,0.47541273,-0.6005193,-0.052261136,-0.008438078,-0.5252921,-0.01913083,0.4949038,-1.3338621,-0.93660796
A0A285IVE2_9GAMM/61-398,0.011839587,-1.4318515,-0.0011994317,-0.0335022,-0.025787648,1.7936568,-0.030643333,0.68514466,-2.4185476,1.325043
A0A0M2VIF7_9GAMM/41-375,0.023964453,-1.3315446,0.07892121,-0.015765911,-0.045968376,1.5328233,-0.016241882,0.53470874,-2.1385126,1.3632103
