id,dim0,dim1,dim2,dim3,dim4,dim5,dim6,dim7,dim8,dim9,dim10,dim11,dim12,dim13,dim14,dim15,dim16,dim17,dim18,dim19,dim20,dim21,dim22,dim23,dim24,dim25,dim26,dim27,dim28,dim29
N3756,-0.046791572,0.0104645565,0.038735643,-0.0053299344,-0.0036554066,-0.023881985,0.03436735,0.012206845,0.03044811,0.0192414,0.04624096,-0.014524138,0.032031063,-0.053760495,0.019367835,-0.014258262,-0.8378819,0.027970733,-0.013002995,-0.028076671,0.027708974,0.008326473,0.027580611,-0.009062497,-0.034027044,0.042743787,-0.022939775,0.03695108,0.010702801,0.032655835
N3625,-0.0038851984,-0.004946816,0.018297309,-0.015609054,-0.015718434,0.003086253,0.035068277,-0.004836673,-0.0037891744,-2.3670409,0.023337286,0.012414355,-0.016733382,0.01022571,0.0050371788,-0.019952763,2.3533564,0.0023022266,-0.011648973,-0.015721507,0.019884024,-0.005004962,-0.03960774,-0.0067733903,-0.012755524,-0.009220209,-0.025910974,0.019520357,-0.011542417,0.013607464
N1716,-0.033207703,0.051204372,0.045799635,0.0286434,-0.010473081,0.0031179897,0.012236128,0.023279503,0.058177307,-0.46595475,0.066225275,-0.014447762,0.026722968,-0.06447129,0.027051227,-0.019699324,1.8272394,-0.024377322,-0.048151046,-0.026891448,0.044975374,0.024973901,-0.008981249,0.03072815,-0.010745343,0.020908792,-0.040813655,0.0074437726,0.003529543,0.025319058
N1299,-0.03201113,0.045303546,0.042404696,0.022715203,-0.012144036,-0.0025629029,0.014031479,0.023454778,0.05742091,-0.4633573,0.06460011,-0.010895009,0.026628233,-0.060038567,0.024396248,-0.014497459,1.5492238,-0.022768386,-0.0456317,-0.027210573,0.035952512,0.019565752,-0.013461654,0.031121023,-0.008856071,0.023257557,-0.035423517,0.006056302,0.0031707343,0.023934774
N4540,-0.0095689185,-0.004252777,0.020354312,-0.017651642,-0.015127326,-0.00065502804,0.031366106,-0.00041104667,0.0032852534,-2.1634874,0.017416865,0.014681645,-0.009732917,0.012362394,0.00842043,-0.017599143,2.25105,-0.0042242617,-0.021774262,-0.019366892,0.010815322,-0.010006338,-0.040175807,0.0068303565,-0.0104242,-0.011984937,-0.01770579,0.01020427,-0.0057763513,0.008506428
N2304,-0.008023553,-0.004622735,0.02007651,-0.01872125,-0.01433232,-0.003989419,0.033340253,0.00043809414,0.004218649,-2.1369703,0.022200383,0.015832841,-0.009491518,0.011447961,0.008424552,-0.01779442,2.1622977,-0.0030622152,-0.017877627,-0.018621348,0.009546027,-0.008954294,-0.044022,0.0060531376,-0.009817284,-0.00970563,-0.020189747,0.013253166,-0.008965982,0.0123513425
N4452,-0.016498134,0.019494703,0.009552065,-0.030821182,-0.014079128,-0.062639154,0.047817197,0.069340535,0.10064311,1.6943913,0.091397,0.021129113,0.06857759,-0.034000188,-0.020389441,-0.012728158,0.73774457,-0.0134358145,-0.060896356,-0.032041546,-0.041034266,0.011012217,-0.043952275,0.012544099,-0.015141431,0.050667807,-0.009337933,0.012527903,0.022427058,-0.0062763607
N1636,-0.007965332,-0.0036494175,0.020401174,-0.010581215,-0.014527758,-0.008709107,0.033273607,0.0025182236,0.014587669,-2.2840116,0.041819252,0.021208808,0.0007724995,0.0052912896,0.009309569,-0.0212382,2.1966832,-0.0046539395,-0.015272948,-0.027666153,0.006187927,-0.012180662,-0.053186525,0.008436028,-0.020585664,-0.0071783373,-0.028091494,0.024526889,-0.019564908,0.02282986
N2988,-0.0043506697,-0.00479972,0.021618754,-0.016665207,-0.015966747,0.0012908075,0.035624556,-0.0003580302,-0.001816215,-2.408129,0.021844223,0.016184982,-0.013681268,0.011612794,0.008358624,-0.023291804,2.5481396,0.0032289745,-0.011314008,-0.016937755,0.022110522,-0.0044596894,-0.041014142,-0.00646285,-0.01531487,-0.008907621,-0.02640343,0.020586241,-0.011474155,0.013454891
N4395,-0.030964535,0.003599347,0.018734101,0.000121515244,-0.005007757,-0.023791635,0.019525165,0.01662365,0.030705167,-0.5964743,0.04575396,0.0032951124,0.023282237,-0.018298838,0.0086398665,0.008617877,0.009901285,0.0002957317,-0.015518244,-0.029670145,-0.021138534,-0.013984355,-0.020602044,0.03469342,0.009927554,0.019257493,-0.008142064,0.0033313262,-0.0025090724,0.035637476
N1480,-0.03015944,0.009092599,0.020654893,-0.007324366,-0.008981918,-0.022040071,0.02651595,0.020521387,0.036056362,-0.5928023,0.042178195,0.0021052416,0.020960823,-0.023419892,0.006694238,0.0029081441,0.11656086,-0.0036640246,-0.027063265,-0.02717397,-0.010727417,-0.008633912,-0.027372647,0.028808933,0.0030585285,0.019959066,-0.0097300755,0.0022611876,0.0034183804,0.027208779
N4301,-0.011374021,-0.0014691781,0.0058884975,-0.022412945,-0.0017729979,-0.008497862,0.017484834,0.0071651787,0.016868327,-1.4325762,0.014875304,0.020530809,0.0031475108,0.0025991127,0.008213872,0.011168637,0.07103521,-0.006140617,-0.02037933,-0.014422332,-0.01436352,-0.0085465005,-0.030419167,0.02419065,0.013982762,0.002141917,-0.010979216,-0.0029881394,-0.004682502,0.021211166
N1882,-0.036715165,0.06490426,0.044642713,0.03741622,-0.010999213,-0.0054821484,0.014538899,0.045400783,0.08830479,-0.38216,0.086935565,-0.0075727273,0.04474837,-0.08228573,0.022469109,-0.022880651,1.6905091,-0.034021784,-0.06410635,-0.03759766,0.04446667,0.014535785,-0.031649236,0.04510449,-0.02748103,0.029239457,-0.040228188,0.0019748753,0.005248282,0.0293078
N4105,-0.031378713,0.040725626,0.04242654,0.016759396,-0.014086311,-0.004239112,0.018431868,0.021759119,0.050569475,-0.57778984,0.061037984,-0.010442553,0.022047512,-0.051092967,0.02245098,-0.016865123,1.7452637,-0.018940363,-0.042406727,-0.027473245,0.035780016,0.018532645,-0.016095396,0.02617538,-0.008942373,0.020085687,-0.034439594,0.008320472,0.0031119436,0.024068464
N2878,-0.037367284,0.05900926,0.047347758,0.033641543,-0.012992543,-0.004572464,0.017987331,0.038105194,0.074861445,-0.46171734,0.081592396,-0.01182445,0.03892296,-0.07726613,0.023030037,-0.023495328,1.7589797,-0.024486156,-0.055463668,-0.03579884,0.04725531,0.018963175,-0.022530328,0.03372541,-0.0252885,0.028414,-0.04317827,0.010341407,0.0058298986,0.030859953
N3294,-0.024436904,0.035290353,0.035512958,0.015516077,-0.011352581,0.0031268094,0.021892946,0.017918505,0.037366778,-0.84421337,0.050885383,-0.011058731,0.011204549,-0.041807037,0.013934962,-0.017300427,1.7986392,-0.01278276,-0.033451434,-0.022418795,0.036267836,0.017142978,-0.022368673,0.017164085,-0.009287842,0.011568675,-0.031781636,0.009548549,0.002813097,0.024343701
N4337,-0.027014654,0.02793328,0.035257746,0.01626869,-0.008425183,0.008095136,0.012234872,0.004562376,0.02735523,-0.80091757,0.039094266,-0.0111404145,0.011644331,-0.034350306,0.021278428,-0.014021866,2.0493093,-0.014523005,-0.034016747,-0.022352919,0.02679408,0.017306253,-0.00025034416,0.02231901,-0.00097617693,0.007836507,-0.024934635,0.0088033425,0.005949376,0.0145851495
N2376,-0.0061268844,-0.0052120066,0.018582812,-0.024979964,-0.018488102,-0.0007185405,0.03707411,-0.0010985713,-0.00046012644,-2.293292,0.016971756,0.016228411,-0.01741147,0.016439512,0.006640809,-0.018440269,2.2508342,-0.00021629361,-0.01810401,-0.015573367,0.018988006,-0.007423409,-0.04433011,-0.0053935624,-0.01163508,-0.01091108,-0.023542728,0.013818557,-0.010612797,0.009863732
N2563,-0.01712072,0.00068979384,0.023523755,-0.022381183,-0.020630907,-0.004679065,0.036583804,0.0025499873,0.0131668,-2.1169813,0.020964138,0.013162233,-0.0036178618,0.010198639,0.008955883,-0.017236646,2.234086,-0.005659982,-0.033227667,-0.026255632,0.014960341,-0.015146309,-0.044780493,0.0055929543,-0.01931559,-0.009934833,-0.018702522,0.010974398,-0.0046245996,0.006116323
N509,-0.0038528536,-0.0052836486,0.017520469,-0.010333125,-0.01254999,0.0031710947,0.03237961,-0.004685348,-0.003111248,-2.2232172,0.02576476,0.010271933,-0.01445958,0.006428061,0.0045763007,-0.020571306,2.266052,0.0030002743,-0.0076104915,-0.015544967,0.01605799,-0.0051832595,-0.03717073,-0.004163581,-0.0116687715,-0.007681501,-0.02510392,0.020459557,-0.0109150745,0.017023236
N3525,-0.0055609625,-0.0041189883,0.017601194,-0.01385377,-0.013809708,0.0051430757,0.032245573,-0.00598325,-0.0050769104,-2.1770382,0.018068347,0.009534154,-0.01622964,0.008658451,0.005566672,-0.017663278,2.2439845,0.003046942,-0.012006946,-0.01426463,0.017770909,-0.004700568,-0.034327444,-0.005763862,-0.010039069,-0.009817322,-0.02310801,0.017397808,-0.008227851,0.012205585
N3930,-0.022162186,-3.0235387e-06,0.007972771,-0.02439931,-0.008585823,-0.014712578,0.028847303,0.008106116,0.014023492,-0.830055,0.020930175,0.007027695,-0.0033875504,-0.0021364498,0.00409116,0.007903052,0.26287723,-0.0045594606,-0.020413889,-0.012238493,-0.011121668,-0.012114216,-0.032667477,0.017955408,0.013907153,0.009409307,-0.0058049457,-0.0063636834,-0.0047956817,0.016427018
N1082,-0.024491154,0.030694094,0.0388567,0.010028829,-0.01297222,0.00092473347,0.01947261,0.012624569,0.031643815,-0.87559783,0.046473544,-0.008746444,0.0092276735,-0.03361928,0.019591523,-0.015870627,2.0068078,-0.013596464,-0.031902432,-0.021691332,0.033468615,0.019428302,-0.014502642,0.019193184,-0.0019660555,0.011087426,-0.0299064,0.008440318,0.0022987872,0.019781835
N4859,-0.018833138,0.0057969443,0.016281592,-0.023130834,-0.008677862,-0.008317012,0.028159373,0.003910249,0.0098145045,-0.90057534,0.013314899,0.0010703821,-0.006658393,-0.0018946584,0.008654684,0.0039357925,0.9242644,-0.0044926885,-0.018777674,-0.008671609,-0.0007980317,-0.0022579357,-0.027301192,0.014693113,0.016415525,0.004184901,-0.009670983,-0.0056344513,0.0024012364,0.009073761
N2305,-0.010922522,0.004337467,0.0096054245,-0.022461642,-0.005211861,-0.005073555,0.029490136,4.567951e-05,0.004520841,-1.2738683,0.012869962,0.0012269281,-0.0105991075,-0.0026286328,0.0016451054,0.0036933795,0.91767275,-0.0027007456,-0.011873913,-0.005498944,-0.0005527977,-0.003272321,-0.03385795,0.009692767,0.011774653,0.0027086788,-0.010610684,-0.0008835958,0.0014772769,0.012860164
N1870,-0.00038761646,-0.0052956897,0.01864992,-0.02948473,-0.018962558,0.004701115,0.035710808,-0.0029735211,-0.008203033,-2.2401545,0.00015154853,0.018225804,-0.026817106,0.024227176,0.009835262,-0.019239761,2.2928128,0.00149188,-0.016888551,-0.006282314,0.027275197,-0.0024034316,-0.039504725,-0.011848655,-0.008338399,-0.01809648,-0.02330044,0.008651763,-0.009828955,0.0030981025
N3613,0.0068488847,-0.002226757,0.04301547,0.04980804,0.015752323,0.03840539,-0.030860461,-0.06151519,-0.048861444,1.2350532,-0.0125656,-0.03912692,-0.0023297067,0.029049404,0.028697664,0.00493553,3.3648534,0.020935085,0.042468227,0.0011732435,0.0075394213,0.04472498,0.07756342,0.0047605103,0.030009089,-0.02601793,-0.006926154,0.026546743,0.016439352,-0.015924744
N1498,-0.012167281,-0.003133012,0.022516984,-0.025721021,-0.020411368,-0.0010180287,0.03547818,-0.0013997499,0.003430847,-2.222075,0.012035605,0.0141651,-0.012778873,0.018374521,0.009679021,-0.018220607,2.387014,-0.0039642663,-0.028580455,-0.02062794,0.017569505,-0.011727628,-0.04258503,0.0013561329,-0.013951637,-0.014924061,-0.01893299,0.00934341,-0.00485239,0.004006566
N1598,-0.0036681015,-0.00564077,0.016155405,-0.01191834,-0.012956948,0.004888924,0.032415807,-0.005600713,-0.005592325,-2.2366595,0.023202483,0.011322841,-0.01618772,0.0063899253,0.0049032173,-0.017949898,2.1616786,0.004633635,-0.0075256745,-0.013551409,0.017648906,-0.0035063429,-0.035115197,-0.008394141,-0.0100482255,-0.006930464,-0.025776472,0.020799488,-0.012241688,0.016004972
N3993,-0.004375644,-0.0038237767,0.016147941,-0.014510425,-0.012754708,0.003897572,0.03344894,-0.005510226,-0.0057407757,-2.1337552,0.020653553,0.009175498,-0.016657121,0.005946054,0.004521145,-0.0156148635,2.0689256,0.0054167667,-0.0074575203,-0.011793668,0.01811276,-0.0023186821,-0.03415961,-0.008951636,-0.007848091,-0.0059558414,-0.024903618,0.019386299,-0.010027047,0.014949088
N2645,-0.01925813,0.024045812,0.038557537,0.042996332,-0.000763542,0.03766232,-0.012509617,-0.017050624,0.0068509933,-1.1481854,0.014813576,-0.013034865,0.0134012,-0.02966591,0.031972054,-0.016487937,3.0129483,-0.018014804,-0.03276486,-0.02127701,0.031394493,0.028938508,0.03234045,0.02320319,-0.007063063,-0.014060477,-0.022434883,0.014955129,0.01167588,0.0036472376
N4652,-0.021050707,0.025228322,0.038434245,0.041375294,-0.0019901656,0.03389071,-0.009437497,-0.012764784,0.011291143,-1.1011313,0.01958824,-0.012754799,0.014762719,-0.03240951,0.030097036,-0.01710289,2.9027274,-0.017982485,-0.033972293,-0.022734394,0.031359795,0.026865298,0.028176054,0.023665747,-0.008153662,-0.010503963,-0.022410244,0.01437696,0.011062359,0.005626574
N2108,-0.0114764925,-0.0015985831,0.02163494,-0.024931664,-0.019022819,0.0018740697,0.03424055,-0.002013065,0.0007636361,-2.1223729,0.007899523,0.013380587,-0.014061134,0.015469805,0.010445813,-0.016950205,2.2786293,-0.00068634143,-0.025903638,-0.016835887,0.02039126,-0.00797988,-0.03833732,-0.003549242,-0.01285056,-0.013917604,-0.020071842,0.010529364,-0.00524462,0.0040740743
N1175,-0.021435978,0.0043009133,0.009155285,-0.024328714,-0.009222665,-0.020459196,0.03186932,0.016222816,0.021233356,-0.15019378,0.022740513,0.0021697208,0.00027867407,-0.0052708117,1.763925e-05,0.006713424,0.2512772,-0.003904886,-0.021944493,-0.0109593505,-0.013369679,-0.013676652,-0.030679815,0.023689615,0.013726561,0.01602878,0.0003533857,-0.018822988,0.001356788,0.006659512
N4794,-0.0071028527,-0.0027867493,0.018822487,-0.018741518,-0.017151624,0.0012513502,0.03447201,-0.0011748876,1.0471791e-05,-2.136489,0.019118685,0.013040569,-0.014878658,0.008813011,0.006918987,-0.017635845,2.1154811,0.0015354422,-0.01713125,-0.015210151,0.019588862,-0.00469515,-0.0388516,-0.005901815,-0.0110605545,-0.008359291,-0.024626337,0.015620946,-0.009381387,0.011849893
N4383,-0.018118665,0.0128853265,0.011409277,-0.031244114,-0.008485037,-0.05147305,0.043708585,0.050344057,0.07620836,1.3402579,0.07086426,0.01159532,0.052883055,-0.022420343,-0.014302302,-0.0063066054,0.6609855,-0.00883913,-0.047759976,-0.02494622,-0.04033747,0.0084764585,-0.035951886,0.013940733,-0.0027717259,0.04221858,-0.0038871812,0.009753893,0.022669034,-0.0014949013
N3792,-0.029300742,0.041716617,0.04011494,0.016926453,-0.01336233,-0.0012896154,0.018647682,0.022449482,0.050477892,-0.64958405,0.06019603,-0.009575591,0.018919006,-0.049017772,0.020875603,-0.017641477,1.7742428,-0.020788733,-0.04404167,-0.025823973,0.03700233,0.018414041,-0.02055988,0.026194487,-0.007792227,0.016135145,-0.03534179,0.0059771882,0.0018462222,0.023869336
N284,-0.020332066,0.02202495,0.048866536,0.010867638,0.021575416,0.06986894,-0.008551984,0.002441287,-0.008130038,1.237951,-0.052492663,-0.0071203746,0.0032966603,-0.025984146,0.050706297,0.004904912,-3.360037,-0.03666726,-0.01776267,-0.015117147,0.043696616,0.021155717,-0.027411692,0.02367785,-0.023648437,-0.062995225,-0.02089722,-0.010235988,-0.00074446574,0.051767506
N3830,-0.026825393,0.011102047,0.011342136,-0.013887057,-0.0063583953,-0.016568685,0.027237559,0.018990286,0.026931116,-0.09004638,0.025334246,0.0003431104,0.0072798766,-0.020391926,0.0048858053,0.006817328,0.059477292,-0.0047183125,-0.026181841,-0.0150681,-0.008946037,-0.012344608,-0.026542135,0.026503196,0.005855238,0.018782806,-0.0012477385,-0.014338549,0.0012594089,0.01306281
N886,-0.030447591,0.0005993233,0.016182674,-0.011218371,-0.006538513,-0.018204028,0.023525216,0.010547381,0.020129835,-0.25352973,0.030917931,-0.001461722,0.010964255,-0.014699834,0.007164976,0.008561164,-0.45528215,0.0069122766,-0.01536469,-0.019611819,-0.008741137,-0.009707637,-0.0078082616,0.014261875,0.0067717154,0.020570723,-0.0076542394,0.00031504314,-0.0006515868,0.024755714
N2537,0.00026203133,-0.0053500626,0.016712286,-0.012352829,-0.011716266,0.0045047845,0.033275504,-0.0066759083,-0.008812213,-2.2620406,0.023028594,0.009334296,-0.019647405,0.007385214,0.0044322764,-0.019088656,2.2195024,0.0063585737,-0.0020998968,-0.009593349,0.020659223,-0.00062448904,-0.03500685,-0.010379514,-0.0074869134,-0.0068175243,-0.027200408,0.021346757,-0.011831511,0.017127646
N1958,0.00021504238,-0.0064619873,0.016403688,-0.011912298,-0.011060116,0.005550779,0.03137797,-0.0060238335,-0.00899585,-2.2412326,0.019772813,0.010387097,-0.019856907,0.009162919,0.005182169,-0.019998547,2.252815,0.0052969204,-0.0028639827,-0.009261351,0.01966688,-0.0016679885,-0.034411494,-0.009012427,-0.00721886,-0.008424944,-0.025340833,0.019336237,-0.010997783,0.01600027
N4283,0.0002749618,-0.006050836,0.016434003,-0.011543424,-0.011293429,0.0042689294,0.032613814,-0.006273987,-0.007962594,-2.2712388,0.023955204,0.009863444,-0.01912186,0.0075268643,0.00431403,-0.019927084,2.2273319,0.0054986253,-0.0022465042,-0.010136806,0.019404404,-0.0016917335,-0.035736416,-0.008949503,-0.007934272,-0.0069376435,-0.026699398,0.021091163,-0.012057301,0.017673712
N4243,-0.030829126,0.008375093,0.013954876,-0.011514897,-0.007923928,-0.018870978,0.027229136,0.015723672,0.027052341,-0.3298214,0.03428418,-0.0015698057,0.011448798,-0.021262858,0.0042541935,0.008473496,0.1308205,-0.0047507617,-0.025751844,-0.02135014,-0.014064761,-0.013950816,-0.027947452,0.027327674,0.009059212,0.019496052,-0.0031617265,-0.008065005,0.0012706947,0.01805488
N1054,-0.018082866,0.015907487,0.022045951,-0.008446228,-0.006969384,0.0033966843,0.021658016,0.0003948044,0.010226525,-0.89640075,0.016954735,-0.0067254864,-0.0050654793,-0.014467565,0.012640443,-0.0014756043,1.2297045,-0.0036018626,-0.019403482,-0.008041303,0.014507789,0.011445327,-0.014172616,0.009825336,0.01243407,0.0037369367,-0.01934592,0.0038183725,0.004165737,0.012805787
N4674,-0.015376925,0.013989424,0.0037747696,-0.021049049,-0.007776539,-0.0051789526,0.033412166,0.026702031,0.011222139,1.1540444,-0.004229038,0.014628928,-0.018669017,-0.014507763,0.011797927,0.0031596385,-1.132231,0.0057733436,-0.0066634556,0.012124785,0.023950018,-0.0013257107,-0.0053865975,-0.010146396,-0.008593561,0.019328833,-0.0061631026,-0.028643182,-0.016272347,0.0018960093
N2380,-0.01724549,0.0012236852,0.022464126,-0.015792076,-0.013091645,0.0005292706,0.029264353,-0.0037172623,0.0030623898,-1.6404029,0.014157653,0.0029562078,-0.006410356,0.0055379067,0.010177728,-0.009848015,1.9472883,-0.0026275222,-0.022203112,-0.018379647,0.009360094,-0.005441693,-0.02656874,0.007620077,-0.0019531287,-0.0067997165,-0.0147759905,0.00767155,0.0010199882,0.0067248195
N4879,-0.01914276,-0.005162713,-0.0055410657,-0.031830452,-0.012538933,-0.024813721,0.034285948,0.032524697,0.026066368,0.81568587,0.019956395,0.012241643,-0.004587522,0.0050161052,-0.017779706,0.007747694,-0.25449944,0.002511302,-0.025618462,-0.008649654,-0.027802888,-0.023676947,-0.031943638,0.0063400967,0.0138214715,0.02088849,0.0142096365,-0.029792095,0.0014875568,-0.004127588
N1310,-0.004778588,-0.0051897983,0.017854529,-0.014123945,-0.014729307,0.0011720918,0.035524093,-0.002796866,-0.0011053756,-2.3562624,0.02859987,0.013416361,-0.013459394,0.0070839925,0.0045565986,-0.020058274,2.27635,0.0029397728,-0.009429165,-0.017333422,0.017906293,-0.0055192425,-0.041008223,-0.0062821056,-0.014169268,-0.005684357,-0.026920721,0.022221236,-0.013453741,0.01740615
N2590,-0.007681709,-0.0025905734,0.019727381,-0.016075436,-0.01672808,0.0029839594,0.03443013,-0.0018393043,-3.1818636e-05,-2.2806892,0.0212522,0.013043329,-0.01331518,0.00830033,0.0068036406,-0.018998474,2.3185427,0.0011950452,-0.017064324,-0.017734563,0.020472359,-0.005655408,-0.03916562,-0.0052893967,-0.014138166,-0.008553417,-0.024391357,0.017634496,-0.010029737,0.011966695
N4534,-0.03176171,0.0021487572,0.013351945,-0.008387519,-0.0059107086,-0.022972038,0.022933021,0.014257293,0.023543423,-0.38442847,0.035587747,0.0013943017,0.013425135,-0.013578801,0.005478161,0.012084242,0.049899496,-0.0022762162,-0.019213434,-0.02453116,-0.02389333,-0.018476758,-0.024568982,0.034323078,0.014892811,0.018215824,0.00047648232,-0.008137229,-0.0015563276,0.02348368
N2534,-0.0073972493,-0.004210458,0.01983744,-0.009629998,-0.013458726,0.0014775796,0.03270311,-0.0013278443,0.00032285228,-2.1974509,0.027723096,0.011299059,-0.009606475,0.004751344,0.0058927094,-0.019993462,2.3071811,0.0017802804,-0.01067979,-0.019201858,0.015116196,-0.0060173087,-0.037276193,-0.0007154951,-0.013091434,-0.0053676376,-0.023230888,0.019479832,-0.009449391,0.016381238
N3659,2.6559457e-05,-0.007624475,0.016278362,-0.0150437,-0.014227658,0.007353979,0.03244967,-0.007665515,-0.00906666,-2.4348497,0.017172445,0.0135837495,-0.021941107,0.013962329,0.0055299276,-0.021918789,2.4211662,0.0034477569,-0.008798304,-0.01165073,0.021593347,-0.004264758,-0.037472002,-0.010556446,-0.011591636,-0.013307958,-0.026486814,0.01953684,-0.01282642,0.0128168855
N444,-0.0020071976,-0.0065356153,0.016232155,-0.01463097,-0.014102076,0.00928076,0.031380363,-0.008925155,-0.009812857,-2.35616,0.013557669,0.012170404,-0.021124639,0.012957749,0.0060878913,-0.02036431,2.3862257,0.0040828823,-0.010853486,-0.012110067,0.021238964,-0.004056647,-0.033979952,-0.010945305,-0.011703078,-0.014327856,-0.025557771,0.019340858,-0.010908373,0.011203306
N838,-0.008520251,-0.00226474,0.025299631,-0.0057885507,0.00052511226,0.0051421346,0.006581725,0.0057626925,0.025621677,-0.9403741,0.010728706,0.0014110375,0.009522873,-0.014853574,0.016979126,-0.010180594,-1.2283386,-0.000328389,-0.026427982,-0.009168325,0.012863383,-0.0028021894,-0.00083164964,0.016524646,-0.006821284,0.0036682903,-0.017028842,0.0043006307,0.0075278487,0.018024921
N3260,-0.019577092,0.0029639448,0.021344652,-0.014492197,-0.01117684,-0.007089656,0.03003024,0.0057480596,0.012796152,-1.352277,0.017862692,0.0031734407,0.0012778966,-0.0005297726,0.0073685,-0.010277087,1.6950023,-0.003561621,-0.022768559,-0.020078132,0.0032957643,-0.011070274,-0.031397015,0.014810892,-0.0054657515,-0.0009437464,-0.009305981,0.003705356,0.006209582,0.009327307
N4441,-0.028083524,0.004088133,0.013992021,0.0038607167,-0.0039946884,-0.016410973,0.012046994,0.015541021,0.029356254,-0.42963082,0.04182378,0.0045501944,0.015764587,-0.01709935,0.009479875,0.010419824,-0.22761752,-0.007251157,-0.023870373,-0.025803616,-0.020512179,-0.01895862,-0.017725702,0.0399375,0.013704106,0.016341675,-0.0027728342,-0.010981348,-0.0036589168,0.027399302
N1813,0.027080765,0.018687429,0.03294604,0.13590576,0.053648565,0.10764781,-0.11150018,-0.13262063,-0.12400796,1.8449699,-0.05861845,-0.073871955,-0.029566284,0.04114985,0.04008563,0.048097454,4.174836,0.028559955,0.10480764,0.03920277,0.014454365,0.06617417,0.14537723,-0.008772014,0.05905354,-0.06395008,0.009254499,0.03537186,0.024638658,-0.043359794
N2879,-0.02357435,0.01829949,0.029659566,0.0003469875,-0.0094671035,0.0021256832,0.018179322,0.0018589664,0.018205585,-0.8848206,0.029231705,-0.0071258936,0.003131466,-0.019266464,0.018235005,-0.0079897605,1.7073169,-0.010886053,-0.027650775,-0.01682191,0.016868107,0.011570198,-0.0087527605,0.018961627,0.00821098,0.0054045953,-0.020760968,0.0041081356,0.0042148586,0.012062972
N3422,-0.02398058,0.02995162,0.007948818,0.0020976216,-0.007899527,-0.032627948,0.02648113,0.04895276,0.08834439,1.0959089,0.078578964,0.007844904,0.06398046,-0.056010213,-0.0100810435,-0.006651597,0.56072855,-0.018297648,-0.057978176,-0.03399669,-0.024719775,0.004589569,-0.02676057,0.02365908,-0.024209842,0.039174106,-0.012267075,0.011064434,0.01696835,0.0021016747
N1165,-0.03278132,0.0010141828,0.025887042,0.0026860274,-0.003264782,-0.015395876,0.017499782,0.01158113,0.031242894,-0.39809874,0.043625105,-0.0050464366,0.023350518,-0.029511243,0.013651645,-0.0047404915,-0.6668464,0.009246611,-0.018427271,-0.028333819,0.0027160607,-0.008186361,0.0062506553,0.015488952,-0.008638879,0.024913905,-0.011950643,0.012046913,0.0017713159,0.0296863
N2298,-0.008026041,0.006615233,0.027067006,0.020282406,0.0045340178,0.005518607,-0.0013621263,-0.018192114,0.0054622814,1.3424267,0.022164095,-0.021156114,0.017629646,-0.0008516684,0.010323452,0.0023402292,2.0000026,0.011457698,0.0071092225,-0.01700487,-0.0060713664,0.019752534,0.037159633,0.014986906,0.0142590795,0.0046721585,-0.008539001,0.017669715,0.012870871,-0.0045445953
N2675,-0.008415064,0.0048359404,0.033329464,0.023957323,0.0050414153,0.01234937,-0.0032923268,-0.025322186,-0.0028429283,0.9744473,0.015722636,-0.025830071,0.014266922,0.0008700751,0.016522793,-0.0035484545,2.3370287,0.010279596,0.0060887844,-0.015685711,0.0006862171,0.02570006,0.041845296,0.013593728,0.01296249,-0.0023238976,-0.010639236,0.020479431,0.015409119,-0.003900622
N530,-0.02507531,0.004617928,0.015137071,-0.008189715,-0.0032505952,-0.020451942,0.018438768,0.014588099,0.027926335,-0.6711322,0.03567845,0.0062901974,0.016486201,-0.012882546,0.008773252,0.011361171,-0.008582719,-0.0065267724,-0.01890111,-0.02247846,-0.021578941,-0.012852553,-0.027903609,0.037218727,0.015302904,0.013533896,-0.0058659287,-0.0053552,-0.0027835201,0.028537704
N1977,-0.030472027,0.04686591,0.04326969,0.019193806,-0.011785843,4.691258e-05,0.017225761,0.02366925,0.053492077,-0.5550523,0.061407488,-0.011216852,0.021972854,-0.05416382,0.024963178,-0.01818218,1.8395531,-0.022490293,-0.04480732,-0.025311746,0.04083362,0.023252716,-0.018265888,0.027845746,-0.0062893815,0.017393067,-0.039498854,0.0056012347,0.0021840464,0.024298696
N357,-0.015774455,0.003974099,0.016648326,-0.013168683,-0.0007972298,0.0041301865,0.014440594,-0.009237095,0.0027623065,-1.0113419,0.0083781,0.00076199323,-0.005161995,-0.0016143136,0.014951929,0.0051607117,1.1775293,-0.010325586,-0.019172393,-0.006971235,-0.0060102604,0.008081159,-0.0066621695,0.023261208,0.025513563,-0.0017505923,-0.0097799385,-0.0032537486,0.0037217718,0.003928502
N515,-0.033482105,0.025176339,0.008341445,0.009113862,-0.0062735854,-0.02701736,0.023283245,0.038936414,0.07144248,0.58908236,0.07041514,0.0012194812,0.048720814,-0.05312562,-0.006188369,-0.0017125867,0.13254191,-0.014437042,-0.05171465,-0.03731167,-0.02103574,-0.011868322,-0.022625376,0.038091246,-0.016665231,0.0361797,-0.0057483716,0.0011479461,0.011125357,0.014094131
N991,-0.03452898,0.014066925,0.0043662125,0.00475737,-0.005830805,-0.025954599,0.023593538,0.03164813,0.050454587,0.4606964,0.05591895,-0.0006073136,0.032614153,-0.034639172,-0.009016737,0.0033802707,-0.008710872,-0.0072572646,-0.040680997,-0.03342158,-0.02740086,-0.02443676,-0.021055818,0.03630724,-0.006116677,0.02968411,0.004692086,-0.008147559,0.009851802,0.013847663
N1105,-0.008640839,0.002956117,0.031035412,0.018070027,0.0026032566,0.008684579,-0.00020080712,-0.021742376,-0.0024588797,1.0569409,0.014223438,-0.022825189,0.012048821,0.004568288,0.01367902,-0.0020188168,2.2507892,0.012139434,0.0069302223,-0.015301297,-0.0006676167,0.021009916,0.037479147,0.011149388,0.013850985,-0.0007305754,-0.009054021,0.01746356,0.013654702,-0.004193683
N118,-0.01058995,0.0065985457,0.031191416,0.02477396,0.0026647528,0.010437677,-0.0015759971,-0.018583639,0.0043002833,0.9769482,0.019240022,-0.021906555,0.02094733,-0.0048863664,0.013913963,-0.0043859426,2.2483172,0.009183371,0.0006302106,-0.01850102,-0.00029851496,0.021706881,0.03833713,0.012162905,0.005755976,-0.0006030578,-0.010713621,0.020950155,0.014631959,-0.0029274933
N2386,-0.007340623,0.008110773,0.032314576,0.022737585,0.005251785,0.011770959,-0.0053469623,-0.022856362,0.0031688195,1.157587,0.018343102,-0.02464997,0.020029344,-0.0006216932,0.015915371,0.00024272129,2.2341144,0.00865786,0.003236584,-0.01478829,-0.000994267,0.029487958,0.042424772,0.013481274,0.013343185,-6.1061e-05,-0.012748013,0.02191845,0.016652731,-0.0041973237
N3192,-0.012672989,0.015436318,0.032121472,0.02097455,0.002078088,0.0029480169,0.0028741406,-0.007004194,0.021606551,1.1262523,0.034240548,-0.018667135,0.031301524,-0.015558085,0.013620002,-0.004673235,2.1312168,0.0047946526,-0.00772467,-0.021302678,1.5113503e-05,0.02500893,0.032209806,0.016990397,0.003969969,0.01161957,-0.015563303,0.021737102,0.01697018,-0.0017911722
N1508,-0.025831332,0.003021155,0.016553592,-0.012625507,-0.0064820265,-0.023444476,0.029416036,0.012153421,0.021971216,-0.8173134,0.04003527,0.0026207212,0.01274382,-0.012741735,0.0052445563,0.0063641025,0.3709594,0.0005343901,-0.010990838,-0.022133823,-0.015099395,-0.010136813,-0.030198928,0.023824105,0.010184239,0.0178188,-0.010368588,0.005428044,-0.0029431805,0.029758662
N2375,-0.009589431,0.0070642023,0.022796985,-0.0022369307,0.0028035962,-0.006682923,0.008180187,-0.0060534365,0.014379408,1.4178799,0.02771414,-0.0143897515,0.014659916,0.0045049842,0.0056247567,0.010309373,1.4806287,0.0092785545,0.0025982824,-0.011633425,-0.013967322,0.018145863,0.023496088,0.01799765,0.028563708,0.019614538,-0.006654254,0.0065929582,0.014357917,-0.0053654825
N4823,-0.027178701,0.0042041023,0.015167594,-0.010091268,-0.0053017093,-0.021649638,0.025631916,0.013132811,0.025579931,-0.840704,0.04104037,0.0038608033,0.016450409,-0.01524405,0.006042794,0.008116651,0.17488873,0.0007521459,-0.013930619,-0.024343586,-0.015534315,-0.010141128,-0.025260866,0.026339551,0.009679412,0.019738829,-0.011059531,0.006614087,-0.002286369,0.031907782
N4503,-0.041055165,0.028811302,0.03137659,0.008752386,-0.006202874,-0.02534479,0.029350363,0.037367467,0.06403046,-0.36587852,0.07014927,-0.0055026542,0.04483692,-0.05569972,0.00990581,-0.005647244,0.24709187,-0.005114746,-0.036374453,-0.0410845,0.004729539,-0.0049351985,-0.028537147,0.03547717,-0.016903434,0.037675746,-0.017588079,0.009812224,0.007655521,0.037792414
N1910,-0.021995783,0.0073425523,0.013690863,-0.021748893,-0.0041923784,-0.024350515,0.024718326,0.022240344,0.03755851,-0.700118,0.035248734,0.015057504,0.019726027,-0.010720172,0.0048758755,0.011775974,0.07785119,-0.009741094,-0.029768344,-0.022084722,-0.024345446,-0.0051364037,-0.037584133,0.036261935,0.013943363,0.016185077,-0.0050452678,-0.005037074,0.0041054394,0.017883107
N2271,-0.012528665,0.011717057,0.003158492,-0.037273403,-0.012210612,-0.057205245,0.047723625,0.062942274,0.084846646,1.6514654,0.07698846,0.020957548,0.050751474,-0.019648174,-0.024992416,-0.007909002,0.6732338,-0.00966108,-0.05317027,-0.02433537,-0.04393235,0.0026298612,-0.047156487,0.009359231,-0.0069102533,0.0468931,0.0006268248,0.00046108686,0.021635756,-0.012320841
N4928,-0.013169202,0.012336623,0.0040222015,-0.037628915,-0.012459449,-0.057996288,0.04740934,0.063213475,0.08601329,1.6604592,0.07886933,0.021427602,0.052122004,-0.01994012,-0.024008786,-0.0073713325,0.6943315,-0.010330485,-0.052671365,-0.024176603,-0.04417686,0.005307419,-0.044713974,0.00951491,-0.0049863607,0.04895455,-0.00070851203,0.0015559371,0.022028675,-0.012653844
N4131,-0.034836143,0.038308274,0.032498688,0.017212592,-0.0046271076,-0.0059017073,0.024157126,0.03042838,0.05528325,-0.45514157,0.054870207,-0.013748557,0.03395627,-0.059041224,0.010455338,-0.013232693,0.7551573,-0.006612279,-0.037201118,-0.031233838,0.024973258,0.0065386463,-0.021408025,0.023072254,-0.022293728,0.024256615,-0.026996553,0.012748151,0.013873589,0.03194496
N160,-0.027762914,0.032125894,0.034398895,0.011076254,-0.010150668,0.0012166314,0.016142387,0.013727654,0.03736513,-0.718425,0.044359077,-0.0076658092,0.0130094355,-0.036615603,0.019830696,-0.013195861,1.8388321,-0.018091204,-0.038356006,-0.022063931,0.02721661,0.013634665,-0.013868597,0.025652668,-0.0023773368,0.0117072165,-0.025828563,0.0023863965,0.004111562,0.01613214
N4864,-0.010659158,0.007306024,0.03493509,0.036211252,-0.0001924811,0.048113808,-0.013047234,-0.036642622,-0.024349868,-1.5226502,-0.01209092,-0.013838634,-0.0016714707,-0.0047951457,0.03181068,-0.015696604,3.3189723,-0.005483665,-0.018336812,-0.014040464,0.027931135,0.028335372,0.042698115,0.006242525,-0.0024340432,-0.031829193,-0.021567095,0.021836193,0.01309712,-0.0027375668
N140,-0.05644931,0.026467111,0.07039252,-0.010523396,-0.008304029,-0.030608857,0.055438377,0.022123337,0.038950972,0.104104124,0.05177447,-0.01629461,0.050785877,-0.09526643,0.036259044,-0.044421438,-1.6595405,0.065398455,0.00040124217,-0.029987354,0.086697504,0.039786845,0.062965095,-0.054715604,-0.08870195,0.06464158,-0.05904364,0.08763786,0.019566787,0.03919573
N4004,-0.056799717,0.027311012,0.07292023,-0.0077898987,-0.0077207414,-0.030378072,0.05512433,0.022750769,0.041668713,0.09596544,0.0527828,-0.017492771,0.055137042,-0.09959738,0.037437625,-0.04797074,-1.6930305,0.068613976,0.0012696651,-0.031508546,0.09055385,0.041154183,0.06702482,-0.05745968,-0.0956998,0.06524697,-0.061261676,0.09303141,0.020943977,0.040168185
N2972,-0.029058488,0.007694446,0.018225819,-0.009612138,-0.008016418,-0.021069108,0.031901587,0.016675014,0.024750682,-0.6194483,0.042467214,-0.004108891,0.011371375,-0.019634157,0.0021872506,0.0020467136,0.5271404,0.0010184557,-0.014376571,-0.022090344,-0.006566845,-0.008899652,-0.030011572,0.020941453,0.0053528566,0.023339782,-0.008414756,0.004151779,0.002113726,0.028492242
N667,-0.0338432,0.0005133073,0.021895831,-0.013048505,-0.008010044,-0.024296468,0.02824757,0.012667876,0.023113543,-0.4567586,0.03746597,-0.001325272,0.016230743,-0.017312193,0.010190809,0.0051134145,-0.12639678,0.006886773,-0.016005721,-0.024751427,-0.008465452,-0.008151682,-0.012116113,0.018457089,0.0065286616,0.023554176,-0.008285425,0.0060182847,0.00013948418,0.027887948
N4157,-0.02473323,0.028474588,0.036315702,0.02105287,-0.007950011,0.013874777,0.008447271,0.0017925464,0.023443768,-0.8001356,0.033995826,-0.012856382,0.010747016,-0.035026055,0.02376411,-0.015480388,2.128139,-0.013680825,-0.03291623,-0.020602722,0.030805476,0.021644892,0.005631692,0.020156758,-0.00023329817,0.0035536217,-0.027393483,0.010686608,0.006506567,0.014198157
N2389,-0.01814021,0.005511345,0.016025089,-0.013553768,-0.006993995,-0.013088735,0.03130998,0.010491103,0.015480457,-0.8875727,0.03347212,-0.0001538936,0.0018463591,-0.014992602,0.004010837,0.0013117678,0.5336428,0.0041152965,-0.0077262144,-0.012031471,0.0020021275,-0.0005939128,-0.028729256,0.0077450955,0.007633088,0.016465044,-0.0164648,0.007400818,-0.004325781,0.026998295
N3736,-0.033590496,0.014796147,-0.0073018167,-0.020525832,-0.028388865,-0.055816658,0.047145143,0.0756137,0.061705448,1.6291394,0.06805521,0.026414786,0.015413445,-0.016794208,-0.028700778,-0.0031171497,-0.29399124,0.012978536,-0.0399232,-0.033055596,-0.015294636,-0.05469107,-0.03682767,0.016727723,-0.019283555,0.054891944,0.0072829365,-0.032350887,-0.004900519,-0.0036568735
N4465,-0.029169548,7.372536e-05,0.017072966,-0.0027236063,-0.007975177,-0.026508318,0.026158338,0.013595641,0.024248471,-0.6356182,0.05271319,0.0016690176,0.018093739,-0.017093278,0.0058429916,0.007676434,0.07309744,0.005956431,-0.0064415415,-0.028030299,-0.01696562,-0.012334752,-0.022032887,0.023357674,0.00947153,0.02328807,-0.013509204,0.010115911,-0.009362549,0.040262647
N1513,-0.012808262,0.016998895,0.0042014793,-0.03880342,-0.016401548,-0.06635506,0.050300818,0.07691093,0.10113224,1.8639152,0.08973846,0.027770162,0.062182818,-0.02688019,-0.026899537,-0.01219127,0.7595242,-0.015383324,-0.06293962,-0.028084332,-0.04525435,0.0072030127,-0.052553825,0.008737421,-0.012082737,0.05260627,-0.0037200646,0.0021175237,0.022139255,-0.014505208
N1932,-0.02780376,-0.0023240559,0.012835968,-0.008757591,-0.0026823832,-0.013981342,0.021990653,0.0030924696,0.010449883,-0.5326617,0.026282057,-0.005026482,0.007874685,-0.010733555,0.0051036594,0.009124764,-0.031699628,0.008058207,-0.008210204,-0.019446287,-0.013869716,-0.009950018,-0.008967859,0.0152607,0.01167246,0.014405135,-0.0065686023,0.005301402,0.0012205541,0.028168729
N16,-0.02856379,0.0039603966,0.02092286,0.008326548,-0.0029348833,-0.021875406,0.016432012,0.014133707,0.031135919,-0.6771543,0.054501522,0.00070882216,0.027417377,-0.023027442,0.010113869,0.0065155076,-0.04925388,0.0062678447,-0.008064294,-0.032604147,-0.016060375,-0.010205275,-0.013177992,0.030417567,0.006252135,0.022219531,-0.016086206,0.014639833,-0.0059952307,0.046396907
N2504,-0.022640783,0.000614773,0.0141111575,-0.01098249,-0.006291992,-0.018768352,0.028693344,0.008167565,0.016372444,-0.8961736,0.040181752,0.0009960327,0.007365006,-0.01251208,0.004183113,0.005946704,0.3350711,0.005225867,-0.005417696,-0.019043218,-0.009182643,-0.007907943,-0.025753215,0.014132831,0.010202855,0.01806658,-0.014752227,0.009932232,-0.00708591,0.03296177
N2628,-0.024157267,-0.0025324658,0.015808452,-0.016702855,-0.0070004845,-0.017994437,0.024744052,0.008507501,0.017662726,-0.81021607,0.030288275,0.0053825416,0.008533283,-0.0081944475,0.008129073,0.007689003,-0.15626457,0.0036485058,-0.014212141,-0.01928503,-0.010317562,-0.0066788294,-0.01925508,0.015613584,0.011846609,0.014089098,-0.0120401895,0.0046238704,-0.004382441,0.02650906
N627,-0.026652284,0.0055819894,0.0152393915,-0.016972683,-0.005784956,-0.018540775,0.027613364,0.011097897,0.02059882,-0.6809174,0.028504498,0.000499038,0.008653962,-0.01149295,0.00543904,0.008058339,0.3656776,-0.003388058,-0.0187818,-0.01733948,-0.014674481,-0.010083919,-0.029282376,0.025778882,0.014166521,0.0144695705,-0.0049535288,-0.003013424,0.0021223258,0.019943077
N455,-0.031908114,0.005051169,0.022600453,-0.007888931,-0.008652075,-0.027501335,0.02443617,0.022110932,0.034803018,-0.61988807,0.044990066,0.006265765,0.023539241,-0.018130843,0.010636091,0.007040265,-0.055694383,-0.0008596559,-0.022224836,-0.029406723,-0.01647916,-0.011356457,-0.024959482,0.033924542,0.009701064,0.02223583,-0.00933442,0.001280972,-0.0007260926,0.032585215
N3562,-0.032333765,0.004636098,0.017567595,-0.0051722256,-0.007860503,-0.023888377,0.023309099,0.018630847,0.0319274,-0.51588696,0.042889852,0.0038643666,0.020356692,-0.01917551,0.007289138,0.008013469,-0.01554466,-0.0025224998,-0.02217782,-0.028240744,-0.019387065,-0.014538859,-0.024544653,0.033422418,0.009309874,0.019724602,-0.005996776,-0.0012016802,-0.0014412086,0.028855244
N1558,-0.020998184,0.0031588483,0.012262944,-0.021758094,7.5688586e-06,-0.01152649,0.019347265,0.006120121,0.01980664,-1.2564816,0.014644306,0.010138739,0.012284855,-0.005816703,0.009375976,0.01348152,0.14075069,-0.002509954,-0.02253762,-0.019397682,-0.014910104,-0.00695586,-0.022292469,0.02580322,0.01143997,0.0072311843,-0.0073137255,0.00042205234,0.004675731,0.019980393
N4273,-0.030374246,0.0025637443,0.016146898,-0.0061274674,-0.008123727,-0.022620784,0.023480192,0.015558414,0.028567484,-0.58087575,0.04231692,0.003329005,0.017922997,-0.016882762,0.0071160053,0.007905122,-0.032869227,0.0015478036,-0.018635742,-0.026889328,-0.016655276,-0.012966117,-0.020941991,0.027435843,0.009198011,0.020203782,-0.009809663,0.003312505,-0.0023908224,0.031932496
N4570,-0.016465377,0.0037373048,0.026175033,0.008855625,-0.0008397391,0.026531477,0.0023655277,-0.028068181,-0.015686389,-1.199964,-0.0048833527,-0.011290288,-0.005680985,-0.00079382677,0.024265647,-0.006948529,2.3762002,-0.0055632987,-0.018104352,-0.010691542,0.011808172,0.018070387,0.025246602,0.010552974,0.012413909,-0.016411297,-0.015906092,0.011770558,0.010927753,-0.0006633592
N3540,-0.031289633,0.006835109,0.01429026,-0.012759884,-0.0050777905,-0.02506786,0.025540734,0.019757848,0.03137953,-0.32200822,0.038419552,0.00407058,0.018828854,-0.016739735,0.0042211753,0.010920488,0.065158874,-0.0036130515,-0.023580236,-0.023534842,-0.024326224,-0.013894611,-0.02791867,0.034390867,0.013638447,0.02253682,-0.0011862423,-0.0062297676,0.0042916983,0.020346396
N3783,-0.016957052,0.0023727217,0.0074877106,-0.024177685,-0.0040700464,-0.0066180117,0.02460675,0.0022458006,0.010290679,-1.1994112,0.009800237,0.0059672296,-0.0043854304,-0.00072699133,0.0038752588,0.008592717,0.5921676,-0.007282891,-0.022002071,-0.009140875,-0.010947524,-0.008535143,-0.03169754,0.018459119,0.01444583,0.001830508,-0.0053006904,-0.0059727314,0.0033490956,0.010694632
N1243,-0.0321638,0.009763394,0.0108880885,-0.007007562,-0.004083706,-0.014057457,0.022378583,0.0154223405,0.02592201,-0.064626314,0.027941488,-0.00411419,0.010722169,-0.022871234,0.0043903072,0.008172141,-0.021499246,-0.0041373945,-0.027435567,-0.02038212,-0.011969371,-0.015244029,-0.018948823,0.028068842,0.0048905592,0.018743882,0.00068689045,-0.0110665625,0.0033587366,0.01791691
N1624,-0.016676689,0.008928474,0.029557638,0.0003697751,-0.00536329,0.015444244,0.011031352,-0.014845667,-0.007016547,-1.2444493,0.0034911223,-0.005012084,-0.0056493087,-0.0023033652,0.024319794,-0.008622959,2.4115052,-0.0062387674,-0.018529426,-0.010922845,0.01720095,0.017855423,0.009843035,0.013010221,0.013671575,-0.008887232,-0.01852287,0.006377206,0.008154445,0.00042521209
N3340,-0.020415917,0.0036631399,0.011290001,-0.020864269,-0.0068289293,-0.012770286,0.029718064,0.010219026,0.011914978,-0.5868507,0.015155692,0.0011594594,-0.002579288,-0.0063512907,0.0048167356,0.004896189,0.42997634,-0.00062724156,-0.014878375,-0.00853918,-0.0053495206,-0.007346869,-0.027207535,0.015408119,0.011992247,0.009601678,-0.0053202724,-0.006645474,0.00090327114,0.014925144
N4655,-0.04646284,0.030672457,0.03973323,-0.01913844,-0.012966254,-0.02923865,0.0492031,0.029125478,0.03610608,0.45497328,0.036670294,-0.0023171436,0.025976032,-0.06704283,0.023847995,-0.016637713,-1.0672603,0.033499718,-0.01867124,-0.017593274,0.053369973,0.023913836,0.02186032,-0.02243651,-0.052178662,0.049837388,-0.040523756,0.036256235,0.012923287,0.022444608
N1897,-0.031648893,0.012103487,0.016663162,-0.0051828665,-0.0065190727,-0.015480528,0.024279704,0.014427941,0.027392095,-0.26408982,0.033127893,-0.0061949436,0.0127456365,-0.02510291,0.006730043,0.0058032814,0.333683,-0.0037935567,-0.02539027,-0.020693993,-0.008534465,-0.011851117,-0.021380864,0.02728728,0.007589318,0.019177018,-0.0042920643,-0.0060439203,0.003916323,0.018434385
N1369,-0.01945047,0.007927667,0.028023541,-0.0052680573,-0.0043689385,0.0066483016,0.0148987165,-0.010715581,-0.0005424451,-1.0429621,0.009824505,-0.0059128534,-0.0017031874,-0.0041305176,0.021316452,-0.0044567753,1.946285,-0.006736073,-0.017930249,-0.01224328,0.008249983,0.013075855,0.0016702358,0.01733092,0.016181707,-0.0032812788,-0.01514556,0.0042548226,0.0071131364,0.0048884046
N2318,-0.022971237,0.0063668755,0.016787201,-0.019911498,-0.009339658,-0.0159302,0.032063145,0.010136507,0.018679341,-0.8590168,0.026413452,-0.00021162443,0.002217901,-0.00836498,0.0038276059,0.0030586123,0.75312096,-0.004575402,-0.019412542,-0.014741848,-0.005909601,-0.007845951,-0.03536533,0.018248653,0.009573072,0.010835437,-0.0072052954,-0.0028393837,0.0027020052,0.015146562
N1390,-0.033727083,0.05325508,0.043742593,0.023182578,-0.013227941,-0.0073107723,0.018822175,0.03589274,0.07136227,-0.56149673,0.07575095,-0.006197106,0.032633934,-0.062918045,0.022184199,-0.021009162,1.8530809,-0.028641207,-0.05432259,-0.032547753,0.04031879,0.015017623,-0.030050725,0.037102647,-0.018375758,0.02420376,-0.037266213,0.0023929176,0.0025574341,0.025397107
N3459,-0.026063723,0.023266545,0.033229977,0.0074630575,-0.007999244,0.0023622932,0.016303785,0.0055980887,0.02382741,-0.7830195,0.033984352,-0.009162999,0.010083727,-0.027315538,0.019296018,-0.009984555,1.8769034,-0.011736315,-0.02883446,-0.02012418,0.019710768,0.012900079,-0.0066777933,0.022189036,0.003190456,0.0088516325,-0.020039473,0.0049857283,0.0064069843,0.013380713
N369,-0.025228702,0.0263535,0.03634714,0.0078041973,-0.011460069,-0.001345884,0.020168124,0.01172436,0.029422494,-0.8854174,0.04293386,-0.007783561,0.010744407,-0.029923562,0.017625943,-0.013589919,1.963594,-0.012328012,-0.02969031,-0.022462592,0.026036821,0.013535857,-0.015382652,0.021221152,-0.001991557,0.011428996,-0.023496453,0.006659854,0.0041265935,0.017426193
N4204,-0.027957786,0.02315167,0.03484182,0.0091698775,-0.009595781,0.0020071268,0.013843805,0.004355088,0.028645681,-0.6966738,0.039402664,-0.008209584,0.012535919,-0.0306046,0.022420358,-0.009282632,1.7442703,-0.015621547,-0.032753915,-0.021984803,0.019393522,0.015816055,-0.0037828172,0.023783952,0.0040682293,0.009941956,-0.022622105,0.00619917,0.0016887002,0.01451481
N3904,-0.028379105,0.021321058,0.033930358,0.0065806387,-0.009853191,-0.00020859111,0.01535557,0.004124444,0.028933583,-0.667842,0.03965688,-0.007463786,0.013603794,-0.028736126,0.021482507,-0.008667532,1.7133671,-0.015051814,-0.032549582,-0.022479102,0.01622044,0.014445463,-0.0040704664,0.023372859,0.0039622206,0.010533353,-0.02197009,0.006785836,0.0020184368,0.013546499
N2896,-0.025326721,0.021101065,0.033787385,0.011867042,-0.005110887,0.008088661,0.008934466,-0.001858497,0.021229373,-0.88175434,0.031211093,-0.0068197716,0.012371969,-0.026844911,0.024678001,-0.0104336515,2.007487,-0.015954789,-0.031671707,-0.021025639,0.016396433,0.018601073,0.0051256362,0.026788926,0.0053559896,0.004426063,-0.021552589,0.0085297525,0.0056585707,0.010576433
N4635,-0.03261937,0.056386806,0.045514394,0.025468815,-0.011908569,-9.867735e-05,0.019190613,0.033558633,0.064971946,-0.564447,0.071633756,-0.01136159,0.028135054,-0.065801024,0.023304932,-0.022628285,1.8959032,-0.025025098,-0.050963946,-0.028548567,0.04898108,0.02361306,-0.026001193,0.029099485,-0.015955191,0.020749208,-0.044572413,0.0056225127,0.0027821846,0.028833427
N3242,-0.01720228,0.0035007359,0.0061920714,-0.025575534,-0.0027795807,-0.00881617,0.022318464,0.0067885313,0.016679639,-1.1600215,0.0102840755,0.010526743,0.00020851009,-0.0011219922,0.005020266,0.011972116,0.3859073,-0.008668609,-0.026280563,-0.011598335,-0.015020546,-0.010774743,-0.03316345,0.02538528,0.015159009,0.0049077785,-0.0035187034,-0.009938596,0.0034577716,0.010970964
N415,-0.029494688,0.032618877,0.04039893,0.01120388,-0.009880203,-0.003331623,0.01535907,0.012473293,0.040565714,-0.6089192,0.050103623,-0.0085075125,0.019920073,-0.037706956,0.0250286,-0.013405088,1.9934714,-0.019192854,-0.036948286,-0.025082368,0.025064755,0.017432963,-0.008827371,0.030136142,-0.0013666097,0.016254697,-0.026593026,0.005764154,0.004276959,0.015846543
N3666,-0.030848987,0.037444487,0.040272407,0.014081362,-0.00867357,-0.0036735162,0.014806141,0.016630504,0.04774391,-0.50581944,0.05435275,-0.009108612,0.024550509,-0.044136394,0.024900028,-0.013897367,1.9233853,-0.021504218,-0.04049969,-0.026197286,0.026319996,0.017084613,-0.010938385,0.03268683,-0.0043800008,0.018720169,-0.02826744,0.004707398,0.0049429648,0.01735146
N3166,0.0087095555,0.010963058,-0.0049178335,-0.028970841,0.012187702,0.017868541,0.00754166,-0.0036986005,0.0100019965,-2.9233534,-0.018190928,0.028231092,-0.00827055,0.0070286253,0.008745488,0.013876551,1.0103583,-0.01923692,-0.030701978,-0.0018693329,0.0005542487,-0.003381244,-0.03678298,0.03053028,0.008735109,-0.012027114,-0.007607813,-0.011129104,0.00831035,-4.604971e-05
N3205,-0.011937657,0.00028308015,0.020635402,-0.020046081,-0.012189596,-0.00039262045,0.03212904,-0.0061193015,-0.005503825,-1.2084057,0.00882775,0.0005814787,-0.014555831,0.003770844,0.010878701,-0.006606551,1.420257,0.007935886,-0.008233737,-0.0058644484,0.01342205,0.005904097,-0.016012393,-0.006320596,0.0072728144,-0.0026043714,-0.021219049,0.010513939,-0.0019086488,0.008832594
N3807,-0.031389724,0.045504853,0.044700798,0.017776802,-0.013353062,-0.007824669,0.019216854,0.028809667,0.059026398,-0.5827453,0.067743525,-0.008510942,0.026899543,-0.054193694,0.021467151,-0.019302342,1.9270965,-0.02262062,-0.04461252,-0.029925738,0.03782719,0.0169833,-0.023911413,0.031579163,-0.014273524,0.023550138,-0.03318058,0.005068587,0.003292285,0.025017688
N3893,-0.03227577,0.045887414,0.04409305,0.017712835,-0.013004114,-0.008945219,0.019355739,0.029867742,0.060941853,-0.53545946,0.06833191,-0.00834451,0.028757721,-0.055489805,0.021089565,-0.018529769,1.8558025,-0.022679696,-0.04556249,-0.030604703,0.036194827,0.015481591,-0.024600353,0.032502897,-0.015202336,0.024732485,-0.032468233,0.0046855835,0.0038681272,0.025066877
N4851,-0.031828713,0.049691387,0.041613497,0.019231707,-0.010960438,-0.0038598124,0.018285695,0.02957721,0.062204383,-0.57900965,0.06741932,-0.008185096,0.02642272,-0.05613544,0.021991516,-0.018510576,1.8688983,-0.02649629,-0.049871735,-0.028230539,0.03848875,0.016350131,-0.02692905,0.03366527,-0.012901936,0.020781346,-0.036131274,0.0011862542,0.0024654754,0.023698807
N4017,0.048706166,-0.003102224,-0.016070995,0.0013103522,0.051089786,0.10462266,-0.05996551,-0.07455155,-0.060483016,-5.6399393,-0.13194567,0.034081634,-0.022397982,0.051145915,0.026405198,0.03640113,2.8355045,-0.008124506,-0.014111778,0.019311601,0.013689462,0.008428231,0.02118126,-0.0004987458,-0.008549528,-0.07737841,0.002424566,0.0049991207,0.036477987,-0.03638617
N1168,-0.031387553,0.043123547,0.025805961,0.012398225,-0.0049862117,-0.004280748,0.016813263,0.028682448,0.05858267,-0.27937558,0.0494026,-0.007171631,0.02704027,-0.0539241,0.014169533,-0.008122006,1.1538223,-0.023460424,-0.047394283,-0.023233028,0.019506555,0.0038223844,-0.027706075,0.035301954,-0.010273524,0.021213852,-0.023178995,-0.006162119,0.009425526,0.018342953
N1124,-0.015184696,0.015329769,0.03471675,0.027577717,-0.0031681545,0.03389246,-0.0032521626,-0.020661019,-0.006900439,-1.3145572,0.0060585253,-0.012666952,0.00066364557,-0.015263816,0.026622197,-0.015154902,2.8577678,-0.008873193,-0.022552673,-0.015827337,0.029675849,0.027370526,0.025623202,0.0116230585,0.00022982247,-0.017344613,-0.023302447,0.01709151,0.009575811,0.005071012
N3454,-0.02229705,0.025156207,0.038677014,0.042730745,-0.0030144583,0.028884046,-0.003923758,-0.0066183526,0.01514386,-1.1120825,0.022893902,-0.013510599,0.020316973,-0.034999315,0.025045475,-0.021191962,2.9611568,-0.013200613,-0.03174138,-0.027277684,0.031313825,0.020191146,0.021425623,0.021619638,-0.018412922,-0.008298722,-0.02039184,0.01837648,0.013994111,0.00828572
N1135,-0.031314794,0.03380995,0.025027528,0.00830653,-0.006093242,-0.009623738,0.020086434,0.026190665,0.05295425,-0.4268178,0.04869296,-0.0058080982,0.025896978,-0.04568211,0.011191228,-0.00609334,0.9975977,-0.019054256,-0.042180993,-0.024686912,0.010255091,-0.0020917803,-0.030327056,0.034997337,-0.008362101,0.020753685,-0.015581873,-0.0039249663,0.0088419095,0.019427383
N3864,-0.01916222,0.023073284,0.037937738,0.04371157,-0.0017862199,0.03872227,-0.010646549,-0.01714757,0.0034846086,-1.106535,0.010616733,-0.016188782,0.012397346,-0.028773334,0.028733177,-0.018493965,3.0482721,-0.012508253,-0.029880924,-0.02146824,0.033992868,0.027099425,0.03227648,0.016346768,-0.011704426,-0.016688243,-0.0223938,0.01857613,0.013864334,0.005055371
N629,-0.029455628,0.0021173474,0.012758402,-0.01906852,-0.010281601,-0.02502268,0.030299425,0.01747062,0.026006317,-0.37007633,0.033851087,0.0046984293,0.010579838,-0.010828416,0.0025024512,0.010400079,-0.06267599,-5.9072394e-05,-0.02164597,-0.021054173,-0.019986557,-0.014840607,-0.029585801,0.024704762,0.014013644,0.019724151,-0.0041002603,-0.0063545336,0.00040170178,0.019516943
N1762,-0.030377455,0.008084783,0.010540843,-0.00047805998,-0.0047931876,-0.022969699,0.020137787,0.023964535,0.038291007,-0.21898109,0.04429273,0.0051581524,0.023726203,-0.021168936,0.0014253417,0.010320987,-0.025407866,-0.0054082503,-0.029442517,-0.029782651,-0.026335467,-0.020449195,-0.025667008,0.041130338,0.006909662,0.021626016,0.0018875673,-0.0091933375,0.0033974592,0.021154357
N1949,-0.035500087,0.008468796,0.015790345,-0.021373808,-0.014626793,-0.033380553,0.0394259,0.028819047,0.03671036,0.592475,0.04252119,0.001926532,0.018644374,-0.028281316,-0.000815297,0.00030342117,-0.40757143,0.013228862,-0.023948556,-0.021378638,-0.002229059,-0.0070779477,-0.0072432933,0.002519217,-0.009762419,0.03648641,-0.010304169,0.0023175378,0.0026968624,0.01096824
N3475,0.04781749,-0.0025951872,-0.015983235,0.0061831167,0.052385945,0.10544194,-0.06437974,-0.07446245,-0.058306806,-5.5971518,-0.13189915,0.034112766,-0.017902669,0.04971812,0.02681795,0.03812286,2.7508507,-0.008823661,-0.01614907,0.016877938,0.010658603,0.0068422556,0.023733877,0.0032873102,-0.010804076,-0.07751554,0.0041783033,0.0045398576,0.038660742,-0.035923
N1601,-0.01647489,0.002680643,0.014626365,-0.02462256,-0.010119847,-0.016813662,0.035698052,0.0076073576,0.0131683145,-1.2293011,0.02991078,0.0057810917,-0.003766439,-0.0044378364,0.0026872219,0.0021327455,0.7752931,-0.0013570073,-0.012353347,-0.012446197,-0.003590459,-0.0049338597,-0.041065,0.011505922,0.010200992,0.009278865,-0.014742116,0.0042683734,-0.005778728,0.0198366
N908,-0.029432647,0.029359773,0.03506937,0.018602204,-0.006612758,0.006406166,0.009776987,0.005998198,0.03339953,-0.69809014,0.04158336,-0.009674422,0.018454723,-0.039025307,0.023234045,-0.012913797,1.9813421,-0.017756049,-0.037169028,-0.024516772,0.022467997,0.016233014,0.0016945666,0.02807163,-0.0026956778,0.010816981,-0.023135625,0.00804159,0.006747621,0.01347475
N4246,-0.020169439,0.006176461,0.017208882,-0.024680894,-0.0016266685,-0.018336844,0.02130451,0.012372874,0.027555933,-1.3108647,0.024937842,0.015518773,0.014283211,-0.007149164,0.01274359,0.0155686345,0.054756306,-0.005476575,-0.022944946,-0.020878334,-0.014279073,-0.0033770446,-0.032003712,0.032025255,0.016298853,0.010537551,-0.010856017,-0.0011965483,-0.0021144096,0.023081407
N4657,-0.01633705,0.0014501908,0.010273667,-0.02304671,0.0016703075,-0.0048363023,0.017512485,0.00022228435,0.012980759,-1.2394814,0.005782701,0.0065901987,0.0044986997,-0.0025595617,0.008561095,0.013572238,0.13028336,-0.0018905257,-0.020001598,-0.013158741,-0.01215695,-0.0053876396,-0.019571155,0.020960456,0.014571611,0.002933142,-0.0069490084,-0.0017392528,0.0057520494,0.0151529005
N1195,-0.015011922,0.004145589,0.0118836,-0.026385777,-0.0069181165,-0.008090138,0.029288892,0.0047883857,0.007818872,-1.0923135,0.007795099,0.003775604,-0.007891982,0.0009605717,0.005149539,0.0043296535,0.86471057,-0.0039375513,-0.01786729,-0.0066302125,-0.0026871897,-0.004826997,-0.033061873,0.013553057,0.013661725,0.0019444772,-0.007183117,-0.00592714,0.0042407904,0.0094438065
N2703,-0.016528592,0.0044057877,0.009264482,-0.020256944,-0.0026506241,-0.0014889492,0.02162225,0.0017169993,0.009397687,-1.3695455,0.005786989,0.005862478,-0.0031535197,-0.001278908,0.006221087,0.0068815527,0.9101296,-0.0064615277,-0.023260394,-0.010335624,-0.0063011833,-0.007996074,-0.028397217,0.018606827,0.011079587,0.00012319244,-0.005313159,-0.004853134,0.006074028,0.00925612
N3203,-0.027454818,0.0055365856,0.01503627,-0.020462872,-0.007142796,-0.02356383,0.028795727,0.01605336,0.027920531,-0.7845241,0.03277912,0.008326814,0.01303425,-0.010802188,0.005698021,0.009696665,0.21620794,-0.008003969,-0.024096748,-0.020740978,-0.019851502,-0.011243834,-0.03669029,0.03159482,0.013064873,0.015371099,-0.004503661,-0.0055865105,0.0008945856,0.019280724
N2147,-0.01918052,0.006959205,0.024968673,-0.0074423947,-0.005287,0.0052030594,0.016950836,-0.009236777,0.00036258437,-0.936842,0.010524116,-0.0069310274,-0.0033480288,-0.0054483907,0.018106312,-0.0018498376,1.5283202,-0.0045424695,-0.016993403,-0.010603144,0.005650662,0.0115728155,-0.0018899152,0.014220303,0.017996073,-0.002098454,-0.01579569,0.0047405167,0.0056513287,0.00841771
N2519,-0.018134406,0.0051745377,0.01926222,-0.015002755,-0.008428172,-0.011771761,0.029883437,0.008860122,0.016372576,-0.8845916,0.028506339,-0.0014381334,0.0022488777,-0.012622762,0.004680729,-0.0010198634,0.5250265,0.0015621576,-0.0134766055,-0.013298962,0.005199179,0.0020642271,-0.0279959,0.006928795,0.0036286712,0.011250652,-0.015190036,0.0074704085,-0.00035889633,0.024070079
N2320,-0.028338939,0.028812926,0.027828291,0.00024220534,-0.009063137,-0.00711984,0.024893446,0.020308375,0.03879653,-0.51618767,0.04170896,-0.007767247,0.013276902,-0.03510972,0.011751249,-0.0055700783,1.1441425,-0.012992458,-0.032820433,-0.01920796,0.016650155,0.0048711784,-0.030256659,0.022684556,-0.00036240183,0.015714847,-0.02029505,-0.0027746935,0.004069628,0.019562747
N3803,-0.02823384,0.0075665493,0.011693301,-0.012683915,-0.00443987,-0.015482899,0.023551274,0.011999588,0.022338314,-0.4093946,0.026223388,-0.0022003688,0.007824522,-0.015180841,0.004155818,0.009427179,0.28702873,-0.006017515,-0.02381602,-0.017077325,-0.016387168,-0.013598234,-0.026249848,0.02974792,0.0138887465,0.0153072905,-0.00042145792,-0.010240845,0.004322866,0.016037827
N144,-0.036620617,0.008931683,0.019481193,-0.0014869403,-0.006990644,-0.022838065,0.025486153,0.01928427,0.03455203,-0.3181886,0.045010116,-0.0041084923,0.024298225,-0.02789203,0.006209306,0.0058775702,0.07764052,-0.00055838283,-0.024823358,-0.030730126,-0.014930321,-0.014716678,-0.020097412,0.031602867,0.0030949563,0.024536802,-0.0048328666,0.0012495664,0.0037491266,0.028826123
N1178,-0.013858999,0.00047231838,0.015046805,-0.019702185,-0.0061261104,-0.015850756,0.028091941,0.007755868,0.017135158,-1.1318306,0.029740088,0.0078554265,0.004495007,-0.009411363,0.007548259,0.0035314448,0.14981306,0.002811281,-0.011519242,-0.012801348,-0.0043279063,-0.0002636928,-0.028028179,0.011225902,0.010154924,0.010856643,-0.019821957,0.008893593,-0.0053255092,0.026897827
N92,-0.049053743,0.072854385,0.037041496,0.050294302,0.0036278144,0.0021579769,0.009670125,0.04282517,0.09213647,0.08433684,0.080676824,-0.020965295,0.062068295,-0.110279925,0.019671902,-0.020556528,0.77643377,-0.020575874,-0.063894704,-0.04046955,0.043448273,0.0123062525,-0.0038996888,0.040582307,-0.043870885,0.038428646,-0.04089111,0.015105342,0.022807304,0.032876067
N4090,-0.018959446,0.005626505,-0.001374572,-0.029152084,-0.009722377,-0.023447512,0.0324685,0.030785363,0.033562593,0.43321338,0.022722155,0.010098893,0.0038609765,-0.006055237,-0.0102964025,0.0077515654,-0.017366234,-0.005839556,-0.03221559,-0.010042337,-0.021841623,-0.018676952,-0.038328707,0.019341657,0.009466662,0.02109018,0.0073698177,-0.025905825,0.004449686,6.718049e-05
N3576,-0.02990145,0.00093870005,0.024300255,0.0021400042,-0.0065504787,-0.024924455,0.018713934,0.016626313,0.030892877,-0.67101294,0.054697264,0.0035189763,0.024548307,-0.018785443,0.012444692,0.0067992676,-0.23476943,0.0059254835,-0.0111505035,-0.032752596,-0.012053141,-0.010510329,-0.014781619,0.028318446,0.008387485,0.023764431,-0.015524087,0.010309839,-0.008997008,0.04330038
N2167,-0.025663944,-0.0010741418,0.016599454,-0.009081707,-0.0049121426,-0.017803535,0.027581848,0.0051545966,0.013020683,-0.7381808,0.036530845,-0.003830392,0.010108029,-0.014295012,0.005061395,0.005362157,0.20836498,0.01072838,-0.0035909563,-0.021002727,-0.0076961014,-0.006449571,-0.014513663,0.010775061,0.007347596,0.01918115,-0.013028002,0.0135255745,-0.0024699494,0.0333956
N581,-0.018849561,0.013645815,0.01209164,-0.004164681,-0.00079452526,0.0031168144,0.0142268725,0.0016509574,0.020418713,-0.41541842,0.019685287,-0.005213378,0.0057944003,-0.018048592,0.007984968,0.0005247239,0.9702705,-0.012350952,-0.030645275,-0.010080269,-0.004193606,0.003604277,-0.005911012,0.0240985,0.012404048,0.0070953453,-0.008742453,-0.0039305203,0.011031264,0.004474527
N2356,-0.0260245,0.0052289567,0.02951083,-0.008102547,-0.009987474,-0.022757864,0.03397474,0.016899846,0.035137527,-0.43683583,0.049134005,-0.0030938722,0.022714555,-0.03938988,0.016003985,-0.011352796,-0.8744986,0.02526559,-0.010515331,-0.017897356,0.02146916,0.004888948,0.007257794,-0.008088348,-0.01719416,0.04001795,-0.03154754,0.029104268,-2.009049e-05,0.031503618
N4924,-0.011353467,0.005417261,0.031850517,0.024641015,0.0015139729,0.038536612,-0.009880078,-0.03419173,-0.021185473,-1.3593216,-0.013113033,-0.010576245,-7.209554e-05,-0.0008980008,0.030618994,-0.010219939,3.0018473,-0.007503819,-0.01813729,-0.011780158,0.017489787,0.026440604,0.036794588,0.011704281,0.0041483287,-0.026857454,-0.017312918,0.016641479,0.014347753,-0.0042846836
N748,-0.023857404,0.0060502267,0.0136404075,-0.016769461,-0.0039808936,-0.01891642,0.024122342,0.013860665,0.02722857,-0.76284057,0.030637823,0.0073183496,0.012494913,-0.0129425,0.0069480105,0.012291156,-0.012439225,-0.0073490986,-0.022306425,-0.018226685,-0.020049226,-0.009945278,-0.03185484,0.0340244,0.016500339,0.014658283,-0.004606207,-0.007610351,0.0007146094,0.01893901
N4688,-0.03560987,0.054501876,0.04664755,0.028119732,-0.011765492,-0.0042088497,0.014078806,0.030822854,0.06982315,-0.40537015,0.07387097,-0.010587532,0.035913687,-0.06859302,0.026873922,-0.020612225,1.8581692,-0.027379477,-0.053815983,-0.033075705,0.04184195,0.020380521,-0.017025758,0.036398098,-0.017832551,0.02553369,-0.03966235,0.0071342224,0.004826488,0.025912806
N2535,-0.026173284,0.021198733,0.01596808,-0.009793126,-0.0071409764,-0.0028158007,0.021208622,0.014724702,0.028687777,-0.3434136,0.023507323,-0.0028111879,0.0029183067,-0.026463516,0.009813553,0.0033848714,0.46582818,-0.01731202,-0.03533934,-0.011387976,0.0063120537,0.0010297485,-0.029964566,0.0227684,0.0056421664,0.010236411,-0.012645311,-0.014703085,0.0027784575,0.012244716
N4134,-0.034198023,0.0003246516,0.014562432,-0.003751724,-0.0075742407,-0.021429246,0.021247152,0.01386353,0.023486177,-0.17797074,0.039383505,-0.0014774706,0.013164966,-0.016016334,0.0058926134,0.010832009,-0.3259291,0.0033639052,-0.018436028,-0.025332434,-0.017775733,-0.018305033,-0.012268321,0.026425807,0.011458923,0.021924634,-0.00244777,-0.005898593,-0.0029289369,0.026319012
N3396,-0.021216052,0.009911422,0.013525354,-0.029757962,-0.009947375,-0.011658002,0.03786292,0.020466078,0.015306832,0.55462766,0.006215589,0.010654379,-0.0064999275,-0.020048773,0.01510011,0.0024384782,-1.0224754,0.012354847,-0.0075099953,0.00568392,0.025949933,0.012975266,-0.0039464794,-0.020479439,-0.011442993,0.021120356,-0.019769955,-0.004520942,-0.014647614,0.013800763
N1193,0.0350769,0.0028016758,-0.000522485,0.007652941,0.022376776,0.04970771,-0.023309033,-0.022449113,0.0030501839,-1.9777008,-0.020781314,0.0097978525,-0.021587454,-0.00919516,0.013422592,0.0012295749,-1.5874276,-0.020962972,-0.019538824,0.026401209,0.009141695,-0.0045939465,-0.016569808,0.030788325,0.018646719,-0.029835502,-0.023755293,-0.009704331,-0.0038693063,0.010722707
N3499,0.008707775,0.0031660995,0.008969959,0.0053744754,0.0063489154,0.014030398,0.0009294525,-0.0018121004,0.01983839,-1.3816924,0.015729886,0.0071316175,0.0016483134,-0.018023076,0.008625479,0.0016507432,-0.81736606,-0.0070267296,-0.012685118,-0.0008743828,-0.0007681772,-0.0059348093,-0.019647721,0.027186422,0.0076875174,-0.0020108907,-0.021251913,0.0010523687,-0.005648561,0.023950802
N2629,-0.030518714,0.014056494,0.015620183,6.730482e-05,-0.0059201075,-0.018840764,0.02218387,0.020922646,0.04710345,-0.016496547,0.04692364,-0.002873635,0.02835438,-0.0369686,0.0050056134,0.0027277283,-0.26132777,-0.006689291,-0.036204975,-0.02698777,-0.01095956,-0.009848351,-0.017750341,0.028828315,-0.0055068377,0.024356669,-0.008828892,-0.0004344529,0.005497046,0.019153122
N280,-0.022348614,0.05744204,0.024877172,0.018952176,-0.0045418283,-0.022931458,0.015380979,0.052164562,0.10658602,1.3882254,0.094275445,0.0014610086,0.07844668,-0.07157364,0.0049856105,-0.011980917,1.385638,-0.026754374,-0.06393396,-0.037123393,0.0025306642,0.022074876,-0.018690117,0.03391186,-0.0304933,0.045520343,-0.033885833,0.01664416,0.019655367,0.0054877587
N2665,-0.017622147,0.0048842602,0.019960772,-0.027471762,-0.013240249,-0.026057197,0.041775968,0.016401868,0.022199174,-1.2710996,0.040838413,0.008914843,0.0021093236,-0.005441704,0.0033103446,-0.002634475,0.9349869,-0.0028880942,-0.012605565,-0.016803468,-0.0014871527,-0.005228792,-0.049850874,0.015706053,0.005349055,0.015487375,-0.016768824,0.0054542404,-0.005389847,0.022356171
N4504,-0.027590048,0.0066379965,-0.004625303,-0.01565788,-0.011119031,-0.03446777,0.032045342,0.04257846,0.045831546,0.9363585,0.047499653,0.010596253,0.015899953,-0.0149541255,-0.01940033,0.0042103166,-0.109863445,-0.001841756,-0.03608352,-0.024235465,-0.029055446,-0.032345388,-0.029380426,0.024098072,-0.00010527484,0.033096112,0.013326616,-0.023838684,0.0039273407,0.000517142
N916,-0.015733369,0.044899326,0.026920985,0.011377179,-0.0063737324,-0.02646027,0.014499174,0.044481345,0.09401699,1.6661154,0.08458179,0.0024210066,0.07560473,-0.050615124,0.003286351,-0.00829648,1.5580181,-0.018199107,-0.050333966,-0.03474096,-0.0055691544,0.026793135,-0.012172031,0.024244374,-0.02485118,0.040469088,-0.029216982,0.022520564,0.01987926,0.0010190941
N1641,-0.025490876,0.021773122,0.036196582,0.0051984442,-0.007319971,-0.0010576621,0.0126613965,0.0035366956,0.03006898,-0.7866768,0.03953447,-0.002582768,0.018630255,-0.027079303,0.026018405,-0.009737708,1.8759811,-0.018355252,-0.033516206,-0.022945862,0.012948766,0.021099126,-0.00056060683,0.029636113,0.0064369934,0.009227601,-0.02530685,0.010172579,0.0037338827,0.012315764
N3926,-0.056710117,0.029389158,0.045983396,0.004749411,-0.011232593,-0.032650687,0.042572193,0.028232098,0.053153567,0.08758611,0.0638503,-0.015061704,0.05132462,-0.083544984,0.021547941,-0.020101476,-0.7955185,0.040246055,-0.016879909,-0.039403353,0.04469296,0.010965718,0.033836596,-0.014202096,-0.05736536,0.058184635,-0.04187499,0.053183068,0.01536561,0.03389992
N4051,-0.014166516,0.002161007,0.011657191,-0.016369604,-0.007493845,-0.010410629,0.030199371,0.009578407,0.009976147,-0.6769004,0.019980408,0.004308123,-0.004688627,-0.007529634,0.0055905557,0.0011101514,0.37420672,0.00042517344,-0.007870005,-0.0070194765,-0.00016588345,-0.002353862,-0.029211685,0.009197973,0.0089539075,0.007782298,-0.012135466,-0.0011608922,-0.006348945,0.021277545
N3641,-0.025331935,0.015572572,-0.0011987058,-0.010162433,-0.010762126,-0.03454341,0.03130043,0.046602093,0.06189356,0.8930853,0.05983484,0.010330718,0.029910918,-0.028573494,-0.017519912,0.0012281258,0.023988955,-0.011997398,-0.047616728,-0.029014284,-0.02777483,-0.026214965,-0.03740067,0.032930072,-0.007870272,0.035617046,0.00721423,-0.020447155,0.006014377,0.0012912615
N3153,-0.023699692,0.005656948,0.012518415,-0.022334894,-0.0071167266,-0.02082994,0.030026712,0.014368061,0.024886357,-1.0415535,0.030462787,0.0096826665,0.008881328,-0.008022144,0.0041650585,0.007497941,0.4096365,-0.0091056,-0.023235835,-0.018515237,-0.016060844,-0.011344315,-0.039864168,0.02903188,0.010873683,0.013182043,-0.0064171413,-0.0040721176,0.0004231464,0.018258743
N1968,-0.05363009,0.021807956,0.039915554,0.0009920262,-0.0122302575,-0.03193775,0.042197425,0.022927731,0.03866358,0.111380346,0.05122112,-0.013144051,0.040643662,-0.07000098,0.019893242,-0.015426546,-0.798856,0.044136718,-0.008933133,-0.032140564,0.03861351,0.0063102413,0.036440387,-0.019196045,-0.049166445,0.052858535,-0.03767965,0.047693726,0.012095204,0.031426728
N3984,-0.023593692,0.011888193,0.021967418,-0.016141776,-0.009450092,-0.012494642,0.028585255,0.009820297,0.019911638,-0.7140946,0.025160655,-0.0036576279,0.0028119357,-0.012640478,0.008441459,-0.00013088062,1.0490994,-0.005663358,-0.02097836,-0.014467159,0.002316054,-0.0023764353,-0.028439041,0.017728118,0.008467577,0.01086491,-0.010813315,-0.0029087719,0.0055335015,0.013879693
N2014,-0.028497988,0.004962683,0.020694163,-0.0140994005,-0.007670733,-0.02753749,0.028150931,0.018616594,0.031120507,-0.76917166,0.043966446,0.0070974417,0.020682268,-0.015399981,0.007812018,0.008331489,0.099745706,-0.0030539301,-0.017685447,-0.02640476,-0.017361484,-0.009102572,-0.03225343,0.030516798,0.009954764,0.020017624,-0.009883425,0.0024576283,-0.0035808105,0.031209916
N2073,-0.06402397,0.024528442,0.0881536,-0.018551417,-0.0076826746,-0.053411447,0.07328519,0.020995457,0.035657384,0.16399604,0.07397112,-0.025110232,0.0565526,-0.10059982,0.04664558,-0.06059104,-1.8718793,0.08869676,0.00991548,-0.033705685,0.108922124,0.04102719,0.08774691,-0.05980241,-0.10411149,0.09268328,-0.070038885,0.110785455,0.028474981,0.05389959
N1039,-0.063789144,0.024554882,0.08990103,-0.016858796,-0.0074569555,-0.0544808,0.07337598,0.021713626,0.03879462,0.13982406,0.079147115,-0.02661754,0.05950653,-0.10316999,0.046322696,-0.06294845,-1.8755574,0.08953599,0.009792546,-0.035683338,0.10960506,0.04111114,0.087648876,-0.058964204,-0.106104046,0.09520548,-0.07142395,0.11377166,0.029139765,0.05624506
N3962,-0.023282567,0.007987805,0.019584866,-0.009800592,-0.007703894,-0.01481083,0.029618159,0.015869074,0.02169508,-0.56037307,0.03107696,-0.0021210853,0.0068081496,-0.020751461,0.00800723,-0.0026117284,0.39986777,0.004926629,-0.013503754,-0.0132917855,0.007587213,7.021893e-05,-0.019907475,0.009868826,0.00045178458,0.01997307,-0.013903507,0.005885129,0.00053774007,0.026534136
N521,-0.015862796,0.0068147727,0.012328247,-0.021708257,-0.0015414925,-0.010293027,0.018733718,0.012206972,0.02731338,-1.2408098,0.017070632,0.014392912,0.010981974,-0.010064171,0.009904893,0.011088886,-0.009320881,-0.009910734,-0.029362136,-0.016365262,-0.012219628,-0.0039396696,-0.032195862,0.030306682,0.011979524,0.0069084857,-0.00827828,-0.0064472267,0.003076015,0.01620406
N4375,-0.023603415,0.010154689,0.018903809,-0.017220365,-0.009366429,-0.013447551,0.030355476,0.010857683,0.020832704,-0.7864214,0.027969815,-0.0021667331,0.0027201949,-0.012378285,0.005796178,0.0029156543,0.7984972,-0.0054303915,-0.021043776,-0.014706268,-0.0014811251,-0.004759139,-0.033679634,0.0182843,0.009893954,0.0115895495,-0.009306106,-0.002959153,0.0023972988,0.015586103
N833,-0.022939593,0.021413743,0.028849337,0.008823254,-0.0063651847,0.010962659,0.013507899,0.00039495528,0.015157685,-0.845937,0.02429787,-0.009703327,0.00312486,-0.02518652,0.017785564,-0.008968623,1.8025525,-0.009194845,-0.026817491,-0.015744276,0.021709885,0.016492696,-0.00093997456,0.016226802,0.005457064,0.0030039775,-0.021156333,0.00643301,0.0067452565,0.012294911
N1182,-0.022982532,0.0025572511,0.015028071,-0.017120978,-0.007545111,-0.020768898,0.031974223,0.011290666,0.017073715,-0.8273904,0.034014754,0.00090611726,0.0043432824,-0.008541005,0.003773617,0.003904285,0.5583339,0.00013302267,-0.010489891,-0.016481915,-0.0095021315,-0.009251846,-0.032782257,0.019704008,0.011879135,0.01622341,-0.008958214,0.0020208468,-0.0012911353,0.025024017
N4091,-0.016063109,0.0032900353,0.015906801,-0.024220131,-0.009742857,-0.018307015,0.036187585,0.009304151,0.014494788,-1.1154548,0.029712114,0.0036369096,-0.002254082,-0.0048221825,0.0023805625,-0.00017891452,0.8323425,-0.0017435639,-0.0116763115,-0.012132738,-0.003514059,-0.0047873105,-0.04080301,0.013480362,0.009224202,0.010480513,-0.013181654,0.0028399087,-0.0016732998,0.019203218
N35,-0.030507382,0.028874885,0.033126555,0.026491866,-0.0054310197,0.010979203,0.006560058,0.00471873,0.03259261,-0.59026426,0.038921665,-0.01242051,0.021293186,-0.043279584,0.02165902,-0.013724666,1.9166763,-0.01593588,-0.03838217,-0.026884288,0.021180868,0.013301399,0.0070895334,0.027422465,-0.007457873,0.008547731,-0.020667467,0.0099042365,0.009163864,0.013333994
N2218,-0.030020613,0.003223862,0.017320175,-0.0086415745,-0.00588758,-0.02581173,0.027235873,0.014620934,0.024701638,-0.6691996,0.042836018,0.0011745356,0.017367397,-0.014900425,0.005995639,0.008029802,0.26274574,0.0010950738,-0.011899907,-0.025622498,-0.018441908,-0.01300074,-0.026605554,0.02868794,0.010497019,0.020823209,-0.0073370812,0.0038413883,-0.0015545506,0.0319103
N57,-0.029758861,0.0146482885,0.0146371145,-0.0022108732,-0.0038379105,-0.007748684,0.018862529,0.008256674,0.024769591,-0.26177585,0.02655796,-0.009141398,0.009888857,-0.02635013,0.00819031,0.0046372376,0.46666753,-0.006810712,-0.027497936,-0.016575716,-0.0053085964,-0.0067705647,-0.0127426265,0.02595327,0.00905246,0.014434395,-0.0063797785,-0.00542056,0.007468757,0.015209029
N790,-0.008112008,0.0019714586,0.0339421,0.019275494,0.0072901044,0.01919248,-0.0032147719,-0.033471923,-0.016533477,0.49248362,0.0035042036,-0.028004343,0.0046490515,0.007592459,0.020075062,-0.001264926,2.3992484,0.010390006,0.007919731,-0.0073544444,0.0023447797,0.030409733,0.043539487,0.009960195,0.021140037,-0.009232277,-0.010652627,0.018816758,0.017040411,-0.0044022407
N2394,-0.012179184,0.006671976,0.03136687,0.015681531,0.003486914,0.0059122313,0.0037318217,-0.017849596,0.005848499,0.9912712,0.023172785,-0.023095986,0.017397173,-0.0030425019,0.013995968,-0.0035623126,2.1388798,0.009860736,0.0003553196,-0.017642105,-0.0013860986,0.023576772,0.03802376,0.014612485,0.014099369,0.006077855,-0.012133357,0.019731535,0.016460007,-0.0027891714
N3179,-0.023340805,0.00062198937,0.015401529,-0.008553744,-0.0063597644,-0.020775998,0.022157224,0.013641089,0.023321157,-0.73527175,0.041340265,0.007154824,0.013467402,-0.013302717,0.00889422,0.009551304,-0.117489874,0.0015414562,-0.011777595,-0.02215403,-0.013601884,-0.008797484,-0.023660619,0.02368918,0.012727001,0.018118538,-0.013273149,0.0034508964,-0.0095145535,0.034359783
N2989,-0.021303998,0.0064477962,0.011192953,-0.023070242,-0.0035811532,-0.011272337,0.024004783,0.0066078883,0.01757421,-0.96026766,0.0172394,0.0050086975,0.0022265976,-0.0064633875,0.007270805,0.012027487,0.3796546,-0.0068740905,-0.02243588,-0.012556432,-0.012110859,-0.006785448,-0.029457275,0.024654454,0.018072903,0.008789928,-0.006530107,-0.0065051466,0.0023334455,0.014652865
N333,-0.018262707,0.0014206343,0.012307629,-0.016244866,-0.005123907,-0.004561959,0.027675163,-0.0015499536,0.0026153475,-0.826664,0.013680872,-0.0052875653,-0.0062075225,-0.007105491,0.003453515,0.00222487,0.5651517,0.005994675,-0.009473832,-0.007009205,0.0023726597,-0.0010881461,-0.015973192,0.0011950716,0.007499112,0.006882269,-0.010716229,0.0058546616,0.0032686926,0.016948815
N3531,-0.021061838,0.0017585647,0.009741409,-0.018207144,-0.0050564883,-0.00550884,0.02470906,-0.001001142,0.0067385957,-0.7668265,0.01287267,-0.0037011765,-0.005103319,-0.0048804944,0.003496165,0.007203034,0.49956554,-0.0021526464,-0.017921306,-0.009281783,-0.009514105,-0.006396421,-0.02138856,0.014029952,0.01602507,0.00441128,-0.00585357,-0.0028532916,0.004700266,0.012746586
N2216,0.012358712,-0.005927778,0.035105795,0.037334517,0.012807654,0.014195619,-0.023480363,-0.050156914,-0.025098648,2.349439,0.010392161,-0.034269392,0.0021632593,0.028832048,0.016089013,0.0085840095,2.5898194,0.0238518,0.048658144,-0.009670265,-0.0051586293,0.035877354,0.06571837,0.011298323,0.032421213,-0.01038081,-0.008425568,0.025821228,0.005221909,-0.008363029
N3681,-0.0399177,0.032277416,0.022359379,0.020703651,-0.0040265676,-0.018284773,0.01786951,0.030655853,0.06750179,0.052598782,0.06774975,-0.005861096,0.049014535,-0.063782476,0.008911027,-0.0011646654,0.07561843,-0.011784805,-0.04554113,-0.039989285,-0.0052415263,-0.0066437,-0.015564286,0.04379088,-0.016883284,0.035032067,-0.014424005,0.007402748,0.010723586,0.027812567
N2279,-0.024454584,0.01554401,0.030306108,0.0021344358,-0.0049352124,0.0032328796,0.015366271,-0.0052676983,0.01643695,-0.6324961,0.027247597,-0.009538351,0.013274995,-0.018670632,0.0205167,-0.009434618,2.016454,-0.0078251995,-0.026020642,-0.019306326,0.009025484,0.017261883,0.0111032035,0.019112889,0.0073735854,0.007286194,-0.021365456,0.013548513,0.012062371,0.0065598926
N1670,-0.027861468,0.0056370734,0.0049661966,-0.017575476,-0.00758,-0.024382459,0.030557271,0.021563686,0.031023564,0.5244373,0.034248278,-0.0003071837,0.011222159,-0.015235469,-0.0056930846,0.007377199,-0.06899589,0.0010024272,-0.027049195,-0.018065425,-0.021017343,-0.018486366,-0.01953986,0.021282498,0.007383882,0.026065195,0.0035426803,-0.013322662,0.0029959623,0.0073648137
N4606,-0.018911928,0.0026543844,-0.0114125945,-0.03170222,-0.014436207,-0.03405515,0.037409417,0.04419235,0.03900607,1.1185687,0.0316836,0.01650276,0.002930996,-0.0027093217,-0.025349868,0.007606387,-0.08212671,-1.2422446e-05,-0.033460505,-0.012885607,-0.03269559,-0.029148791,-0.04018362,0.012894373,0.00819319,0.03027651,0.014599642,-0.03223995,0.008439525,-0.0109221805
N4904,-0.019662276,0.0015690816,0.011171017,-0.022638492,-0.0063291164,-0.014972964,0.028729275,0.007525198,0.013291359,-0.9252504,0.021290615,0.0040044393,-0.0008400623,-0.0038230047,0.0042432104,0.006964406,0.4177323,-0.003762784,-0.016401006,-0.011422709,-0.01061004,-0.007887406,-0.032970473,0.018914964,0.015749594,0.008351971,-0.0073287105,-0.0032289028,-0.0006177742,0.01861262
N3612,-0.0111817615,0.028221227,0.022629436,-0.0032671294,-0.004426364,-0.02208673,0.015533211,0.028597638,0.06252805,1.7424364,0.05997066,-0.00091357157,0.048295926,-0.02143153,0.0005202824,-0.00089100935,1.6067271,-0.0062439633,-0.029830698,-0.023339884,-0.011098871,0.02028499,-0.0036322456,0.017169086,-0.0032252613,0.035999544,-0.016986016,0.013572718,0.018906653,-0.0052477475
N3045,-0.013928184,0.04434169,0.03076882,0.004311163,-0.0064644413,-0.026820531,0.014574118,0.044585682,0.09176894,1.687472,0.07929371,0.0019218009,0.070089266,-0.04248619,0.005776433,-0.0083377585,1.6560549,-0.018966425,-0.05085869,-0.031268876,-0.002921557,0.02920817,-0.01647899,0.024229005,-0.019842993,0.038159695,-0.030490857,0.017681869,0.020508543,0.0023643936
N1531,-0.029172726,0.034537714,0.03778338,0.013056836,-0.011568126,-0.004229879,0.016535435,0.016082563,0.045425214,-0.518611,0.05316436,-0.009290098,0.020213284,-0.043235525,0.022641052,-0.012983855,1.6093576,-0.018872561,-0.040170014,-0.025098162,0.025719948,0.0152288005,-0.0141906915,0.028645843,-0.002772648,0.0166113,-0.028445259,0.006430174,0.0031554513,0.020026613
N3794,-0.009659854,0.029162943,0.024091337,-0.015594985,-0.00998829,-0.04087569,0.026363425,0.052291274,0.09059412,1.8464171,0.07947573,0.012010127,0.06617555,-0.027235113,-0.004742846,-0.007801801,1.4851223,-0.014999352,-0.048599772,-0.029530052,-0.020128299,0.024794443,-0.026567116,0.016939761,-0.01405051,0.043705378,-0.018254783,0.012532127,0.019746354,-0.0064126505
N2694,-0.012027508,0.029451016,0.024023391,-0.006429132,-0.00624195,-0.0264539,0.018535718,0.035273574,0.070765026,1.7018615,0.06459448,0.0017638374,0.053176973,-0.024168815,2.5546178e-06,-0.0031435415,1.5586891,-0.008867921,-0.035955314,-0.0252989,-0.011671195,0.020721687,-0.010506478,0.017343968,-0.0071386583,0.037733167,-0.01864468,0.012952273,0.019413441,-0.003230269
N2802,-0.011065773,0.019969136,0.024829678,-0.013895217,-0.006601001,-0.030545099,0.021620456,0.03080153,0.06139633,1.7485498,0.060196053,0.002698252,0.047878016,-0.0130014485,-0.0007070345,-0.000697732,1.5227935,-0.0026683514,-0.026629735,-0.024178132,-0.018433088,0.020621428,-0.007203725,0.015775438,0.0009601917,0.038527433,-0.013531909,0.014000277,0.01848237,-0.0045349766
N2406,-0.01010958,0.0243082,0.01657231,-0.021226775,-0.009064921,-0.03281855,0.027460877,0.044788897,0.07073079,1.7662112,0.061975885,0.0087520145,0.04449802,-0.016618282,-0.008137248,-0.0036312025,1.442056,-0.008291859,-0.038684066,-0.021217408,-0.017635673,0.01320689,-0.022315897,0.012841342,-0.0019101128,0.04261277,-0.011286424,0.0010103036,0.019521527,-0.010537841
N1241,-0.012426103,0.026827857,0.020777483,-0.0077275094,-0.0054196613,-0.026404763,0.019447085,0.0345535,0.0693434,1.6235197,0.06337303,0.0020067655,0.050919954,-0.024074826,-0.0020032981,-0.0012446232,1.4172448,-0.0082170665,-0.035170738,-0.025011845,-0.0143179875,0.018318495,-0.011445622,0.016774962,-0.0057880003,0.038242728,-0.01566599,0.011488389,0.018142857,-0.0039768834
N4882,-0.0117140785,0.043779995,0.022296257,0.004225704,-0.0063038124,-0.027493639,0.014717458,0.044540577,0.09262389,1.877226,0.08302872,0.0040875077,0.07014226,-0.04488424,0.0005680858,-0.005638985,1.5788326,-0.019589432,-0.050090324,-0.030609274,-0.0070666317,0.028217645,-0.011127426,0.022214305,-0.017723493,0.043228023,-0.02759343,0.016912797,0.019031819,-0.0054544574
N4125,-0.011195169,0.0031106793,0.0054683266,-0.018600158,-0.001659886,-0.00043056812,0.021570977,0.003067635,0.0048956424,-0.8380409,0.00164661,0.0034845471,-0.010434492,-0.003387997,0.006193074,0.0057691177,0.37249905,-0.005472774,-0.015751785,-0.0011911796,-0.0020776168,-0.0040723765,-0.025701743,0.015141621,0.012996758,-0.000851875,-0.0053937016,-0.010818617,-0.00041195005,0.012103928
N2450,-0.036668316,0.008784352,0.01159112,0.0025465265,-0.003389447,-0.016174056,0.018541064,0.015152793,0.030195622,-0.0012043156,0.038810644,-0.0053891093,0.01870951,-0.028053492,0.0047051148,0.009516572,-0.18376806,-0.0040553496,-0.028542774,-0.028659634,-0.017314117,-0.018652683,-0.013919537,0.03323852,0.0031905863,0.021208959,0.0010284195,-0.007360331,0.0016797539,0.023698604
N3859,-0.03527428,0.007276636,0.016321441,0.006391124,-0.005905845,-0.021060443,0.017602136,0.019681312,0.034742497,-0.2881153,0.04811498,0.00062983297,0.023250654,-0.027685788,0.008435113,0.009391102,-0.16448383,-0.005399466,-0.028092828,-0.032440778,-0.02011484,-0.01892616,-0.01856659,0.041459892,0.008032952,0.02195202,-0.0014774296,-0.0072327554,-0.0023224968,0.027824588
N4595,-0.013562471,0.017523514,0.039683115,0.035541285,0.00062720943,0.010661946,-0.0052403426,-0.015121241,0.015944127,0.8788287,0.030102901,-0.023778656,0.032593664,-0.019181766,0.021676393,-0.010041917,2.5007284,0.002153412,-0.0092175985,-0.024006324,0.010400925,0.030267222,0.040087197,0.016639888,-0.003597077,-0.0014732446,-0.021063346,0.027735746,0.015558105,0.0014340195
N4905,-0.017259791,0.024154626,0.0455071,0.05688524,0.0002879463,0.04621187,-0.020375941,-0.023914112,0.0014028754,-1.1885322,0.008543547,-0.017297203,0.020656347,-0.030502979,0.03662722,-0.023141935,3.582052,-0.015640158,-0.03092192,-0.024742102,0.03719764,0.034277797,0.04538912,0.01962049,-0.018179674,-0.02362626,-0.02513218,0.024978217,0.01606736,0.003035062
N1294,-0.031281937,0.0047676857,0.014106914,0.003109349,-0.0045726215,-0.02036417,0.014060659,0.019555785,0.032427497,-0.40197235,0.04290906,0.0053834133,0.019080073,-0.017771777,0.008014062,0.011583012,-0.13184226,-0.005498622,-0.025866555,-0.03024958,-0.022069324,-0.02111153,-0.020420257,0.043038636,0.011382489,0.019776456,0.0002211295,-0.010783702,-0.0030016769,0.027751276
N2387,0.0005398188,0.003066244,0.014761286,-0.010588708,0.0003580451,0.0014103651,0.012269173,0.0057747476,0.029559454,-1.4707421,0.026632626,0.01373861,0.0070804497,-0.013943228,0.011103608,0.0056320084,-0.70517457,-0.0070306775,-0.018728506,-0.008217849,-0.0008468833,-0.0016542915,-0.026500113,0.021876747,0.009114642,0.0052560726,-0.022984374,0.0012771322,-0.008528883,0.02175781
N4586,0.0007279664,0.0022062245,0.013970807,-0.004283399,0.0023502903,0.0030487096,0.008020652,0.006186152,0.030247858,-1.3757138,0.028640933,0.01375341,0.007382107,-0.014351984,0.012290385,0.0044067567,-0.71581405,-0.0062332195,-0.01696365,-0.008220746,-0.0022637509,-0.0043628872,-0.02184933,0.023224676,0.009903437,0.0062366445,-0.02168915,-0.000842592,-0.00895503,0.021953836
N1503,0.014702255,0.0016201944,0.013058744,-0.007034787,0.0051920027,0.013260671,0.009147504,-0.0025038999,0.023922963,-1.6732851,0.016515266,0.012033459,0.0012730788,-0.018827926,0.013299208,-0.0014443882,-0.877377,-0.0024322546,-0.0130382385,0.004100667,0.008311991,0.0058213044,-0.017781846,0.013639493,0.005399866,0.0006310496,-0.029271021,0.00752353,-0.008147033,0.0167413
N4100,0.016783224,0.0043409024,0.006766554,0.0010755006,0.0048710974,0.017664261,0.0014917133,-0.0010478552,0.022430005,-1.783596,0.02077172,0.015941042,-0.0034586927,-0.018080158,0.007810772,0.0057255905,-0.8464058,-0.0134814195,-0.013662926,0.0024417194,0.00096759945,-0.0005215956,-0.03248657,0.025552526,0.013473313,-0.004429565,-0.027490467,-0.002004601,-0.014394786,0.021459451
N48,-0.04014299,0.013499886,0.039499003,-0.0047121723,-0.0036935396,-0.015236206,0.031541273,0.015168369,0.03386963,-0.18640831,0.038944323,-0.008865523,0.0297019,-0.05960908,0.020588804,-0.020762112,-1.1120899,0.027035771,-0.014796954,-0.024996849,0.037691902,0.012812503,0.025247362,-0.013708504,-0.042091068,0.036331624,-0.0282696,0.036817823,0.008991822,0.026296977
N4454,-0.012433798,0.013888927,0.033851363,0.03529091,0.0018767873,0.044687666,-0.015856966,-0.030755185,-0.010671383,-1.500121,-0.006907887,-0.009800043,0.0070819985,-0.011811119,0.032728504,-0.012400057,3.1655939,-0.013950516,-0.027169654,-0.016774276,0.024656784,0.028927984,0.037071105,0.016674563,-0.004436774,-0.027635977,-0.020863175,0.018595668,0.013977319,-0.0026843692
N2090,-0.028802264,0.0020583519,0.022443842,-0.003260172,-0.0022751093,-0.013633421,0.015690364,0.007834479,0.027195776,-0.6419866,0.027593587,-0.002720205,0.02422762,-0.01708174,0.012285961,0.006605449,-0.18430924,0.0063490104,-0.018141203,-0.02729753,-0.011746179,-0.006526928,-0.0033691032,0.022433827,0.0033359993,0.014865395,-0.010714392,0.012410953,0.009340071,0.029448707
N459,-0.029774543,0.0034713899,0.017925516,-0.010896427,-0.0053611705,-0.025336875,0.025105126,0.015733626,0.026377814,-0.6702728,0.039770182,0.005408721,0.018556267,-0.014031806,0.007887403,0.010571604,0.07513389,0.0003131535,-0.014765274,-0.025303455,-0.021140145,-0.011918225,-0.026085969,0.030848913,0.013492753,0.018672988,-0.0075332327,0.0015405135,-0.0016105343,0.029941194
N4254,-0.017605683,0.014078973,0.035147645,0.02690696,-0.0006751269,0.02848589,-0.004491496,-0.023098001,-0.0018544048,-1.0641243,0.007969422,-0.012262778,0.012098893,-0.016223166,0.029761085,-0.013624851,2.8592615,-0.010004541,-0.024544261,-0.018454729,0.01918549,0.02652209,0.03243698,0.01639313,-0.0021707248,-0.013631846,-0.022120558,0.020317296,0.014823468,0.00090722647
N499,-0.03786046,0.014975684,0.015518179,0.004438298,-0.0037875697,-0.016569255,0.02301108,0.017846446,0.03642796,-0.13595776,0.04299782,-0.009796561,0.024075843,-0.03487709,0.0031565228,0.0057986258,0.21316384,-0.0052866912,-0.029848218,-0.030346924,-0.014783645,-0.01771237,-0.02018933,0.03496232,-0.0009608343,0.023230504,-0.0007519517,-0.0031629533,0.008263589,0.023062695
N4625,-0.02995376,0.0010774913,0.01453124,-0.007614758,-0.008320595,-0.023358556,0.023806147,0.014513597,0.025669793,-0.6062619,0.041301567,0.0056597125,0.014388234,-0.013193203,0.0062014586,0.01035959,0.04598604,-0.0028289943,-0.017871734,-0.025737846,-0.022111159,-0.01571287,-0.027862962,0.031441886,0.013255368,0.016477255,-0.0055112382,-0.0027970565,-0.006063396,0.027616033
N3188,-0.0253254,0.0147211645,0.020556545,-0.0097377235,-0.009674725,-0.012147626,0.02880818,0.013816651,0.02655278,-0.66758,0.033253822,-0.00522124,0.006108816,-0.019503124,0.005210726,-0.0008953959,0.88840944,-0.0067934464,-0.024564119,-0.017517254,0.0025760531,-0.0041856784,-0.032074403,0.019934442,0.004232984,0.013385637,-0.0103617525,-0.0016588784,0.0050488412,0.017347462
N589,-0.018801244,0.026156556,0.042443454,0.05287602,1.1702068e-05,0.041914992,-0.016370669,-0.017703192,0.004477285,-1.0637215,0.007991135,-0.016637875,0.01928524,-0.03186689,0.03329171,-0.022661533,3.4627154,-0.013601845,-0.031345665,-0.023623327,0.03690123,0.02993445,0.03987922,0.020008221,-0.018229753,-0.019281682,-0.02227541,0.020548057,0.019022822,0.0020610325
N403,-0.019157382,0.026917003,0.046602324,0.050661564,-0.002075443,0.03895215,-0.014544685,-0.017119981,0.0076698437,-1.1423123,0.016038135,-0.015978405,0.019749355,-0.032289527,0.03567592,-0.023697168,3.4844923,-0.016465975,-0.032196075,-0.02515622,0.039069574,0.033094943,0.03711128,0.021265771,-0.015619013,-0.017451463,-0.026514605,0.021771789,0.013929639,0.005093696
N2766,-0.005920725,0.011568638,0.028588895,0.040431704,0.006379097,0.053781204,-0.01727156,-0.034122035,-0.022282787,-1.4082675,-0.01289594,-0.016133888,-0.0073483293,-0.013854155,0.02734417,-0.012508333,2.7900326,-0.0075667514,-0.014038485,-0.0063621174,0.02907658,0.02938282,0.040094454,0.00896089,0.00326927,-0.027664265,-0.019332785,0.015119695,0.012344989,0.0003302754
N2571,-0.017629843,0.0047860914,0.019479258,-0.015284678,-0.006871204,-0.0070762616,0.028460443,0.004297707,0.0073630325,-1.0694833,0.017390005,-0.0006695837,-0.0020090234,-0.0050762887,0.007324491,-0.0012890454,1.2155834,-0.00021575391,-0.0124017,-0.011515271,0.0011429414,-0.0011221841,-0.02539296,0.012748478,0.010056821,0.004970235,-0.010063781,0.0019076986,0.0041010603,0.013104944
N4683,-0.024401378,0.010404348,0.017401079,-0.017568732,-0.009154589,-0.011850925,0.028437432,0.008534916,0.019495962,-0.6740691,0.02405459,-0.0023321733,0.0011495929,-0.011538178,0.0072022094,0.0028560217,0.88812464,-0.0060328436,-0.023203963,-0.013429197,-0.0021881182,-0.0052472414,-0.028561909,0.017991733,0.010920436,0.011712495,-0.009051097,-0.004907853,0.00541676,0.011350678
N1904,-0.018734239,0.020509232,0.037191086,0.036889765,-0.0016130265,0.03502368,-0.0077920435,-0.017363258,0.00057197455,-1.0921444,0.0073266886,-0.015144186,0.010020942,-0.023989942,0.028598173,-0.01718849,2.9870584,-0.010866683,-0.0269227,-0.019276118,0.030954447,0.025699688,0.030188166,0.015806993,-0.0074800197,-0.015918987,-0.020903997,0.01638493,0.014336098,0.0038143643
N3025,-0.023237284,0.008664789,0.020586532,-0.014313914,-0.008893487,-0.016695494,0.025535185,0.009170309,0.026744315,0.29209426,0.030299813,-0.0067888685,0.014857485,-0.01219542,0.005722145,0.0028836168,0.85260653,-0.00046523754,-0.019957265,-0.016953502,-0.008475652,0.0027936092,-0.011959036,0.016354797,0.008874512,0.017087623,-0.010547965,0.0013311685,0.0066793906,0.008054299
N4718,-0.02149621,0.047556963,0.010732494,0.006369694,-0.0060736826,-0.027783616,0.022473056,0.053929918,0.099844426,1.2646661,0.08312948,0.0043461714,0.068779916,-0.06546283,-0.0058210525,-0.01107428,0.9219159,-0.027155465,-0.07046914,-0.029690579,-0.011998355,0.012910267,-0.029336143,0.023897266,-0.027565133,0.038902957,-0.024163589,0.010934541,0.023182865,0.0009385245
N873,-0.02424305,0.003275585,0.017702905,-0.010738007,-0.0023577781,-0.017422343,0.020928718,0.010061756,0.023875697,-0.9401265,0.033707604,0.0037445314,0.017909262,-0.015252422,0.009731883,0.009862503,-0.083334565,0.0067937607,-0.012322448,-0.024178367,-0.010304416,-0.004540188,-0.0157451,0.020432753,0.009017153,0.017954776,-0.015062478,0.011659221,0.00067861006,0.03427083
N1887,-0.022091372,0.031077188,0.044358805,0.052595448,-0.00035933778,0.035163417,-0.014182103,-0.009334384,0.017233254,-1.0615292,0.021908797,-0.012786427,0.026354287,-0.040944424,0.034326904,-0.024240177,3.3601804,-0.018495122,-0.036934856,-0.027978322,0.0366286,0.030091165,0.03556518,0.027915796,-0.019476462,-0.010266955,-0.024403863,0.02011057,0.017264282,0.0056826686
N3262,-0.029517513,0.0048482814,0.0130873695,-0.014354974,-0.007340365,-0.022495111,0.026136376,0.016329657,0.025502102,-0.42596743,0.03266945,0.0031792056,0.011167451,-0.01490346,0.005574553,0.010335414,0.07297264,-0.005011854,-0.023402039,-0.021357171,-0.01949044,-0.01519505,-0.029498525,0.032354016,0.014166693,0.018616665,-0.001839635,-0.00935693,0.0002124533,0.02020737
N2042,-0.03314849,0.0072043245,0.01915227,-0.015609318,-0.009433578,-0.02152369,0.032621477,0.014804024,0.022197133,-0.13880628,0.031665646,0.0006475337,0.01089747,-0.028192319,0.011139676,0.0028818734,-0.544503,0.013963634,-0.015363021,-0.014789262,0.005666852,-0.0011853967,-0.0016985219,0.0032966256,-0.0035625733,0.02922547,-0.015799347,0.007577302,-0.0011132397,0.01999829
N491,0.024787894,-0.01770409,0.009134231,0.048830047,0.016693048,0.018355764,-0.033803985,-0.06061696,-0.02657785,3.080263,0.00018662214,-0.028287303,-0.0049332483,0.03538126,-8.66442e-05,0.020154204,1.880323,0.028219279,0.07055085,-0.007790874,-0.020913282,0.016723378,0.07022142,0.004119937,0.02899712,-0.017746998,0.007894022,0.013228198,-0.010609813,-0.020367892
N299,-0.037150156,0.028269049,0.01783455,0.010979402,-0.0040053735,-0.025208877,0.022786358,0.03389229,0.0637507,0.17312977,0.06655675,-0.0030291826,0.043926194,-0.05272166,0.004175982,0.0015651695,0.20539545,-0.014174193,-0.043983053,-0.036683206,-0.015178196,-0.0133904945,-0.027998317,0.048468962,-0.010184828,0.03615642,-0.00670066,-0.0025211184,0.009702175,0.021691503
N2781,-0.008775322,0.021323549,0.024469197,-0.010206166,-0.0074527925,-0.033060327,0.019872814,0.034375235,0.0690673,1.9197168,0.066032246,0.0052564032,0.05687281,-0.01653475,-0.002269294,-0.0012897011,1.5495223,-0.0046821577,-0.029415485,-0.027359357,-0.020756781,0.024901098,-0.007834834,0.013842614,-0.005780084,0.03767502,-0.015031776,0.01898874,0.017845156,-0.0062719984
N524,-0.0037481189,0.0042456104,0.011594698,0.0046539903,-9.443611e-07,0.00672116,0.0039317086,0.006451605,0.026837816,-1.014067,0.029394176,0.006733166,0.0031731213,-0.02137224,0.008377824,0.0010962151,-0.7307451,-0.01434431,-0.023758411,-0.008175291,-0.0028403345,-0.005430683,-0.02515392,0.027011102,0.01030968,0.004084601,-0.016712092,-0.0061332886,-0.006559085,0.024745446
N3198,-0.04296097,0.011228589,0.017124932,-0.0129773365,-0.014268215,-0.02662315,0.037376944,0.027431585,0.023183791,0.4799701,0.033984926,0.0013791267,0.008234608,-0.032009184,0.004644361,2.6807189e-05,-0.72516185,0.022225944,-0.015560053,-0.02094832,0.012397394,-0.014437467,0.006056357,0.0010553887,-0.016138658,0.040288154,-0.011056478,-0.0013407096,-0.0008913949,0.015532658
N1778,-0.0540946,0.02270189,0.07862389,-0.013023647,-0.012719695,-0.036929563,0.062288016,0.027328536,0.0404052,0.17271885,0.064819306,-0.011263924,0.049904123,-0.09940625,0.043463342,-0.0525509,-1.9480039,0.07072395,0.007984942,-0.02538933,0.103734255,0.050043613,0.06462294,-0.07030391,-0.09482427,0.07352228,-0.06786283,0.09234314,0.0032213032,0.04491593
N4863,-0.017860861,0.011803288,0.027649973,-0.0015626829,-0.0067784516,-0.024263224,0.014707027,0.028566696,0.050824523,-1.5097795,0.05955531,0.023261238,0.031552967,-0.023619104,0.018472945,0.0054933745,-0.18949485,-0.005337442,-0.025248228,-0.035565186,-0.0027684644,-0.000376747,-0.03307565,0.039050765,0.0023554284,0.019299712,-0.028265785,0.011075519,-0.012716353,0.046503987
N3730,-0.020729695,0.024099002,0.039696444,0.044480998,-0.0008495543,0.03564804,-0.010839899,-0.017465545,0.006981371,-1.0872539,0.01459818,-0.014735377,0.01848384,-0.03060722,0.03193378,-0.020119205,3.1854644,-0.01413201,-0.03209986,-0.02394471,0.03123324,0.027147232,0.035961363,0.020740503,-0.013814416,-0.01360552,-0.023394085,0.020635158,0.016413903,0.0030379335
N2663,-0.021241859,-0.0024938695,0.030798003,-0.0025166385,0.008315028,0.042209294,-0.01419595,-0.0017592516,-0.017206267,0.2551441,-0.039397765,0.003872592,-0.0121680815,-0.006023533,0.02877952,0.008305447,-2.4482675,-0.021342887,-0.022739563,-0.014443082,0.015279952,0.0008792095,-0.0056710644,0.024245817,-0.0032356922,-0.035547763,0.001250376,-0.016147811,0.004716495,0.026903499
N383,-0.0135882115,0.001782456,0.02688165,-0.004164037,0.008376775,0.04629866,-0.011582238,3.8379803e-05,-0.0159969,0.27843097,-0.04429654,0.009306543,-0.018839909,-0.0074722515,0.031665005,0.009341698,-2.519717,-0.025182178,-0.021027539,-0.0036808113,0.0221797,0.008599853,-0.01271063,0.018456526,-0.00073659234,-0.038636945,-0.0042731436,-0.019522304,-0.0025634933,0.02524346
N609,-0.050225217,0.01927652,0.043186583,-0.009852568,-0.010824158,-0.030308573,0.045440514,0.018539362,0.035472617,0.056375466,0.046930064,-0.014917683,0.037670396,-0.063771434,0.019619232,-0.017962318,-0.88673127,0.040874884,-0.011184525,-0.029263556,0.041192498,0.013770321,0.03349824,-0.022254903,-0.04810257,0.05092743,-0.03718728,0.04882201,0.01755111,0.030462809
N3983,-0.032622475,0.012006277,0.007808445,0.00095696095,-0.0049085375,-0.02356173,0.023473568,0.025777727,0.048089765,0.36341083,0.05053441,-0.0026774947,0.03336367,-0.033329055,-0.0044951546,0.00365239,0.018209621,-0.005432987,-0.038249943,-0.030768258,-0.025687812,-0.016007904,-0.016104847,0.03211143,-0.0038851108,0.027849583,-0.000803343,-0.000852054,0.011799111,0.01653777
N1476,-0.015123303,0.00034152484,0.011764945,-0.022844296,-0.0081870565,-0.012033882,0.0322131,0.0019390006,0.008322071,-1.1288848,0.02358614,0.0025951173,-0.0062612286,-0.0032674284,0.0017119027,0.0034496803,0.66188294,-0.0012573139,-0.01169299,-0.0097185755,-0.0058699343,-0.0045193885,-0.034549817,0.009891525,0.012418255,0.0060210153,-0.012629618,0.0031171583,-0.0034579448,0.017536946
N2135,-0.032410398,0.007889533,0.011382597,-0.009325032,-0.006067182,-0.018714048,0.026647475,0.013953362,0.026972344,-0.3318761,0.034728445,-0.003103463,0.012794289,-0.020567402,0.0023072842,0.0085268505,0.18135542,-0.0046029617,-0.025883256,-0.022998651,-0.018125318,-0.018071767,-0.025847815,0.029761974,0.00785251,0.019556709,-0.0005871942,-0.0068141334,0.004260117,0.017637927
N4308,-0.027415507,0.027465373,0.034929436,0.0102978,-0.009933579,-0.0019262694,0.01816979,0.014259249,0.03411235,-0.7774255,0.042159297,-0.0066053458,0.016097717,-0.03362902,0.019319821,-0.012528192,1.8421714,-0.014135603,-0.033156063,-0.023596192,0.021992616,0.010000128,-0.013693034,0.0265673,-0.001997389,0.012879917,-0.020754699,0.0036262267,0.0058721025,0.014949133
N2840,-0.007989928,0.006402274,0.009599609,-0.027160116,0.00029269606,-0.009424074,0.022145951,0.0069141686,0.01903045,-2.1282778,0.01813922,0.021872405,0.007161023,-0.0030894047,0.009132387,0.010716081,0.55821455,-0.0049335104,-0.017980052,-0.016433485,-0.0035947524,-0.00060824305,-0.0361996,0.02030346,0.0065830927,0.0044170525,-0.01934291,0.008047116,-0.0037436523,0.024237443
N4918,-0.0155631555,0.0058919727,0.006357535,-0.025394022,-0.00011965353,-0.00810503,0.022382796,0.0068822484,0.015626637,-1.3552291,0.008103384,0.01055887,0.0030980306,-0.0023324993,0.005330945,0.010288789,0.5428788,-0.007887509,-0.023516709,-0.011860553,-0.012091773,-0.008346745,-0.032497734,0.024491355,0.010967381,0.0047751954,-0.0055383043,-0.004709304,0.007341847,0.015062934
N4095,-0.029103708,0.07224322,0.017264301,0.022866432,-0.005198125,-0.03480234,0.024055995,0.0754223,0.13971932,1.4052014,0.12041283,0.009346787,0.09754812,-0.103384286,-0.0009468822,-0.02109228,0.9832703,-0.037511963,-0.08990084,-0.045131367,0.00046648458,0.019151406,-0.034718234,0.039842006,-0.04578544,0.055788368,-0.040840965,0.017834315,0.021412976,0.00915791
N2539,-0.020780154,0.0036790925,0.01588065,-0.017790359,-0.007579555,-0.01604464,0.032849412,0.009366546,0.012660395,-0.88228035,0.027091369,-0.0011607911,0.00022734795,-0.0077359234,0.0035229954,0.0011921041,0.79405457,0.0020257807,-0.009822234,-0.013184051,-0.0035783928,-0.0063333907,-0.030815408,0.014025981,0.01019752,0.01342955,-0.009418516,0.002641869,0.0019468442,0.02059643
N2755,-0.017247465,0.00404702,0.016224112,-0.019757943,-0.008634995,-0.014075646,0.03424069,0.008583348,0.010603512,-0.97304964,0.02477733,-0.0001487229,-0.0033399821,-0.0059962794,0.003502295,-0.00027595647,0.8863529,0.002248187,-0.009379222,-0.01040328,0.00065509975,-0.0033795768,-0.03269355,0.009944979,0.009703041,0.011407323,-0.011655743,0.0030721782,0.0011438113,0.01882895
N2608,-0.02343249,0.000662446,0.017645951,-0.004207342,-0.0027303863,-0.0130516775,0.016185945,0.009182796,0.024903094,-0.6752744,0.03131943,0.00017454103,0.0154141085,-0.015478229,0.010071253,0.0057309903,-0.43621033,0.0036029436,-0.0167981,-0.021052126,-0.009390259,-0.010112066,-0.009103944,0.022907551,0.006804401,0.015743962,-0.0115034515,0.004383078,0.0018273313,0.029500136
N4372,0.035617836,-0.027564878,0.012744606,0.07897474,0.034446087,0.04781556,-0.061769444,-0.10455257,-0.07555309,2.9579833,-0.03133174,-0.051863797,-0.027974743,0.054750733,0.009292724,0.027151497,2.360604,0.039272837,0.109988205,0.007117651,-0.015821515,0.022456614,0.09889915,-0.0020964714,0.043383487,-0.045342166,0.016577229,0.018448515,-0.011971865,-0.01669261
N915,0.02921055,-0.022668272,0.0140247885,0.055920187,0.024013704,0.02527424,-0.040797565,-0.07363607,-0.041613884,2.9860456,-0.0072310288,-0.038136132,-0.013562301,0.043216337,0.00524398,0.01837393,2.077099,0.03100297,0.08235645,-0.0035460545,-0.018897971,0.020166742,0.07688593,0.006078656,0.038668223,-0.025883624,0.010218028,0.013960562,-0.011727583,-0.015696252
N1450,-0.03369485,0.05731968,0.04364408,0.028082151,-0.009304884,-0.00059977267,0.014962185,0.033342697,0.070294455,-0.42438594,0.07269552,-0.01077917,0.033125974,-0.06885208,0.024083678,-0.020306401,1.7756296,-0.02911816,-0.05449453,-0.030052697,0.043114934,0.021189349,-0.024170727,0.035943963,-0.016049474,0.022200415,-0.041298427,0.0032349478,0.0034054816,0.027608152
N4381,-0.014770916,0.0018297662,0.0098723285,-0.022455055,-0.0068588452,-0.008128071,0.029721085,0.0031868815,0.0064675845,-0.94040865,0.013598427,0.001024805,-0.008428269,-0.0016171057,0.0025774608,0.0037947902,0.63620025,-0.00105489,-0.013976737,-0.005603776,-0.0035093483,-0.0044559254,-0.030130807,0.009642838,0.013569596,0.0047045443,-0.008777513,-0.0021182126,0.0015903395,0.013846659
N867,-0.02032377,0.016636292,0.03739601,0.026337508,-0.0016353633,0.0242635,-0.00015948992,-0.019518666,0.0036022738,-1.0642323,0.01720668,-0.010904204,0.0179113,-0.02113472,0.030537391,-0.018792793,3.0982718,-0.00900385,-0.02695916,-0.022773108,0.020410754,0.029084915,0.03641127,0.016271424,-0.0058812797,-0.0067504337,-0.025958788,0.026580308,0.017864475,-0.00047458336
N3934,-0.02070783,0.016328525,0.03783057,0.024626158,-0.002037759,0.023283198,0.0008162521,-0.019461961,0.0032024048,-1.0829421,0.01745734,-0.0110719185,0.0161484,-0.020158652,0.030822987,-0.018648706,3.0482392,-0.009226002,-0.026507266,-0.022486137,0.020722177,0.028522657,0.034791786,0.017133791,-0.0038948841,-0.006824862,-0.026040625,0.02524101,0.016525393,0.00033979304
