id,dim0,dim1,dim2,dim3,dim4,dim5,dim6,dim7,dim8,dim9,dim10,dim11,dim12,dim13,dim14,dim15,dim16,dim17,dim18,dim19,dim20,dim21,dim22,dim23,dim24,dim25,dim26,dim27,dim28,dim29,dim30,dim31,dim32,dim33,dim34,dim35,dim36,dim37,dim38,dim39,dim40,dim41,dim42,dim43,dim44,dim45,dim46,dim47,dim48,dim49,dim50,dim51,dim52,dim53,dim54,dim55,dim56,dim57,dim58,dim59,dim60,dim61,dim62,dim63
N3756,-0.0038418467,-0.0081809545,0.00047219318,-0.0032082659,0.0061015855,0.022056669,0.0112115545,-0.012997465,0.014206716,0.0050614635,0.005495865,-0.016948184,-0.020616783,0.0041760313,-0.0028909207,0.0067174234,0.0072666337,-0.006315558,0.009061259,-0.007419422,-0.3669164,0.009673383,-0.00365148,0.01431028,0.016275441,0.008406841,-0.0022711633,-0.8195553,-0.013217987,0.013093295,0.022359522,0.0021897221,-0.008538325,0.019471655,-0.005406302,0.015565023,-0.015963264,-0.008105263,0.016933963,0.0072562667,0.0074317562,0.022523034,0.0028182513,-0.017134136,0.018048255,-0.011058196,-0.005913027,0.007024526,-0.006914065,0.00073741376,-0.011983135,0.0012168634,0.0031420812,0.0018988707,-0.00501262,0.17132518,-0.030225983,0.016293261,0.0095870225,0.056212585,-0.002632924,-0.010713328,0.01860302,0.019503606
N3625,0.027265804,-0.0052996646,-0.010224538,0.0027891353,0.0240479,-0.004214255,0.01560148,-0.007288461,0.027662823,0.01755688,-0.017346574,0.03137849,-0.003554156,-0.008761016,0.032490626,0.016786644,0.040186115,0.02329699,-0.019982059,-0.05311984,2.8464918,0.0036780173,-0.03298421,0.0010598822,-0.010436981,-0.014496847,-0.009735734,3.0940814,-0.005480553,0.012278793,-0.030632133,0.028348133,-0.053884793,0.027635368,0.0019674855,-0.034647394,-0.026457844,-0.026103953,-0.0012831691,-0.0040781708,-0.009904028,0.030207448,-0.010100061,-0.042528566,0.062830605,0.02207011,0.0018727808,0.0362321,0.016636757,0.02286228,0.0046540434,0.014395248,-0.013379576,-0.01587317,-0.026788035,-0.3892075,-0.01965041,0.042990647,-0.07240472,3.1848524,-0.0017254768,-0.019652134,0.027513482,0.015331711
N1716,0.013748268,-0.018016215,-0.01607343,-0.00045330898,0.003948615,-0.0031508917,0.0150497705,-0.0014486541,0.015284137,0.015810592,-0.03272104,0.024983544,-0.00614712,0.0010368839,0.008284146,0.017036535,0.01818,0.011346194,-0.009066455,-0.049259387,2.91075,0.0077422177,-0.027551617,0.008888739,-0.011861988,-0.005801383,-0.019585915,1.8982184,0.005291983,0.012614623,-0.019201392,0.018961893,-0.022524133,0.02035361,0.0045857555,-0.024164235,-0.027173022,-0.004915326,0.00084488175,-0.011393825,0.002691985,0.02913388,-0.008866567,-0.013269227,0.038287673,0.025665298,-0.022723269,0.022124512,0.003544729,0.009957872,-0.008633817,-0.00618544,-0.0051101604,-0.016977686,0.012253206,1.9556023,-0.004484874,0.021286547,-0.039332498,0.84932667,0.012416985,0.0035995373,0.0046621887,-0.00763791
N1299,0.013273256,-0.019491622,-0.013908595,-0.00044634638,0.0045635235,-0.005260524,0.012683743,6.932077e-05,0.016222998,0.019962223,-0.033829633,0.026130898,-0.002590451,0.0028240634,0.005579976,0.017058484,0.016568132,0.011586187,-0.007287592,-0.046369113,3.123415,0.009346606,-0.02640335,0.008982534,-0.008946428,-0.001318295,-0.019019226,1.8866665,0.006351433,0.0063804234,-0.019912874,0.015716417,-0.022036465,0.014658563,0.0049234657,-0.027102362,-0.027647318,-0.0051419414,-0.004255389,-0.012810469,0.0037075821,0.022944504,-0.0083212415,-0.012177661,0.03486584,0.02469243,-0.022383282,0.023107063,0.0015136044,0.007970221,-0.008373457,-0.010020619,-0.0008929988,-0.017261585,0.015686203,2.2276232,0.0009245185,0.017648138,-0.036229912,0.72371024,0.017347934,0.0024400488,-0.002133456,-0.013760721
N4540,0.011993807,-0.007047887,-0.0040320223,0.003807121,0.015686883,0.002535639,0.010430896,-0.010565762,0.025823515,0.008429442,-0.011799496,0.01811477,-0.0008992293,-0.005647364,0.021550732,0.010690812,0.037309717,0.014315737,-0.020812837,-0.039222963,1.3908447,0.0057860436,-0.023387698,0.0014607022,-0.007931127,-0.010722499,-0.007981051,2.5518713,-0.0024849037,0.01934569,-0.005731639,0.023456117,-0.034543984,0.023246722,-0.008370122,-0.017457478,-0.023625957,-0.014963968,0.007184716,-0.001344093,-0.0046387636,0.03173925,-0.0075453403,-0.030370126,0.042352866,0.015418064,-0.004341791,0.02430888,0.013793039,0.015457717,-0.0113162445,0.014601252,-0.010735157,-0.0067650294,-0.017018402,-0.31736684,-0.030603267,0.024530262,-0.045570273,2.1061459,-0.0047997544,-0.0106837675,0.036822595,0.019689057
N2304,0.008979537,-0.006491018,-0.00013001126,0.0001182379,0.016299168,0.004921857,0.008145902,-0.011741797,0.026648264,0.008507644,-0.008969379,0.01588714,-0.003465035,-0.007573183,0.019118804,0.008814626,0.034312658,0.013291013,-0.017764162,-0.036085453,1.2719697,0.004695902,-0.020225333,0.0034552854,-0.0052220565,-0.008335066,-0.004583179,2.405069,-0.006507006,0.018112844,-0.0036901745,0.022917004,-0.03460663,0.020940013,-0.008899892,-0.015444425,-0.02574096,-0.013689237,0.006364681,-0.0038842962,-0.00057382666,0.027951796,-0.007938547,-0.029586127,0.04074772,0.014334665,-0.0030601702,0.024313515,0.011739266,0.010951745,-0.011933443,0.013230711,-0.009704315,-0.008999467,-0.015419915,-0.28714314,-0.031179633,0.02422995,-0.04307969,2.2870579,-0.0044079106,-0.01320551,0.036798432,0.019360507
N4452,0.022895468,0.0121061085,-0.00799796,-0.0084629515,0.012136123,0.010873373,0.023886122,-0.01648288,-0.0023183129,-0.01978373,-0.033700295,-0.034315977,-0.014146401,0.017428625,0.0072098924,0.0049278764,-0.018094486,-0.0071949866,-0.00354143,-0.0013129123,-0.7574789,-0.0063916356,-0.005972006,0.020403102,-0.014102374,-0.011435336,-0.012482093,1.3838,0.009823513,0.004081554,0.021478316,-0.02688016,0.0013556732,0.011188878,0.0049627293,0.008044424,0.0029569536,-0.007845954,0.0061484943,0.016074011,0.012375375,0.022283053,-0.023959588,-0.012221767,0.01643115,0.019880006,0.020482248,0.005687647,0.003188302,0.0013248139,0.0057027913,-0.005078827,0.006582026,-0.0131700495,-0.0051902225,0.8926607,-0.05203744,-0.008037902,0.029485954,-2.6596127,0.020031424,0.006575359,0.013502365,0.024433676
N1636,0.00721647,-0.0077168453,0.0004825974,-0.00019920539,0.015131878,0.0012014388,0.0069015766,-0.010986558,0.029184336,0.008744705,-0.007111889,0.0151752,0.002940978,-0.0064407983,0.020555424,0.009441334,0.034367487,0.014468846,-0.017036831,-0.033760536,1.2737292,0.003727958,-0.019005671,0.0021826457,-0.00651511,-0.00821322,-0.005256104,2.3809183,-0.007487083,0.013153789,-0.0036095737,0.022397917,-0.03395853,0.01700784,-0.01012611,-0.019401213,-0.024355525,-0.012619005,0.0030000429,-0.0014899772,-0.0005215834,0.026781855,-0.0065602083,-0.028356092,0.04231093,0.016748166,-0.0016683387,0.021720957,0.015861072,0.011675545,-0.008976516,0.013649462,-0.010175335,-0.0063855257,-0.017298764,-0.2590421,-0.029314607,0.023300307,-0.03998996,2.2015567,-0.004597965,-0.010204976,0.036549114,0.018902883
N2988,0.009817426,-0.009046866,-0.0031145734,0.0037704932,0.0139681315,0.003150212,0.005847804,-0.014702948,0.03171697,0.008602051,-0.010544471,0.019564955,0.0037703037,-0.0047953147,0.02122312,0.011068268,0.042890396,0.016168833,-0.022856912,-0.037066743,1.1332067,0.005439613,-0.022405853,-0.000420153,-0.010284332,-0.009232157,-0.0051840884,2.7264256,-0.008102287,0.020096235,-0.002560782,0.027661186,-0.033968203,0.017214019,-0.01166654,-0.020699542,-0.024283247,-0.011338958,0.0054144524,0.0027452148,-0.00232312,0.032987867,-0.008295965,-0.02934722,0.046463847,0.02073311,-0.003628498,0.023260837,0.01904624,0.016947871,-0.0137939835,0.015269267,-0.009867949,-0.006131614,-0.021255404,-0.21796295,-0.032153692,0.025007535,-0.045081172,2.3550315,-0.007284344,-0.0082677845,0.045296825,0.019552952
N4395,-0.0041712117,-0.00486445,0.0049668676,0.0007220188,-0.0032258744,0.013605592,0.010179444,-0.0135526555,0.013662915,-0.0072321584,0.004927372,-0.0016297145,-0.00542121,0.0046301517,0.004246702,7.2912284e-05,0.009735975,-0.005200859,-0.0029443048,-0.010292246,-1.0025185,0.008448475,-0.00034938985,0.00430147,-0.006026749,0.0033588577,-0.005760756,1.146413,-0.0018318822,0.012161055,0.017153736,0.0045372075,-0.003418624,0.010944779,-0.0071961214,0.008589675,-0.007331068,-0.0027165236,0.016802847,0.002074988,0.0015269043,0.00822241,-0.00015446138,-0.013771649,0.006609772,-0.0021916886,-0.009673553,-0.0057255365,-0.00041607537,-0.0056292787,-0.017324097,0.0036053685,-0.0011137156,0.00268683,-0.0030712748,-0.35517946,-0.032998208,0.0018478989,0.0027818903,0.4998485,-0.0033668394,-0.0035397816,0.021150649,0.018074611
N1480,-0.00086010445,-0.008657773,0.008275755,-0.0018791757,-0.0025301662,0.01579703,0.005711697,-0.011733612,0.016312143,-0.010102382,0.0033752113,0.0005992715,-0.0023618892,0.0025670587,0.0038056828,-0.0035155686,0.013331084,-0.0006179789,-0.0039221137,-0.016695384,-1.0785581,0.0033983767,0.0040388107,0.009995927,-0.005202752,0.0032653478,-0.0064441417,1.3102121,0.001559512,0.014783412,0.025527902,0.00511773,-0.0019298691,0.015796993,-0.006786376,0.012951663,-0.00915812,0.0035894844,0.020336853,-0.0031809988,0.004822358,0.007591163,-0.0013402037,-0.013535603,0.008166858,-0.0018634568,-0.011764602,-0.0009095533,-0.0018081082,-0.008175807,-0.02270695,0.0027480244,-0.004211202,0.005824191,0.0017439829,-0.29559445,-0.03926998,-0.001942447,-0.00049999496,0.6985147,-0.0021860956,-0.005464465,0.031297095,0.015590674
N4301,-0.0052684047,-0.010868678,0.0038074907,-0.008234916,0.012922102,0.0118001485,0.0149772875,-0.013573198,0.025574045,0.010363694,-0.0053694025,-0.009096189,-0.004903772,0.0067657903,0.0031919058,0.011102315,0.011120098,-0.010581273,0.004093761,-0.014252427,1.7311561,0.019187238,-0.014152399,0.0133832535,0.011334485,0.00776791,0.00017712325,0.0608768,-0.02577675,0.009823388,0.00930873,0.0061402367,-0.020176033,0.0027759154,-0.009914417,-0.0052566575,-0.024035776,-0.016307311,0.008087375,-0.0006412098,0.009609045,0.010615998,0.006268882,-0.022103908,0.02414411,-0.006203229,-0.009791923,0.0076363045,-0.0030987933,-0.0038581912,-0.013245599,0.0055381195,0.008883764,-0.0015338148,-0.0036381255,0.3279923,-0.016775755,0.021816097,-0.003764513,1.4221926,-0.006533176,-0.013173881,0.009482307,0.0059690117
N1882,0.0048484798,-0.020166289,-0.008320711,-0.0046635056,0.0014798597,-0.008300428,0.010596964,-0.0038693282,0.019233441,0.0145269595,-0.021236755,0.018310685,0.0028248208,0.0063325125,0.003929225,0.010722567,0.01203078,0.010198293,-0.003011352,-0.03859633,2.8972318,0.013049613,-0.014627459,0.012408376,-0.011330238,0.0023221502,-0.017205851,1.7682335,0.0018540787,0.0008162675,-0.0019011577,0.012649715,-0.019114718,0.0050591985,0.004407331,-0.023074022,-0.020879056,-0.0049295165,-0.0044329055,-0.011072771,0.009379165,0.0119914925,-0.0051107868,-0.009302525,0.025465677,0.020859547,-0.020360315,0.015440491,0.004478365,-0.001208322,-0.0057424256,-0.0085406685,0.0024864662,-0.010080433,0.0148696145,1.7886286,-0.009511229,0.0066433693,-0.022296008,0.45570356,0.01316244,0.0042030653,0.002554081,-0.011596736
N4105,0.009361661,-0.01598663,-0.0075131827,-0.008596361,0.004157592,-0.007521254,0.010757403,-0.0039379746,0.018795563,0.01995517,-0.022978432,0.027267164,0.0034398572,0.0047295396,0.0018031509,0.014942007,0.01747216,0.009767009,-0.0023700043,-0.035471637,3.163733,0.012706416,-0.01985528,0.0072272182,-0.012614216,0.008257345,-0.018325977,1.701827,0.0012618995,0.00024923444,-0.010981234,0.020109402,-0.028718552,0.0059338273,0.00383907,-0.02876457,-0.025234165,-0.007692299,-0.009161799,-0.012115717,0.004476302,0.0120322695,-0.0070638345,-0.0122716455,0.033913247,0.02591786,-0.019138277,0.022822877,0.0037219787,0.006319401,-0.004932395,-0.010378698,0.004319594,-0.011324419,0.014986358,1.7435695,0.0016520858,0.014738441,-0.029075226,0.82497734,0.012523054,0.003400574,0.001089174,-0.012724664
N2878,0.0068258597,-0.017154517,-0.005258402,-0.006608938,0.0037807666,-0.008959754,0.0075607854,-0.003632651,0.020113051,0.021312097,-0.023938457,0.022887513,0.0062593017,0.0040618577,0.000549132,0.0144513585,0.015761446,0.010580033,-0.0027807704,-0.03337917,3.079889,0.012243325,-0.018298203,0.01010413,-0.0073437276,0.008378345,-0.016160019,1.6706023,0.00064994977,-0.0022656107,-0.006548439,0.017634083,-0.025376745,0.002673864,0.0027947798,-0.028058238,-0.024962144,-0.0072636493,-0.010585394,-0.014227467,0.0068220543,0.008826079,-0.0050442945,-0.009181032,0.02945872,0.022753183,-0.018562092,0.022481833,0.0036660195,0.0033327886,-0.0077299597,-0.010901493,0.0070439964,-0.00914305,0.017227266,1.95948,0.0014052079,0.011920171,-0.024899477,0.6954151,0.014163616,0.0021446398,-0.00043279387,-0.015580684
N3294,0.0036990442,-0.028900731,0.009251644,-0.005834479,-0.0038748211,-0.015185151,0.0031947703,-0.0070528556,0.03038186,0.00749727,0.0015410808,0.002111989,0.01778623,0.011139427,0.0025644146,0.009210431,-0.0002861852,-0.0031133406,-0.0017532869,-0.033686053,2.4451935,0.0154309515,-0.0032983986,0.013836931,-0.00017551698,0.010284302,-0.020688033,1.4722724,-0.0075472686,-0.006416115,0.01757955,0.0041036885,-0.012791065,0.011344903,-0.017210554,-0.013717391,-0.014080097,-0.011906274,0.0035808682,-0.009656829,0.0058619916,0.0041768737,-0.013210611,-0.019878332,0.01877787,5.056174e-05,-0.021396937,0.014182587,-4.7414684e-05,-0.016427219,-0.015115321,-0.0090712495,0.0010981495,0.0011562405,0.016945202,-0.3099041,-0.032935344,0.005467444,-0.004362587,-0.5650555,0.010304084,-0.0027765515,0.016006963,-0.0060285223
N4337,0.006387387,-0.035799466,0.0054934225,0.0020262063,-0.0049965745,-0.015353391,-0.0015924845,-0.0022188076,0.035263665,0.0075573525,-0.010177389,0.006040999,0.023248667,0.008881451,0.00011228304,0.007238608,0.0012465519,-0.0035948397,-0.014371825,-0.030036557,2.7283921,0.0052080685,-0.008034712,0.012165591,0.0018311662,0.0057537053,-0.021368304,2.1158535,-0.004801461,-0.004960365,0.0061540715,5.1132465e-05,-0.008260354,0.013491494,-0.02361391,-0.016338004,-0.017934514,-0.007521105,0.002143194,-0.011135316,0.003933394,0.0036558,-0.0168519,-0.012582856,0.013758221,-0.0004328358,-0.026676781,0.020500425,-0.0006425947,-0.012371759,-0.023966635,-0.010015384,-0.0027360623,0.0007971106,0.018318923,-0.095734805,-0.027634652,0.0030388525,-0.009543391,-0.7235704,0.012458936,0.0042228214,0.016953647,-0.009900996
N2376,0.0140195945,-0.008792352,-0.0060766735,0.0069332565,0.015956188,0.0028666025,0.01165104,-0.015258522,0.030491022,0.008810336,-0.008703779,0.02109761,-0.00093198323,-0.005915931,0.024966592,0.010194839,0.038068734,0.018395353,-0.022103569,-0.044956412,1.6642623,0.00928294,-0.023105917,0.004349916,-0.009504706,-0.012107543,-0.0071064397,2.8631454,-0.0054894397,0.019047191,-0.0063866875,0.023258086,-0.03774009,0.023307389,-0.003045636,-0.01981378,-0.022668028,-0.016063077,0.00917595,-0.0014783774,-0.0039678686,0.029037243,-0.0066567454,-0.033945136,0.045604732,0.015510121,-0.00431172,0.025428517,0.015646469,0.014332388,-0.011231793,0.015658658,-0.0102939885,-0.00878972,-0.020053769,-0.25877386,-0.033767406,0.029095586,-0.05297568,2.4054441,-0.004131778,-0.014344136,0.03965908,0.018992273
N2563,0.007451333,-0.0052296678,-0.006297874,0.014295065,0.015582179,0.0032355664,0.00987176,-0.021136265,0.0329177,0.010229652,-0.012898145,0.014993802,-0.00064954854,-0.006168475,0.022715958,0.00878965,0.036164757,0.017172357,-0.026979132,-0.040565986,1.2780252,0.016830022,-0.026714522,0.0039287237,-0.00867499,-0.015906628,-0.0020762295,3.0295575,-0.009138149,0.021665815,-0.00026151765,0.028813014,-0.036731318,0.018622309,-0.00497903,-0.022025395,-0.018094374,-0.019308724,0.011566994,0.006249444,-0.0021766447,0.0319165,-0.00575946,-0.030253258,0.040944606,0.018970147,-0.004464562,0.02436946,0.02157866,0.015127845,-0.0186072,0.013241208,-0.0018912478,-0.0091330465,-0.022808982,0.29333863,-0.039612968,0.028989835,-0.043588836,2.2380638,-0.0071927905,-0.012535395,0.04169364,0.017428853
N509,0.017103435,-0.009335099,-0.007071883,0.006113677,0.012994526,0.00046730007,0.0148156015,-0.016354892,0.026780454,0.008232581,-0.0071331286,0.02247003,0.00055975706,-0.0038224137,0.024716085,0.012123501,0.029886838,0.014874876,-0.019282151,-0.043821856,1.8180141,0.011788851,-0.022581773,0.0032704447,-0.010694874,-0.009852569,-0.011548334,2.6289597,-0.0066345483,0.014943309,-0.012335464,0.0205136,-0.03652673,0.021707784,-0.0011510513,-0.020941306,-0.019267585,-0.017400453,0.009606362,0.00027843352,-0.006246994,0.02619692,-0.0062009646,-0.034112517,0.04559049,0.013656201,-0.0063882703,0.02288402,0.013911266,0.015583681,-0.007093016,0.011990352,-0.009186709,-0.008620691,-0.017887881,-0.12947518,-0.029484084,0.032564625,-0.050577275,2.1937711,-0.0032761733,-0.0134553835,0.032338373,0.015771082
N3525,0.016202057,-0.006470916,-0.004690238,0.0029702086,0.017392576,0.00057592423,0.014375729,-0.010455237,0.024283431,0.009400228,-0.0135668665,0.01905325,-0.0035586702,-0.005932964,0.02425441,0.0115678655,0.03240127,0.015370847,-0.019503197,-0.04406919,1.9205971,0.008395411,-0.025226025,0.0033050054,-0.0088795265,-0.012658177,-0.009879654,2.600128,-0.0027952034,0.016520875,-0.011654798,0.023116028,-0.03936341,0.025963536,-0.0032423127,-0.020878373,-0.02319828,-0.01921775,0.006726508,-0.002220348,-0.0055638687,0.030402564,-0.010716998,-0.033613622,0.04612898,0.015472815,-0.0038489331,0.026803525,0.013287991,0.013413346,-0.006246296,0.011504663,-0.010563821,-0.012312619,-0.015767056,-0.24368447,-0.029936261,0.0293509,-0.050107405,2.2903225,-0.0027038036,-0.013863614,0.031099722,0.016263505
N3930,-0.006127493,-0.007066381,0.0086034015,-0.0042815115,0.007792022,0.017729582,0.0057583214,-0.017829495,0.021174595,0.0058238115,0.008634253,-0.014307556,-0.007931208,-0.00026609376,0.0019837385,0.004887379,0.0076030367,-0.0080385925,0.0061062635,-0.0004392278,0.022059666,0.012913254,-0.005262549,0.008601576,0.019004159,0.009080937,0.0033172397,-0.09464191,-0.023569023,0.0057035894,0.01806337,0.0032079136,-0.01496089,0.009192132,-0.013220343,0.007557327,-0.018384613,-0.012145052,0.014703343,0.0049628727,0.010260127,0.015144032,0.0063847466,-0.021993777,0.022067767,-0.011360666,-0.0054079727,0.005813953,-0.0058364687,-0.0038231018,-0.015402414,0.0031012166,0.0060048155,0.0014796795,-0.0048980233,-0.23893625,-0.027659457,0.018100793,0.00031359412,0.7398732,-0.0048588775,-0.01673468,0.018004764,0.015919417
N1082,0.00247723,-0.029412132,0.0009771202,-0.0014420429,-0.004509484,-0.011618498,0.007442835,-0.0052324138,0.03113473,0.0026087551,-0.0030779133,-0.0043579717,0.012400213,0.0133823175,0.0065467507,0.005274861,0.00072110916,-0.00019142007,-0.005467482,-0.03421832,2.3088927,0.01219109,-0.0038017505,0.017965963,-0.0008645364,-0.0036577547,-0.018120054,1.7105039,-0.007838736,0.00095653976,0.018999588,-0.0015390848,-0.0049736546,0.015146168,-0.01360846,-0.010178249,-0.01436619,-0.008431873,0.009905389,-0.009771346,0.0060607535,0.008906241,-0.015285803,-0.016128538,0.014964399,-0.0012076675,-0.021862943,0.01247131,0.005010847,-0.016650453,-0.016583791,-0.006419012,-0.004851655,-0.004731512,0.009214915,-0.014003137,-0.039791893,0.0015306377,-0.0043673227,-0.56798893,0.008051982,-0.00086998654,0.018768348,-0.0039295214
N4859,-0.0038566426,-0.008267255,0.0009533116,0.00352545,0.0018325382,0.010277714,0.011372446,-0.012828292,0.018986223,-0.0002541642,0.0007649685,-0.0017236723,-0.009063626,0.0012763095,0.004249927,0.0009812111,0.013072945,0.0043223263,-0.005035662,-0.023427952,0.42261863,0.013840116,-0.0074376706,0.011339095,-0.0018976962,-0.006107558,-0.0020024253,1.2960088,-0.0018476109,0.016893882,0.020600587,0.010722704,-0.011099831,0.019704152,-0.0010432482,0.0037515773,-0.01219668,-0.008895447,0.016594857,-0.0007063796,0.004444682,0.014403719,-0.005337266,-0.015980612,0.014161147,0.0014897274,-0.01069089,0.007037273,0.005107775,-0.0063839327,-0.019442458,0.0039368337,-0.000594975,-0.008702189,-0.0016559554,0.021897156,-0.036379904,0.009964658,-0.0041694557,0.90494865,-0.004939609,-0.008578144,0.024767287,0.012916231
N2305,-0.008450048,-0.018087218,0.0001958055,-0.0023500063,0.004904334,0.008109627,0.013769157,-0.010620357,0.019926805,0.0046274154,0.0017368571,0.0012345955,-0.008500786,0.009120064,0.00050594704,0.005384487,0.0038946874,-0.0011881634,0.00015249467,-0.019388337,1.2713184,0.019987391,-0.0055471426,0.010678327,-0.0018906655,0.004915296,-0.0067865024,0.42490393,-0.009364191,0.011940607,0.008061056,0.0043871896,-0.0054970263,0.003501999,0.0007205802,-0.0014987855,-0.019606205,-0.0061608753,0.0041274894,-0.0048218635,0.0046489383,0.007073118,0.00070895185,-0.014199442,0.013594958,-0.002755403,-0.01730378,0.0041594272,-0.00047574533,3.1486452e-05,-0.013334568,-0.003551646,0.0003571632,-0.009461587,0.0006821839,1.1934545,-0.016943889,0.007761995,0.0055276616,0.68028975,0.0033024293,-0.0035612555,0.007402311,-0.0041770064
N1870,0.01119942,-0.0053067342,-0.006137452,0.010421972,0.017231852,0.002817915,0.011726348,-0.014231828,0.030170668,0.0095572965,-0.01680592,0.01918835,-0.0008486317,-0.0071542133,0.024355805,0.0106095355,0.04347409,0.018015377,-0.02873693,-0.042030793,1.3228868,0.008907694,-0.028269583,-0.00048207535,-0.011990539,-0.017270194,-0.00527288,3.0734808,-0.0032900814,0.025303263,-0.007110191,0.029341223,-0.03774315,0.02269545,-0.008675241,-0.022597253,-0.023606025,-0.018176373,0.007858564,0.00311208,-0.004922099,0.037875928,-0.009382895,-0.02944316,0.044242546,0.021202732,-0.0030678243,0.027501766,0.021224104,0.020531168,-0.016925916,0.016960597,-0.010650874,-0.010155301,-0.02366551,0.04173893,-0.035296112,0.027695118,-0.049591746,2.297322,-0.006420319,-0.009028454,0.04411064,0.021703636
N3613,-0.0074514654,-0.021526191,-0.00842678,0.01548868,0.0049819117,0.009409996,0.008058716,-0.0065330965,0.027867056,-0.0022408715,-0.022693614,-0.0007817788,-0.0028807856,-5.877038e-05,0.0067604333,-0.0063126865,0.016763264,0.00022686472,-0.031773157,-0.020145865,0.85844827,-0.0024733958,-0.01519813,0.011623136,-0.0063335896,-0.013120891,-0.009286906,2.6738257,0.007784493,0.019714236,-0.0024121176,-0.008581816,0.003748899,0.0122616915,-0.014136817,0.0025300637,-0.021128591,0.004425707,0.011099055,-0.0027395159,0.007907967,0.017262481,-0.00029633468,-0.0036516024,-0.0052136714,0.0001706394,-0.01596563,0.0036850886,0.0010730919,0.00698861,-0.029443756,0.0061965813,-0.012451559,0.0028414496,-0.0021670493,0.62680614,-0.03364366,-0.007660954,-0.007744396,-0.048212275,0.0053217784,0.013388071,0.02521859,0.013558934
N1498,0.0054675364,-0.0066154697,-0.005706451,0.008573727,0.0146252485,0.0033020638,0.0052198307,-0.01708097,0.033473276,0.011686124,-0.016232753,0.016476294,0.00317087,-0.0057667545,0.021145884,0.010580439,0.042685192,0.0204613,-0.025099399,-0.0379956,1.3381217,0.008559672,-0.025495943,0.003408404,-0.008662143,-0.016652666,0.00037525062,2.9612737,-0.011637537,0.021725742,0.0009065772,0.032259025,-0.03586736,0.01572681,-0.0075151953,-0.02386003,-0.023092307,-0.013441002,0.005006563,0.0017912387,0.00076487305,0.033360712,-0.005455801,-0.02460059,0.046498798,0.024753304,-0.0045356588,0.025666958,0.024729308,0.018344661,-0.017013835,0.014481845,-0.0052536987,-0.00979285,-0.022909945,0.40403858,-0.032215286,0.027460832,-0.04573742,2.3007576,-0.0061952933,-0.008363195,0.042280525,0.01660052
N1598,0.016279891,-0.0095365215,-0.010531501,0.0050125564,0.014232162,-0.0011929242,0.015912395,-0.006787693,0.023239216,0.010178291,-0.013719925,0.021883331,-0.004761311,4.2246193e-05,0.024330616,0.012775454,0.03210236,0.016504856,-0.015901826,-0.04581218,1.9830055,0.008922711,-0.0240096,0.002392027,-0.011941918,-0.0131863495,-0.008670728,2.4251323,-0.0016874945,0.017216267,-0.013549672,0.020369321,-0.033955645,0.0239239,-0.0011870607,-0.021104045,-0.019663638,-0.016859833,0.0046397853,0.0014675946,-0.003908058,0.028399823,-0.007886419,-0.031035285,0.04477571,0.014979168,-0.0041037295,0.022573862,0.015713193,0.016547846,-0.0031289828,0.012264831,-0.010477767,-0.011197572,-0.019951586,-0.033689026,-0.02459862,0.028291814,-0.04645628,2.1632497,-0.0022891911,-0.013124911,0.027891926,0.0138839865
N3993,0.011969252,-0.012188089,-0.008285345,0.0013251188,0.011470709,-0.0009966939,0.013993525,-0.0077753845,0.024349248,0.009239383,-0.011145671,0.017536525,-0.0017439177,0.0026843303,0.021172643,0.011594616,0.026960604,0.013867858,-0.012738584,-0.041565668,2.0141993,0.01130544,-0.020172872,0.0047161533,-0.010697585,-0.008724873,-0.010621848,2.1240191,-0.0046177832,0.014759533,-0.0069865184,0.018125832,-0.029540155,0.018890286,-0.0024567682,-0.019128341,-0.020499093,-0.013501746,0.0049401294,0.00015092306,-0.00093897426,0.0258892,-0.008368988,-0.028574863,0.0408923,0.014495274,-0.008283886,0.0189831,0.013707553,0.0104568545,-0.0038729263,0.008271651,-0.008464061,-0.010105246,-0.013257776,0.2034347,-0.025159243,0.022315022,-0.038812984,1.8349035,-0.0015775062,-0.010371024,0.02621424,0.008060162
N2645,0.0053577204,-0.014445585,0.0016232432,0.011503317,-0.0073854807,0.015476604,0.011156227,-0.025575174,0.024733463,-0.022388035,-3.1027728e-06,0.0113686295,-0.004138581,0.005240256,0.014482769,-0.0019551371,0.017394995,-0.0013451499,-0.024295013,-0.03970146,-1.4219291,0.008773846,0.0009246819,0.008966426,-0.03222729,-0.0054461407,-0.012135878,2.7617464,0.0027767636,0.03145938,0.01409751,0.008265312,0.0005685215,0.017473055,-0.0029518262,0.0054140594,-0.004096119,0.008093748,0.03226661,0.0064178803,0.002398884,0.017861677,-0.0027369272,-0.016289242,0.016120058,0.0029315937,-0.017967261,-0.0054786108,0.005067739,0.006834058,-0.037050005,0.007620132,-0.009178819,0.002258338,-0.0070917807,-0.020819366,-0.056452896,0.0043323906,-0.011981824,0.9346664,0.00070264126,0.0062707583,0.051248685,0.029964242
N4652,0.004056334,-0.014764008,0.0011846094,0.010779382,-0.0069788476,0.016056333,0.011049416,-0.024832105,0.024401365,-0.022494763,-0.000866005,0.009798859,-0.00441196,0.0060896045,0.013982992,-0.0032234532,0.016569953,-0.002341531,-0.023492612,-0.038147844,-1.425379,0.008604255,0.0014995977,0.009996166,-0.032558978,-0.0047846767,-0.011962726,2.695415,0.0025740804,0.030889025,0.015061508,0.0072842347,0.00057111116,0.015848184,-0.0035830208,0.005587031,-0.004160634,0.008663994,0.032475602,0.006662261,0.0036863144,0.016323118,-0.001188845,-0.015479502,0.0146846045,0.0026711363,-0.017706899,-0.006481093,0.004433268,0.0064756586,-0.036508463,0.0070435153,-0.008415999,0.0034961724,-0.0067786486,0.073789954,-0.055697598,0.00177367,-0.010177774,0.9140855,0.00088943186,0.0064293463,0.050228283,0.029188484
N2108,0.007236968,-0.005359082,-0.005587711,0.010835107,0.013042187,0.0054226797,0.0098399455,-0.016942175,0.029879762,0.008803035,-0.010327586,0.013213268,-0.0025153381,-0.00507152,0.019399375,0.008148177,0.033937708,0.01624915,-0.022078546,-0.037509628,1.2369727,0.012494241,-0.022751428,0.0055636535,-0.006113341,-0.014356367,-0.0021667443,2.6951988,-0.0066970396,0.020795003,0.0025786192,0.02498676,-0.033128884,0.021906665,-0.0037927865,-0.016127644,-0.018892387,-0.01667638,0.011983675,0.0017309634,-0.0014881735,0.029099945,-0.006494978,-0.027563434,0.038326465,0.016093533,-0.005345468,0.023315474,0.01797088,0.012016103,-0.016860858,0.012516241,-0.0042931354,-0.010500749,-0.018359594,0.13183525,-0.036911856,0.026337959,-0.040152874,2.0187206,-0.006373577,-0.012605975,0.038352013,0.017290335
N1175,-0.009929456,-0.007853867,0.0035014832,-0.0020248012,0.0018472151,0.017911721,0.011866948,-0.015992478,0.013350304,0.0031600427,0.010134193,-0.01541681,-0.014376078,0.00043610975,-0.0027912841,0.0066548204,0.004031517,-0.008399416,0.0059628384,-0.0026972513,-0.022699485,0.013232186,-0.0054968703,0.011438593,0.01461166,0.007265323,-0.0026016587,-0.5577808,-0.01339498,0.012063522,0.021952832,0.0026044282,-0.008861747,0.016838832,-0.009579983,0.014792126,-0.016710067,-0.011285614,0.018118221,0.0020641477,0.0046255803,0.017682426,0.005572415,-0.01688856,0.01227738,-0.013778977,-0.008605951,0.0023837397,-0.0074702273,-0.004480726,-0.016146583,0.0050286464,0.0019573886,0.0026836086,0.0010391863,-0.27811706,-0.026374971,0.016888436,0.008877613,0.04296421,-0.0051849554,-0.010431526,0.015029695,0.017821472
N4794,0.014769649,-0.006706822,-0.006276132,0.0064169816,0.013963766,0.0045126453,0.011291349,-0.015572458,0.02792288,0.009005991,-0.012021983,0.020794755,-0.0008432758,-0.0047681206,0.02159698,0.011515022,0.03563265,0.015496094,-0.0217463,-0.03960401,1.4445785,0.00927188,-0.02503446,0.0014477139,-0.010229021,-0.01142291,-0.007946423,2.6699011,-0.0069038505,0.019385517,-0.007938906,0.025826154,-0.036362123,0.022879655,-0.005054906,-0.01965164,-0.022124637,-0.01540232,0.009985015,0.0023230182,-0.0051586395,0.031601865,-0.009171744,-0.03155592,0.046743322,0.01789814,-0.00555508,0.02624625,0.016276604,0.017091747,-0.01205011,0.011579121,-0.008314023,-0.010915224,-0.019450672,0.008655837,-0.031129088,0.030655332,-0.048155956,2.3165927,-0.005842023,-0.011331114,0.03859378,0.01711073
N4383,0.020096188,0.004560511,-0.014295871,-0.0045810323,0.0061940453,0.010330119,0.025812665,-0.007599729,-0.00639653,-0.022422215,-0.03710023,-0.027649939,-0.017166788,0.016950326,0.0067981435,-0.00084238953,-0.01804439,-0.0043487586,-0.003762485,-0.0068224235,-0.5807512,-0.011915445,-0.003715907,0.02344801,-0.018740948,-0.01865895,-0.0144824395,1.5827397,0.016801463,0.006259138,0.011204103,-0.028324166,0.008803754,0.009145096,0.01101044,0.010711683,0.004486828,0.0007670316,0.011647553,0.011278043,0.011492678,0.017802648,-0.019275947,-0.0016586664,0.008909746,0.018553235,0.0110204825,0.00071419,-0.0010629806,0.0044848174,0.0064516966,-0.0080976635,0.0017404475,-0.01646338,-0.0045914873,1.399757,-0.044137944,-0.016991438,0.026590794,-2.0705032,0.019159755,0.012496503,0.004684719,0.018799085
N3792,0.0127629405,-0.027847588,0.01185834,-0.00467018,-0.0033548507,-0.018434944,0.0023521916,-0.0040761605,0.03193454,0.01084988,0.0014623888,-0.0028362772,0.019295398,0.0074110837,0.0036459719,0.0141366115,-0.0010669046,0.0032738224,-0.0025382414,-0.02928119,2.8240137,0.010759501,-0.0048251315,0.015484625,0.011283812,0.004852371,-0.018076684,1.7169353,-0.0068334034,-0.014059763,0.013496581,0.002352336,-0.01801916,0.018745568,-0.012229851,-0.015797459,-0.015416989,-0.018824536,-0.00062332937,-0.018825434,-0.0034114476,0.0012343023,-0.023959676,-0.02053178,0.026617441,-0.007544253,-0.019317254,0.0253337,-0.00085661485,-0.022837235,-0.008841127,-0.012979846,-0.00016317444,-0.009452306,0.020300739,-1.1287279,-0.029533098,0.012638751,-0.013843879,-0.5571327,0.014912846,-0.010257771,0.007086352,-0.009031735
N284,0.0050680973,-0.016020289,0.028113643,-0.0043406645,0.027686195,0.01402424,-0.0026032997,-0.018112684,0.07853898,0.0455548,0.008106231,-0.029175341,-0.03773365,0.015139199,0.01038455,0.02028819,0.028719187,-0.0009811851,0.0009236571,-0.033679824,0.6862181,0.03163921,0.017021954,-0.0037038215,0.02849428,0.04468679,-0.013266946,-4.2863154,-0.036940344,0.02078143,0.019491095,0.010404968,-0.01765841,0.0432514,-0.021829208,0.009106915,-0.04018835,-0.01841595,-0.02975884,0.052367337,0.02082117,0.07857763,-0.009402071,-0.06043905,0.053640246,-0.00045444426,0.0030364797,0.022523103,0.023268353,0.020243097,-0.002457177,0.004177523,-0.012883926,0.010301131,0.004637615,-0.87674,-0.098276675,0.047417514,0.023652276,-1.8872766,0.029819177,0.0070487135,0.0709578,0.05644755
N3830,-0.008843961,-0.016512942,0.0030007449,-0.0030432644,-0.0009336758,0.00526784,0.010407292,-0.0144708585,0.018977359,0.0035895146,0.0072459467,-0.0093391845,-0.00069835957,0.0064724926,-0.0011414282,0.009107463,0.0011176183,-0.008852538,0.0028098638,-0.013559978,1.059923,0.018694524,-0.0047044093,0.013895949,0.007659648,0.0068950364,-0.008403449,0.09531681,-0.019353982,0.009260737,0.018187236,0.0038906622,-0.0065083075,0.009107539,-0.012225708,0.0037890975,-0.016271157,-0.0107826935,0.014475192,-0.00463452,0.0061734766,0.009497425,0.0042522764,-0.016266396,0.012908436,-0.010866992,-0.018062094,0.002830899,-0.0033174073,-0.006079903,-0.018202122,0.00071479904,0.003369766,0.0033479922,0.0045500332,0.24550241,-0.024734797,0.013303092,0.0048593604,0.028440334,-0.0014400631,-0.006481677,0.013015914,0.004098242
N886,-0.0026611208,-0.022158336,0.007956354,-0.005857985,-0.007127717,-0.0038869428,0.008257031,-0.017259615,0.028582353,0.008390042,0.014994013,-0.0088299755,0.009473364,0.013394258,-0.000136647,0.01260224,-0.008833349,-0.010178156,0.009462381,-0.015359711,1.8202754,0.022240559,-0.00026923776,0.01471034,0.0069850665,0.012791767,-0.011611796,0.32836762,-0.028603613,-0.0053443727,0.017303642,-0.000109375986,-0.007816137,0.0015026696,-0.014704618,-0.003458222,-0.0123800775,-0.015490482,0.008795296,-0.00611382,0.0048095924,-0.00066548836,-0.0043462003,-0.023027714,0.020795334,-0.009296444,-0.019231074,0.004139174,-0.0017662346,-0.013934908,-0.009684061,-0.008821751,0.0067664655,-0.0012734159,0.0042274627,-0.10883266,-0.026903026,0.016225552,0.00734866,-0.4659398,0.0030746504,-0.0064175855,0.0072112624,-0.0047044624
N2537,0.028546052,-0.008261027,-0.00604785,0.012545084,0.024072332,-0.0024724766,0.01638851,-0.0037099952,0.029241068,0.008898842,-0.0018126739,0.027914077,-0.010572312,-0.013049201,0.03370967,0.013027861,0.0409625,0.02240512,-0.022450602,-0.06111363,2.063523,0.0009555987,-0.022995612,-0.0009016855,-0.009048327,-0.015507591,-0.009416475,3.2559733,0.005869951,0.020324387,-0.023760691,0.016521603,-0.042794824,0.04458659,0.0014510304,-0.018776707,-0.023840817,-0.023116166,0.0065849116,-0.007392628,-0.009899674,0.031687774,-0.010834164,-0.043697894,0.05518958,0.00538833,9.782104e-05,0.03561155,0.011739191,0.017216098,-0.0045050327,0.02291942,-0.025634587,-0.014612805,-0.02167982,-1.4590147,-0.037682604,0.03993835,-0.07082637,2.6271942,0.0042011035,-0.023979953,0.0403271,0.031147018
N1958,0.028398352,-0.008602265,-0.0054829973,0.012724064,0.024969053,-0.0040921546,0.016937666,-0.0023165315,0.029901082,0.009288964,-0.002630995,0.02923793,-0.01016753,-0.013453847,0.03489382,0.013661533,0.041484687,0.022006547,-0.023099435,-0.06186114,2.1360197,0.00013661796,-0.023636302,-0.0025538665,-0.01081994,-0.016347338,-0.009667483,3.3015797,0.005630016,0.020633688,-0.027093584,0.016877342,-0.043689948,0.04408018,-0.0004575381,-0.020928381,-0.02457303,-0.024078293,0.0045623397,-0.0063213403,-0.0092755705,0.03259455,-0.010197703,-0.043580487,0.05634931,0.006626764,0.0007967758,0.035949066,0.012936033,0.019437168,-0.0042730016,0.024248453,-0.027109042,-0.01448047,-0.023118848,-1.4411317,-0.0368768,0.04057141,-0.07135511,2.650668,0.004639906,-0.022830741,0.04071903,0.032243803
N4283,0.026939852,-0.008553954,-0.005434625,0.012004629,0.022054624,-0.0026956906,0.016174579,-0.0053030634,0.029566864,0.008653998,-0.0015159491,0.026970895,-0.008212332,-0.011471678,0.031960517,0.013126999,0.039741196,0.020994471,-0.021571876,-0.059193745,2.0446506,0.0018820893,-0.022047209,-0.00011715824,-0.008808976,-0.014479957,-0.009813335,3.1754835,0.0046116756,0.020037482,-0.020625023,0.01649668,-0.040991638,0.042289127,0.0008805304,-0.018491704,-0.022511492,-0.02223166,0.006602433,-0.0072939135,-0.009014419,0.029961176,-0.009744909,-0.041724302,0.053523086,0.006451005,-0.0011296024,0.033815153,0.01216445,0.016914587,-0.005581319,0.022817656,-0.023733923,-0.012692742,-0.02037206,-1.3331198,-0.037026387,0.03914748,-0.06701297,2.432318,0.0036608176,-0.021906303,0.040124573,0.029701421
N4243,-0.011447724,-0.007480752,0.009877481,-0.0037236826,7.810105e-05,0.008474157,0.012708561,-0.017085975,0.01756069,-0.0007594168,0.014306173,-0.019096013,-0.0021748103,0.0021683103,0.00089576765,0.0022511478,-0.005561142,-0.004356435,0.005507125,-0.0015186784,0.25806332,0.015685055,0.0006463274,0.016303727,0.012157348,-0.00030306884,-0.0013432816,0.40863863,-0.01323717,0.00061997504,0.025836626,-0.001440617,-0.008605451,0.0047634253,-0.0039436687,0.009187267,-0.0110631,-0.014668255,0.012759175,-0.0065125413,0.005343851,0.00022288146,0.003235118,-0.013447559,0.006463927,-0.009805858,-0.006011452,0.0019547688,-0.001335838,-0.015279786,-0.012434895,8.5768304e-05,0.006046016,-0.004349639,0.0032603056,-0.08749344,-0.030841097,0.008237581,0.013121534,0.058214974,-0.002916123,-0.014583692,0.007492375,0.0094374865
N1054,-0.010841861,-0.012233221,0.009055173,0.001798714,-1.7401313e-05,0.009160496,0.006944029,-0.011741377,0.018923782,-0.0065040197,0.003434584,-0.0059312186,0.0014453642,-0.0037834388,0.00090717705,-0.0021969446,0.008663368,-0.0012568764,-0.010655717,-0.014416192,-0.26032546,0.006000342,-0.0020937943,0.014214996,0.0024369673,-0.007928273,-0.0059293434,1.1698123,-0.004115153,0.016202481,0.023817023,0.005315824,-0.0012954908,0.018926628,-0.011475456,0.010120288,-0.012927216,-0.0020322658,0.01826066,-0.007017501,0.0075427424,0.0118191885,0.006201066,-0.006392726,0.003487886,-0.004540043,-0.014980067,0.005905701,0.0031438225,-0.0024808121,-0.03227006,0.006946119,-0.004567519,0.0060287835,0.0038922876,0.014089731,-0.03907568,0.0044228,0.006312731,-0.063615926,-0.00016107496,-0.0016562636,0.028616691,0.020554192
N4674,-0.004742833,-0.01212132,-0.0014217888,0.004649569,0.012588299,0.028516313,0.005249883,-0.015845792,0.023657829,0.014861199,0.012044776,-0.024895566,-0.04046239,-0.0046330737,0.00014808416,0.012257456,0.0025130718,-0.0051508644,0.013033444,-0.016050832,0.036922555,0.0052319355,-0.0051149977,0.015826559,0.029652365,0.014294325,-0.00508832,-1.4622405,-0.022090746,0.011810461,0.024038052,-0.000525692,-0.007799379,0.038160257,-0.015771603,0.016972017,-0.022934204,-0.012368225,0.014620953,0.019309076,0.012002593,0.04663638,0.010183057,-0.030746024,0.03381012,-0.02353282,0.0006038867,0.012497995,-0.008349904,0.008157643,-0.007568931,0.0018216906,-0.0014087342,0.006928744,-0.005562127,0.5178265,-0.04954105,0.03444715,0.0031129452,-1.088764,0.00073601754,-0.008621964,0.02456286,0.03172277
N2380,0.011868838,-0.011520352,-0.002927431,0.0071285656,0.009328415,0.0009248612,0.013635155,-0.019915352,0.027370848,0.004894724,0.003392864,0.013087104,0.0026032643,-0.001807522,0.020493839,0.009798702,0.021437047,0.009695554,-0.015493821,-0.038152423,1.4908761,0.0155791845,-0.015011388,0.0071472605,-0.003511886,-0.0057964106,-0.011156983,2.2677386,-0.0072883647,0.011045754,-9.368641e-05,0.012302824,-0.028863475,0.020687358,-0.0016485307,-0.012254417,-0.014973483,-0.016509382,0.014046703,-0.0020464237,-0.005593204,0.018666392,-0.0036873098,-0.03271217,0.034704354,0.0031197902,-0.00863596,0.01691664,0.009397153,0.0055782353,-0.0097218165,0.01094885,-0.0060577053,-0.0040487614,-0.011356248,-0.48854983,-0.0359059,0.02770613,-0.038419425,1.5801457,-0.002491814,-0.01636962,0.029940525,0.015997138
N4879,-0.00018662757,-0.006450226,0.006846287,-0.0017640598,0.0012109163,0.023200892,0.0068204035,-0.017302353,0.017103042,-0.005646515,0.0045915702,-0.02052035,-0.010578571,0.008095402,0.00224161,0.0020844368,-0.0015047628,-0.016014397,0.0050103776,-0.0027108977,-1.6252038,0.00506334,0.0029032743,0.015066597,0.003289054,0.011546666,-0.009928228,0.13624246,-0.014719966,0.0034422593,0.022932662,-0.0056172693,-0.005133586,0.008960761,-0.009593829,0.014052201,-0.007552705,-0.006446717,0.025470693,0.007988353,0.0011757675,0.0074740946,-0.0009615021,-0.021121554,0.015414975,-0.011046619,-0.00766437,-0.0018289667,-0.012777539,-0.004696574,-0.014819026,-0.007988051,0.0066766003,0.0068733683,-0.0033154197,-0.32281926,-0.038889978,0.002700513,0.015225125,-0.28285995,0.002898444,-0.0056235446,0.015346286,0.017435249
N1310,0.027891738,-0.0050407047,-0.009040354,0.005403721,0.022728007,-0.0039448356,0.016450027,-0.008426378,0.026338145,0.0145779075,-0.016080476,0.02991907,-0.0018550236,-0.008976734,0.03243979,0.01727435,0.038742606,0.020508546,-0.022580396,-0.053192623,2.6097817,0.0047736424,-0.032954395,-8.9167705e-05,-0.009163659,-0.013947347,-0.011582585,3.0124834,-0.0031469937,0.014399339,-0.028865438,0.025604725,-0.05116057,0.030371241,0.00037927277,-0.03096525,-0.026268154,-0.025513578,0.0022664426,-0.0039918176,-0.011980361,0.03131612,-0.010484106,-0.04149155,0.059297435,0.018370658,0.00056844146,0.035582576,0.01513301,0.022359371,0.00011565101,0.01613845,-0.015217182,-0.013373473,-0.02260423,-0.5056878,-0.021221632,0.043721937,-0.072079174,2.9710853,-0.0015051747,-0.020438392,0.030068548,0.017495163
N2590,0.02049105,-0.0071077645,-0.009989125,0.003314991,0.022178726,-0.0031361869,0.012793068,-0.0050668176,0.0290024,0.01956421,-0.016306266,0.027732966,-0.004553455,-0.008672998,0.028975809,0.015848687,0.043550186,0.023004716,-0.018726751,-0.049137805,2.4762325,0.0008910908,-0.031361353,0.00020119011,-0.009795737,-0.015849225,-0.005882217,2.9975321,-0.0047898553,0.01389818,-0.025575556,0.030012472,-0.050235454,0.025285931,-0.0024490717,-0.032075554,-0.02665736,-0.02540086,-0.003989153,-0.003614564,-0.006002801,0.03162395,-0.0073981644,-0.038358856,0.059434917,0.022513924,0.0019888985,0.03382011,0.018146774,0.023241248,0.0028548886,0.016365914,-0.013221216,-0.014691545,-0.029612595,-0.43330574,-0.019773038,0.037542902,-0.065318964,2.9607587,-0.0025130333,-0.01648841,0.027698422,0.017271915
N4534,-0.011304818,-0.014700927,0.005319798,-0.003751454,-0.00094116246,0.011294062,0.010899935,-0.019046286,0.019283572,0.0025045036,0.009917894,-0.012056653,-0.003109589,0.00514308,-0.006796604,0.0053723142,-0.0054405974,-0.0117699215,0.0075547677,-0.0067771217,0.7414113,0.020415457,-0.000329722,0.017780254,0.0083671305,0.0078663025,-0.0040356084,-0.056021146,-0.024015592,0.0053437026,0.019268936,-0.001360754,-0.004301106,0.003031445,-0.0059979963,0.008286698,-0.013685326,-0.008275677,0.0165985,-0.0069607,0.008584417,-0.000881308,0.006518949,-0.014305317,0.008837629,-0.011348833,-0.017091699,-0.00063049624,-0.0062546427,-0.008416522,-0.018522251,-0.0024475034,0.0072546545,-0.00074211543,0.0031216978,0.63377315,-0.02279355,0.012601325,0.012668555,0.044164296,0.0007413961,-0.0051164376,0.007822391,0.0040810537
N2534,0.02015697,-0.0067352024,-0.008075369,0.0058150846,0.014102815,0.0010443946,0.014691573,-0.0111732,0.024946174,0.010128212,-0.013553742,0.02369661,-0.0012888527,-0.0069598593,0.024874361,0.015215596,0.034021188,0.016036993,-0.019099325,-0.04421143,1.8349886,0.0047151637,-0.02727052,0.0027860508,-0.008214273,-0.01400388,-0.010541531,2.5744827,-0.004607337,0.017762987,-0.016226694,0.02381029,-0.039106697,0.028774697,-0.0017415507,-0.020595787,-0.022722436,-0.017529802,0.008756618,-0.0031322862,-0.007948801,0.029830955,-0.0076580793,-0.03154656,0.050404903,0.016678272,-0.00507569,0.028209409,0.014603856,0.019793363,-0.008085427,0.013580813,-0.013283802,-0.010712503,-0.017740777,-0.15702692,-0.023603017,0.038024493,-0.056506153,2.3410282,-0.0040832353,-0.013782344,0.032208692,0.017353015
N3659,0.018273616,-0.006987185,-0.009099957,0.003737558,0.017457249,-0.0026810265,0.012427039,-0.01120009,0.026774017,0.013021783,-0.020140983,0.025477072,0.002742237,-0.0040255394,0.027584448,0.015580824,0.038878314,0.017694673,-0.023714198,-0.046628796,2.2081523,0.008440157,-0.03146234,-0.0002290623,-0.013500692,-0.013423781,-0.010801255,2.841641,-0.0065800943,0.016338104,-0.018483736,0.02988224,-0.043785196,0.020481054,-0.0063801818,-0.030060684,-0.023783688,-0.019113673,0.0025773353,0.0026025267,-0.0063698436,0.03506571,-0.009968132,-0.034387596,0.05423594,0.02416037,-0.003593926,0.028092006,0.019733444,0.022151707,-0.0037618396,0.012455672,-0.00877844,-0.0097147925,-0.02171214,0.098418966,-0.023833958,0.033374924,-0.057286505,2.6150715,-0.005482654,-0.010845577,0.03279396,0.012942798
N444,0.025414743,-0.0062916186,-0.011641477,0.0029562856,0.017739978,-0.002463775,0.017012892,-0.009896752,0.023462567,0.01373603,-0.023387313,0.029241849,-0.00026756132,-0.0053347284,0.029109152,0.018190034,0.036899976,0.018986927,-0.022165313,-0.048277725,2.3582885,0.0062809335,-0.03462012,-0.0021604078,-0.015379876,-0.014955458,-0.014293507,2.768081,-0.0038206107,0.016156252,-0.026979022,0.030279411,-0.047229342,0.025734255,-0.0018718889,-0.031844303,-0.025957897,-0.020304626,0.00267971,0.0026027998,-0.010356085,0.036997106,-0.01437112,-0.03560768,0.06046432,0.02566654,-0.0027026825,0.032521583,0.019226512,0.024311243,0.00013886947,0.009972782,-0.012601105,-0.015995359,-0.021554122,0.1996511,-0.018467456,0.04021138,-0.064161666,2.8669696,-0.004153824,-0.012157912,0.030320095,0.011792316
N838,-0.010067278,-0.023965303,-0.0012036307,-0.00025394798,-0.004367028,0.00943995,0.006767723,-0.017009413,0.0222341,0.0022331192,0.0058858953,-0.016965292,-0.007921654,0.0023599593,-0.006203575,0.016467972,0.006213789,-0.012687397,-0.0014117276,-0.01942207,0.55556625,0.013860849,-0.011406131,0.01664506,0.012421881,0.0067230784,-0.008686684,-1.4984115,-0.020583874,0.019018648,0.017840201,0.008400569,-0.003351254,0.018234873,-0.007179372,0.012588966,-0.022270374,-0.010193011,0.020779232,-0.00275187,0.0022065314,0.022276407,0.002586829,-0.015310459,0.018350156,-0.016529227,-0.020683832,0.0022943392,-0.008445577,-0.0039849235,-0.023141649,0.004063884,-0.0011400508,0.0073393835,0.00781694,0.004650018,-0.018052842,0.027420055,0.0034798507,0.7293877,-0.009301658,-0.003748974,0.019521233,0.0055473587
N3260,-0.00022389083,0.0010246175,0.00015266686,0.00034054692,0.007890903,0.012330096,0.010260193,-0.017162638,0.021828568,0.0053535486,-0.007403646,0.0061100307,-0.007318433,-0.0028171865,0.0072691976,0.0030295283,0.023644773,0.009623041,-0.0069592786,-0.016848875,0.04643528,0.008105207,-0.0138890315,0.006405411,-0.005148417,-0.0062362044,-0.00010905715,1.7525535,-0.006845465,0.017120434,0.012626703,0.02021771,-0.02119511,0.012524047,-0.002356896,-0.007958789,-0.017258907,-0.007258818,0.011952311,0.0032777223,0.0026191277,0.018467968,-0.0036936956,-0.014434169,0.026327595,0.017331766,-0.0028156217,0.012794547,0.011585219,0.008101752,-0.019332316,0.0051589105,-0.0010747083,-0.010168938,-0.012226685,0.5496349,-0.02950661,0.018298272,-0.013992124,1.5511218,-0.0052660923,-0.006180645,0.032092102,0.018234428
N4441,-0.016037427,-0.007012923,0.009797555,-0.0006648989,0.003957366,0.013496368,0.005748918,-0.018131122,0.016302899,0.0016741852,0.01597865,-0.017863106,-0.0064465846,-0.0036124312,-0.0043124817,0.0043040705,-0.0045131603,-0.0143415965,0.0029032656,0.0029499335,-0.30916414,0.015610434,-0.0034653977,0.012535623,0.022019498,0.00910333,-0.000714,-0.25107896,-0.02234814,0.001764472,0.017282642,6.269924e-05,-0.0073418645,0.00947958,-0.014292395,0.013118852,-0.014422545,-0.015520356,0.018690865,-0.005732715,-0.0012135635,0.0022531904,0.008273802,-0.01922244,0.0022628498,-0.021952277,-0.010627642,0.001975178,-0.0118818665,-0.010432036,-0.020499209,0.0005247573,0.00913142,0.0047760517,0.002752055,-0.4357111,-0.02472379,0.01376629,0.010815659,0.32856444,-0.0065435045,-0.015172028,0.006618968,0.013574807
N1813,0.011437234,-0.013295956,-0.016746597,0.029881472,0.023888355,0.0013654165,0.016631996,-0.008675011,0.03526894,0.005385096,-0.03726062,0.017076539,-0.012958351,-0.0084771095,0.026020303,0.00042385978,0.040301092,0.0112200035,-0.050491262,-0.035364356,0.6453248,0.0015716213,-0.0324288,-0.007230567,-0.01641473,-0.019312767,-0.011475098,4.217607,0.016770372,0.032111846,-0.040125914,0.007866956,-0.013868814,0.015952652,-0.0074327663,-0.024488771,-0.022747606,-0.0072129373,0.001045836,0.010283285,-0.017756337,0.03477975,-0.010563568,-0.01770224,0.010090368,0.0063602854,-0.0042701303,0.0139741115,0.012567232,0.032232918,-0.026880266,0.010630627,-0.021792939,-0.0041265213,-0.025792897,0.40403852,-0.03005428,0.007932708,-0.040717185,1.2700495,0.0026164271,0.009716065,0.03953713,0.027924716
N2879,0.008765278,-0.02523576,0.0032933375,-0.004739071,-0.0014582203,-0.0075439373,0.010722482,-0.006013352,0.024471585,0.008526095,-3.1583473e-05,0.0049676597,0.010158753,0.00873764,0.0023757762,0.01159996,0.003007346,-0.0006989877,0.0011702264,-0.02825327,2.3181627,0.015212584,-0.008404151,0.012949149,0.0032555708,0.005826567,-0.019847495,1.0884693,-0.0077552167,0.00059001864,0.0075300476,0.005485603,-0.015733246,0.016679669,-0.007655614,-0.01180483,-0.017529773,-0.012938815,0.0074959104,-0.0129742995,-0.0013370115,0.005702175,-0.01118007,-0.01932507,0.024765363,-0.0022125875,-0.02170443,0.017932031,-0.0018258805,-0.008638407,-0.014725813,-0.008130232,-0.0011647781,-0.005533144,0.013297734,0.06108989,-0.02052291,0.01479266,-0.011387642,0.00013858361,0.0073517985,-0.0060960646,0.010916494,-0.007310019
N3422,-0.006645807,0.011429506,0.02074797,-0.011594531,0.0011647171,0.012932729,0.01575818,-0.018881233,0.008926655,-0.0068714623,0.020349797,-0.03400679,-0.0072610327,-0.004111381,-0.0011656971,0.0025411563,-0.015358815,-0.0075404323,0.01756387,0.013048598,-0.9857763,0.0055066757,0.005631768,0.016994033,0.01851431,-0.00047316536,0.0034610792,0.18520163,-0.016645603,-0.009743159,0.03438923,-0.00457893,-0.008611083,0.0075582797,0.0035244562,0.019258756,-0.0037497291,-0.021555506,0.0055457503,-0.0072878595,0.0041815983,-0.008243732,-0.004664852,-0.012555849,0.0092740655,-0.009797333,0.010106137,0.007964093,-0.00563549,-0.025028989,-0.0042956374,0.0013373835,0.011259564,-0.008348425,0.0025661401,-1.070901,-0.036598485,0.0151440045,0.0233966,-0.5175799,-0.0018637914,-0.020446362,0.00038672768,0.01776368
N1165,-0.007504014,-0.025987081,0.0009430108,-0.0074645993,0.011182993,0.0021598288,0.007305059,-0.01650331,0.015855933,0.0031043547,-0.0043465723,-0.0053837276,-0.0027196596,0.0067294366,-0.00031382916,0.020525977,0.007755402,-0.016011434,-0.0075630327,-0.021491306,1.5373033,0.019725394,-0.015287927,0.009579371,0.0009133697,0.01371408,-0.01277344,-0.5864971,-0.018204676,0.014084752,-0.0009854635,0.008819404,-0.010342521,0.0030137517,-0.010001757,-0.0014052013,-0.024033576,-0.0040736627,0.0048544146,-0.00096299424,-0.0008171501,0.018136589,0.0011972587,-0.023239914,0.025203053,-0.014463127,-0.019046001,0.0011114624,-0.010064147,0.008323257,-0.010290544,-0.0012141677,0.0043769213,0.010112812,0.0036829014,0.43713927,-0.005608065,0.019641284,0.0010474835,1.313645,-0.0033122785,-0.002694216,0.010960437,-0.002657022
N2298,-7.709214e-05,-0.015729427,-0.025989112,0.026094506,0.0017999653,0.0035903857,0.0020375326,0.0030192195,0.018971087,0.0087199975,-0.06845472,0.010481306,-0.003459327,0.00053882657,0.00113773,-0.010353014,0.008553427,-0.00035659934,-0.039311964,1.1527492e-05,1.2096467,-0.019157328,-0.026759667,0.0020600595,-0.013481694,-0.01408267,-0.010048015,3.4750385,0.017318266,0.006280455,-0.050751753,-0.02014966,0.01180874,-0.003348627,-0.017919656,-0.012295749,-0.016051935,0.018701104,-0.00847419,0.011525982,0.010612218,0.015604839,0.004924121,0.01967206,-0.020338956,0.0147456415,-0.011089817,-0.004155469,0.0033692638,0.026128229,-0.015137417,-0.00669083,-0.008685672,0.0022815617,0.00058738067,2.3737583,0.0016652638,-0.017554212,-0.010183496,-0.4680883,0.014536395,0.038666174,0.0044907522,0.0065695946
N2675,0.007081199,-0.014585073,-0.028833328,0.029348787,0.007410748,0.0031494019,0.009274625,0.0014618919,0.018434701,0.012879898,-0.06870126,0.010525689,-0.00893955,0.0007139533,0.006529964,-0.0069587063,0.0074028214,0.005777194,-0.037815325,-0.009157202,1.5716505,-0.0102711385,-0.031407677,0.004809362,-0.011017552,-0.02098634,-0.00946385,3.6085138,0.016657924,0.008863715,-0.05160917,-0.0156016825,0.0041791797,0.00208772,-0.0069640432,-0.018195605,-0.01484521,0.010523422,-0.005062916,0.010494158,0.0045914846,0.019833073,0.0006595193,0.011776116,-0.008552941,0.014621746,-0.012165837,0.0039967555,0.0060758707,0.027352976,-0.013572924,-0.011439331,-0.004866405,-0.00909308,-0.005354616,2.66302,-0.0011027332,-0.008329665,-0.01777207,-0.043061472,0.016851656,0.028958635,-0.00014262118,0.0022382787
N530,-0.0032710745,-0.0025649837,0.0048801764,0.0043216054,-0.0030773247,0.015655516,0.0062025283,-0.010620666,0.016591992,-0.004282155,0.00060088263,-0.0007241913,-0.005988689,0.0018369388,0.0046510263,-0.00083083066,0.01746081,0.00087883393,-0.004858334,-0.012640894,-1.1368158,0.0036920253,-0.0020719478,0.0063646603,-0.0010515032,-0.0018330682,-0.001703933,1.446665,-0.00040248246,0.015422325,0.020619905,0.009083444,-0.0048966934,0.018581424,-0.0043118675,0.009138829,-0.00839036,-0.0026618598,0.017398788,-0.001551919,0.00093546836,0.010323753,-0.001458542,-0.012950163,0.009007417,-0.0006106286,-0.010205791,-0.00084910594,0.002106913,-0.004615054,-0.022743626,0.0035231258,-0.0026665505,0.0009402265,-0.0038160586,-0.38346794,-0.035130847,0.004894273,-0.004527879,0.67072713,-0.0040795845,-0.0056880447,0.025327971,0.017847091
N1977,0.009869185,-0.024779683,0.0040848562,-0.004464584,0.0019384378,-0.010030777,0.0062775565,0.0022723798,0.023769965,0.009983973,-0.01236671,0.010518209,0.012819512,0.0024429627,0.0012557491,0.006746659,0.009251879,0.0032651885,-0.005892127,-0.025843237,2.5537126,0.0041584717,-0.011319488,0.010657715,0.0014098024,0.0012954985,-0.017841905,1.7437392,0.00269843,-0.0024570322,-8.112786e-05,0.0053362544,-0.020047782,0.017089598,-0.01009742,-0.017814428,-0.02124888,-0.010836552,-0.0006495049,-0.015313958,-0.00048304524,0.004527502,-0.014123041,-0.011826695,0.020034488,0.0008352168,-0.018643707,0.0245525,-0.0016061584,-0.008368413,-0.01696822,-0.0077098124,-0.0021732335,-0.0069969706,0.017230494,-0.13160643,-0.013601666,0.0072747455,-0.020618103,0.19198474,0.01012708,-0.0027324467,0.008967119,-0.0054104445
N357,-0.00790463,-0.010182296,0.0012139716,0.0020721403,0.003037154,0.0028262832,0.011213162,-0.023498943,0.01991521,0.0040864055,0.0072381916,0.0002537314,-0.0012665399,0.0036798103,0.007621462,0.004941891,0.0021719397,0.0021508883,0.00029054278,-0.01445095,0.5156959,0.024122793,-0.0058238436,0.008747669,-0.0037221177,0.0010154165,-0.0013513241,1.0874131,-0.017329777,0.0056957006,0.011137906,0.008882331,-0.011256141,-0.0021874246,-0.00038354108,-0.0056180027,-0.009303172,-0.0073148054,0.008744781,0.0069403597,0.0076401113,0.0067743994,0.005882891,-0.016581528,0.016764546,0.0015110879,-0.008790752,-0.0021453025,0.008408609,-0.0021060128,-0.011993468,-0.0012344453,0.0055301734,-0.0035348334,-0.00529839,0.7138529,-0.027950834,0.016582768,-0.00025578687,1.139111,-0.000691277,-0.010156432,0.016961401,0.005832792
N515,-0.017916478,0.0026858323,0.020528415,-0.0034323495,-7.6823206e-05,0.015309161,0.002614585,-0.028802088,0.020555453,0.0033831752,0.025201827,-0.05578206,-0.0065140827,-0.004440661,-0.0032851556,0.004159673,-0.020073874,-0.008183214,0.016811095,0.013541173,-1.0462594,0.012890615,-0.0020361727,0.030300915,0.040619187,-0.0070209997,0.012544869,-0.09536341,-0.035626024,-0.014191364,0.05534543,-7.622975e-05,-0.0127685815,0.009119758,-0.0041449293,0.024841284,-0.001981323,-0.035879225,0.018342242,-0.0044676387,0.0054141614,-0.0017525916,-0.0055177803,-0.025209235,0.016194295,-0.01931081,0.007588458,0.014248946,-0.010867421,-0.031223143,-0.01144168,-0.0061799064,0.027937867,-0.009639247,-0.003207212,-1.4721967,-0.049367443,0.019147035,0.028837046,-1.0493839,-0.005955052,-0.03130497,-0.0019897632,0.011529037
N991,-0.017811364,0.0024008201,0.018991185,-0.0019241872,-0.00016062534,0.015414844,0.0021467712,-0.02828301,0.020416217,0.0019267086,0.025817934,-0.05276981,-0.0072285105,-0.004430179,-0.0033454536,0.004293962,-0.020039132,-0.009739452,0.015091183,0.01152785,-1.1776949,0.012852055,-0.0020131972,0.027097708,0.03917976,-0.005225968,0.010844726,-0.08387141,-0.035789944,-0.01358115,0.052567054,-0.0013721064,-0.010697059,0.011199159,-0.005311421,0.024552431,-0.0015203482,-0.034301173,0.019568501,-0.0027662383,0.0033135968,-0.00054875,-0.0056556254,-0.026469335,0.016150296,-0.020027792,0.0059324494,0.013388236,-0.012297903,-0.030083565,-0.012884092,-0.0043843044,0.02704489,-0.008880347,-0.00355017,-1.4952306,-0.048819315,0.020223811,0.027313668,-1.0695667,-0.005959068,-0.028584778,-0.001675865,0.012307605
N1105,0.0014356214,-0.016353602,-0.02563252,0.027433643,0.0037307935,0.0044550416,0.00696888,-0.0018370246,0.022160064,0.010435838,-0.060919028,0.008823649,-0.0055424822,0.00023624417,0.005120576,-0.008735802,0.0074681104,0.0017502629,-0.03775886,-0.006460615,1.4249066,-0.010701147,-0.028797504,0.004081437,-0.010491784,-0.01800397,-0.008337852,3.482,0.011084554,0.010030894,-0.04652205,-0.013740104,0.006231129,0.00012672656,-0.013738196,-0.014512982,-0.014686664,0.011356163,-0.0027660471,0.009944479,0.006708973,0.018093223,0.0036632034,0.011624258,-0.011954478,0.013573916,-0.0143823875,0.00075877755,0.006077394,0.024123546,-0.017210927,-0.007920585,-0.0053095696,-0.003530396,-0.0067226794,2.2779262,-0.005196935,-0.009201008,-0.014105212,-0.12915903,0.011436743,0.030432742,0.005451415,0.0050782044
N118,0.0018272306,-0.007852785,-0.026702061,0.025648158,0.0037944023,0.005974975,0.010379661,-0.0014610749,0.012779456,0.014038294,-0.058254812,0.0059557664,-0.012440556,0.0016546829,0.0037524435,-0.00609595,0.0019502483,0.0037943444,-0.025848057,-0.0005505906,1.1290691,-0.006210125,-0.028068457,0.003931032,-0.007626387,-0.017533975,-0.0032763132,2.895002,0.010714923,0.006126437,-0.042488147,-0.012043918,0.0029479165,-0.0012102864,-0.00614408,-0.014738666,-0.011500655,0.006850626,-0.003402784,0.011578649,0.0045559807,0.015351581,0.004589419,0.011404552,-0.009286438,0.014585985,-0.009855569,0.0004902553,0.007652046,0.023146953,-0.009376834,-0.01221317,0.0013671016,-0.010774406,-0.008396643,2.573436,0.001968982,-0.005179126,-0.008966198,-0.030966125,0.01233769,0.023461979,-0.0066228774,0.0034260934
N2386,0.0068692244,-0.012675355,-0.03374814,0.030771347,0.005806649,0.0030316277,0.0043000705,0.0037423319,0.018597394,0.015407935,-0.07935009,0.016326288,-0.008542087,0.0010058299,0.004087825,-0.008667536,0.010916029,0.0038469853,-0.042255215,-0.00043550343,1.548746,-0.017784987,-0.0337214,-0.000830434,-0.0147539815,-0.015211299,-0.010215252,3.8182604,0.01923266,0.005774881,-0.06600894,-0.02001393,0.0076317475,-0.0038272724,-0.014288289,-0.020248387,-0.015853783,0.016873684,-0.01211045,0.015119245,0.00467127,0.019955272,0.001515353,0.017702153,-0.017700508,0.017964898,-0.009532498,-0.0006635493,0.0056106877,0.03263895,-0.009046579,-0.011550594,-0.0073654703,-0.0045314855,-0.0040004496,2.7795749,0.009380397,-0.014355905,-0.020125525,-0.17784818,0.016428728,0.04018064,-0.0007969312,0.004500689
N3192,0.004613112,-0.015058859,-0.03012623,0.03100051,0.004997034,-0.00084128435,0.0056280703,0.0019737089,0.020220574,0.012780068,-0.06938141,0.013546919,-0.0061905044,0.00051465625,0.006016057,-0.007414309,0.008170915,0.005293616,-0.040231977,-0.008443464,1.57827,-0.011706927,-0.031725723,0.002597971,-0.014269735,-0.019682258,-0.010275837,3.7046266,0.017424656,0.007025805,-0.05393843,-0.015317649,0.006195442,0.00016809434,-0.010000029,-0.019539578,-0.013446901,0.011382074,-0.008086934,0.0140763195,0.005179909,0.018750971,0.0010379625,0.01404596,-0.01301496,0.016660547,-0.011255049,0.0021998826,0.008528038,0.028248375,-0.013006191,-0.010279549,-0.005095935,-0.0046386807,-0.0047414503,2.6686583,-0.00023530138,-0.010156428,-0.016644092,-0.09255594,0.014117371,0.03376859,0.0019782048,0.0024925245
N1508,0.0029049513,-0.010453382,-0.0025967392,-0.00027736058,-0.006160041,0.01918173,0.013084003,-0.018587667,0.014307155,-0.014598706,0.0031234012,0.0026884007,-0.011216011,0.008070286,0.004029622,-0.004072719,0.00034563453,-0.010511452,-0.0029074654,-0.0098940795,-1.5030512,0.006039248,0.003573096,0.0071302857,-0.020036638,0.005858923,-0.011496432,1.2713735,-0.0029833028,0.013033004,0.006444264,0.0012163754,-0.0012542298,0.0057389857,-0.0018518006,0.0073676296,-0.002485287,0.0027875889,0.025861377,0.006673637,-0.0012094479,0.0016312799,0.001589081,-0.0149783045,0.00890268,-0.0017749899,-0.012625793,-0.008509646,-0.0059702396,0.0010721124,-0.017984811,-0.004212951,0.0010077201,0.0014510904,-0.009814532,0.15623342,-0.032113098,-0.0025095975,0.0041845366,0.6799466,-0.002034249,0.0029125155,0.020497158,0.017259464
N2375,0.010780953,-0.009795972,-0.005709318,0.00075802393,0.00770281,0.005127056,0.0049655526,-0.0020486235,0.017156549,0.0024852455,-0.03564719,0.009759389,0.001384771,0.009183443,-0.002111998,0.006131156,0.004954817,-0.005002394,-0.02032198,-0.009600844,1.1935264,-0.0072762324,-0.014002827,0.0019182384,-0.008424692,0.008989774,-0.015626365,1.7667682,0.018222086,0.010232667,-0.005397954,-0.010831002,-0.00093642547,0.015920136,-0.016918363,-0.00751632,-0.01905723,0.0034276026,-0.0077236593,0.007125427,0.005279813,0.02294827,-0.018836873,-0.005630758,0.003917513,0.01359836,-0.007246224,0.011362858,0.0017783975,0.011146308,-0.016194033,-0.004100903,-0.0055542113,-0.001211868,0.011595156,1.2841016,-0.016657742,-0.0039289636,-0.0010223851,-1.5268115,0.012973635,0.021620266,0.019378737,0.0073207216
N4823,0.0021008276,-0.0055377954,0.008624165,-0.0052855043,-0.0053274515,0.019021196,0.00048254285,-0.0091640875,0.012842499,-0.008784244,0.011874593,-0.0038606906,0.0037102804,0.009248298,0.0004967008,-0.0054281456,0.0067725643,-0.007680794,0.008536141,-0.00064109475,-2.1570175,-0.0010374266,0.011651326,0.008818369,0.0012600818,0.007279922,-0.00567389,0.4738461,-0.008730828,-0.00091408007,0.02319451,0.002383488,-0.005494421,0.0100535145,0.0009992418,0.015058888,-0.00022617984,-0.00031349005,0.021064373,-0.003943402,0.004830636,-0.004152384,-0.0005200481,-0.014387968,0.011538061,-0.0044863913,-0.013056902,-8.1808386e-05,-0.006676273,-0.0100053735,-0.014674708,-0.009974974,0.0043884604,0.0052420506,-0.0043260157,-0.64164037,-0.03375608,-0.0067847692,0.00065979874,0.613368,-0.002902384,-0.008640455,0.014599533,0.0050972467
N4503,0.0020544822,-0.0081548495,0.0073508383,0.0032482601,-0.007186182,0.014834759,0.004221179,-0.02138034,0.019487748,-0.01593474,0.011001464,0.0012605883,-0.002290938,0.002190903,0.0054579633,0.0020580974,0.0043672393,-0.010475648,-0.008583691,-0.01393912,-1.595037,0.002944111,0.0047311704,0.0048054834,-0.00921026,0.006399154,-0.011091865,1.564267,-0.005803429,0.011038932,0.0137662105,0.003500803,-0.00010340609,0.0147754615,-0.006907633,0.0103643695,-0.002258071,0.0019736257,0.02210978,0.0006511489,-0.007249094,0.00484008,-0.0030780495,-0.017276084,0.0125769535,-0.0055615846,-0.01563819,-0.0046956185,-0.004657546,-0.0057733553,-0.022894306,0.0012366013,-0.0016830587,0.0053776954,-0.00062115985,-0.82684076,-0.039583374,0.0068128677,-0.002504597,0.32540482,-0.0025437984,-1.5580732e-05,0.026109876,0.020747725
N1910,-0.005988904,-0.0071130763,0.0083143795,-0.0058229826,0.002626889,-0.001170374,0.014121358,-0.014880006,0.019149723,0.003923883,0.008754234,-0.010506924,-0.00012198153,0.0035093322,0.007913774,0.0054086633,-0.0026179599,0.0015292568,0.009073947,-0.0130175,0.94393635,0.01614559,-0.0018707365,0.015237766,0.0060699387,-0.00062752236,-0.0030689372,0.71287256,-0.0155047765,-0.0020419552,0.018563462,0.0012897537,-0.010640697,0.0044968626,-0.0019531045,-0.0012542439,-0.01132092,-0.014317538,0.005686883,-0.0056823115,0.007004242,0.00083995756,0.0012373785,-0.017615117,0.015012705,-0.004021288,-0.0039227195,0.0012644292,0.0038894978,-0.014109762,-0.006278107,-0.00049881055,0.0037507892,-0.0046805134,0.0006922372,-0.10834756,-0.030788474,0.013062929,0.004124239,0.4877501,0.00064706587,-0.014048489,0.007815634,0.0069009205
N2271,0.030846437,0.014394384,-0.012347535,-0.009559573,0.009366034,0.011542394,0.03249536,-0.007913742,-0.009397812,-0.021648578,-0.042347,-0.03353882,-0.020357748,0.023801306,0.0070234686,0.0038559195,-0.02279986,-0.010536207,-0.00046011075,0.0010755954,-1.1997148,-0.014469849,-0.0067294454,0.019138051,-0.022024706,-0.016687192,-0.015839323,1.4597056,0.022565322,0.000933352,0.0075991186,-0.029860541,-0.00014645117,0.014365717,0.012012379,0.0054531633,0.005399027,-0.011622271,0.0070943595,0.015899159,0.004978245,0.019669885,-0.030415745,-0.01091336,0.01538191,0.022754367,0.020722926,0.0036940933,0.0010188991,0.0070616025,0.01130344,-0.0131975915,0.0065028677,-0.023711205,-0.010214798,0.7466353,-0.047246426,-0.01678543,0.034362987,-2.877308,0.023634162,0.009791443,-0.00052660564,0.024706146
N4928,0.026307559,0.013475859,-0.010953634,-0.011001587,0.007994011,0.011516109,0.030918302,-0.0104144495,-0.0075401557,-0.02032686,-0.038625438,-0.035046536,-0.019518495,0.02222753,0.005192504,0.0028093331,-0.023082253,-0.009815731,0.0025112492,0.0014465584,-1.189,-0.011491292,-0.0044053434,0.022160918,-0.019730393,-0.016984543,-0.0147167,1.3888593,0.018100206,-0.00031506337,0.01397702,-0.028882822,0.0011537944,0.012508465,0.011612772,0.0070524486,0.006005185,-0.009467625,0.009348311,0.013511498,0.007937041,0.016662208,-0.028342612,-0.0093271015,0.013859192,0.022769667,0.018437086,0.0028705639,0.0013876882,0.0028232986,0.0096710175,-0.014171452,0.009129539,-0.023681516,-0.008875377,0.76310074,-0.049585,-0.017072905,0.036199726,-2.7576303,0.022806007,0.008578631,-0.00049801555,0.024489086
N4131,-0.0034992462,-0.0051777936,0.020171504,-0.004005604,-0.004105169,0.002921867,0.009211115,-0.020638607,0.01813496,-0.0042423257,0.023566814,-0.020613665,0.0064335074,-0.00089780375,0.0053995335,0.0066786907,-0.005738759,-0.002764993,0.0044527943,-0.0024990311,-0.428816,0.014512419,0.0038966485,0.012864851,0.017098265,-0.00010143253,-0.004852265,0.6668251,-0.0134688085,-0.0061416198,0.028552404,0.00039109564,-0.007790793,0.009543524,0.0010331181,0.010084724,-0.003698234,-0.017969714,0.010465033,-0.008784832,-0.0024829728,-0.000330569,-0.0065949275,-0.01850946,0.014513926,-0.012739607,-0.00424727,0.0020567493,-0.0020879142,-0.024081172,-0.008648719,-0.0018119584,0.006597341,-0.0017351641,0.00938833,-1.3937575,-0.040040296,0.0151287075,0.010195225,-0.20543557,-0.0009498773,-0.01897991,0.0076280623,0.009628937
N160,-0.0015368074,-0.03288806,0.008458516,-0.0014580186,-0.006778868,-0.016041437,-0.0029092457,-0.007810361,0.036203124,0.0053142994,-0.0035668644,-0.002146643,0.023950482,0.011619025,0.00089752174,0.0061481027,0.0008829755,-0.005130449,-0.009991426,-0.031891722,2.3538027,0.01113141,-0.0044796513,0.015190132,0.0019171524,0.006186109,-0.018517612,1.904516,-0.010675367,-0.0040681195,0.021832757,0.003964853,-0.005870968,0.0073740403,-0.024822265,-0.014712601,-0.014305632,-0.008837815,0.00476177,-0.008504729,0.008948646,0.004599599,-0.014390373,-0.013459394,0.011349681,0.002944566,-0.024766864,0.012392509,0.0028632034,-0.017137354,-0.024323165,-0.008731584,0.0005459763,0.0047809533,0.016349819,-0.06987566,-0.037687384,0.0011500805,0.0016524851,-0.85906017,0.008682589,0.002072089,0.02125267,-0.008174681
N4864,0.0041040373,-0.011573183,-0.0028993415,0.020925224,-0.004503648,0.01240066,0.0072152684,-0.026638167,0.023694457,-0.02037532,-0.0065309554,0.009604738,-0.002696565,0.0007831924,0.017900983,0.0014453713,0.025399983,0.0003983035,-0.033321884,-0.044390664,-1.4123545,0.010164343,-0.003970519,0.0076862276,-0.027034152,-0.011569828,-0.010279821,3.1410067,-0.0024938323,0.038145628,0.014491093,0.013932859,-0.0008518748,0.025437396,-0.007818478,0.0049992036,-0.00060241,0.008593132,0.03356205,0.0077870283,0.0029252141,0.028459752,0.0014288943,-0.016088322,0.0195942,0.0032735441,-0.01910124,-0.0039788075,0.013006742,0.011825866,-0.038619492,0.013974293,-0.008689109,0.009018703,-0.008245882,0.060038354,-0.062402017,0.011351603,-0.02290457,0.88955677,-0.0018000448,0.0064744637,0.058144417,0.03412616
N140,-0.003452645,-0.03686127,0.037431728,0.009396322,-0.009300833,-0.022026893,-0.010270056,0.0025874076,0.05173846,0.04426038,0.03820774,-0.046696015,0.019491013,-0.004391334,0.008163608,0.038727272,0.0017714023,0.011011765,0.014407744,-0.028660426,2.6074123,0.025576692,-0.005806103,0.005311101,0.063331984,0.0028680915,0.012588952,-1.5671405,-0.05064622,-0.023431731,0.015012431,0.0155917825,-0.03249307,0.020093447,-0.023982905,-0.0117398,-0.022549002,-0.06045154,-0.017037699,-0.016237222,-0.011325722,0.0012742771,-0.01804921,-0.046263944,0.05206202,-0.03559695,-0.0068896385,0.019530945,0.004853144,-0.039096773,0.007212748,0.0071027745,0.0015021333,-0.008591916,0.0154160755,-4.6385894,-0.02875344,0.06550981,0.00077006174,0.046035025,0.018010711,-0.039384577,-0.019992806,-0.0015466722
N4004,-0.0018902657,-0.037619606,0.03501886,0.009670069,-0.00931227,-0.021419525,-0.0095944535,0.0023045214,0.05212573,0.045277808,0.037517935,-0.044775788,0.020111466,-0.0036572525,0.008860553,0.039737307,0.00291069,0.012022377,0.014960587,-0.028603861,2.6593385,0.02548524,-0.0050716046,0.005147757,0.06314698,0.0042760125,0.011272103,-1.5757622,-0.05019487,-0.023676971,0.014219885,0.015095278,-0.032806262,0.02012315,-0.024539907,-0.012596679,-0.023200426,-0.05853604,-0.016607024,-0.01462726,-0.011448708,0.002626384,-0.017616259,-0.046249848,0.05270353,-0.035068855,-0.0074619986,0.020059558,0.006096731,-0.037921887,0.008063713,0.006706638,0.0011327487,-0.007877644,0.015134649,-4.5227137,-0.028277174,0.06568602,-0.0019891702,0.09088981,0.018830564,-0.03904568,-0.019253846,-0.0011006539
N2972,-0.009373579,-0.009576034,0.0060800696,-0.0047067087,-0.0017716202,0.0068882257,0.013594977,-0.014799267,0.018304743,-0.00021292176,0.011650104,-0.008606705,-0.0014832714,0.0060899523,0.001383892,0.0022899953,-0.0036184858,-0.0053385645,0.006812328,-0.0072484245,0.5265145,0.01619442,0.0017949248,0.012847995,0.002902511,0.0041600303,-0.005714187,0.3835625,-0.012872824,0.0036022505,0.020151692,-0.0003156058,-0.0056525827,0.0042070146,-0.0047891713,0.005679265,-0.011574932,-0.008349403,0.0120103555,-0.0040960084,0.007185766,0.00138734,0.0044451505,-0.013513797,0.0072254823,-0.0049313838,-0.010666612,-0.0017650604,0.0009264641,-0.010010334,-0.012076205,-0.00019963273,0.0023983454,-0.0015286149,0.001563891,0.29132044,-0.0285164,0.0064285,0.009794698,0.083622724,-0.002407919,-0.006471714,0.01099893,0.0077850996
N667,-0.00887502,-0.0071119983,0.012663268,-0.004927198,-0.00071114965,0.006213891,0.013178022,-0.013453417,0.018831847,0.0039616353,0.013354293,-0.020087259,-0.0035447706,0.0034162777,0.00012505968,0.0048565944,-0.008184513,-0.008688308,0.009946784,-0.0028966274,0.5489725,0.015405661,-0.0022666452,0.014375112,0.014187399,0.0025224506,-0.0020987946,0.14113528,-0.018238112,-0.0008449234,0.023945784,-0.0015878989,-0.008666725,0.007661007,-0.010784971,0.007837881,-0.012929661,-0.020357175,0.011086248,-0.0053938106,0.005974043,0.0011087913,7.8018864e-05,-0.018203417,0.008521536,-0.012453763,-0.0051543657,0.0040605194,-0.0040571485,-0.01726557,-0.0132009005,-0.0008356723,0.0058163493,-0.0037279322,0.0011194384,-0.53570366,-0.031276055,0.0130249085,0.015406613,-0.2918123,-0.0012380814,-0.014659505,0.006062849,0.010644022
N4157,0.00036771086,-0.017851966,0.010409086,-0.005279629,-0.0023914804,-0.004117602,0.0029218066,-0.009549811,0.023769833,0.003307919,0.0008466635,0.0031112225,0.015290597,0.0042849435,-0.0014493638,0.008225325,0.010248313,0.0036187288,-0.005914451,-0.02130615,1.5128338,0.009776449,-0.003015419,0.012299537,0.0031947596,0.007075535,-0.0154284965,1.4864911,0.00066664105,0.002117069,0.023175642,0.009707191,-0.012655225,0.015025763,-0.008974358,-0.0070839413,-0.017899202,-0.0055931113,0.002832111,-0.0135894865,-0.00020306116,0.006622073,-0.011519191,-0.008405995,0.016002212,0.00029803274,-0.019177767,0.017647171,0.0012060859,-0.009974324,-0.021303432,-0.0029396922,-0.00071107346,-0.0019705868,0.023174167,-0.04611981,-0.023219377,0.0075098583,-0.009288652,-0.22229074,0.0074701565,-0.0031690917,0.020677418,-3.4754237e-05
N2389,-0.011088823,-0.02047069,0.00646827,-0.0056544114,0.00088556844,0.0059941118,0.008323117,-0.0077978885,0.018515546,0.0056172954,3.3961387e-05,0.0014261343,-0.0019323573,0.007001473,-0.0058571026,0.0045112064,0.0009622006,-0.005025411,0.0017344772,-0.01639135,0.9995891,0.018775905,-0.0046208836,0.01255243,0.0017894238,0.0082456255,-0.009908331,0.12562604,-0.011356658,0.010255331,0.00844271,0.00679485,-0.0009736857,0.0037438946,-0.0049178274,-0.0007309199,-0.018848896,-0.0042998856,0.004799613,-0.0068021645,0.0072515304,0.0037585981,0.003650434,-0.012984052,0.009798962,-0.003541083,-0.020177254,0.0024444987,-0.0051812613,-0.0004233282,-0.019636525,-0.006710634,0.005117272,-0.0014725194,0.0073074303,1.3945507,-0.013535701,0.0061612143,0.014018307,0.41176742,0.0037046298,-0.00051098893,0.0073610675,-0.0079325475
N3736,-0.018939735,-0.02215097,0.09862732,-0.025155496,0.025820399,-0.020913396,-0.023471389,-0.024495233,0.10104334,0.05950545,0.036308523,-0.033487774,0.0056590764,0.016395843,0.016271058,0.0014482598,-0.0027659172,-0.0154312095,0.006935215,-0.0070420248,-0.3507607,0.06475502,0.026315685,-0.03445845,0.03273823,0.048120867,-0.014160298,-2.5591576,-0.0728471,-0.026951097,0.021112978,0.01415824,-0.036020856,0.006839969,-0.027055781,-0.034988753,-0.04711221,-0.054654848,-0.06653821,0.057733767,0.033367697,0.014545916,-0.0009321819,-0.08155309,0.0815875,0.0014309571,0.0128458785,0.00012901938,0.013444877,0.005188399,-0.024466736,-0.025007406,0.008144621,0.008935134,0.033124734,-3.1021516,-0.10699547,0.048765358,0.06401567,-4.485467,0.061429143,-0.04061715,0.04606264,0.01382244
N4465,0.00125236,-0.005344045,0.0033304018,0.0014222047,-0.0010495678,0.017324096,0.0072657974,-0.012743255,0.012743236,-0.0058717285,0.0026174057,0.0062164715,-0.0064747822,0.0042704595,0.004211255,0.0014292961,0.017772067,-0.0020112344,-0.0017990281,-0.012760026,-1.0649221,0.0067794635,0.00068842527,0.0031481427,-0.006317653,0.0075530573,-0.004336893,1.0843132,-0.0050728153,0.016252786,0.014013033,0.0063918186,-0.004146118,0.012620007,-0.0056877383,0.01035477,-0.0105352895,0.0034403936,0.017036473,0.0033029602,0.0042101312,0.010124259,0.0006916346,-0.015883192,0.014267069,-0.0012421578,-0.008748915,-0.0026264295,-0.0009261179,0.0007090455,-0.019129649,0.0032701,-0.0018963317,0.00413068,-0.0040255124,-0.095713995,-0.030576631,0.005345359,-0.006013376,1.0388113,-0.0036822567,-0.0051708226,0.029510198,0.015772298
N1513,0.036244724,0.017300447,-0.01694312,-0.0061532,0.01554844,0.014124369,0.030623633,-0.008269811,-0.008337566,-0.020430474,-0.056457896,-0.030091876,-0.022643175,0.020714207,0.0084635895,0.003816373,-0.018893695,-0.007529656,-0.008341364,0.0034803413,-0.83805186,-0.019815138,-0.012124039,0.015296963,-0.02113107,-0.016547278,-0.015567335,1.9169043,0.025777588,0.0054867393,0.0003728238,-0.037067752,0.0033117672,0.0158077,0.008909073,0.0036179936,0.0015452659,-0.0063464665,8.911319e-05,0.020404432,0.010214049,0.026972037,-0.03171215,-0.008229522,0.0151311355,0.029002164,0.026297258,0.0061097485,0.001456995,0.01264578,0.009735762,-0.007969541,0.0017380727,-0.021857323,-0.008638786,1.1885408,-0.04568925,-0.014097934,0.027532386,-3.2045686,0.027413327,0.015584126,0.0061136116,0.02834165
N1932,-0.00916022,-0.0028087099,0.0015960243,0.0065797605,-0.002063674,0.016133431,0.010245134,-0.018325407,0.015287157,-0.0031043012,-9.875086e-05,-0.0043777646,-0.012070865,0.0032359825,0.0015596165,8.597053e-05,0.005259876,-0.0093219,-0.0029275215,-0.0060934946,-0.87645,0.014726271,-0.005504974,0.0058728294,-0.0035388507,0.0036470634,0.0017991692,0.8591123,-0.011479819,0.013375674,0.011420585,0.006099412,-0.0043054568,0.0061848243,-0.0063130916,0.006357716,-0.0068906397,-0.0055025783,0.019909741,0.0056887753,0.00091493176,0.0049072583,0.005812903,-0.014973225,0.005088629,-0.0073156804,-0.01018933,-0.0087980535,-0.000659762,-0.0017809027,-0.021105124,-0.00036214443,0.007927313,0.00092150253,-0.008688241,0.17131697,-0.027359903,0.007787618,0.006720202,0.8435415,-0.0068192217,-0.0041380674,0.015887357,0.017330699
N16,0.0002644207,-0.003183591,0.009278858,-0.0015723436,-5.5207274e-05,0.015829848,0.007656686,-0.012521916,0.012048211,-0.012183102,0.007263095,-0.0013353879,-0.0044497713,0.0017327133,0.0055160397,-0.00088773476,0.008705035,-0.006687418,-0.0017187549,-0.010463678,-1.4172196,0.0038405561,0.00608519,0.0043079625,-0.0043294495,0.0071644085,-0.006649087,1.1211559,-0.002115601,0.00872554,0.016404439,-6.043639e-05,-0.0017163372,0.013512876,-0.004123579,0.014025123,-0.0059518656,0.0030406907,0.016302342,-0.003242131,0.0014609712,0.0050190142,-0.0020040402,-0.015259625,0.007321163,-0.006616899,-0.009367647,-0.0044849473,-0.0048119323,-0.0097287735,-0.015185193,0.0027242298,-0.0036439442,0.005351494,2.842009e-05,-0.6392666,-0.0355632,-0.00022452878,-0.00263072,0.6645307,-0.0009368179,-0.0056885183,0.022453865,0.018009884
N2504,-0.012978235,-0.0069998824,0.005684163,-0.004880071,0.004127447,0.014350775,0.014407863,-0.015243126,0.016935447,0.0016200573,0.008317358,-0.012578338,-0.0074629164,0.006487016,-0.0044144797,0.0037252046,-0.001664867,-0.010969723,0.007274114,-0.0019306662,0.53006816,0.016061176,-0.0029141821,0.014927774,0.00822282,0.0067686103,-0.0009543611,-0.06923498,-0.017989384,0.007937719,0.019639852,-0.00023055437,-0.00751735,0.004142413,-0.005910507,0.009294259,-0.016323008,-0.01157715,0.012579823,-0.0054576867,0.0058241324,0.0013753865,0.008223505,-0.013878835,0.0068065547,-0.009503774,-0.010188279,0.0023987484,-0.0056940448,-0.0050920565,-0.01670253,0.0008026757,0.0059285667,-0.0019435948,-0.0004109785,0.5188471,-0.021090137,0.010864658,0.011639704,0.24521536,-0.0033546058,-0.008045551,0.008129863,0.008792805
N2628,-0.001547979,-0.0052191787,0.008701987,-0.0035210256,0.007352417,0.018932674,0.006786019,-0.016634377,0.016257066,-0.00046908195,0.012847581,-0.006054435,-0.011667004,-0.0025136091,9.1051996e-05,0.0076967943,0.008926755,-0.0066223755,0.0052413945,-0.0053512696,-0.05551626,0.01028379,6.875334e-05,0.004851377,0.014858154,0.013649036,-0.0010248686,-0.045823634,-0.016658451,0.0048172697,0.011569837,0.0030380252,-0.012801318,0.01593796,-0.0057844324,0.0123002,-0.016599534,-0.004259525,0.011182318,-0.0016688752,0.0036305734,0.013640704,4.5274843e-05,-0.021365557,0.021705225,-0.014200973,-0.00931366,0.0058106123,-0.008376898,-0.0064260312,-0.007635081,0.002522135,0.0005263426,-0.0016465359,0.00036241874,-0.69950974,-0.027317919,0.018139053,-0.0067707,0.9154316,-0.0031881204,-0.013420396,0.015956437,0.016902635
N627,0.0010019405,-0.008247144,0.0063634496,-0.0016758174,-0.0034693393,0.015605358,0.0063348436,-0.0102141425,0.015813988,-0.00599928,0.005057276,0.010603174,-0.0049378662,0.0018948296,0.004258359,0.0007630195,0.021805877,0.0057910336,-0.00202773,-0.018227583,-0.9100894,0.0026406634,0.0020164198,0.00448864,-0.006607683,0.0027912708,-0.0056613316,1.2702478,0.000754431,0.01927589,0.019240644,0.0112278955,-0.0034369612,0.019297939,-0.0064700143,0.009961126,-0.013532232,0.0056912648,0.014293979,-0.0008580118,0.0030060934,0.013521677,-0.0012562819,-0.012460569,0.01628477,0.002878653,-0.010926742,0.003336009,0.0037424157,0.0018184746,-0.023089431,0.005209327,-0.008436491,0.0018077177,-0.0033829499,-0.20265053,-0.03255611,0.0058601787,-0.007173658,0.8490826,-0.0029853121,-0.0031789578,0.03634867,0.018952204
N455,-0.008997747,-0.018319288,0.006704766,-0.012081355,0.016659379,0.0036368167,0.011495138,-0.008081409,0.011561324,-0.00068583165,0.0006821489,0.001798834,-0.00955369,0.0054640463,0.0049903262,0.0063376254,0.0059716045,-0.008868465,0.0026530467,-0.024798173,1.1553234,0.014531848,-0.008405502,0.007975851,-0.004011016,0.005136633,-0.0030202079,-0.32351285,-0.011537079,0.0081675835,-0.002707891,-6.605768e-05,-0.011966258,0.0022309136,-0.005099806,-0.002134185,-0.019771531,-0.0060668937,-0.0013937576,4.2470754e-05,0.004481948,0.0077024777,0.0063713184,-0.025434822,0.015122547,-0.01238643,-0.005134386,0.0014652596,-0.004107115,0.0030970497,-0.0017707533,0.004338827,-0.00013684283,-0.00044413377,-0.011318599,0.06612492,-0.011287939,0.010654723,0.0013911452,2.3005319,-0.0029140082,-0.011841206,0.008028875,0.008230776
N3562,0.011544746,0.0060150656,0.037537374,0.0029300337,0.010976541,-0.010781121,0.0024203782,-0.004028174,0.028991397,0.0026481557,0.056569435,-0.005610515,0.017630672,-0.0102434065,0.013469575,0.010411171,0.0010319918,0.0017355323,0.010991831,-0.0062076985,-1.3415954,0.007288491,0.012058846,-0.019808693,0.038318068,0.012527298,0.006825314,0.23437235,-0.015002969,-0.025436904,-0.0011261377,0.0035524287,-0.023575464,0.018514028,0.013711016,-0.01432215,-0.007337621,-0.034838133,-0.013195016,-0.025611876,-0.032479603,-0.03147287,-0.011953945,-0.02894605,0.02844298,-0.03597626,0.002730722,0.014646996,-0.0072138635,-0.02600729,-0.013186053,0.007525736,-0.009743282,-0.0047905142,0.011104203,-4.1578994,-0.015568777,0.04946695,-0.01756151,0.9935304,0.011405951,-0.048733395,-0.011269359,0.0058975895
N1558,-0.0014082349,-0.011818567,0.008147272,-0.0037200954,-0.0017118932,0.0075990213,0.014379768,-0.016519481,0.017572146,0.0004082549,0.016942024,-0.002863597,-0.0011410557,0.00013355102,0.0023326746,0.0043951673,0.0002714825,-0.0010462874,0.0066549364,-0.012102361,0.79480743,0.016497616,0.00066636066,0.0109931,0.00818194,0.0069618947,-0.0052198544,0.53122395,-0.011978774,0.00262961,0.013898843,-9.197859e-05,-0.01110743,0.010991166,-0.00038720132,0.0033078708,-0.0136227375,-0.010933639,0.013329905,-0.008693799,0.0009756809,-0.0037173515,0.0021110228,-0.018011408,0.013448995,-0.013079318,-0.0116209285,0.0016932674,-0.0034479098,-0.013249758,-0.012335194,0.003138614,-0.0006541588,-0.0030308904,0.004524544,-0.45235515,-0.022052752,0.019300314,-0.0017796919,0.7983754,-0.0015986259,-0.015647253,0.010145284,0.008716639
N4273,0.009372327,0.0069554723,0.040075336,0.0017041338,0.007023099,-0.007967944,-0.0005326224,-0.011239032,0.03213,0.0077405237,0.062360216,-0.012581519,0.019625556,-0.013463152,0.014521846,0.009746702,-0.0038266443,0.006347868,0.019723602,0.0029778625,-1.4779558,0.00953392,0.016141193,-0.014942208,0.04716125,0.012216899,0.011376315,0.41894367,-0.025508301,-0.034776323,0.009740553,0.0031267076,-0.024466872,0.015506547,0.0125873275,-0.010546125,-0.0057830233,-0.035860892,-0.012644038,-0.021975983,-0.022579324,-0.0326274,-0.010675111,-0.029848006,0.033445828,-0.034778822,0.008045387,0.0166118,-0.005600903,-0.03517313,-0.010610581,0.004560395,-0.002636818,-0.0067434693,0.012343928,-4.132539,-0.02354833,0.05249272,-0.018267984,0.6271111,0.013784347,-0.055488516,-0.010993203,0.0054350086
N4570,-0.002369738,-0.010675241,-0.0024188715,0.011863299,-0.010843956,0.01478872,0.010172333,-0.023072533,0.017992485,-0.012525622,-0.0022163675,0.0057004453,-0.0035374023,0.006941256,0.008335666,-0.0037332033,0.01531407,0.0027311158,-0.014772431,-0.030964386,-1.0298877,0.013108945,2.7094957e-05,0.010966349,-0.023689015,-0.0075516864,-0.0036412468,2.2440367,-0.0011694279,0.029003873,0.025635928,0.012508604,0.00077799946,0.012778644,-0.0030858344,0.007042477,0.00017579505,0.0066606193,0.02833094,0.008392724,0.011690084,0.015189466,0.0047928337,-0.008957541,0.011355105,0.009075617,-0.015857201,-0.009295556,0.012430621,0.0026963798,-0.030005831,0.0073550353,-0.0011995054,0.0031587328,-0.0067634117,0.6210871,-0.04924167,0.0036751744,-0.0024520457,0.761222,-0.0025576954,0.0041852663,0.04297454,0.022159519
N3540,-0.009404212,-0.0044292198,0.020561537,-0.0011906704,0.0057492447,0.010478355,0.010810059,-0.012333506,0.02085229,0.008097369,0.019376189,-0.021295756,-0.0060839374,-0.0050716684,-0.0017024878,0.006533879,-0.0028450019,-0.008610294,0.008475963,-0.00010297628,0.6451537,0.016436446,-0.0032812306,0.0107055735,0.027909758,0.0070578074,0.0074612303,-0.063844316,-0.022319188,-8.7645196e-05,0.017992849,-0.00078584376,-0.017004067,0.010300716,-0.0107071,0.0072966274,-0.020179592,-0.027633227,0.009166738,-0.014083421,0.0015684204,-0.006141433,0.0014760961,-0.02119471,0.011645782,-0.023442242,-0.0049519544,0.008093834,-0.009754155,-0.020256933,-0.017523907,0.0043082186,0.0047368603,-0.006842895,0.005718931,-1.2016705,-0.022218585,0.02448745,0.007084676,0.5221189,-0.00093200535,-0.02537684,-0.00033454364,0.011065906
N3783,-0.0063515366,-0.004621822,0.004177977,-0.0028812508,-5.4365846e-05,0.013635812,0.009050725,-0.013867941,0.016175743,0.00013453786,0.0058007147,0.0005677209,-0.0019966122,0.0015605687,0.0018062848,0.0023214223,0.013779348,0.0028093602,0.0023891611,-0.006937302,-0.06748104,0.009890324,-0.0027400542,0.007592868,0.0011604892,0.0019367766,-0.0017241805,0.8070355,-0.007940363,0.010522279,0.018875245,0.009543921,-0.009376785,0.010660782,-0.004455217,0.0058399406,-0.014150476,-0.00269905,0.011424878,-0.0007653691,0.006131621,0.01008388,0.0018630964,-0.010936685,0.013153532,0.0034456628,-0.008387142,0.003596727,0.0046471274,-0.0021021215,-0.016623063,0.0039844783,-0.0009133478,-0.002270945,-0.002113861,0.21760383,-0.025060588,0.0096792225,-0.0018265584,0.8125166,-0.0059836637,-0.0067766146,0.023336831,0.013151679
N1243,-0.01239438,-0.012124213,0.004166673,-0.0035053769,-0.0028524944,0.0049393126,0.007957497,-0.023072314,0.016674979,-0.0038847807,0.0067373905,-0.014311106,0.0033422231,0.0067331414,0.0026530116,0.007844751,-0.0025217044,-0.00854771,0.0014809179,-0.010291019,0.4094936,0.018184464,-0.000988709,0.014003216,0.0017028286,0.006367779,-0.008872371,0.29063654,-0.018149106,0.006656,0.028176714,-0.00029976811,5.661572e-05,0.0007836957,-0.014114528,0.0084015895,-0.010875339,-0.002040142,0.011896464,0.007135834,0.013567014,0.014637948,0.003647523,-0.011836212,0.009142458,-0.002536546,-0.00782641,-0.005828618,0.0009178692,-0.0071157385,-0.014157118,0.0038846827,0.0037171005,0.010763463,0.0047842865,0.6180339,-0.03338819,0.0093004,0.012993995,-0.5518227,-0.0017768855,-0.0024836475,0.023551287,0.009991217
N1624,-0.0037249378,0.0044134846,-0.024917617,0.029722339,-0.00016683635,0.0034845106,0.018647052,-0.025312845,0.016885376,0.015748857,-0.024993958,0.006904868,-0.018046068,0.0067290775,0.015852747,0.002164784,0.006179543,0.020404888,-0.009918669,-0.03192242,0.5930624,0.03453103,-0.024866283,0.0069910754,-0.022019159,-0.024002574,0.014006157,2.5834742,-0.01299471,0.017227618,0.005620682,0.027206853,-0.015417344,0.0007247058,0.012251926,-0.021873925,0.005836427,-0.014457395,0.011623543,0.031331167,0.0136166755,0.02420502,0.005280426,-0.008650381,0.022378154,0.030399764,-0.004618699,0.0040129935,0.03824393,0.015261896,-0.008019857,-0.008649067,0.01591819,-0.023908095,-0.03258602,3.115786,-0.033195972,0.025315814,-0.0072567714,1.5664078,-0.0009159392,-0.004164256,0.017982747,0.0022294347
N3340,-0.0065150126,-0.0035155972,0.005741012,-0.0019664762,0.0086886985,0.013983414,0.011207747,-0.006895891,0.021482943,0.008842293,0.005130791,-0.007110473,-0.020901697,0.008397247,-0.0022181438,0.012571454,0.000179351,-0.0075553884,0.009618162,-0.014520631,0.9701029,0.009576157,-0.0029535354,0.00674982,0.00042765378,0.014142925,-0.0048583536,-0.31112587,-0.013534627,0.01037937,0.013478271,0.0010942124,-0.006289862,0.017150644,-0.009963856,0.007903714,-0.02204526,-0.0122337835,-0.0037174406,0.009692411,0.010097239,0.017965611,-0.002178545,-0.022511212,0.02357297,-0.0035518443,-0.0009978986,0.010711234,0.0003623196,0.008419968,-0.00798058,0.0003134534,-2.4594774e-05,-0.004270984,-0.0004673124,0.8589836,-0.027327422,0.018192684,0.015018385,-0.844666,0.004254924,0.00087636145,0.014909288,0.01594258
N4655,-0.009008823,-0.024283597,0.0111327525,0.00090640225,-0.0043390645,0.009303821,0.0025365567,-0.017722925,0.032567974,0.01742906,0.021503637,-0.032367453,-0.003037913,-0.00018312004,-0.0016083505,0.021276344,0.0015743229,-0.007067031,0.0076062526,-0.012248984,1.1651006,0.020926412,-0.0062357113,0.018495893,0.035703085,0.0126955025,-0.0053861407,-1.0408658,-0.035808153,0.00012811927,0.0290732,0.007958277,-0.016202841,0.019875063,-0.023100764,0.008383219,-0.021917826,-0.025283452,0.0150332665,-0.0024937063,0.004384552,0.022330636,-0.00074053,-0.027717711,0.030786255,-0.025952792,-0.019034151,0.0102339685,-0.006795699,-0.020733416,-0.012033438,0.0005872392,0.0061961077,0.005070272,0.009667268,-1.4328797,-0.03583975,0.034952395,0.0047252662,-0.3374257,-0.0012156008,-0.018294333,0.009540798,0.008903391
N1897,-0.015273447,-0.010802167,0.014889525,-0.002975264,-0.001215354,0.010554168,0.006637423,-0.020856181,0.022100495,0.0061573065,0.015941305,-0.02171925,0.004604099,0.00047522705,-0.0055851275,0.005123029,-0.0034031137,-0.011811795,0.0073422403,0.002648922,0.52241343,0.020968266,-0.0024726156,0.016124086,0.023295429,0.007508504,0.0009292533,0.074188836,-0.028486492,-0.0005108035,0.028220685,0.00223173,-0.010040556,0.00091757684,-0.016083915,0.007813222,-0.015592395,-0.017416509,0.015374453,-0.0094582345,0.005749115,-0.0027873279,0.006562818,-0.015508812,0.006403026,-0.017109314,-0.013451418,0.0021474622,-0.0067278137,-0.017851237,-0.021604784,-0.00066083815,0.011950439,0.0019913313,0.0062260656,-0.27595195,-0.02556135,0.015554762,0.012100491,0.093989596,-0.0041633807,-0.016077215,0.0073846555,0.0063116937
N1369,-0.005610453,-0.0039660376,-0.005871888,0.010771142,-0.002634318,0.008681729,0.009958703,-0.013828715,0.01678869,0.005864386,-0.0084568765,0.0038490267,-0.009833108,0.0037474218,0.005459104,-4.77775e-05,0.01283364,0.009505698,-0.0047978777,-0.021495372,0.05840959,0.016618313,-0.011870315,0.007709985,-0.008368213,-0.009376539,0.0044872155,1.659191,-0.003351342,0.018953303,0.019814778,0.018118748,-0.00921033,0.012804713,-0.0028678016,-0.003405402,-0.0060577653,-0.006776229,0.014894153,0.013231234,0.0094643505,0.01663882,-0.0011087729,-0.011052883,0.014078032,0.01410203,-0.0077222427,0.0040731835,0.01648418,0.0010134352,-0.01980253,7.777025e-05,0.007584184,-0.008753222,-0.011271166,1.0308998,-0.03377498,0.01078799,0.0008580855,1.0265933,-0.0065794317,-0.004800796,0.026545728,0.009863831
N2318,-0.0039737755,-0.0074680843,0.0033502385,-0.004738618,0.0011954036,0.009126352,0.016130414,-0.016459068,0.021046588,3.2876521e-06,0.014609324,-0.0049566254,-0.007295027,0.0038377529,0.007917422,0.002298883,0.0027943407,0.0027002837,0.007824792,-0.013627406,0.66968066,0.0149923,0.0029382736,0.013298376,0.0005340314,0.001648828,-0.002285338,0.8367715,-0.011819221,0.0025960184,0.017338682,0.000397669,-0.011538637,0.0088341655,0.0027232992,0.0049877046,-0.012045065,-0.008144848,0.011186704,-0.0040911115,0.0088367835,0.0036011143,0.00055315497,-0.017406892,0.0144517105,-0.0025312973,-0.006253199,0.0008207427,0.0039041748,-0.01342315,-0.0047763977,0.001899933,-0.0031405073,-0.00890192,-0.0036276234,-0.096210346,-0.03440962,0.010871832,-0.0035554236,0.76308984,-0.001538558,-0.011928233,0.016157255,0.012330628
N1390,0.0074958806,-0.025567994,0.0023158623,-0.0064305863,-0.0033059723,-0.016918477,0.008435518,-0.004045835,0.028145837,0.011458953,-0.008789891,-0.0017067024,0.012028251,0.020473668,0.007383617,0.01367696,-0.004226526,-0.00073974486,0.0014936192,-0.029301269,2.8749735,0.0137699,-0.004771284,0.014204829,-0.0069528744,0.008196892,-0.017173734,1.2685529,-0.009846831,-0.012280173,0.012163658,-0.004133524,-0.009565686,0.001719485,-0.012195122,-0.016183024,-0.014103164,-0.013400383,-0.00720658,-0.0019074373,0.0105969915,0.0057533695,-0.016395623,-0.019749047,0.022803523,0.0045774933,-0.010458124,0.0136722205,0.006750233,-0.012668993,0.00043460878,-0.01347534,0.0038875383,-0.0061611678,0.0045366352,0.37525815,-0.027567828,0.0017150422,-0.000209272,-0.91377056,0.014250652,0.00023559168,0.0076483074,-0.010311804
N3459,0.003505159,-0.025341138,0.0048469948,-0.0033594267,-0.0042165197,-0.006546883,0.0074731247,-0.013277056,0.028536258,0.0025967057,0.009061511,0.004686219,0.010488229,0.008941584,0.0047694864,0.007387592,0.0038891928,-0.00016484178,-0.0016617505,-0.033101812,1.9569976,0.018405015,-0.0012785923,0.013569923,-0.0020802345,0.0074649476,-0.01804594,1.4042096,-0.010021268,0.0029714273,0.016934233,0.004492628,-0.011031203,0.014207139,-0.010258269,-0.0075028096,-0.0140390005,-0.008472475,0.011134791,-0.009577238,0.002994991,0.0077572362,-0.010433448,-0.021086203,0.020175248,-0.0021307936,-0.022595983,0.01074739,0.00125137,-0.012316868,-0.017115498,-0.004532071,-0.0029354305,-0.0026599811,0.01224175,-0.23822202,-0.035324745,0.009966615,-0.009514024,-0.1791486,0.006739277,-0.0040290216,0.021488309,-0.00046484248
N369,-0.0010514462,-0.025232965,0.0047585927,-0.0009958481,-0.0021172075,-0.0057077375,0.008286547,-0.014149352,0.027883437,0.0012707884,0.011504041,-0.00062311505,0.007539857,0.0053247977,0.0061804997,0.004779024,0.0017818206,-0.00047684714,-0.003939783,-0.033657383,1.8650439,0.019944083,-0.0010975618,0.015782038,-0.0003572951,0.002672316,-0.016247058,1.5175457,-0.009678,0.0027893276,0.01661191,0.0027220976,-0.0120665245,0.013128639,-0.007742838,-0.0058454354,-0.0140473815,-0.010948971,0.012676444,-0.010872778,0.0051929196,0.0070494283,-0.006050335,-0.019888788,0.01604367,-0.005199255,-0.022430683,0.008049475,-0.0006518097,-0.014891224,-0.017987395,-0.002236385,-0.0039474196,-0.0030005635,0.01367594,-0.27272037,-0.03879651,0.008886425,-0.010063254,-0.09991656,0.0075077466,-0.0069629084,0.017933045,0.0018247205
N4204,0.017761508,-0.03652256,-0.00075605843,0.00010278104,-0.0043139164,-0.014909005,-0.0018084076,0.007659252,0.028627997,0.013712458,-0.032362677,0.020293433,0.016825242,0.0052492837,-0.007205305,0.0072595393,0.001222649,-0.004613283,-0.017751403,-0.019895786,3.118345,-0.012267408,-0.016117606,0.0034455694,-0.0010312196,0.009393711,-0.025072528,2.5018814,0.016226947,-0.010277136,-0.022287395,-0.008062086,-0.004926049,0.012628262,-0.023582576,-0.020774756,-0.022703229,-0.00031597025,-0.013205791,-0.011821136,-0.00064341316,0.0037462127,-0.024948422,-0.003351486,0.006731392,0.0048249997,-0.021842593,0.027160516,-0.008218207,-0.005517438,-0.018096505,-0.017908793,-0.004421575,-0.0057150885,0.021359047,0.21291614,-0.002897195,-0.0028639105,-0.015876517,-0.9597319,0.019080967,0.017045401,0.002370948,-0.012753711
N3904,0.015752153,-0.0349354,8.4930245e-05,-0.00023041875,-0.00369867,-0.014353144,-0.0013619394,0.007599359,0.028632661,0.013425614,-0.030247489,0.01855228,0.01661252,0.0047432748,-0.0072963447,0.0063564866,0.0019364393,-0.004108408,-0.017276743,-0.018172953,3.0037339,-0.01201797,-0.015568683,0.0036418128,-0.0008534086,0.008618647,-0.02369953,2.4643414,0.016413685,-0.010937332,-0.019745674,-0.0073924093,-0.006605464,0.012256401,-0.023139441,-0.019864418,-0.022636136,-0.0019039033,-0.013362917,-0.011863398,-0.00041774643,0.002734204,-0.023679703,-0.0026738828,0.005358277,0.003967256,-0.020215891,0.027046185,-0.007870784,-0.0064861774,-0.01780997,-0.016268997,-0.0046628015,-0.0053546065,0.02069719,0.05662397,-0.003803355,-0.0034504577,-0.015275872,-0.9088575,0.018231416,0.015607836,0.002833833,-0.010547198
N2896,0.00450497,-0.025511801,0.004855366,-0.0039712745,-0.0012792777,-0.013226462,0.0062521156,0.0035476943,0.027833179,0.01081328,-0.012448758,-0.0014094678,0.011808931,0.010659252,0.0022265671,0.005940191,0.0011462921,-0.0013429818,-0.0029276405,-0.028099898,2.4760401,0.0037530486,-0.009500443,0.013994382,0.0020543835,-0.0004979508,-0.014810797,1.6552725,-0.0005605753,-0.0049423766,0.012416723,-5.0135063e-06,-0.0105578145,0.015250124,-0.016772548,-0.014312759,-0.017223258,-0.013173171,-0.00016821738,-0.0119678695,0.007701758,0.0042006015,-0.01525085,-0.011945234,0.012793979,0.0029706021,-0.015382516,0.02001041,0.00202314,-0.015345828,-0.01629205,-0.0072994623,-0.0015134151,-0.004168461,0.010356381,-0.11435449,-0.026268741,0.0018506838,-0.0027030606,-0.62559634,0.01074979,-0.0015504983,0.010930791,-0.003945801
N4635,0.007851972,-0.025555197,0.0005447321,-0.00315778,0.0015992679,-0.0073036365,0.009468836,-0.004238915,0.025151903,0.0064911325,-0.003217958,0.0088015795,0.0067867264,0.0057573267,0.004743171,0.0071514007,0.009628233,0.0027671282,-0.0044761635,-0.037893347,2.4930835,0.013480361,-0.009544668,0.0136958985,-0.0016871255,0.0010025993,-0.018614046,1.7027258,-0.0025949418,0.005342072,0.0075743287,0.007678236,-0.019286249,0.019777175,-0.0063722064,-0.013925981,-0.018898547,-0.012682222,0.008083607,-0.01429478,0.0010094586,0.010085545,-0.011375832,-0.019374138,0.023786828,0.00042224233,-0.023122204,0.020177698,-0.0015632499,-0.009054042,-0.017388398,-0.0042365957,-0.003904811,-0.0074538933,0.01456367,-0.13891636,-0.025967283,0.010462912,-0.02179805,0.17115645,0.008423146,-0.005892938,0.014309967,-0.0023382541
N3242,-0.0046597747,-0.00885778,0.009603651,0.0013613397,0.006516146,0.008175107,0.0114720855,-0.0069802725,0.020227646,0.0025345404,0.0032040828,-0.0057438,-0.0066117095,-0.0047563836,0.005139076,0.0027119608,0.013366161,0.00042324347,-0.005209065,-0.01942972,0.5883896,0.0070012165,-0.007816691,0.010641709,0.0083113015,-0.007125645,-0.0010724482,1.2733147,-0.003503266,0.014417256,0.0155351665,0.005502972,-0.013789087,0.024342822,-0.010461802,0.0061483993,-0.019064091,-0.01386778,0.012080942,-0.010661295,0.00652929,0.012288965,-0.00030922188,-0.015807742,0.013226441,-0.007560312,-0.009458996,0.011868374,-0.00079271564,-0.007760505,-0.023400577,0.011817673,-0.006252551,-0.004158708,0.001833005,-0.75044787,-0.03371083,0.012798588,-0.00711352,0.573147,-5.3485568e-05,-0.012679167,0.021549303,0.02012181
N415,0.0074172984,-0.021929204,0.0021739346,-0.0023793334,-0.005872342,-0.012522661,0.009121077,-0.0074939523,0.026976846,-0.00042466432,-0.005217307,-0.008279696,0.0091650775,0.01828183,0.009094724,0.009151786,-0.006983679,-0.0027966602,-0.0049918233,-0.02815611,2.1750638,0.010741069,-0.0015601487,0.014391974,-0.006732417,0.0006192408,-0.019355671,1.6008892,-0.005293856,-0.00421227,0.017532019,-0.009430814,-0.0004557667,0.00987642,-0.014126956,-0.0061769295,-0.009766715,-0.01102267,0.0017136955,0.0022352105,0.0072125164,0.013462241,-0.021715278,-0.019957704,0.016134903,0.0011440989,-0.011187174,0.008294148,0.0061824606,-0.015988361,-0.002627659,-0.007961328,-0.0025766082,-0.0073704487,0.006137067,-0.10518189,-0.043734398,-0.0013868492,0.004079347,-1.4014173,0.010781529,0.00467402,0.0150313815,-0.0015944074
N3666,0.008244371,-0.021384686,0.002813701,-0.0035822478,-0.005120383,-0.0132502,0.009056641,-0.0075855544,0.026246997,0.00015598972,-0.0069119814,-0.008024037,0.010427118,0.018663714,0.008333481,0.010580584,-0.0065663415,-0.002567344,-0.0049830326,-0.027090322,2.2419972,0.010454446,-0.0017609795,0.01458221,-0.0068757767,0.0016228565,-0.01951487,1.5778847,-0.004688809,-0.005308626,0.017367873,-0.009226901,-0.001492684,0.008447734,-0.013133424,-0.0070829014,-0.010162549,-0.010681468,-0.0009911897,0.0016578581,0.0073132957,0.0127836205,-0.022096725,-0.018494854,0.017193615,0.0017062254,-0.010127965,0.009756002,0.00625539,-0.01519171,-0.0018231825,-0.008784352,-0.0014252118,-0.007477811,0.007757246,0.0006543392,-0.040854633,-0.0010030521,0.0035859728,-1.4131293,0.01192119,0.0046757166,0.014461672,-0.0025981362
N3166,-0.006227431,-0.0067922366,-0.00083865586,-0.0015350078,0.0017004975,0.007990254,-0.0020227453,-0.015583294,0.018068278,0.0027162193,0.0031654201,0.005591512,-0.0013298368,0.0074788188,0.004201928,-0.0016285379,0.0089078,0.00034530016,0.0032850557,-0.0044390876,-0.84004605,0.011383777,-0.007159161,0.0016098174,-0.010604437,0.002442325,0.007957256,0.47943982,-0.022138195,0.00014321784,0.0039273207,0.015237346,-0.012771802,-0.011028233,-0.0018038362,-0.005802928,-0.00056875113,-0.0016546341,0.0032237296,0.018988471,0.01360377,0.0042550345,0.00498665,-0.014756578,0.020226361,0.01410789,-0.0025028482,-5.5459754e-05,0.013676177,0.005616343,-0.0005740215,-0.007531262,0.011924853,-0.0020766805,-0.029133447,0.9600756,-0.01878833,0.00828441,0.0045306976,2.5452967,-0.0135865975,-0.006763927,0.021056114,0.002997708
N3205,0.0026004019,-0.0072955694,0.0036068703,0.0022088962,0.007623258,0.010714123,0.011674491,-0.009347523,0.021318808,0.0039271647,0.005267506,0.007967776,-0.012291844,-0.0031864261,0.009300884,0.0055367635,0.022665901,0.006471105,-0.0058070463,-0.026984183,0.50026214,0.007514942,-0.009615938,0.00451353,-0.001378587,-0.0033256286,-0.0016432627,1.5450742,-0.0024643806,0.019274618,0.008196975,0.012092719,-0.018424314,0.025390726,-0.0067696804,0.0023487778,-0.0202193,-0.011199349,0.011720213,-0.005223112,0.002067802,0.018674375,-0.0044284803,-0.0230423,0.025556415,-0.0004101907,-0.0076894066,0.014461697,0.0030762749,0.0010410878,-0.018031802,0.010953481,-0.008772396,-0.009759334,-0.0065084253,-0.7169682,-0.033154674,0.018151484,-0.019950282,1.281677,-0.0013039365,-0.013289601,0.02990505,0.021946425
